1.753947259313496931e-01,2.306792194991996725e-01,6.337786636826392428e-02,2.936910927751877620e-02,1.187841415193678363e-01,2.222839277362124999e-01,5.181127889252096219e-02,1.705419315824172333e-01,-1.221937278182407827e-01,5.539516180600128487e-02
0.000000000000000000e+00,0.000000000000000000e+00,0.000000000000000000e+00,0.000000000000000000e+00,0.000000000000000000e+00,0.000000000000000000e+00,0.000000000000000000e+00,0.000000000000000000e+00,0.000000000000000000e+00,0.000000000000000000e+00
0.000000000000000000e+00,0.000000000000000000e+00,0.000000000000000000e+00,0.000000000000000000e+00,0.000000000000000000e+00,0.000000000000000000e+00,0.000000000000000000e+00,0.000000000000000000e+00,0.000000000000000000e+00,0.000000000000000000e+00
0.000000000000000000e+00,0.000000000000000000e+00,0.000000000000000000e+00,0.000000000000000000e+00,0.000000000000000000e+00,0.000000000000000000e+00,0.000000000000000000e+00,0.000000000000000000e+00,0.000000000000000000e+00,0.000000000000000000e+00
0.000000000000000000e+00,0.000000000000000000e+00,0.000000000000000000e+00,0.000000000000000000e+00,0.000000000000000000e+00,0.000000000000000000e+00,0.000000000000000000e+00,0.000000000000000000e+00,0.000000000000000000e+00,0.000000000000000000e+00
0.000000000000000000e+00,0.000000000000000000e+00,0.000000000000000000e+00,0.000000000000000000e+00,0.000000000000000000e+00,0.000000000000000000e+00,0.000000000000000000e+00,0.000000000000000000e+00,0.000000000000000000e+00,0.000000000000000000e+00
0.000000000000000000e+00,0.000000000000000000e+00,0.000000000000000000e+00,0.000000000000000000e+00,0.000000000000000000e+00,0.000000000000000000e+00,0.000000000000000000e+00,0.000000000000000000e+00,0.000000000000000000e+00,0.000000000000000000e+00
0.000000000000000000e+00,0.000000000000000000e+00,0.000000000000000000e+00,0.000000000000000000e+00,0.000000000000000000e+00,0.000000000000000000e+00,0.000000000000000000e+00,0.000000000000000000e+00,0.000000000000000000e+00,0.000000000000000000e+00
0.000000000000000000e+00,0.000000000000000000e+00,0.000000000000000000e+00,0.000000000000000000e+00,0.000000000000000000e+00,0.000000000000000000e+00,0.000000000000000000e+00,0.000000000000000000e+00,0.000000000000000000e+00,0.000000000000000000e+00
0.000000000000000000e+00,0.000000000000000000e+00,0.000000000000000000e+00,0.000000000000000000e+00,0.000000000000000000e+00,0.000000000000000000e+00,0.000000000000000000e+00,0.000000000000000000e+00,0.000000000000000000e+00,0.000000000000000000e+00
0.000000000000000000e+00,0.000000000000000000e+00,0.000000000000000000e+00,0.000000000000000000e+00,0.000000000000000000e+00,0.000000000000000000e+00,0.000000000000000000e+00,0.000000000000000000e+00,0.000000000000000000e+00,0.000000000000000000e+00
0.000000000000000000e+00,0.000000000000000000e+00,0.000000000000000000e+00,0.000000000000000000e+00,0.000000000000000000e+00,0.000000000000000000e+00,0.000000000000000000e+00,0.000000000000000000e+00,0.000000000000000000e+00,0.000000000000000000e+00
0.000000000000000000e+00,0.000000000000000000e+00,0.000000000000000000e+00,0.000000000000000000e+00,0.000000000000000000e+00,0.000000000000000000e+00,0.000000000000000000e+00,0.000000000000000000e+00,0.000000000000000000e+00,0.000000000000000000e+00
0.000000000000000000e+00,0.000000000000000000e+00,0.000000000000000000e+00,0.000000000000000000e+00,-0.000000000000000000e+00,0.000000000000000000e+00,-0.000000000000000000e+00,0.000000000000000000e+00,-0.000000000000000000e+00,-0.000000000000000000e+00
0.000000000000000000e+00,0.000000000000000000e+00,0.000000000000000000e+00,0.000000000000000000e+00,-0.000000000000000000e+00,0.000000000000000000e+00,-8.386993800762188034e-02,0.000000000000000000e+00,-0.000000000000000000e+00,-0.000000000000000000e+00
0.000000000000000000e+00,0.000000000000000000e+00,0.000000000000000000e+00,0.000000000000000000e+00,-0.000000000000000000e+00,0.000000000000000000e+00,-3.330669073875469621e-16,0.000000000000000000e+00,-0.000000000000000000e+00,-0.000000000000000000e+00
0.000000000000000000e+00,0.000000000000000000e+00,0.000000000000000000e+00,0.000000000000000000e+00,-0.000000000000000000e+00,0.000000000000000000e+00,-0.000000000000000000e+00,0.000000000000000000e+00,-0.000000000000000000e+00,-0.000000000000000000e+00
0.000000000000000000e+00,0.000000000000000000e+00,0.000000000000000000e+00,0.000000000000000000e+00,0.000000000000000000e+00,0.000000000000000000e+00,0.000000000000000000e+00,0.000000000000000000e+00,0.000000000000000000e+00,0.000000000000000000e+00
0.000000000000000000e+00,0.000000000000000000e+00,0.000000000000000000e+00,0.000000000000000000e+00,0.000000000000000000e+00,0.000000000000000000e+00,0.000000000000000000e+00,0.000000000000000000e+00,0.000000000000000000e+00,0.000000000000000000e+00
0.000000000000000000e+00,0.000000000000000000e+00,0.000000000000000000e+00,0.000000000000000000e+00,0.000000000000000000e+00,0.000000000000000000e+00,0.000000000000000000e+00,0.000000000000000000e+00,0.000000000000000000e+00,0.000000000000000000e+00
0.000000000000000000e+00,0.000000000000000000e+00,0.000000000000000000e+00,0.000000000000000000e+00,0.000000000000000000e+00,0.000000000000000000e+00,0.000000000000000000e+00,0.000000000000000000e+00,0.000000000000000000e+00,0.000000000000000000e+00
0.000000000000000000e+00,0.000000000000000000e+00,0.000000000000000000e+00,0.000000000000000000e+00,0.000000000000000000e+00,0.000000000000000000e+00,0.000000000000000000e+00,0.000000000000000000e+00,0.000000000000000000e+00,0.000000000000000000e+00
0.000000000000000000e+00,0.000000000000000000e+00,0.000000000000000000e+00,0.000000000000000000e+00,0.000000000000000000e+00,0.000000000000000000e+00,0.000000000000000000e+00,0.000000000000000000e+00,0.000000000000000000e+00,0.000000000000000000e+00
0.000000000000000000e+00,0.000000000000000000e+00,0.000000000000000000e+00,0.000000000000000000e+00,0.000000000000000000e+00,0.000000000000000000e+00,0.000000000000000000e+00,0.000000000000000000e+00,0.000000000000000000e+00,0.000000000000000000e+00
0.000000000000000000e+00,0.000000000000000000e+00,0.000000000000000000e+00,0.000000000000000000e+00,0.000000000000000000e+00,0.000000000000000000e+00,0.000000000000000000e+00,0.000000000000000000e+00,0.000000000000000000e+00,0.000000000000000000e+00
0.000000000000000000e+00,0.000000000000000000e+00,0.000000000000000000e+00,0.000000000000000000e+00,0.000000000000000000e+00,0.000000000000000000e+00,0.000000000000000000e+00,0.000000000000000000e+00,0.000000000000000000e+00,0.000000000000000000e+00
0.000000000000000000e+00,0.000000000000000000e+00,0.000000000000000000e+00,0.000000000000000000e+00,0.000000000000000000e+00,0.000000000000000000e+00,0.000000000000000000e+00,0.000000000000000000e+00,0.000000000000000000e+00,0.000000000000000000e+00
0.000000000000000000e+00,0.000000000000000000e+00,0.000000000000000000e+00,0.000000000000000000e+00,0.000000000000000000e+00,0.000000000000000000e+00,0.000000000000000000e+00,0.000000000000000000e+00,0.000000000000000000e+00,0.000000000000000000e+00
0.000000000000000000e+00,0.000000000000000000e+00,0.000000000000000000e+00,0.000000000000000000e+00,0.000000000000000000e+00,0.000000000000000000e+00,0.000000000000000000e+00,0.000000000000000000e+00,0.000000000000000000e+00,0.000000000000000000e+00
0.000000000000000000e+00,0.000000000000000000e+00,0.000000000000000000e+00,0.000000000000000000e+00,0.000000000000000000e+00,0.000000000000000000e+00,0.000000000000000000e+00,0.000000000000000000e+00,0.000000000000000000e+00,0.000000000000000000e+00
0.000000000000000000e+00,0.000000000000000000e+00,0.000000000000000000e+00,0.000000000000000000e+00,0.000000000000000000e+00,0.000000000000000000e+00,0.000000000000000000e+00,0.000000000000000000e+00,0.000000000000000000e+00,0.000000000000000000e+00
0.000000000000000000e+00,0.000000000000000000e+00,0.000000000000000000e+00,0.000000000000000000e+00,0.000000000000000000e+00,0.000000000000000000e+00,0.000000000000000000e+00,0.000000000000000000e+00,0.000000000000000000e+00,0.000000000000000000e+00
0.000000000000000000e+00,0.000000000000000000e+00,0.000000000000000000e+00,0.000000000000000000e+00,0.000000000000000000e+00,0.000000000000000000e+00,0.000000000000000000e+00,0.000000000000000000e+00,0.000000000000000000e+00,0.000000000000000000e+00
-0.000000000000000000e+00,-0.000000000000000000e+00,0.000000000000000000e+00,0.000000000000000000e+00,0.000000000000000000e+00,-0.000000000000000000e+00,0.000000000000000000e+00,0.000000000000000000e+00,-0.000000000000000000e+00,-0.000000000000000000e+00
0.000000000000000000e+00,-0.000000000000000000e+00,0.000000000000000000e+00,0.000000000000000000e+00,-0.000000000000000000e+00,-0.000000000000000000e+00,0.000000000000000000e+00,0.000000000000000000e+00,0.000000000000000000e+00,-0.000000000000000000e+00
0.000000000000000000e+00,0.000000000000000000e+00,-0.000000000000000000e+00,0.000000000000000000e+00,-0.000000000000000000e+00,-0.000000000000000000e+00,0.000000000000000000e+00,-0.000000000000000000e+00,0.000000000000000000e+00,-0.000000000000000000e+00
0.000000000000000000e+00,0.000000000000000000e+00,-2.317943779156417250e-02,0.000000000000000000e+00,-1.041233290569409109e-01,-2.304153382963206043e-02,0.000000000000000000e+00,-0.000000000000000000e+00,1.199406692629160776e-01,-0.000000000000000000e+00
0.000000000000000000e+00,-0.000000000000000000e+00,-0.000000000000000000e+00,0.000000000000000000e+00,-0.000000000000000000e+00,-0.000000000000000000e+00,0.000000000000000000e+00,0.000000000000000000e+00,0.000000000000000000e+00,-0.000000000000000000e+00
0.000000000000000000e+00,-0.000000000000000000e+00,-0.000000000000000000e+00,1.298296708642723840e-02,-0.000000000000000000e+00,0.000000000000000000e+00,0.000000000000000000e+00,0.000000000000000000e+00,-0.000000000000000000e+00,-3.184942240208657460e-02
1.461322834257053338e-03,-0.000000000000000000e+00,-0.000000000000000000e+00,2.577298457539442186e-02,-1.890907868234023570e-03,-0.000000000000000000e+00,0.000000000000000000e+00,1.047948837023721103e-03,0.000000000000000000e+00,-9.927523334007547912e-03
0.000000000000000000e+00,-9.321738027045244068e-03,-3.427922597328714183e-02,0.000000000000000000e+00,-0.000000000000000000e+00,-0.000000000000000000e+00,6.864908427069497943e-02,-0.000000000000000000e+00,4.036638818516326277e-03,-0.000000000000000000e+00
0.000000000000000000e+00,-1.726919503741236595e-03,-0.000000000000000000e+00,2.670912870302392592e-02,-5.483087235943681637e-02,0.000000000000000000e+00,1.748130004500833001e-01,-2.404020817917262506e-02,0.000000000000000000e+00,-2.231213393374368095e-02
5.697257200060695803e-02,-5.592830267025666879e-02,0.000000000000000000e+00,0.000000000000000000e+00,-4.954348990458440349e-02,-0.000000000000000000e+00,0.000000000000000000e+00,0.000000000000000000e+00,4.383549081091037136e-04,-1.885410715806373066e-03
-0.000000000000000000e+00,-0.000000000000000000e+00,-0.000000000000000000e+00,7.147113178645699005e-03,0.000000000000000000e+00,0.000000000000000000e+00,2.080379234736970118e-01,-6.671362680087309510e-03,4.331903425832277221e-02,-0.000000000000000000e+00
6.034146113011583379e-03,-0.000000000000000000e+00,-0.000000000000000000e+00,0.000000000000000000e+00,-3.969876816082992116e-02,0.000000000000000000e+00,4.190858430126299244e-02,-2.544477315311891030e-03,9.290906665760309546e-04,-0.000000000000000000e+00
3.569645673654688045e-02,-2.315072120751338405e-02,7.696286551956732502e-02,1.734728774106741866e-03,-1.170096398935039361e-01,0.000000000000000000e+00,-7.475548688922864504e-02,-4.618523525454847067e-02,3.918673814015714851e-02,-0.000000000000000000e+00
2.863983987674366405e-02,-0.000000000000000000e+00,-3.514809404065933479e-02,0.000000000000000000e+00,-1.749966114761319219e-02,0.000000000000000000e+00,3.243205135172883002e-01,-0.000000000000000000e+00,0.000000000000000000e+00,-0.000000000000000000e+00
0.000000000000000000e+00,-6.030222171881351179e-03,-1.638676120367336952e-02,0.000000000000000000e+00,-3.684050512597211030e-02,0.000000000000000000e+00,8.208797111028877380e-03,0.000000000000000000e+00,-0.000000000000000000e+00,-0.000000000000000000e+00
0.000000000000000000e+00,-0.000000000000000000e+00,-2.207189371676288731e-02,0.000000000000000000e+00,-4.364754300395282810e-02,-0.000000000000000000e+00,1.994626457909692285e-01,0.000000000000000000e+00,-0.000000000000000000e+00,-0.000000000000000000e+00
0.000000000000000000e+00,-0.000000000000000000e+00,-4.389139897045660210e-03,-0.000000000000000000e+00,-1.502516554889879452e-02,-0.000000000000000000e+00,3.585074051445327759e-03,1.504199009090087524e-03,-0.000000000000000000e+00,-0.000000000000000000e+00
0.000000000000000000e+00,-0.000000000000000000e+00,-0.000000000000000000e+00,0.000000000000000000e+00,-0.000000000000000000e+00,2.000463254818410364e-02,0.000000000000000000e+00,0.000000000000000000e+00,-0.000000000000000000e+00,-0.000000000000000000e+00
0.000000000000000000e+00,-0.000000000000000000e+00,0.000000000000000000e+00,0.000000000000000000e+00,-1.348216469567293796e-01,0.000000000000000000e+00,0.000000000000000000e+00,0.000000000000000000e+00,-0.000000000000000000e+00,-0.000000000000000000e+00
0.000000000000000000e+00,-0.000000000000000000e+00,-0.000000000000000000e+00,0.000000000000000000e+00,-0.000000000000000000e+00,-0.000000000000000000e+00,0.000000000000000000e+00,-0.000000000000000000e+00,0.000000000000000000e+00,-0.000000000000000000e+00
0.000000000000000000e+00,0.000000000000000000e+00,0.000000000000000000e+00,0.000000000000000000e+00,0.000000000000000000e+00,0.000000000000000000e+00,0.000000000000000000e+00,0.000000000000000000e+00,0.000000000000000000e+00,0.000000000000000000e+00
0.000000000000000000e+00,0.000000000000000000e+00,0.000000000000000000e+00,0.000000000000000000e+00,0.000000000000000000e+00,0.000000000000000000e+00,0.000000000000000000e+00,0.000000000000000000e+00,0.000000000000000000e+00,0.000000000000000000e+00
0.000000000000000000e+00,0.000000000000000000e+00,0.000000000000000000e+00,0.000000000000000000e+00,0.000000000000000000e+00,0.000000000000000000e+00,0.000000000000000000e+00,0.000000000000000000e+00,0.000000000000000000e+00,0.000000000000000000e+00
0.000000000000000000e+00,0.000000000000000000e+00,0.000000000000000000e+00,0.000000000000000000e+00,0.000000000000000000e+00,0.000000000000000000e+00,0.000000000000000000e+00,0.000000000000000000e+00,0.000000000000000000e+00,0.000000000000000000e+00
0.000000000000000000e+00,0.000000000000000000e+00,0.000000000000000000e+00,0.000000000000000000e+00,0.000000000000000000e+00,0.000000000000000000e+00,0.000000000000000000e+00,0.000000000000000000e+00,0.000000000000000000e+00,0.000000000000000000e+00
0.000000000000000000e+00,0.000000000000000000e+00,0.000000000000000000e+00,0.000000000000000000e+00,0.000000000000000000e+00,0.000000000000000000e+00,0.000000000000000000e+00,0.000000000000000000e+00,0.000000000000000000e+00,0.000000000000000000e+00
0.000000000000000000e+00,0.000000000000000000e+00,0.000000000000000000e+00,0.000000000000000000e+00,-0.000000000000000000e+00,0.000000000000000000e+00,-0.000000000000000000e+00,0.000000000000000000e+00,-0.000000000000000000e+00,-0.000000000000000000e+00
-0.000000000000000000e+00,0.000000000000000000e+00,0.000000000000000000e+00,-0.000000000000000000e+00,0.000000000000000000e+00,-0.000000000000000000e+00,0.000000000000000000e+00,-0.000000000000000000e+00,0.000000000000000000e+00,0.000000000000000000e+00
0.000000000000000000e+00,-0.000000000000000000e+00,-0.000000000000000000e+00,0.000000000000000000e+00,-0.000000000000000000e+00,-0.000000000000000000e+00,0.000000000000000000e+00,0.000000000000000000e+00,0.000000000000000000e+00,0.000000000000000000e+00
-0.000000000000000000e+00,0.000000000000000000e+00,0.000000000000000000e+00,-0.000000000000000000e+00,-0.000000000000000000e+00,0.000000000000000000e+00,0.000000000000000000e+00,-0.000000000000000000e+00,0.000000000000000000e+00,-0.000000000000000000e+00
0.000000000000000000e+00,0.000000000000000000e+00,-0.000000000000000000e+00,-0.000000000000000000e+00,-1.930057260356235482e-03,0.000000000000000000e+00,0.000000000000000000e+00,0.000000000000000000e+00,-0.000000000000000000e+00,-0.000000000000000000e+00
0.000000000000000000e+00,0.000000000000000000e+00,4.827997610875782719e-01,-0.000000000000000000e+00,-1.186421356981901543e-01,-0.000000000000000000e+00,4.143443284988277547e-02,0.000000000000000000e+00,1.996965368999618906e-02,-0.000000000000000000e+00
-1.034717855091945617e-02,0.000000000000000000e+00,8.113068336244492196e-01,-0.000000000000000000e+00,-1.271306044910225919e-01,0.000000000000000000e+00,2.967044776511679749e-01,8.736680159113581826e-03,7.411051316011277312e-02,-0.000000000000000000e+00
-3.757606096839675169e-01,-1.650087283818110241e-03,5.644824029504703633e-01,9.386598173129201417e-04,-1.247741101930536917e-01,0.000000000000000000e+00,4.639252363832576109e-01,2.341923121005155123e-02,5.763911328144444290e-02,3.513654489454265395e-02
-1.299779462800746688e-01,-1.820100351568616492e-01,1.357912259356109930e-01,0.000000000000000000e+00,-2.876939634326711182e-01,2.599705369199624763e-04,8.259772521007995305e-01,-1.787113858763477170e-01,1.564376067684288829e-01,-1.637366003052587171e-02
0.000000000000000000e+00,-2.076969098213452547e-01,1.299800837692920152e-01,-1.017282324818405068e-02,-2.601980179722639952e-01,-1.172415821546113519e-02,4.255933654452205839e-01,-1.799161194818286735e-01,2.763731697374962604e-01,-1.740420300335941001e-02
-1.968258360946733773e-02,-2.863785652840301621e-01,1.650467216544898030e-01,-6.669631148355581463e-02,-1.625443803588412228e-01,-1.518674858747883771e-01,5.245377579053006611e-01,-1.886928242484181284e-01,2.731097334528168608e-01,-1.365578400332048171e-02
6.569830096371784278e-02,-2.491046273782895337e-01,-0.000000000000000000e+00,0.000000000000000000e+00,-1.119162620450263046e-01,-1.860717318548956167e-01,5.019912932633726621e-01,-1.485937688283909264e-01,2.626066259860993513e-01,-6.024437563292793507e-02
1.220641984613440312e-01,-2.119180476739461749e-01,-7.750582200778513564e-02,-2.826012081841988016e-02,-9.402540362830558163e-02,-2.291104227505422197e-01,5.237986920586025219e-01,-1.847661586721433824e-01,2.780719955718586323e-01,-3.859470312361271832e-02
5.010276313927594649e-02,-1.762076753464121848e-01,-7.299220917144412513e-02,-7.239909552504323427e-04,-1.348466793001095176e-01,-2.167897626660647004e-01,6.298282840496527424e-01,-1.589935195661083267e-01,2.427558131558082422e-01,-8.511259844877437641e-02
3.177570351471600829e-02,-1.151753771215492245e-01,-1.488025585209667434e-01,-2.125651607117105824e-03,-1.202690009566307061e-01,-1.797928411341508381e-01,6.671548180075165257e-01,-1.606692459952031304e-01,1.967710081140758849e-01,-9.729218789084786989e-02
2.795155889801279742e-02,-5.093942175073792183e-02,-2.006348830874160605e-01,3.145341707195046729e-03,-1.501380360858370344e-01,-1.364241534914905907e-01,5.769395368630927390e-01,-1.493152047749352340e-01,1.782734115846379419e-01,-7.501767407550359590e-02
3.667412898299674331e-03,-3.704694606972613879e-02,-1.919789591755431402e-01,4.552608740824828221e-02,-8.652126714910078620e-02,-1.032207745830006212e-01,6.056767694196815155e-01,-1.311436893086262989e-01,1.012346446613573009e-01,-1.006588377664535267e-01
-2.050526650848401647e-02,-3.425391176963626938e-02,-1.616440709740667725e-01,6.582129489835641944e-02,-3.351052120755585589e-02,-5.814253984653037360e-02,5.205119845354850838e-01,-1.579385953287905653e-01,9.203039839534288280e-02,-7.653301375616544666e-02
-9.192881665960128679e-02,-2.389534565617524621e-03,-1.171742423036068598e-01,3.634151355952529305e-02,-4.121046694468463722e-02,-3.799309835942986380e-02,3.274655693437932835e-01,-1.069981112416549252e-01,8.238834942306806630e-02,-3.222285939799125754e-03
2.835010659094406443e-03,-0.000000000000000000e+00,-3.092904766460962546e-02,0.000000000000000000e+00,-3.507894501716797564e-02,-1.857605886164990713e-02,2.031259480086520519e-01,0.000000000000000000e+00,0.000000000000000000e+00,-2.839144936288177240e-03
-0.000000000000000000e+00,0.000000000000000000e+00,-1.355641692219048192e-02,5.100923759312578354e-03,-9.680567472649329042e-02,0.000000000000000000e+00,1.202207769433270013e-01,8.847376157831453314e-03,-0.000000000000000000e+00,-1.672150948022031389e-02
-0.000000000000000000e+00,0.000000000000000000e+00,0.000000000000000000e+00,0.000000000000000000e+00,-2.962558088395026573e-02,-2.927176241837415455e-02,6.264441133425072139e-02,0.000000000000000000e+00,-0.000000000000000000e+00,-0.000000000000000000e+00
-0.000000000000000000e+00,0.000000000000000000e+00,1.401542930324642389e-01,0.000000000000000000e+00,-0.000000000000000000e+00,-0.000000000000000000e+00,-0.000000000000000000e+00,0.000000000000000000e+00,-9.231988392266964050e-02,0.000000000000000000e+00
0.000000000000000000e+00,0.000000000000000000e+00,0.000000000000000000e+00,0.000000000000000000e+00,-0.000000000000000000e+00,-0.000000000000000000e+00,-0.000000000000000000e+00,0.000000000000000000e+00,-0.000000000000000000e+00,-0.000000000000000000e+00
0.000000000000000000e+00,0.000000000000000000e+00,0.000000000000000000e+00,0.000000000000000000e+00,0.000000000000000000e+00,0.000000000000000000e+00,0.000000000000000000e+00,0.000000000000000000e+00,0.000000000000000000e+00,0.000000000000000000e+00
0.000000000000000000e+00,0.000000000000000000e+00,0.000000000000000000e+00,0.000000000000000000e+00,0.000000000000000000e+00,0.000000000000000000e+00,0.000000000000000000e+00,0.000000000000000000e+00,0.000000000000000000e+00,0.000000000000000000e+00
0.000000000000000000e+00,0.000000000000000000e+00,0.000000000000000000e+00,0.000000000000000000e+00,0.000000000000000000e+00,0.000000000000000000e+00,0.000000000000000000e+00,0.000000000000000000e+00,0.000000000000000000e+00,0.000000000000000000e+00
0.000000000000000000e+00,0.000000000000000000e+00,0.000000000000000000e+00,0.000000000000000000e+00,0.000000000000000000e+00,0.000000000000000000e+00,0.000000000000000000e+00,0.000000000000000000e+00,0.000000000000000000e+00,0.000000000000000000e+00
0.000000000000000000e+00,0.000000000000000000e+00,0.000000000000000000e+00,-0.000000000000000000e+00,-0.000000000000000000e+00,0.000000000000000000e+00,-0.000000000000000000e+00,0.000000000000000000e+00,-0.000000000000000000e+00,-0.000000000000000000e+00
-0.000000000000000000e+00,0.000000000000000000e+00,0.000000000000000000e+00,-0.000000000000000000e+00,-0.000000000000000000e+00,0.000000000000000000e+00,0.000000000000000000e+00,-0.000000000000000000e+00,0.000000000000000000e+00,-0.000000000000000000e+00
-0.000000000000000000e+00,0.000000000000000000e+00,-0.000000000000000000e+00,-0.000000000000000000e+00,-0.000000000000000000e+00,0.000000000000000000e+00,0.000000000000000000e+00,-0.000000000000000000e+00,0.000000000000000000e+00,0.000000000000000000e+00
-0.000000000000000000e+00,5.367264145390154839e-03,-0.000000000000000000e+00,0.000000000000000000e+00,-4.956363894937990122e-03,-0.000000000000000000e+00,-0.000000000000000000e+00,-0.000000000000000000e+00,0.000000000000000000e+00,0.000000000000000000e+00
-4.273461752057429452e-03,-1.512493809865421424e-03,5.841829341613115067e-01,-1.374476160316576989e-01,-0.000000000000000000e+00,0.000000000000000000e+00,0.000000000000000000e+00,5.726227122750460197e-02,0.000000000000000000e+00,0.000000000000000000e+00
-1.067270563069023723e-02,-3.117086055244077183e-02,5.987262984289331014e-01,-1.175335330836032033e-01,-4.220290206808901406e-03,-1.555281136969085265e-01,1.053934715961182822e-02,1.501903333977391147e-02,3.480846878947416179e-02,-4.324131201886889653e-02
-1.730495402327481835e-01,-1.872666178201584652e-01,3.730237935336139232e-01,-2.822944715724398992e-02,3.506905099733297407e-03,-2.060365212092417353e-02,-1.964684478379611146e-02,-8.633785489527882884e-02,1.115581501582559448e-01,-7.804186747821616199e-02
-1.071918805920729634e-01,-2.253336615225478776e-02,4.127567140162188286e-01,-6.770579187312608660e-02,-3.094583858064253040e-02,-4.818966702148003850e-02,-1.996330593914502904e-01,-1.189476833586791404e-01,1.362858327710526896e-01,-2.429174066872136217e-02
-4.557515810876363455e-02,-9.073925090733721277e-02,2.428793885006486353e-01,-7.199059602130632174e-02,-1.112332789946724881e-01,-1.425962081060907702e-02,2.407689748631671595e-02,-7.108268473363664464e-02,1.134258454057314458e-01,-4.434986990598140978e-03
0.000000000000000000e+00,-3.276535706646480778e-02,1.467068287661191517e-01,-1.155880018519865951e-02,-5.350419900925782596e-02,-8.666709475160212783e-02,-7.258939657061500017e-02,-4.528776699919130622e-02,1.568688044689285632e-01,-1.468893428974308961e-02
-2.476617018742676216e-02,-5.739771717945033741e-02,1.289061798205254072e-01,1.512563974898562674e-02,-8.218259766956624579e-02,-2.848484294913522508e-02,-5.616503494232959193e-02,-2.123228549811585417e-02,1.237817591699954950e-01,-3.042792641907468218e-02
1.782141480058715630e-02,-4.740918221194040383e-02,9.751772458186713788e-02,-1.910297685051119340e-02,-8.947290852477361722e-02,-3.042086726951926529e-02,-2.193329991137200549e-02,-8.435408997299279760e-03,9.142289936436555353e-02,-2.058442248965254573e-02
7.855698156757889156e-03,-5.817868853946552010e-02,5.333205075912687831e-02,1.700304761472467771e-02,-5.872868448818330256e-02,-5.429698328224100146e-02,1.564702286007349508e-02,-3.619305206802775343e-02,7.136110153705073345e-02,-1.431393590248263535e-02
-1.240972228617479240e-03,-3.830435378204169461e-02,2.509569265882579878e-02,6.367137471498456741e-03,-6.290366783561224251e-02,-5.844570785885169761e-02,8.834161023792366785e-02,-2.011069901454599906e-02,6.603349445614734026e-02,-4.022134979402408606e-02
-2.196929722784397680e-03,-5.729892050546651211e-02,2.155690260887141354e-03,1.540110294047033861e-02,-6.476515701291056526e-02,-7.553305770218904369e-02,1.591679969533667804e-01,-1.806480473700138728e-02,3.556435788764100714e-02,-3.205384790276827323e-02
-3.692593081464481258e-02,-3.014275881402227533e-02,-8.865173970964652927e-03,5.979430105797171879e-02,-8.740564947469064982e-02,-7.073384124506179593e-02,1.729683791290250461e-01,-4.679892185408231903e-02,5.568835768409022280e-02,-2.361387055648958566e-02
-6.998786106876186963e-02,-3.367385540633033997e-02,-4.798203628984433478e-02,6.853272463862702946e-02,-5.977800380795707941e-02,-2.535434100797646223e-02,1.886360935281290174e-01,-4.167399524727056354e-02,4.870570759726449567e-02,-3.401803291082636932e-02
-8.338654188355217045e-02,-6.769053518105185019e-02,-2.508825248631290500e-02,5.269895846190746774e-02,-3.476936721690832705e-02,-0.000000000000000000e+00,2.249769694775857753e-01,-8.659009626892903710e-02,6.207084543971899682e-02,-3.564861560526327161e-02
-4.345368035071237034e-02,-9.908833570793892931e-02,-3.299477436735249319e-02,9.575863932860802230e-02,-4.691502664762562530e-02,5.570753479656931351e-02,1.145969554187972334e-01,-8.482916464754888808e-02,7.211768279622297884e-02,-1.441086490977871309e-02
-3.700964435388610918e-02,-7.237022675725697518e-02,-5.378257182332014247e-02,1.471701483618056139e-01,-3.441109366226989541e-02,7.406078386239495215e-02,8.680347378615506371e-02,-1.085414900475327876e-01,8.419667132444980107e-02,-0.000000000000000000e+00
-3.490660019289265614e-02,-5.065900778459381942e-02,-8.890532600193022661e-02,2.489309242745099335e-02,-1.916147465917832082e-02,6.697226920699422825e-02,8.504900273940764477e-02,0.000000000000000000e+00,1.140513836315271284e-01,1.372098256823427002e-02
-9.570494723439385357e-03,-6.367487035572531873e-02,-5.684018049787558508e-02,5.807462625119121785e-02,-2.297862409166696873e-02,-7.808361011890774250e-02,3.597363468331127301e-02,1.254671716258989010e-02,1.123443021502706640e-01,0.000000000000000000e+00
0.000000000000000000e+00,-8.668738642897030888e-02,-0.000000000000000000e+00,0.000000000000000000e+00,-3.528087160322931903e-02,7.769786922916964433e-02,0.000000000000000000e+00,3.804839337496840335e-02,-0.000000000000000000e+00,5.313148365547375185e-02
0.000000000000000000e+00,-0.000000000000000000e+00,0.000000000000000000e+00,0.000000000000000000e+00,0.000000000000000000e+00,0.000000000000000000e+00,-1.429043794040597837e-01,0.000000000000000000e+00,-0.000000000000000000e+00,0.000000000000000000e+00
0.000000000000000000e+00,-0.000000000000000000e+00,-0.000000000000000000e+00,0.000000000000000000e+00,-0.000000000000000000e+00,-0.000000000000000000e+00,0.000000000000000000e+00,0.000000000000000000e+00,0.000000000000000000e+00,0.000000000000000000e+00
0.000000000000000000e+00,0.000000000000000000e+00,0.000000000000000000e+00,0.000000000000000000e+00,0.000000000000000000e+00,0.000000000000000000e+00,0.000000000000000000e+00,0.000000000000000000e+00,0.000000000000000000e+00,0.000000000000000000e+00
0.000000000000000000e+00,0.000000000000000000e+00,0.000000000000000000e+00,0.000000000000000000e+00,0.000000000000000000e+00,0.000000000000000000e+00,0.000000000000000000e+00,0.000000000000000000e+00,0.000000000000000000e+00,0.000000000000000000e+00
0.000000000000000000e+00,0.000000000000000000e+00,0.000000000000000000e+00,0.000000000000000000e+00,0.000000000000000000e+00,0.000000000000000000e+00,0.000000000000000000e+00,0.000000000000000000e+00,0.000000000000000000e+00,0.000000000000000000e+00
0.000000000000000000e+00,0.000000000000000000e+00,-0.000000000000000000e+00,0.000000000000000000e+00,0.000000000000000000e+00,-0.000000000000000000e+00,-0.000000000000000000e+00,0.000000000000000000e+00,-0.000000000000000000e+00,-0.000000000000000000e+00
-0.000000000000000000e+00,-0.000000000000000000e+00,-0.000000000000000000e+00,0.000000000000000000e+00,-0.000000000000000000e+00,0.000000000000000000e+00,-0.000000000000000000e+00,0.000000000000000000e+00,0.000000000000000000e+00,0.000000000000000000e+00
1.427626226939884141e-02,-0.000000000000000000e+00,-1.176600490910530428e-01,0.000000000000000000e+00,-0.000000000000000000e+00,-0.000000000000000000e+00,0.000000000000000000e+00,-0.000000000000000000e+00,0.000000000000000000e+00,1.000675963280452802e-02
0.000000000000000000e+00,-1.421537722197146678e-02,7.233116483036677868e-03,2.954980588513424558e-02,8.065411890503759729e-02,-0.000000000000000000e+00,0.000000000000000000e+00,-0.000000000000000000e+00,4.767394292245730539e-03,-0.000000000000000000e+00
-1.234982867484331615e-01,-2.121650745113262682e-02,3.200990840350981248e-01,1.011168534320649737e-01,4.375820243785340929e-02,-5.603059984820878137e-02,-4.536830063936659468e-02,0.000000000000000000e+00,1.502755792488798432e-02,-2.082973080020909251e-01
-1.759679528110796309e-01,-2.556689262335385890e-02,6.614421129951608691e-02,3.098890904973545246e-01,5.316097841861706225e-02,-7.071985253473496436e-02,-5.895174502164189645e-02,1.257521780030027535e-02,-0.000000000000000000e+00,-8.586831353339921535e-02
-8.569751713153665740e-02,-4.461987502648361026e-02,7.068748724991305576e-02,1.280664984856080546e-01,9.356938478560977712e-03,-7.720509393994619274e-02,-1.668846395716541350e-02,6.643517198485538594e-03,2.584814321269527856e-02,-3.107962195718680029e-02
-6.321317538370153921e-02,-4.117642493277905158e-02,1.041119403488438150e-01,8.498758316923497869e-02,-5.571088079571845722e-03,-1.470959113592313489e-02,-6.305889536536722628e-02,-1.040481319047892490e-02,3.294449827007279313e-02,-1.913877237501988848e-02
-4.340159352742763155e-02,-5.216239795382265204e-02,9.747605234712751476e-02,6.248272489823253339e-02,-4.548645818948241631e-02,-3.982654520284462617e-03,-4.555124567547209208e-02,-3.843276461227210228e-02,7.873930717171150062e-02,4.432255307562918347e-04
-1.260237992250568331e-02,-4.474233289420785631e-02,6.927651723683800333e-02,5.609446893674763929e-02,-2.396220670074074993e-02,-1.203173797366028849e-02,-9.240817794739944468e-02,-1.739268969950720847e-02,8.016316097101085225e-02,1.057157796418072525e-02
2.698394964793016451e-02,6.005733026449456419e-03,6.178053580827432695e-02,-1.103067852730457536e-03,-2.034461440528381043e-02,-4.883905326924351670e-02,-6.335500128057318381e-02,-1.784406585369116560e-02,8.336564256599895972e-02,-2.343027279445384498e-02
5.073372497643686280e-02,6.511622298774409623e-03,2.417612425733662446e-02,6.031896762181654728e-03,-3.124725826291442632e-02,-4.117592536936505454e-02,-6.412248794050594281e-02,-7.012585926847625557e-03,7.541425307040729165e-02,-1.933477929720042385e-02
1.563401392741621196e-02,1.050711491963892200e-02,1.537891869739270792e-02,-1.807334194147135285e-03,-3.577688802450904038e-02,-1.214122364328055169e-02,-3.074326684128297557e-02,-1.107686746076750814e-02,5.523364516477530239e-02,-4.872760456890658405e-03
3.662193856855147645e-02,1.307153076663545958e-02,-4.313016816624272790e-03,1.201551303900121742e-02,-3.143381515586708003e-02,-1.707956988805107643e-02,-2.595861419249581581e-02,-1.421826356040339738e-02,4.163621763756706479e-02,-1.411961010983838263e-02
9.234758140486656192e-03,4.865752120803344856e-03,1.302946531690359067e-02,6.093226841830376222e-04,-3.055888024110971213e-02,1.898187261731385661e-03,-1.047012855859480451e-02,-4.102841555011297638e-03,1.918453451547089822e-02,-1.110644809337985386e-02
-3.749983872107836170e-03,2.383429743322107788e-02,-9.620536087478046353e-03,1.004398815463047358e-02,-2.448183953202473853e-02,5.079493053674537066e-03,-2.403582941497436464e-03,-1.818255362759491761e-02,1.899011554919009109e-02,-4.409867679467425507e-03
7.811135500081570204e-04,1.013497839358588198e-03,-1.984836531073436335e-03,4.544398202448853008e-02,-3.077911436948229870e-02,1.792500412223681922e-02,-7.039026384444454880e-03,-3.031691200439771972e-02,1.909557779210887749e-03,-5.557651395048973826e-03
-1.035300396447208504e-02,2.324147587146584149e-02,-4.796890808040706056e-02,4.622161907989317392e-02,-7.697288909786298428e-03,2.700097153979848577e-02,2.249264167463906755e-02,-4.379279661457459449e-02,-9.054901767962983752e-03,1.705825061634028183e-03
-7.116411626882884756e-02,-1.829941280621250749e-02,-2.926786867968749276e-02,5.186905139039062890e-02,2.272599319395453635e-02,6.723038266305390864e-02,5.312911704081427731e-03,-5.760619081056213286e-02,2.884275042760751223e-02,-6.125015249633357101e-04
-1.590607850745444363e-02,-7.489064686705045049e-02,-4.298350564463813278e-02,4.768154015272806773e-02,-2.030726019838758126e-02,1.330823760651997367e-01,-1.691097981794425185e-03,-7.486867845824381196e-02,8.533122625156340513e-02,0.000000000000000000e+00
-4.952804742919319353e-02,-3.966119648712212314e-02,-6.875175588991064290e-02,9.845296793772617683e-02,-1.143276751290811868e-02,1.349886604994974815e-01,-7.765378540914869183e-03,-8.783709803961618767e-02,7.371892649872614778e-02,1.890579853842723479e-02
-2.568864562218957717e-02,-5.476203718986388802e-02,-5.621972488984505745e-02,-2.626012134586691582e-02,-2.150334480346374061e-02,4.166045629478109524e-01,-7.291841348160783484e-03,-7.228339413825415893e-02,5.235305603805757990e-03,1.987133109342962764e-02
-2.484928891820802413e-02,-5.235451580991198894e-02,-5.067629845099633212e-02,2.710783722037720181e-02,-7.906493677212926910e-03,2.079097407249204943e-01,-3.251996874740667454e-02,-0.000000000000000000e+00,1.075558496430944894e-01,2.526825324923605981e-02
-9.333866168204148217e-03,-0.000000000000000000e+00,-0.000000000000000000e+00,3.462657481730217757e-02,-0.000000000000000000e+00,1.397892355887156435e-02,9.315922898755324422e-03,0.000000000000000000e+00,-0.000000000000000000e+00,0.000000000000000000e+00
-0.000000000000000000e+00,-0.000000000000000000e+00,0.000000000000000000e+00,0.000000000000000000e+00,-0.000000000000000000e+00,-0.000000000000000000e+00,-0.000000000000000000e+00,0.000000000000000000e+00,6.554107937730185851e-02,-0.000000000000000000e+00
0.000000000000000000e+00,-0.000000000000000000e+00,-0.000000000000000000e+00,0.000000000000000000e+00,-0.000000000000000000e+00,-0.000000000000000000e+00,0.000000000000000000e+00,0.000000000000000000e+00,0.000000000000000000e+00,0.000000000000000000e+00
0.000000000000000000e+00,0.000000000000000000e+00,0.000000000000000000e+00,0.000000000000000000e+00,0.000000000000000000e+00,0.000000000000000000e+00,0.000000000000000000e+00,0.000000000000000000e+00,0.000000000000000000e+00,0.000000000000000000e+00
0.000000000000000000e+00,0.000000000000000000e+00,0.000000000000000000e+00,0.000000000000000000e+00,0.000000000000000000e+00,0.000000000000000000e+00,0.000000000000000000e+00,0.000000000000000000e+00,0.000000000000000000e+00,0.000000000000000000e+00
-0.000000000000000000e+00,0.000000000000000000e+00,-0.000000000000000000e+00,0.000000000000000000e+00,-0.000000000000000000e+00,-0.000000000000000000e+00,0.000000000000000000e+00,-0.000000000000000000e+00,0.000000000000000000e+00,0.000000000000000000e+00
-0.000000000000000000e+00,0.000000000000000000e+00,-0.000000000000000000e+00,0.000000000000000000e+00,-0.000000000000000000e+00,-0.000000000000000000e+00,-0.000000000000000000e+00,-0.000000000000000000e+00,-0.000000000000000000e+00,0.000000000000000000e+00
0.000000000000000000e+00,0.000000000000000000e+00,-1.469847517418733374e-02,3.831212272565054366e-01,-5.837514470552404577e-03,-5.447026958365439042e-02,1.084068386444820842e-01,-3.866283469839669473e-02,0.000000000000000000e+00,4.962527277599423914e-03
-8.003350793478805625e-02,-0.000000000000000000e+00,-0.000000000000000000e+00,3.771575926954010560e-01,0.000000000000000000e+00,-1.155651470871101594e-01,2.187001509456634463e-01,0.000000000000000000e+00,-1.366576046046294457e-01,-1.192007078807544446e-01
-8.247517849445475113e-02,-1.113325483671698257e-03,-3.608238002333691297e-02,7.809956738114222363e-02,1.928362561374733636e-02,-2.242488249617487217e-02,7.530569353109317632e-02,-5.857877593796294302e-04,-1.555971963588915485e-01,-4.205757484501724403e-02
-7.295549003643020392e-02,-2.571752956433738177e-02,5.702432551974397773e-02,7.256662845904138237e-02,3.521782794612358242e-02,-9.769758161263944821e-03,6.029061480411214424e-02,-1.236085464382708637e-02,-9.884875029745514297e-02,-2.129231852446253695e-02
-5.862764670401390127e-02,-3.072400241295790771e-02,4.257512847933483946e-02,5.491204471392226866e-02,-1.187799336719717880e-03,7.558352284078904450e-03,2.991130750249277118e-02,1.293390604640176807e-02,-6.578098579096751386e-02,8.325056805599329382e-04
-3.259104333989592400e-02,-4.992212461164526743e-02,3.936875445356260300e-02,2.893959307080008411e-02,1.833144549345365124e-02,2.670805018112780860e-03,2.027031656029850207e-02,-4.790687534052098621e-03,-3.060860340738776053e-02,9.303766549302625727e-03
-1.986585176898927885e-02,-6.810164909950509882e-02,1.773105543590598396e-02,6.139049801279371915e-02,-1.546652739783743388e-02,1.363356309464338473e-02,2.782697519122030033e-02,-1.497688490860422418e-02,-3.472124432013380668e-02,4.000408211326241664e-02
-3.406890098216672300e-03,-4.230265026261970096e-02,1.505124615285378942e-02,4.887899528644373132e-02,-2.468659057218672986e-02,-8.131763790408032613e-03,-2.849047095618230732e-02,-2.995864247329496285e-02,1.872714579633169563e-02,6.325269110599181233e-02
-9.629339899408706147e-04,-2.241837410041882736e-02,-5.399634975980407980e-03,2.567310790085272632e-02,-3.801947882651662836e-02,-3.484855301488220397e-02,-8.873026353447435819e-04,-2.978091834461919687e-03,5.314391631187057735e-02,3.064240878794644365e-02
1.920063523065855884e-02,-6.155927081919849650e-03,1.821591536321848226e-02,5.830890759015092996e-03,-3.175705340511864039e-02,-2.505809583979110716e-02,-2.843202723599246723e-02,-8.976795967293130230e-03,4.696211800773014006e-02,5.012830654457852732e-03
1.065809928157353779e-02,4.140496655385203159e-03,6.322174964133250516e-03,-5.261307157958320692e-03,-1.594196761254312866e-02,-2.456632044346057295e-02,-1.358587423165354136e-02,3.336465902784157157e-03,6.470527772247507137e-02,-3.052163749903805123e-02
1.203764877802701062e-02,6.450290156586417460e-03,1.376568348305742123e-02,-1.950172650860733381e-02,-1.685143870481484868e-02,-1.751331601476674438e-02,-6.739747048110049724e-03,7.444720146928383679e-03,5.016002886204865702e-02,-3.236652620608596737e-02
6.858432819495691168e-03,3.124539992823052899e-03,5.842502214295829631e-03,-1.250305292655450908e-02,5.609532233298685465e-03,-1.768411082511563495e-02,5.492955855716860755e-04,1.651041656373848296e-03,4.138233295783481924e-02,-3.940015374337695053e-02
3.342124728417626700e-03,-5.088782359128495199e-03,1.007915276432263217e-02,-1.594900695528085610e-02,3.372182188931121660e-03,3.462261407744188137e-03,-1.011158226335172675e-02,-2.734542367132818032e-07,2.971799898891415437e-02,-1.999798430531777790e-02
-1.438310817083936557e-02,-1.057942896859075631e-02,8.239045496611405173e-03,-4.782523028819747266e-03,1.288534421527822056e-02,7.448356874811610899e-03,-1.131343805138823079e-02,3.529611350322439667e-03,8.795399401675566692e-03,-4.067168240413752620e-03
-1.069317025162619351e-03,-2.053230643425043352e-03,-2.630873260978841121e-03,1.519614198884509243e-02,3.597013421327739657e-03,2.166146007980366758e-02,-8.108160692509551112e-03,-9.076840543867965502e-03,-2.848833443452061104e-02,4.190055798592410771e-03
-3.962439840242357181e-02,-3.348521471023863799e-02,-3.477507163131683416e-03,1.428738028583927122e-02,1.053074750710128460e-02,7.279060658754600566e-02,0.000000000000000000e+00,-2.444597296622560284e-02,-1.448969564641687871e-02,9.946638495854618484e-03
-3.103235291639550031e-02,-2.880651300065972115e-02,-1.658109506725717261e-02,9.126619722113427091e-03,2.708231130563613226e-02,8.842500047843468436e-02,-8.980163383812533179e-03,-5.381835311019040474e-02,-2.606622681073675601e-03,1.464748887743499463e-02
-6.772364245267215033e-02,-9.058199461260746377e-02,-3.227724148534130699e-02,-3.755843001166780243e-03,9.632679437157336266e-03,1.865112626601465040e-01,-9.495989777798068826e-03,-5.847160036887547735e-02,3.274077125750821798e-02,3.870872775459381632e-02
-3.601999773778351288e-02,-8.698140880697433075e-02,-5.187056682698053256e-02,-1.595037447546465009e-02,2.541919286458457078e-02,2.022069059631945442e-01,-4.752240459898966589e-03,-6.062597411580901430e-02,1.039226894488603364e-02,4.214282100856887175e-02
-7.983882890955275313e-02,-9.163106665238031356e-02,-1.911332194153453345e-02,-0.000000000000000000e+00,-4.297554177157179855e-02,1.314523244558650217e-01,2.006509866194510980e-02,-1.125698470857551883e-02,1.182295517816608910e-01,3.903417976172838394e-02
-2.702751745942284095e-02,-4.628375841538689278e-02,-2.580084489530039618e-03,0.000000000000000000e+00,-0.000000000000000000e+00,0.000000000000000000e+00,-0.000000000000000000e+00,1.738582602743235506e-02,5.064583834582424976e-02,1.595323914665763843e-02
-3.309068894730595595e-02,0.000000000000000000e+00,-0.000000000000000000e+00,0.000000000000000000e+00,-1.467124059254357737e-01,7.447315328211959184e-02,0.000000000000000000e+00,0.000000000000000000e+00,2.894191667890268910e-02,-0.000000000000000000e+00
-0.000000000000000000e+00,-0.000000000000000000e+00,-0.000000000000000000e+00,-0.000000000000000000e+00,-0.000000000000000000e+00,-0.000000000000000000e+00,0.000000000000000000e+00,-0.000000000000000000e+00,-0.000000000000000000e+00,0.000000000000000000e+00
0.000000000000000000e+00,0.000000000000000000e+00,0.000000000000000000e+00,0.000000000000000000e+00,0.000000000000000000e+00,0.000000000000000000e+00,0.000000000000000000e+00,0.000000000000000000e+00,0.000000000000000000e+00,0.000000000000000000e+00
0.000000000000000000e+00,0.000000000000000000e+00,0.000000000000000000e+00,0.000000000000000000e+00,0.000000000000000000e+00,0.000000000000000000e+00,0.000000000000000000e+00,0.000000000000000000e+00,0.000000000000000000e+00,0.000000000000000000e+00
0.000000000000000000e+00,-0.000000000000000000e+00,-0.000000000000000000e+00,0.000000000000000000e+00,-0.000000000000000000e+00,-0.000000000000000000e+00,0.000000000000000000e+00,1.307972488087991714e-01,-0.000000000000000000e+00,-0.000000000000000000e+00
-0.000000000000000000e+00,-0.000000000000000000e+00,-0.000000000000000000e+00,2.142831316631316207e-01,-0.000000000000000000e+00,-3.962396919134773821e-02,-2.099074599099995039e-02,-0.000000000000000000e+00,-1.125279976458688075e-03,-0.000000000000000000e+00
4.572730245497154400e-03,-3.520962974685077750e-03,-0.000000000000000000e+00,2.592579525572884513e-01,0.000000000000000000e+00,-2.026072393411887940e-01,1.598988809343844953e-03,6.055465026429068809e-02,-1.280598536316479488e-03,-1.135869100306656915e-01
-2.043683786474449066e-02,-1.214801326316275812e-03,-3.590436965135450527e-04,4.161847745669915860e-02,-6.298429167213136226e-02,0.000000000000000000e+00,-0.000000000000000000e+00,1.958105181878473100e-01,1.138419819892291449e-02,-1.671358475729928239e-01
-3.780194980942605532e-02,-5.046107289399449913e-03,6.194452839746612122e-02,2.701236246550935138e-03,2.334442212080798176e-02,8.614868255807775488e-03,-3.482933052916008937e-02,9.316037055509930609e-02,-2.194812544432439561e-02,-8.206656956600034969e-02
-3.297648312287538436e-02,6.566564686742009174e-03,7.596629125892226907e-03,2.140138766359878531e-04,3.441334123358958524e-02,4.822834020326576161e-03,1.817166506928739184e-02,6.536537081053692133e-02,-4.520432831409408603e-02,-6.592142481441777557e-02
-1.868741469999475602e-02,-1.696360459734583270e-02,2.555656852381711641e-02,2.032535423127330640e-02,2.263967088241954778e-02,-5.034075922197696513e-03,8.234086668607557176e-04,3.347057354677973606e-02,-3.342590513887459119e-02,-2.572760575809240197e-02
-1.467768881307773138e-02,-4.429175476647517762e-02,-6.055389829904459821e-03,2.963363360963444312e-02,3.237889893495076582e-02,2.518892400540514390e-03,8.547303628063456296e-03,2.304239287424952529e-02,-4.291159018773194750e-02,9.481486848938491460e-03
-4.972119386048515742e-03,-6.171772315297265055e-02,3.557779608736009146e-03,2.848630308219659082e-02,6.571781072413995436e-03,-4.555472726016689122e-03,-3.925112067603783381e-03,1.069282630371507295e-02,-4.534814848893300131e-03,3.557928571313129229e-02
1.551026868222472009e-02,-3.837511813817265360e-02,-2.745294163310110780e-02,1.464875519234426840e-02,-1.485243985224522431e-02,-9.540928213066610097e-03,-7.587748395653928953e-03,4.775118082947837038e-03,1.526944223527763921e-03,6.357569833188046748e-02
-8.060840520415326390e-04,-2.919044191382077005e-02,-6.576148345304284274e-04,1.719513186509987607e-02,-3.839970571598522175e-02,-1.431831767164967045e-02,-5.061699478112722389e-03,-4.428940387002765905e-03,2.394122065177254136e-02,5.654665510848037174e-02
1.230696356874372288e-02,-8.821682274315239755e-03,-2.889922156705447293e-03,7.481242082279771465e-03,-6.398810403503317479e-02,-2.944016024713626278e-02,-7.211760141134998872e-03,-1.449878705510625546e-03,2.282831099791111235e-02,6.893555569885985446e-02
1.361852434743048403e-03,1.786582621327689052e-02,-4.953682502152025741e-03,-1.673660756486513397e-03,-6.908836521915594220e-02,-1.122945628601475405e-02,-3.094517342055378133e-04,1.362003664777920080e-03,2.114830741188414645e-02,4.679245546621262075e-02
1.572748601149298858e-03,1.272694776982328559e-02,3.691618399632477527e-03,-1.791760260711424768e-03,-4.236924807171504187e-02,-2.013331698798190642e-02,-3.990793181852260105e-03,-2.012311148692359341e-03,2.717467174872782026e-02,2.651040763592573193e-02
-5.358384656597988760e-04,4.506671815279643563e-03,9.338627880938456249e-03,-9.806736571889599838e-04,-2.917247186405073217e-02,-1.561103405440921084e-02,-4.243670370032427176e-03,6.694112171163658226e-03,1.672088357952728963e-02,1.339897908069624666e-02
5.791086382182443655e-03,2.696210401065743650e-04,1.205832922251595142e-02,-7.798441078200567256e-03,2.658896920348414669e-03,4.416420870515301122e-04,-1.831448932724072734e-02,-6.710979665461009160e-04,1.581385243470779037e-02,-8.759764838178602658e-03
1.541628765944487965e-02,-1.067623207156537593e-02,7.899781000728491737e-03,8.952222759109063066e-03,1.377032975972741942e-02,-7.409479841613033886e-04,-2.015176994458326570e-02,-6.415536651291916560e-03,3.213651241276714848e-03,-1.234390785112310200e-02
7.151923781789680003e-03,-2.147789646695319118e-02,1.879188341118291986e-02,9.207963600566429594e-05,1.563317642479800790e-02,1.698858058828868825e-02,-1.355811752299538632e-02,1.061394687636713248e-02,-3.314710106677067579e-03,-3.290146882893366792e-02
1.157020388361967508e-02,-2.672514544497865598e-03,6.404903339319522985e-03,1.778696801204245753e-02,1.624464701716391707e-02,2.867641440017638585e-02,-1.442798685946355963e-02,-1.209060979048722298e-02,-1.706564228995859772e-02,-3.843423200680081558e-02
-2.269813506464159539e-03,1.230076138927289518e-04,-1.143972057885494532e-02,1.554056329423681966e-03,1.579698101232555191e-02,3.716214735530866398e-02,3.847260721257371452e-03,-1.535615854971570694e-02,-8.396222989819381033e-03,-2.015980709931959602e-02
-3.113997692164741440e-02,-9.906884460074873514e-03,-4.740915149765242281e-02,-7.445164012520466210e-03,7.276953586736016610e-03,1.714532643951190705e-01,6.488800674190656724e-04,-5.605245096384135761e-02,9.066678306317363725e-03,-2.395874326958477921e-02
-5.050546229765130735e-02,-3.278366721005365053e-02,-4.129429618753115844e-02,-1.709236994409651933e-02,1.630631436482514462e-02,2.060054745428684664e-01,-1.798022618598001110e-02,-1.014659359442565967e-01,6.718284682644287686e-02,5.779734819410475150e-03
-5.568575775129346039e-02,-8.498037291170974783e-02,-1.934853721376518509e-02,-1.573723864284461496e-02,9.591164936068791169e-03,2.960370170384319932e-01,-3.724296657155730383e-02,-8.365160936535183389e-02,4.980363775138058752e-02,2.816594467389466928e-03
-1.556602304876561309e-02,-3.131250991080972851e-02,-1.220847437790982537e-02,-0.000000000000000000e+00,-9.563168368051347401e-02,9.788413653164071415e-02,-0.000000000000000000e+00,-8.326586398853633164e-02,1.189372315840626221e-01,6.332036928205342363e-02
-2.197913588726003661e-02,-5.528034913874359246e-03,1.370607291853873783e-02,1.396192843004756892e-02,0.000000000000000000e+00,3.208654717292133696e-02,-3.228423080540922252e-02,-6.198627194177873390e-03,0.000000000000000000e+00,-1.619785875464734709e-02
-0.000000000000000000e+00,-0.000000000000000000e+00,0.000000000000000000e+00,0.000000000000000000e+00,-0.000000000000000000e+00,0.000000000000000000e+00,-0.000000000000000000e+00,-0.000000000000000000e+00,0.000000000000000000e+00,0.000000000000000000e+00
0.000000000000000000e+00,0.000000000000000000e+00,-0.000000000000000000e+00,-0.000000000000000000e+00,0.000000000000000000e+00,0.000000000000000000e+00,0.000000000000000000e+00,-0.000000000000000000e+00,-0.000000000000000000e+00,0.000000000000000000e+00
-0.000000000000000000e+00,-0.000000000000000000e+00,-0.000000000000000000e+00,7.254780889968437396e-02,0.000000000000000000e+00,-0.000000000000000000e+00,0.000000000000000000e+00,0.000000000000000000e+00,0.000000000000000000e+00,-0.000000000000000000e+00
-3.842085649703538136e-02,-4.288494091527990382e-03,0.000000000000000000e+00,-7.300064225585653488e-02,0.000000000000000000e+00,-0.000000000000000000e+00,0.000000000000000000e+00,0.000000000000000000e+00,0.000000000000000000e+00,0.000000000000000000e+00
-0.000000000000000000e+00,-0.000000000000000000e+00,-0.000000000000000000e+00,4.863094982341154005e-02,-0.000000000000000000e+00,-5.121708391386819992e-02,-0.000000000000000000e+00,9.123811909632982553e-03,-1.045483579808440672e-05,-3.368568114065977059e-02
-4.652090342474947057e-03,9.149588460640374621e-02,-1.555303659642583852e-02,1.750243059312945881e-01,-9.780934226718118046e-03,-7.299001588626538584e-02,-0.000000000000000000e+00,1.834336120452107199e-01,-5.495531548875602634e-03,-2.197437202774004117e-01
-5.078329247653290413e-02,2.411564629477019883e-02,2.642646845418539572e-02,-5.438436315056158731e-03,-3.869037478635056759e-02,2.587517265225530889e-03,-4.514759523484427814e-03,1.165839855339285552e-01,4.954043423649663949e-03,-1.418062775791428531e-01
-2.598088956336236724e-02,7.001675337301110176e-04,6.678904514482333910e-02,-2.747561355854320764e-02,2.510432514251583619e-02,7.814262695941678188e-03,-9.953709249439579923e-03,9.140747132653265217e-02,-0.000000000000000000e+00,-1.214625518600618431e-01
-2.536393503609478406e-02,2.317183807688213623e-02,1.744772027762619970e-02,-3.871719273483238688e-02,4.255518871189597346e-02,2.745266177472255667e-02,7.094074265240452558e-03,4.309923851664866634e-02,-9.254791569737502027e-03,-9.335375194012941746e-02
-3.024625987051270462e-02,-1.174257543947120411e-02,1.454201641038220874e-02,-2.772708447395469400e-02,3.788781855339219684e-02,1.940352275492355366e-02,-0.000000000000000000e+00,4.931412994667992017e-02,3.303958507533413368e-03,-5.723821987745025819e-02
-1.964322968105900683e-04,-1.645787187663246345e-02,-1.353495116613578908e-02,-1.347029064799887439e-02,4.487351482246052653e-02,5.461259692594423211e-03,9.893117337152566165e-03,3.213673688672725320e-02,-1.423100010247217197e-02,-3.394362301930714532e-02
-1.694639643903146902e-03,-4.845802664122723230e-02,-1.819091063204402239e-02,-6.275743741024296905e-04,2.886667120668934966e-02,6.552501786833426177e-03,-2.659402503722016736e-03,2.910865947812456972e-02,-8.259069463156649277e-03,1.459557632224789750e-02
7.017241695516403602e-03,-4.590285101423788316e-02,-1.664241220712595754e-02,2.113525748051138606e-03,3.614307256844739684e-03,-5.096399284920539140e-03,-3.818774503909948964e-03,1.723763966114045393e-02,-4.789200260835203664e-03,4.464588625467423577e-02
8.036567399234487152e-03,-2.104910065489603785e-02,-1.481197765534385258e-02,6.294338372614102783e-03,-2.685786046681882047e-02,-2.348577654749605878e-02,-6.784798436009670947e-03,1.494580548590330668e-02,-4.908995034083241636e-03,7.039925211338084188e-02
1.593166863079712543e-03,7.935415426595752997e-03,-7.291085062435716420e-03,-3.608582432422561236e-03,-4.527400679964149743e-02,-2.586477098436018585e-02,-6.782751832731471510e-03,3.919825593784526802e-03,5.857119142390330470e-03,6.732316175947072878e-02
2.672107855021399990e-03,2.893792855601691472e-02,-5.092329670320116727e-03,5.319172836157598071e-04,-6.512150104924112337e-02,-1.462823928103073982e-02,0.000000000000000000e+00,-3.200649248670896555e-04,-5.934401197853437365e-03,6.013736869483717051e-02
-1.220255669985952952e-03,2.770568693875099728e-02,-1.323476106013471258e-02,4.559443610244074720e-03,-4.838307738812162861e-02,-2.125457090664559234e-02,1.539804026484106010e-03,-3.915541264981529587e-03,1.490923268291130879e-02,3.837761538645498294e-02
-6.789056462823970899e-03,1.941133546058998807e-02,8.079312867889347147e-03,-5.479963240040978435e-03,-2.195779404768466794e-02,-4.309898856203422772e-03,-1.594290993104940587e-02,-2.105382007949690212e-03,7.734749909815601294e-03,2.305764292909440877e-02
1.220434946622874460e-02,-9.317640224421490369e-03,6.899328256950818840e-03,4.329096596431501569e-03,1.697016785338962240e-03,-1.352169182772804644e-02,-2.050547193315586242e-02,3.733797333768721499e-03,1.619236338167398537e-02,-1.398971975768988334e-03
2.310746067718513069e-02,-2.088617009622832296e-02,1.726651388175788962e-02,-7.537537122747892983e-03,8.665105555045711852e-03,-8.542666632482910638e-03,-2.943468315296035240e-02,1.704661568091195636e-02,2.668596986104383381e-02,-2.432345855289924988e-02
2.708069283508441130e-02,-1.477569888384437299e-02,2.280575034643140056e-02,4.965253742249613536e-03,-6.077237850865743187e-04,-8.163962788453259581e-03,-7.844354941217202698e-03,1.539607825422941410e-02,-1.945490102959128095e-02,-2.020518726559712361e-02
1.327729171684744955e-02,-1.788224980159618116e-02,9.406220884276016853e-03,1.875892449949463636e-02,-2.038725685474241951e-03,-8.502399557989891166e-03,8.293615428547787376e-04,2.502901279032971812e-02,-4.688454390317758902e-03,-4.050059053083416433e-02
1.881771595191098628e-03,-4.390781045687768523e-03,1.166759047745714178e-02,4.712995194748681796e-03,-1.039033471280519441e-02,3.936469471686946525e-02,8.178820325211640443e-03,4.343803368462963513e-04,-3.169922010065974460e-02,-2.953401317770566747e-02
-1.657447269314591548e-02,1.353983419452372931e-02,-1.084452260324780468e-02,-8.937130908892424591e-03,-1.648931397603093860e-02,9.818551635271646760e-02,6.784570465948742447e-03,-1.528084984694832310e-02,-1.289658126553489513e-02,-2.981422954058161878e-02
-4.145266585368723861e-02,-4.234113939336418830e-02,-7.349751442092324061e-02,-1.980033861963797180e-03,-1.309616730815597874e-02,1.754864352300227748e-01,-1.749652039320924316e-03,-7.116196321321216489e-02,9.609774924553884934e-02,-5.812725145139596011e-03
-1.082392983680659920e-01,-6.281416391174796110e-02,-2.987054871049561744e-02,-2.613287899039902842e-02,-6.099770977749640471e-02,3.708553360238532881e-01,-6.782851116274041942e-04,-1.070120503163551756e-01,3.205963880469162725e-02,3.522442799043102452e-02
-3.404981657092969599e-02,-7.622341556450733073e-03,-4.765033557897716422e-04,2.734783697519637888e-02,-4.637301996196763199e-02,2.418535626569619790e-01,-8.093520455668705774e-03,-1.256357857826640723e-01,-1.632024766231454649e-02,1.446845795495603146e-02
-6.458176785079657034e-03,-1.666579544219891004e-02,0.000000000000000000e+00,5.128918777741096890e-02,-0.000000000000000000e+00,-0.000000000000000000e+00,-5.592682210723048247e-03,0.000000000000000000e+00,-0.000000000000000000e+00,-4.256190453945929431e-03
0.000000000000000000e+00,-0.000000000000000000e+00,-0.000000000000000000e+00,0.000000000000000000e+00,-0.000000000000000000e+00,-0.000000000000000000e+00,-0.000000000000000000e+00,0.000000000000000000e+00,0.000000000000000000e+00,-0.000000000000000000e+00
0.000000000000000000e+00,-0.000000000000000000e+00,-0.000000000000000000e+00,-0.000000000000000000e+00,-0.000000000000000000e+00,0.000000000000000000e+00,0.000000000000000000e+00,-0.000000000000000000e+00,-0.000000000000000000e+00,0.000000000000000000e+00
0.000000000000000000e+00,0.000000000000000000e+00,-0.000000000000000000e+00,0.000000000000000000e+00,0.000000000000000000e+00,-0.000000000000000000e+00,0.000000000000000000e+00,0.000000000000000000e+00,0.000000000000000000e+00,-2.136090234274799493e-01
-0.000000000000000000e+00,0.000000000000000000e+00,-0.000000000000000000e+00,-6.531533981390988397e-02,-0.000000000000000000e+00,0.000000000000000000e+00,-0.000000000000000000e+00,4.061701315508552401e-01,1.537779843132690456e-02,-1.358429992553198719e-02
-0.000000000000000000e+00,0.000000000000000000e+00,-1.666679872486396263e-01,1.670793712867434111e-01,1.523412201701638061e-02,-1.301194393362564011e-02,1.580566293504073738e-02,2.641035329505149187e-01,-2.141936950347554658e-02,-6.083442797135662355e-02
-0.000000000000000000e+00,4.484114427907911343e-03,-5.618919150902211557e-02,1.433257484487326094e-01,-7.153866926091306810e-02,-3.412814017536808936e-02,3.693730980374278824e-04,5.112353507789867135e-02,0.000000000000000000e+00,-6.190817861429732602e-04
-3.757408218385372561e-02,-1.266880271263286575e-02,3.543850912477023579e-02,6.587563788184724878e-02,-4.487661557442059607e-02,7.323594178223481223e-03,1.636258980622066648e-04,-2.789864913761196802e-02,-4.510258158989854981e-04,1.364335386627899688e-02
1.999902399333065330e-03,-7.188314233328588557e-04,3.983081168075268408e-02,-6.731984609776060259e-03,-1.822936612250186661e-02,1.069348946284342725e-02,8.264611341828008440e-04,-4.427843894884022670e-03,-8.390597940193688167e-03,-1.279188652252221531e-02
-2.708393990783086996e-03,-8.894928271083879382e-04,2.706126568278446887e-02,-2.101978683515363586e-02,9.288583018410482769e-03,1.972685694503597056e-02,-1.159730313560631545e-03,1.613519200223930555e-02,-1.532473180798653301e-03,-5.081250382152080469e-02
-6.167252058614366636e-03,-1.613847309521150098e-04,-6.199922715391663515e-03,-4.262096254041156801e-02,4.235756306347251629e-03,3.844700207340651793e-02,2.163842124954278370e-02,2.367042550123282102e-02,-4.577315368105365836e-03,-2.895138078193630962e-02
-6.308647984811122968e-03,-1.414300644842935578e-02,-6.364751104817330252e-03,-2.648990873242725724e-02,5.208580019092477753e-02,1.640137009555617253e-02,1.130720241063997312e-03,1.058228993265711119e-02,5.148343427294661996e-03,-3.300610344557182441e-02
8.633837440026182267e-03,-4.587533287626383016e-02,-7.877537980795672537e-03,-1.931721423338728094e-02,3.470065263284556611e-02,-0.000000000000000000e+00,-3.638626867457099914e-03,2.015329448337906115e-02,1.076156476482102373e-02,-1.497914748304233394e-03
3.608367761357718535e-03,-4.846206407658822102e-02,-1.926603222687938224e-02,4.326346225441070228e-05,2.674413516735265478e-02,-2.697546552041794974e-03,2.839861284362288005e-03,2.601946675939233178e-02,-1.752752686549156501e-03,1.113533425557448019e-02
2.567210606310013805e-03,-2.229551541065617412e-02,-7.651217634466276479e-03,4.838734627595492853e-03,2.099124441802878796e-05,-1.889156953539969722e-02,-5.339324816297610563e-03,1.984092201199180033e-02,-1.657137718259071510e-03,2.839345477083851307e-02
-1.837490669208613871e-03,1.893314704885474750e-02,-1.077436119720731958e-02,2.561463657559972986e-03,-3.221209437881273480e-02,-2.151342063471826244e-02,4.630834206434819231e-03,2.599768434892468782e-02,-1.026229737158782483e-02,2.223573969248665572e-02
-1.302656671150206891e-02,4.854266602633745126e-02,-1.494855590846432556e-03,7.998068512970135657e-03,-4.837559042679952931e-02,-4.432757860812035211e-03,5.253885530437535714e-03,2.398089417823023178e-02,-2.848865572476494759e-02,9.735240977636139617e-03
-1.594274012733174622e-02,5.037105498087805083e-02,-4.920840687996762101e-03,4.393421664676118617e-03,-4.221350212108251204e-02,-5.034320088715009411e-03,-5.447265578477119251e-03,8.575076987092747002e-03,6.048714836012596130e-03,5.914687994399109132e-03
-5.153271972659635193e-03,2.336911963065699607e-02,-6.379328307001729459e-04,9.320683864793294094e-06,-2.965063411538943969e-02,-1.214920106037113874e-02,-2.495727445630544286e-02,-1.357227488372486808e-02,2.799612041189425068e-02,3.816972980493334860e-02
-3.204821558681637469e-03,-3.360831255622118412e-03,1.578330550440886285e-02,3.266803099144650370e-03,-9.062643839942430279e-04,-1.836124497808985789e-02,-2.902567132585776727e-02,-1.251601537556623796e-02,2.431964302409230991e-02,2.946647419173089796e-02
1.912518856786712615e-02,-2.111002368183594047e-02,9.243286749802299973e-03,2.581468345575881670e-03,6.774985139424003454e-03,-2.663976028993504316e-02,-2.797732276674862531e-02,-1.390161882295726757e-02,2.142686891083500286e-02,3.252614329368959389e-02
3.843708912625263402e-02,-1.875830689789458397e-02,1.209748708385676233e-02,6.082958613590551920e-03,-5.154332903633972521e-03,-2.860480374903379835e-02,-1.595362866881118447e-02,2.642950913721980270e-03,2.510295737762877760e-02,-1.409456415950931761e-02
5.343826890885000624e-02,-1.728689480144196197e-02,1.917437870998835517e-02,-7.996106257387743501e-04,-6.725094008773906118e-03,-1.606307502682031291e-02,-6.332174132521588630e-03,1.074969580542481373e-02,-1.673361468978859165e-02,-2.027151872376389483e-02
3.340019289327070956e-02,-6.055171469801856957e-03,1.696926385655793401e-02,1.516341569367701293e-02,-7.332952135055271874e-03,-1.424193115799941151e-02,4.241261708388570535e-03,1.030902743529954040e-04,-1.672758785127174963e-02,-3.347436433716192289e-02
9.088070642739773039e-03,-1.257216561567859670e-04,-5.447142260962952939e-03,-4.235553831102517076e-03,-1.404725737566814986e-02,2.691347994289104359e-02,1.417303842742403779e-02,-3.556102200013810423e-03,1.062442359240500095e-02,-4.261627782771048450e-02
-7.116093213575813703e-02,-2.040065282067901956e-02,-3.688110491066889929e-02,-1.812153737029568654e-02,-2.572605719496636259e-02,2.120014583213638004e-01,3.538284372611233408e-02,-2.518654898273946577e-02,1.018719662171667373e-02,-4.356426187974111325e-02
-9.042848978112849601e-02,-3.097456772982133677e-02,-4.057827036989639785e-02,-4.441607437841577771e-02,-3.053077126279377801e-02,2.871306019145461463e-01,-1.962359804283741321e-02,-7.287936986918375215e-02,9.684685783627695888e-02,8.565386726230899556e-03
-6.458483776752992067e-02,-6.140838070854731656e-02,-6.858977282403436616e-04,0.000000000000000000e+00,-8.371259780011389151e-02,2.480533749355687545e-01,-0.000000000000000000e+00,-5.574440057765765733e-02,7.959219651285556751e-02,3.537188345450265753e-02
-1.655147708661468958e-02,-9.476806395807627070e-03,4.112446159225185971e-02,0.000000000000000000e+00,-1.646720508299292021e-02,4.773858476925824795e-02,-3.672863166645531224e-02,-5.290468605220047249e-03,2.216422542992680864e-02,-8.590707982144771271e-03
-0.000000000000000000e+00,-0.000000000000000000e+00,-0.000000000000000000e+00,0.000000000000000000e+00,0.000000000000000000e+00,0.000000000000000000e+00,-0.000000000000000000e+00,-0.000000000000000000e+00,4.069508785224218439e-03,-0.000000000000000000e+00
-0.000000000000000000e+00,-0.000000000000000000e+00,-0.000000000000000000e+00,-0.000000000000000000e+00,-0.000000000000000000e+00,-0.000000000000000000e+00,-0.000000000000000000e+00,0.000000000000000000e+00,-0.000000000000000000e+00,-0.000000000000000000e+00
0.000000000000000000e+00,0.000000000000000000e+00,-0.000000000000000000e+00,0.000000000000000000e+00,-0.000000000000000000e+00,-1.562964455149649240e-02,0.000000000000000000e+00,7.197620242867994178e-02,0.000000000000000000e+00,-0.000000000000000000e+00
-0.000000000000000000e+00,0.000000000000000000e+00,-1.374462965721311679e-02,-5.508505037097996548e-02,2.742079554528225466e-02,3.657805062240879201e-03,2.291365199814161813e-02,2.741835608280336900e-01,-0.000000000000000000e+00,-1.547920069213001015e-01
0.000000000000000000e+00,-7.095304719451972150e-04,-0.000000000000000000e+00,-0.000000000000000000e+00,-1.349379609179228272e-02,-1.551418306484792821e-02,0.000000000000000000e+00,2.552398907394451411e-01,-1.215042758752744347e-02,-4.990364422108514719e-02
-3.363381364783377125e-02,-1.102629128655001518e-02,1.529227734297205696e-02,1.015131582783427577e-01,-4.214200531383453102e-02,-5.280713833784323949e-03,-0.000000000000000000e+00,6.556750530806525201e-02,-5.234986211001875500e-02,-4.876077659094583960e-02
-2.063512779039293130e-02,-3.061469573943931960e-02,4.537286921341656537e-02,2.162490149234750150e-02,-6.153855281472294519e-02,3.575347370819634968e-02,-2.433607291620577470e-02,5.038329229341898668e-02,-1.588537582727097761e-02,-1.283862951936856622e-02
2.375651066164104902e-02,-1.026662618064471365e-02,2.389702531182784015e-03,2.846296054369506362e-02,-2.965832930170828399e-02,3.409110135278269841e-03,1.515952522311610890e-04,-1.083421732462654628e-02,-1.690920926072757985e-02,7.416289592708773075e-03
1.452834876110907503e-02,1.789221078364595235e-02,-1.189370757717744288e-02,-1.476719776345968536e-02,-1.431357768107831101e-02,2.092052393053757745e-02,1.136283484240201494e-02,-6.834181078657903044e-03,-3.397893500068276638e-03,-1.138072187332247499e-02
1.023355237385256689e-02,-3.619129962654524246e-03,-2.525814161542378616e-02,-4.372467559297438938e-02,-1.433412455872874747e-02,5.276397761498909794e-02,9.517055941706898184e-03,1.268224691935612020e-02,8.415585398976278830e-03,-1.555175200955217704e-02
5.472210672504872891e-03,-7.023168323279612053e-03,-2.960024219791557165e-02,-3.959242022251277526e-02,2.172966194765348080e-02,3.559919657231366830e-02,2.279825968090826768e-03,1.668884734514687390e-03,7.031907018937902897e-03,-1.445131576742806180e-03
7.406190523122260783e-03,-4.267661786098857213e-02,-1.985993969904273695e-02,-1.969846951661086837e-02,4.824864902855065252e-02,1.505728392577511225e-02,3.430611270129357599e-05,7.381928664653242440e-03,2.914727726792769400e-03,-4.484068248604615968e-03
-1.589545362610316924e-03,-4.729091988884427666e-02,-2.225883547149488939e-02,-1.115596289340424138e-02,3.379324469130524228e-02,1.244615909849436375e-02,5.288109398584533473e-03,2.305224681254857896e-02,4.665052464111901949e-03,-2.272976466651388874e-03
3.597403645889022707e-03,-2.811150851031831918e-02,-1.911300929942404137e-02,2.919160369807678474e-03,3.386805624073390558e-02,-1.597649226126247879e-02,6.084837685729620714e-03,3.732813258158473174e-02,-2.017730742496886415e-02,-3.502772693421153313e-03
-1.520386630554501064e-03,1.670342626552103957e-02,-1.441191166766089653e-02,1.411515642378160379e-02,1.498472271199276055e-02,-8.844326912569146562e-03,1.254769717819818192e-02,3.131094653533112587e-02,-4.269479984874046535e-02,-2.673086951085110533e-02
-3.181938232667293198e-02,6.264688616579704161e-02,-1.353937922814583365e-03,2.169917309270540107e-02,-4.182556682928310898e-02,-1.366429617712203344e-02,1.114657017238490817e-02,2.603358100410627443e-02,-2.357541791624044938e-02,-7.520792496289041215e-03
-3.023106334610816542e-02,6.356599082239977605e-02,8.548181422844256319e-03,1.331703108660825009e-02,-3.300471220729896127e-02,-2.142209930211429886e-02,-5.549630443393856194e-03,1.680347777378994947e-02,-5.165397305639658938e-03,-3.153564997392830846e-03
-3.282174619630375684e-02,1.990408407484634337e-02,1.716491774579470553e-02,2.117396900207825939e-03,-2.436925952477049170e-02,-1.542467562658028125e-02,-1.226987562633790815e-02,9.307423815419635024e-03,3.117227723941784143e-02,7.372104585537856032e-03
-2.664401999700395998e-02,-3.303977916858108575e-03,2.430606286954286113e-02,8.036313979127556600e-03,4.895047227657860038e-03,-2.700883700720676378e-02,-3.447710493688903310e-02,-3.262885348965479868e-03,3.502556571340809111e-02,2.964350706657996326e-02
8.156257789714219456e-03,-1.150692470408100701e-02,1.144285966618278395e-02,2.757719940664149060e-03,-1.116629845671693495e-02,-2.791465401081818024e-02,-3.251400779724358120e-02,-7.593033726244701430e-03,2.821887377651919118e-02,4.805483984793253865e-02
4.042669267025386648e-02,-1.146982729764835403e-02,9.867917340281086649e-03,-1.739193387892555521e-03,-3.003382034093124084e-02,-3.128230191537861166e-02,-2.618531128911504371e-02,-4.278512725649536060e-03,2.730222134513832569e-02,3.064120687184386169e-02
4.921096447758815245e-02,-1.049404203305006472e-02,1.021978992424202315e-02,6.929668027977748529e-03,-2.125221769626807131e-02,-4.763065294287659873e-02,-6.268233651202117195e-03,-4.157060820361672439e-03,1.780913913571968016e-02,4.700566498738013334e-03
7.556583921644476065e-02,2.033549247146989019e-03,1.067503805788252991e-02,-7.476874382486925485e-03,-2.170918210200710116e-02,-2.180174874995892756e-02,8.760287192248139240e-05,-1.020898702244106733e-02,-1.362184492557481572e-02,-1.442463163459761430e-02
2.942635228207834269e-02,1.801581441161057137e-03,1.780234009579934745e-02,6.714252444596851069e-03,-2.664950877547468677e-02,1.564692965986030221e-02,-1.490240915700134306e-03,-9.876175072590750309e-03,-9.363303223632811825e-03,-3.333765427901099615e-02
-5.012149678326578532e-03,-1.462784873150739344e-02,-6.785301468770398026e-03,8.458023839731780916e-03,-3.313656091808443727e-02,7.720508644287543687e-02,3.174811718371849893e-03,-3.178872946997202825e-02,2.514705780177993108e-02,-3.270942751085176986e-02
-1.093067090078759240e-01,-3.125185378689745302e-02,-3.052660559449455260e-02,-5.048094295295169065e-02,-5.347432808374427693e-02,2.935789098623011739e-01,-1.346823497729036749e-02,-1.481220392700383429e-02,1.620050276172329551e-01,-6.378958055749792133e-02
-1.549465531711883837e-01,-5.514328063437118344e-02,-2.282782744102217903e-03,3.302453839072149767e-03,-6.633064254430789952e-03,4.215598029854377704e-01,0.000000000000000000e+00,-9.181414294041005675e-02,-2.893430671997599193e-02,-2.256798776488866745e-02
-3.121235300687370817e-03,-4.272433266334954918e-03,0.000000000000000000e+00,8.089566842411138881e-02,-0.000000000000000000e+00,-0.000000000000000000e+00,-1.543890452160012403e-02,-0.000000000000000000e+00,4.531371786867552376e-02,-1.713307058131552027e-02
0.000000000000000000e+00,-3.319727336771632897e-03,-0.000000000000000000e+00,0.000000000000000000e+00,-0.000000000000000000e+00,-0.000000000000000000e+00,-0.000000000000000000e+00,1.003716008402140147e-01,0.000000000000000000e+00,-0.000000000000000000e+00
-0.000000000000000000e+00,-0.000000000000000000e+00,0.000000000000000000e+00,-0.000000000000000000e+00,-0.000000000000000000e+00,-0.000000000000000000e+00,-0.000000000000000000e+00,0.000000000000000000e+00,-0.000000000000000000e+00,-0.000000000000000000e+00
0.000000000000000000e+00,-0.000000000000000000e+00,-0.000000000000000000e+00,-0.000000000000000000e+00,-0.000000000000000000e+00,-1.601073146145006593e-02,0.000000000000000000e+00,4.353788139667939122e-02,1.555218290435825268e-04,-2.443737413935497677e-02
0.000000000000000000e+00,-0.000000000000000000e+00,-2.341715696206519287e-02,-4.042547449164330536e-02,1.934568271271272510e-02,2.214705962924048629e-04,0.000000000000000000e+00,0.000000000000000000e+00,0.000000000000000000e+00,-5.570793211336079812e-03
3.112732241120502036e-03,-3.431428007122607621e-02,-3.159352250877396802e-03,5.768156570609987016e-02,1.056537782682816402e-02,-3.045865100739608006e-02,6.643718077228952246e-03,1.714213138763786004e-01,-5.298136238338130299e-02,-1.491435782911175179e-01
-1.306746361476520280e-03,-5.167060866973050698e-02,-5.433214931846078871e-02,4.615142588685354486e-02,2.763843992221401077e-02,7.063206067895432157e-03,0.000000000000000000e+00,4.515967864297275314e-02,3.696271358401593404e-02,-7.138455450189698515e-02
-1.185783148116569333e-02,-1.484014643990979807e-02,4.073482839285031548e-02,4.527411296690438992e-03,9.596537695379893027e-04,2.179199309360252065e-02,-2.626459208920891696e-03,3.260070988050897179e-04,-2.369227300185040158e-02,-1.069282941706373342e-02
8.310780958147804404e-03,-7.231409070006552045e-03,4.871755445898452025e-02,-1.776293600602289226e-03,0.000000000000000000e+00,1.588492431761068940e-02,-1.538039732850482628e-02,-3.256892688654083878e-02,-6.984589619875879174e-03,-2.888874274476337101e-03
1.587873988874472300e-02,2.367191365219423888e-02,-1.535308275359418759e-02,-1.167629023394741936e-02,-4.606070372588407479e-03,2.329287753634850730e-02,8.772946527280540627e-03,-2.787557783922983701e-02,-1.826465092975331980e-02,3.108565879426436387e-03
4.105154960006596535e-03,9.276622670011138577e-03,-1.515526063703580111e-02,-2.764373181742404983e-02,-1.584448312905682374e-02,4.012262739362564695e-02,1.491625936450481811e-02,-2.595605356658095206e-02,-1.652079846492841494e-02,2.920447146735295069e-02
1.434778867159342691e-02,-1.822798365599349445e-03,-3.233234297838287474e-02,-4.036047588490394161e-02,1.934861263689599542e-02,5.622445906986185682e-02,2.968616006468385166e-03,-1.442248727453705054e-02,-5.137141988161792426e-03,-1.978386751052183066e-03
8.864265394152734401e-03,-3.027148915978227633e-02,-2.954174555081837822e-02,-2.062011131684391221e-02,4.286476049561700752e-02,2.746840579948276947e-02,5.613550086405016092e-03,-1.574385767849833390e-02,1.048931457241623205e-02,-5.927664336842458463e-03
1.354610074914493548e-02,-3.720961490090488738e-02,-3.179560224498977072e-02,-9.432340373487656596e-03,4.679085176242692851e-02,2.281343332416847780e-02,3.118654720101545017e-03,-1.343906758565049410e-02,2.113752408125180518e-02,-2.118006610266032555e-02
1.029817950326123409e-02,-3.138514433632166173e-02,-2.945339757210973033e-02,5.648353555688897729e-03,5.387754058166220605e-02,2.191113951917713493e-02,1.132520074724832106e-02,-2.609408708566952634e-03,-1.336075963538236287e-02,-3.372125643011379681e-02
-1.174036818298865303e-02,7.966764550253227842e-03,-2.418527068696781079e-02,1.883900236498093142e-02,3.278811367406091887e-02,3.246521651190917290e-02,1.883129483481247798e-02,2.382569493176235273e-02,-5.286965510334325907e-02,-5.313328307972847719e-02
-1.981308777103930885e-02,7.189062010907402989e-02,-1.145527845467825961e-02,1.563295595544880040e-02,-1.232937419140514058e-02,2.098959743852384444e-02,2.897300503907369179e-02,1.032178241392390367e-02,-6.088143667468351450e-02,-4.295314016638036858e-02
-2.686136678655409726e-02,4.970762266644954130e-02,-6.023043576753773706e-03,-3.778733956031130395e-03,-2.533377122295807707e-02,7.509033060331604323e-03,1.181762326311284507e-02,2.061816012254250041e-02,-4.182425963004623125e-03,-2.192133802930540387e-02
-5.112017106284227896e-02,1.388623193839763105e-02,1.566088796874396186e-02,2.404633374671176840e-02,-5.395547948743831430e-03,-1.534060656781801799e-02,-1.182615840045373769e-02,3.250834721338426853e-02,7.506523896429421333e-03,-9.265639736128873996e-03
-5.131792836282597636e-02,1.521009045665172197e-03,2.229490826540064460e-02,1.393852400042100426e-02,-8.304838590028227815e-04,-5.664439439636415052e-02,-2.566650296759791922e-02,4.008357917928669772e-02,3.443714382260065071e-02,2.496823539068512843e-02
-1.954230539274530096e-02,-1.000334470741230837e-02,2.365761581971577085e-02,6.356682435004628456e-03,-2.810495647694320406e-02,-6.131592321482100261e-02,-2.456609470392830813e-02,2.887197096208678551e-02,4.362503844476820630e-02,5.049495031883559359e-02
8.411914220525232994e-03,-6.619955428511945829e-03,2.639639795951685686e-02,-3.725786533345007943e-03,-3.220213136178218249e-02,-6.739366504373808797e-02,-3.000981397051072710e-02,3.485298421887001591e-02,2.571030240748464757e-02,5.089696614449191331e-02
4.238794465535028477e-02,-2.664759680986404037e-03,1.743390514339263064e-02,7.560471233936036373e-03,-3.184795499615867415e-02,-5.801449897326062255e-02,-6.747938974008542423e-03,1.539513222825697296e-02,5.825139631698591884e-03,9.383395691330412292e-03
7.816020262365534765e-02,1.150631915548918326e-02,2.780923652881207159e-02,-5.455686530386404456e-03,-2.976130774346719479e-02,-5.078004151787184062e-02,-2.154881733382570108e-02,-5.279448552162637181e-04,9.067583385241888456e-06,-2.817935226304323082e-03
4.710515161985055071e-02,1.664376681596993479e-02,1.453976114821541434e-03,2.539389430218969013e-02,-3.948661600175328718e-02,-4.395609881857432538e-02,8.272938447309401405e-04,-5.002608635191495290e-03,1.511639083967918420e-02,-2.420334940236114341e-02
4.880476795996310790e-02,-5.233412854797382403e-04,2.127505192812775489e-02,1.237411529714671325e-02,-6.304479616544780840e-02,-2.559465507193327272e-02,-1.250017570519569056e-02,-3.311549925634702657e-02,3.122788384723913790e-03,3.552327001247307381e-02
-9.061376981584862156e-02,-2.477765749765677497e-02,4.254989691795938930e-03,2.722234213458804043e-03,-1.421603577474118106e-02,2.273851176802184348e-01,-1.253865632511642729e-03,-4.743149317191693026e-02,8.862750223731315560e-03,-1.926774349026271621e-02
-1.384155061572744649e-01,-1.508119377456650437e-02,-4.808703050985976141e-02,8.666822352987255118e-03,0.000000000000000000e+00,3.053302370570949997e-01,-1.912894179005933393e-03,-3.851262480538034973e-03,0.000000000000000000e+00,-8.038668440031436491e-02
-6.484996796533459840e-02,-1.358272277248726359e-02,1.423060893558476467e-02,0.000000000000000000e+00,-1.973527003798623489e-02,2.069011595152039917e-01,-5.383964038876448699e-03,0.000000000000000000e+00,-0.000000000000000000e+00,-1.537928962964511467e-02
0.000000000000000000e+00,-0.000000000000000000e+00,-0.000000000000000000e+00,0.000000000000000000e+00,0.000000000000000000e+00,-1.787166971245305602e-01,-0.000000000000000000e+00,0.000000000000000000e+00,0.000000000000000000e+00,-5.227268918717678514e-02
0.000000000000000000e+00,-0.000000000000000000e+00,-0.000000000000000000e+00,-0.000000000000000000e+00,-0.000000000000000000e+00,-0.000000000000000000e+00,0.000000000000000000e+00,0.000000000000000000e+00,0.000000000000000000e+00,0.000000000000000000e+00
0.000000000000000000e+00,-0.000000000000000000e+00,-0.000000000000000000e+00,-0.000000000000000000e+00,-0.000000000000000000e+00,-2.314278576530099524e-02,-0.000000000000000000e+00,1.101271187202770563e-01,5.764170441056086502e-03,-0.000000000000000000e+00
-0.000000000000000000e+00,-0.000000000000000000e+00,-0.000000000000000000e+00,-5.127760651926061009e-02,-0.000000000000000000e+00,-0.000000000000000000e+00,1.371203777287019129e-03,1.705392955002431876e-01,0.000000000000000000e+00,-9.311247994016358734e-03
-1.901084174085687639e-02,-5.160988054815419598e-03,-1.791825763050734419e-02,3.078662994722420124e-02,8.347560296000677837e-02,-1.041357917001694937e-02,0.000000000000000000e+00,2.339659437679922349e-02,-0.000000000000000000e+00,-4.033828400762812932e-02
-4.485431426171090225e-02,-5.018565710053336099e-02,3.804771714457323359e-04,9.874880294863512889e-03,1.023180200181573844e-02,1.362101198353586617e-02,-2.919821121375729307e-03,4.847240713013396818e-02,-4.514823688805545861e-05,-1.165586207137151581e-02
-4.296300989699402412e-02,-1.174290737024423666e-02,3.485596920361722778e-02,-3.618173988307638120e-03,5.600725308651817447e-02,1.319612595461325255e-02,-2.408349694904335023e-02,-7.618978464841615061e-02,7.233416785998634559e-03,4.942752270286435157e-02
8.628124541894455560e-03,-1.023107143769170189e-02,2.725026563416396621e-03,1.656596986456730647e-02,2.004580836224406637e-02,3.322458002926135384e-03,-1.021516916150379175e-03,6.100233101555671035e-03,-2.228897336791194408e-03,-4.714385235781300837e-02
3.098178107235189868e-02,1.555394953824905738e-02,-1.629167062726305862e-02,-2.824703929282063042e-02,-2.146721346876731551e-02,3.993232836528740753e-02,7.938828652386762871e-03,-3.943022181559140138e-02,-2.788051576452797720e-02,4.267376880358599023e-02
3.058897406824869977e-02,3.584627693401248264e-03,-7.057927581648699988e-03,-1.641487345201095988e-02,-1.174670321618647741e-02,1.492656656326821381e-02,-7.148299619260981355e-03,-3.146339802407647351e-02,-2.170445625707315487e-02,4.571974604176219648e-02
1.178453282379613061e-02,2.851729813763752893e-03,-2.515166784088301508e-02,-1.304688184758599247e-02,-8.015662721241559319e-03,3.588767205163403973e-02,8.108826215558443892e-03,-4.216200974311880983e-02,4.879598756846887861e-03,1.902093894198735383e-02
2.486576548006790705e-02,-5.182536887248564289e-03,-2.937475078622019467e-02,-1.056179175914959308e-02,2.728118454992364481e-02,2.940929445440420772e-02,-2.112939201750589364e-04,-3.495900714674476245e-02,3.138652043101761765e-03,-5.233544004502877801e-03
1.667676573963928349e-02,-4.512766888284636818e-02,-2.376964139080014679e-02,1.114334184489768238e-02,3.710274233410341266e-02,2.513438654713634479e-02,-1.418829555896450594e-04,-2.325479824489690497e-02,2.297643247290535526e-02,-2.466783332042335464e-02
1.450019253965952742e-02,-2.147844998013228451e-02,-2.298778318413529503e-02,9.644351029668362177e-03,2.699560812440466098e-02,2.799607895953205167e-02,5.045118851466306661e-03,-5.924527992180669833e-03,1.490976442423911155e-02,-5.439469727475670230e-02
1.651272164594781017e-02,2.953065341246146822e-02,-3.357544900297782658e-02,-1.219120250899131952e-02,2.203551426967045174e-02,6.156941773015738723e-02,9.641272532364767930e-03,-1.350555938941141315e-02,-2.643469839816092043e-02,-5.580459601304731121e-02
1.123719293864504018e-02,4.501161143462662634e-02,-2.243509927232673062e-02,-1.934170832054996417e-02,-2.215634254051751864e-02,5.301759884208601808e-02,3.931242660758156593e-02,-2.490168648105192326e-02,-4.962161447170351097e-02,-9.679168662981902163e-03
-1.426996885250228150e-02,2.672641918660972199e-02,1.377948198099896056e-02,-2.858013003555103437e-04,9.983718424268261948e-03,1.466912006962795348e-02,-1.736103799835930772e-02,3.684295215019633800e-03,-2.104390077813302756e-02,-1.723465014135944912e-02
-4.333868513661487398e-02,2.315590146598000415e-02,-3.954885595583217074e-04,-2.450659614359000735e-03,5.264428756073131349e-02,5.199675239615889587e-03,-2.356649460677501511e-03,2.263449877804508265e-02,-4.081591039859663178e-03,-5.213820706231889202e-02
-5.259137985637760138e-02,-1.102025143028916541e-02,9.756168571843984449e-04,4.268226674535383243e-03,5.079874667180570187e-03,-2.672403480401392903e-02,-7.567225604512792594e-03,4.755425392256434902e-02,2.765289121012787232e-02,1.310147842249117546e-02
-3.837623948612541719e-02,-7.094591002140692056e-03,1.018527982820132370e-02,-3.706169311270435685e-03,1.595563683653456691e-03,-5.237823922039376578e-02,-1.186262693637201229e-02,5.183926612077616874e-02,3.153515964824492313e-02,2.269721010825123328e-02
-5.495643190897412170e-03,-1.165368996770236622e-02,1.260938146355847916e-02,-2.641769751004353298e-03,-7.935372262790908390e-03,-5.660299556627488432e-02,-1.961157607031620113e-03,4.036967432121151000e-02,1.411651265494860349e-02,2.292522890692262963e-02
9.458459345458575598e-03,1.337319282623051532e-02,-3.214009345728770575e-03,-6.561254116563055086e-03,-8.241654217515969813e-03,-5.514867543277673922e-02,-5.583874707202679186e-03,4.461752452525859919e-02,1.004639287859661117e-03,1.407451319591147658e-02
5.971534604347552427e-02,2.178651187182979732e-02,1.662226161804036470e-02,-2.707980634604848294e-02,-7.664979855782638046e-03,-6.104675245734696859e-02,7.269315983359081815e-03,2.939691479520837800e-02,-4.218694155231266472e-03,-3.072648840227933803e-02
2.847987876072016061e-02,8.197746608155531689e-03,2.822440020459548657e-02,5.679996073136002986e-03,-3.567611952677183368e-02,-7.749969936187822706e-02,-1.592517722530454845e-03,3.627737836278809025e-02,2.365159922954086780e-02,-2.086142389372154862e-02
3.066768353950306142e-02,4.428850878741013783e-03,3.253048913273141884e-02,2.033548023194629850e-02,-4.742368141694485589e-02,-3.295282878232876772e-02,-5.201602775330813055e-03,-5.907773329833462036e-04,1.984519093445343690e-02,-2.438089437531981707e-02
-1.461989370243070921e-02,-1.013514316220054563e-03,2.656310886912016667e-02,1.077322585297666802e-03,-4.974814604847671573e-02,-6.205999556633985670e-02,-1.654162733717899972e-02,-0.000000000000000000e+00,7.074575129422523700e-02,1.845199529079631640e-02
-1.229097137932118472e-01,-7.676863444467679765e-02,-0.000000000000000000e+00,0.000000000000000000e+00,-2.419242426687613287e-02,6.998225564507409846e-01,0.000000000000000000e+00,-5.604347159614986307e-02,-0.000000000000000000e+00,-7.368784387880406017e-02
-7.326917188380736856e-02,0.000000000000000000e+00,-6.077016859453478193e-02,5.848574980116746924e-04,0.000000000000000000e+00,1.642404716211398052e-01,-5.054928003469630338e-02,-0.000000000000000000e+00,1.290350068990152588e-01,-8.786938095432994533e-02
0.000000000000000000e+00,0.000000000000000000e+00,-0.000000000000000000e+00,0.000000000000000000e+00,0.000000000000000000e+00,0.000000000000000000e+00,0.000000000000000000e+00,-0.000000000000000000e+00,-0.000000000000000000e+00,-0.000000000000000000e+00
0.000000000000000000e+00,0.000000000000000000e+00,-0.000000000000000000e+00,0.000000000000000000e+00,-0.000000000000000000e+00,-0.000000000000000000e+00,0.000000000000000000e+00,0.000000000000000000e+00,0.000000000000000000e+00,-0.000000000000000000e+00
0.000000000000000000e+00,-0.000000000000000000e+00,-0.000000000000000000e+00,-5.137142333372826664e-03,-6.834072770923482754e-02,-9.400082720897151578e-03,0.000000000000000000e+00,1.850821455999160370e-01,0.000000000000000000e+00,-0.000000000000000000e+00
-0.000000000000000000e+00,-2.711206154608555158e-02,-0.000000000000000000e+00,-0.000000000000000000e+00,0.000000000000000000e+00,-1.005059310547365831e-01,0.000000000000000000e+00,0.000000000000000000e+00,3.399207216783675656e-02,-3.211554624008294834e-02
0.000000000000000000e+00,-0.000000000000000000e+00,-9.896114565102832883e-02,-0.000000000000000000e+00,-0.000000000000000000e+00,-0.000000000000000000e+00,-0.000000000000000000e+00,1.827430286049695207e-01,0.000000000000000000e+00,-1.254521087986412015e-02
-5.548841059602977605e-02,-5.294960728762107549e-02,-0.000000000000000000e+00,1.207602439521252846e-01,1.081323940967050118e-02,0.000000000000000000e+00,-1.885312628619079806e-02,4.775588047379529522e-02,4.820454857376895580e-02,-5.128996629044147576e-02
-2.378641577746180499e-02,-2.815336602384881787e-02,3.839938165395571576e-03,2.939114961461035402e-02,2.866534755136984983e-02,1.182529029272531536e-04,-2.779812262680498441e-02,-2.327956081201377342e-02,3.775971418683062714e-02,1.571550255217412859e-03
-3.114745502952936170e-03,7.062404129831299782e-03,1.028244806053242415e-02,5.676167643374256840e-03,6.496146297369287457e-05,4.054898241841333557e-05,-3.617080101197254084e-03,-4.694263958844050594e-02,-1.082145548071941415e-03,3.516832612018849780e-02
2.480749713702844195e-02,2.845794880859923645e-03,-8.599755102336271778e-04,-2.215325525944957918e-03,-2.640450155768073529e-02,1.033279566136289900e-02,-4.112984299347814850e-03,-2.366038587559489426e-02,-2.315340208654128110e-02,4.050399977527637668e-02
2.801168936021648792e-02,1.364025578836353895e-03,-5.761011215852940466e-03,-4.730444844830203506e-03,-1.615321053264220583e-02,3.867977037139628919e-03,-7.218080303215019915e-03,-2.876617912848564856e-02,-2.361080634655028654e-02,5.157094629451473150e-02
1.921636362496564540e-02,-1.661637293702848597e-03,-1.776355012419526119e-02,6.838631924399922457e-03,-7.035560445152674001e-03,8.525076066115458082e-03,-7.275150450173978149e-03,-3.758108927888413608e-02,-1.004207870028027763e-02,4.375251293880753900e-02
2.109388761017585642e-02,-1.046623439274577648e-02,-1.928486370119908769e-02,3.231901890973802594e-02,1.371323384286305281e-03,-7.970121052124643293e-05,-4.346823592470397922e-03,-5.350973074112135019e-02,6.062277586371046800e-03,2.410216713948956646e-02
1.295265304753062501e-02,-3.321824578574116005e-02,-2.722752590742030798e-02,3.576587101891048198e-02,1.275367485643781086e-02,-1.051970633376318742e-02,1.049053829430248060e-02,-3.113894062990521169e-02,4.816203939252970689e-02,-1.755652262505637620e-02
1.854971547881667862e-02,-6.520192077573984087e-04,-1.533347878746200814e-02,2.503172204658290351e-02,-8.891652147461478681e-04,2.006878891442359300e-02,-5.839165559402380648e-03,-4.095648493597001116e-02,2.594457070648809038e-02,-2.565584158807955248e-02
1.787766112802946158e-02,4.390823575129323281e-02,-2.965086763093313302e-02,-3.193679259467546022e-02,1.470686869676033660e-02,5.786787545492234203e-02,1.431350691278999131e-02,-4.588143723751457459e-02,-3.560202144871301572e-02,-6.729307012867890257e-03
-1.994746250117314032e-02,3.392745472570742743e-02,-8.339490406387217031e-03,2.647191048896768706e-02,-3.891976342650472348e-02,3.567097508900340941e-02,8.365235287629529948e-03,-3.774910762342970072e-02,-2.321863652587480634e-02,2.263835449752914231e-02
-2.184884155295300015e-02,1.091616752213378158e-02,1.197934851818029632e-02,-4.464249093093028940e-03,2.771000876480718064e-02,1.022089383972235414e-02,-1.673828505399366576e-02,3.761576920513067229e-03,1.972560036198321460e-04,-2.232360052429661554e-02
-3.054630430037218874e-02,3.392185419310475569e-02,-1.337597176128054247e-03,-2.256006434866085139e-02,1.732322136584560704e-02,8.411625443689153825e-03,6.142755874083283794e-03,2.802619733530190699e-02,-5.642843710990485379e-05,-3.928815391702392135e-02
-3.411682422965373745e-02,-2.945687690232999881e-02,7.482099202350013349e-03,1.934611201860409932e-04,1.074530781120529473e-02,2.461488079964138567e-03,-3.658152852016509013e-03,3.947097453044175891e-02,2.397022849416208246e-02,-1.697027230076827292e-02
-2.936146738784793653e-02,-1.300767486277059314e-02,1.116784634913520723e-02,-1.225999316362747990e-02,5.274794592719515146e-03,6.695257930101027044e-04,-1.316952623170457651e-02,4.018840732969624491e-02,7.111754343668138731e-03,5.383878503443068411e-03
-1.001019235639567448e-02,3.988890491446865985e-03,5.632222708276712550e-03,-2.541288192421100114e-02,1.078358185199905853e-02,-3.634431180364427853e-03,-1.179742178283242453e-03,1.695978051771711639e-02,1.453610774432245907e-03,-1.677240413407796692e-03
1.083094221415926810e-02,2.186623440158857318e-02,-2.474236610806045383e-03,-2.799149875817141114e-02,1.764257058576502654e-02,1.602962514269956271e-02,-6.405676002354650450e-04,2.255666729377857338e-02,-3.297010030438601857e-02,-2.496735182137653844e-02
2.186200615879756864e-02,2.537936861575822156e-02,-2.257682225420639625e-03,-4.328817581939143483e-02,6.562541219193404607e-03,8.969755454989254001e-03,1.540830037244400597e-02,3.650097808483262346e-02,-1.786121873422003015e-02,-5.315210251515788825e-02
1.951272377769748545e-02,1.891143625919885010e-02,-3.075096967762860119e-03,-1.351610420147977311e-02,6.030542561015507334e-03,-9.234101218423598420e-03,1.830074716522390316e-02,2.706989140631350932e-02,-3.316967999768112574e-02,-2.346620049130990204e-02
5.135225315993277974e-04,-2.300622015047863993e-03,-1.397989919278570109e-02,-6.101491929107941310e-03,1.086452016331590845e-02,-2.922795401492023909e-02,2.368785078166067790e-03,5.449381863379153430e-03,5.946814061093465276e-02,-1.827617810306054677e-02
-2.983310250171590516e-02,-0.000000000000000000e+00,6.698279624707187407e-02,1.781674367645683099e-02,1.515644420509761232e-02,-6.175572191422301627e-02,-3.056628741132553714e-02,-3.692122101797176963e-03,2.602145326829375521e-02,-4.648996723278425725e-03
-0.000000000000000000e+00,-0.000000000000000000e+00,3.009399925566233480e-02,6.322870858662654747e-02,-0.000000000000000000e+00,-0.000000000000000000e+00,0.000000000000000000e+00,6.094792580560132872e-02,-0.000000000000000000e+00,-1.969737380981654851e-01
-6.320271799924968847e-03,-7.452814569315478754e-03,1.763794557182555289e-01,0.000000000000000000e+00,-2.219891293330077398e-01,2.024595055841200142e-01,-2.311663523442053503e-01,4.946019081728515732e-03,1.441537528445492045e-01,-3.143451443243302362e-02
0.000000000000000000e+00,0.000000000000000000e+00,0.000000000000000000e+00,-0.000000000000000000e+00,-0.000000000000000000e+00,-0.000000000000000000e+00,-0.000000000000000000e+00,0.000000000000000000e+00,-0.000000000000000000e+00,-0.000000000000000000e+00
0.000000000000000000e+00,0.000000000000000000e+00,-0.000000000000000000e+00,-0.000000000000000000e+00,0.000000000000000000e+00,-0.000000000000000000e+00,-0.000000000000000000e+00,-0.000000000000000000e+00,0.000000000000000000e+00,-0.000000000000000000e+00
0.000000000000000000e+00,-0.000000000000000000e+00,-0.000000000000000000e+00,-0.000000000000000000e+00,-0.000000000000000000e+00,-0.000000000000000000e+00,0.000000000000000000e+00,-0.000000000000000000e+00,0.000000000000000000e+00,0.000000000000000000e+00
-0.000000000000000000e+00,-0.000000000000000000e+00,0.000000000000000000e+00,-0.000000000000000000e+00,-0.000000000000000000e+00,-2.308293935978768599e-02,0.000000000000000000e+00,1.823549464971565837e-01,1.976212025499253511e-03,-9.494053035614785641e-02
-4.266117336739572857e-02,-1.924973266528426027e-02,-0.000000000000000000e+00,1.271810710798498834e-02,0.000000000000000000e+00,-1.036907919072833570e-02,0.000000000000000000e+00,1.205567179308712419e-02,4.647148457423273121e-02,0.000000000000000000e+00
-5.826721075713219011e-02,-1.289365352639925202e-02,6.655617977740133605e-04,9.561520622954672224e-04,-2.801968429799527385e-02,-1.883387694487189193e-02,-1.735535020272133003e-03,4.700217020128565071e-03,1.195083467269327515e-01,4.313178429116842211e-02
-4.758259541649624558e-02,-4.453787891405505683e-02,2.244879895769589552e-03,3.699028845795188092e-02,8.721962521532863541e-03,3.497109971330421892e-03,-1.339303164656273186e-02,-8.666573033691843050e-03,1.767378667770317519e-02,3.536503473213505055e-02
-4.974483118184471787e-03,2.916515459619611634e-04,-1.763258338330474283e-03,2.070268028362123175e-02,7.728240161071204921e-04,-4.027274071329096233e-02,1.986927361584909374e-02,-2.209453044008671124e-02,1.344891708382384664e-02,2.082765427721787813e-02
1.872722609721717141e-02,-6.845242252156327582e-03,-6.224378777467528753e-03,-4.209456838279057589e-03,-9.381135889791907337e-03,-2.376415838325127410e-03,5.353428594796077761e-04,-3.538898808929371448e-02,-1.853854037282050976e-02,6.708797337525865268e-02
8.580919840743916546e-03,-1.091506968879521824e-02,-1.142482088950855755e-02,8.654627085840148164e-04,-1.754040252326130589e-02,-1.556132679577395498e-04,7.575193978723291678e-03,-2.471770324241835334e-02,-2.647965221055158594e-02,7.266439230311864950e-02
1.630212126659791316e-02,-1.149165212016558038e-02,-8.671063655761958311e-03,3.008610423939247960e-03,-8.062812811612000627e-03,2.407702002619361605e-03,-1.561710019182150667e-03,-2.357735137111451745e-02,-1.584928628787487040e-02,4.674628447410046628e-02
9.790650108568298149e-03,-2.261924359990072353e-02,-1.470181272274568088e-02,3.304019495391758571e-02,1.196283254268951102e-02,-2.513616435757395212e-02,8.164369272065733971e-03,-2.729053225040740244e-02,-5.300751043469812199e-03,3.008953465440228001e-02
7.266371796604846091e-03,-3.370761870537007654e-02,-1.354058444434351818e-02,4.368135246080070283e-02,3.770306928951098948e-03,-2.638163369461673027e-02,2.693922348650723379e-03,-4.022724141856289654e-02,4.917013610329164924e-02,7.902182739767648831e-03
3.738612153672395220e-04,2.428903794359902994e-03,-5.390961063796132109e-03,2.533404282859672702e-02,-8.074942938139983983e-03,5.712101856733093133e-03,-9.778565380503100729e-03,-4.774128009235488468e-02,2.414004286140295635e-02,1.527439121981944044e-02
-1.795949653122114534e-02,3.459433181438351795e-02,-1.468253097221625982e-02,-6.081233887988090302e-03,-5.350344721595234887e-03,1.458906270130342665e-02,2.738523285769292603e-02,-4.198004153115558051e-02,-8.080819071089121938e-03,1.715940115445728845e-02
-3.698319057619712386e-02,7.066225521246932532e-03,2.390812689966984733e-02,1.549741989696094835e-02,-1.333484431403637524e-02,2.722916363314022668e-03,-6.818322198817840588e-03,-1.138718714077432970e-02,-1.187111481288485697e-02,3.007669038080871410e-02
-1.708351230631628692e-02,3.566248982898565650e-02,-9.087427836106248824e-03,-2.805825140477384919e-02,1.406243219399661189e-02,-7.036161668554311716e-03,0.000000000000000000e+00,2.569500159879445703e-02,3.918283472225517206e-03,-1.801350047657046885e-02
-1.624014967801707190e-02,1.758867634959111748e-02,-1.003026762343585225e-02,-4.670262245394721365e-04,-5.015224531934697229e-03,1.644740383085388502e-02,5.248638616468579224e-03,2.703963059839644550e-02,9.727755341651583149e-03,-4.512192989566890522e-02
-3.067597599242054968e-02,-5.702527308940370104e-02,1.390160309809663521e-02,1.560469172648679820e-02,1.209281469141088375e-02,6.697270563870720908e-03,2.576191921707585500e-03,3.456355330866549280e-02,1.361498492250390671e-02,-1.232947608282286556e-02
-9.425475023372195671e-03,-3.176492921968473732e-03,8.173587131649614340e-03,5.765528422227710059e-03,2.692805371469146180e-03,1.844377264334371141e-03,-7.362860313474585416e-03,9.364107710613717162e-03,-7.350079198311264793e-03,5.201346488999469093e-04
1.426929453613970562e-02,1.664183615575109618e-02,-6.990039907784275676e-03,-1.438357852706967539e-02,1.081086047158413659e-02,1.804700355546938820e-02,-8.527647772303057622e-03,1.010385021158162477e-02,-2.376461407429735287e-02,-1.401185874673348611e-02
9.735692841708503895e-03,3.216912834731317644e-02,-2.134245033763128036e-03,-2.118698418888602386e-02,2.615690909230505845e-02,2.763077439866937213e-02,1.737503502750787450e-03,1.066872205880322472e-02,-3.890964514915066369e-02,-4.779532446500409787e-02
1.664862834585816367e-02,2.774657301886973917e-02,-8.116675683765717936e-03,-2.707785345651473122e-02,4.217822106121633940e-02,2.984801363660881043e-02,8.067843720168088248e-03,2.188581590101536245e-02,-5.203934845309979990e-02,-6.283535746070266492e-02
2.634240389037312627e-02,2.375917502740328494e-02,-4.146023379002928416e-02,-5.394737044662902686e-02,3.545238063516619083e-03,5.817414432232592691e-02,1.925709254596482539e-02,2.068841035204015133e-02,1.244622757561037255e-03,-5.770784094128294378e-02
8.525468455338651788e-03,4.916473436913294803e-03,1.442895455532233273e-03,-1.433663817396737400e-02,1.499292228250962734e-02,1.273924442269917974e-02,2.073896578283750125e-02,8.531404334707160669e-03,-3.885107024202488595e-03,-6.501079416999434868e-02
-7.542757139944337996e-02,1.344201254357598602e-02,3.890131728758876306e-02,-1.031227678546423228e-02,-3.671679097695449995e-03,3.818237001099934746e-02,6.212309591932042158e-02,2.330148710941913962e-02,-5.852210452336156776e-02,-5.221426260205707173e-03
-1.905784563454232181e-02,-1.016759237131903415e-03,9.322448268804341132e-02,-0.000000000000000000e+00,-0.000000000000000000e+00,4.108495778458488151e-02,0.000000000000000000e+00,0.000000000000000000e+00,-3.577376344713911228e-03,-0.000000000000000000e+00
-0.000000000000000000e+00,-6.462343917402767202e-02,5.780641132609085631e-01,0.000000000000000000e+00,-0.000000000000000000e+00,-7.687885588595380626e-02,-2.675695812254398898e-01,0.000000000000000000e+00,0.000000000000000000e+00,-5.960222187365836477e-02
