2.359350227812141987e-01,4.027284295849880569e-01,3.939396925695057283e-02,-1.512026419927570489e-02,2.385109069609397392e-01,1.603889219394435683e-01,-3.076449542669319401e-03,2.031901907758534576e-01,-2.618621777835659636e-01,-2.392079119333501928e-03
0.000000000000000000e+00,0.000000000000000000e+00,0.000000000000000000e+00,0.000000000000000000e+00,0.000000000000000000e+00,0.000000000000000000e+00,0.000000000000000000e+00,0.000000000000000000e+00,0.000000000000000000e+00,0.000000000000000000e+00
0.000000000000000000e+00,0.000000000000000000e+00,0.000000000000000000e+00,0.000000000000000000e+00,0.000000000000000000e+00,0.000000000000000000e+00,0.000000000000000000e+00,0.000000000000000000e+00,0.000000000000000000e+00,0.000000000000000000e+00
0.000000000000000000e+00,0.000000000000000000e+00,0.000000000000000000e+00,0.000000000000000000e+00,0.000000000000000000e+00,0.000000000000000000e+00,0.000000000000000000e+00,0.000000000000000000e+00,0.000000000000000000e+00,0.000000000000000000e+00
0.000000000000000000e+00,0.000000000000000000e+00,0.000000000000000000e+00,0.000000000000000000e+00,0.000000000000000000e+00,0.000000000000000000e+00,0.000000000000000000e+00,0.000000000000000000e+00,0.000000000000000000e+00,0.000000000000000000e+00
0.000000000000000000e+00,0.000000000000000000e+00,0.000000000000000000e+00,0.000000000000000000e+00,0.000000000000000000e+00,0.000000000000000000e+00,0.000000000000000000e+00,0.000000000000000000e+00,0.000000000000000000e+00,0.000000000000000000e+00
0.000000000000000000e+00,0.000000000000000000e+00,0.000000000000000000e+00,0.000000000000000000e+00,0.000000000000000000e+00,0.000000000000000000e+00,0.000000000000000000e+00,0.000000000000000000e+00,0.000000000000000000e+00,0.000000000000000000e+00
0.000000000000000000e+00,0.000000000000000000e+00,0.000000000000000000e+00,0.000000000000000000e+00,0.000000000000000000e+00,0.000000000000000000e+00,0.000000000000000000e+00,0.000000000000000000e+00,0.000000000000000000e+00,0.000000000000000000e+00
0.000000000000000000e+00,0.000000000000000000e+00,0.000000000000000000e+00,0.000000000000000000e+00,0.000000000000000000e+00,0.000000000000000000e+00,0.000000000000000000e+00,0.000000000000000000e+00,0.000000000000000000e+00,0.000000000000000000e+00
0.000000000000000000e+00,0.000000000000000000e+00,0.000000000000000000e+00,0.000000000000000000e+00,0.000000000000000000e+00,0.000000000000000000e+00,0.000000000000000000e+00,0.000000000000000000e+00,0.000000000000000000e+00,0.000000000000000000e+00
0.000000000000000000e+00,0.000000000000000000e+00,0.000000000000000000e+00,0.000000000000000000e+00,0.000000000000000000e+00,0.000000000000000000e+00,0.000000000000000000e+00,0.000000000000000000e+00,0.000000000000000000e+00,0.000000000000000000e+00
0.000000000000000000e+00,0.000000000000000000e+00,0.000000000000000000e+00,0.000000000000000000e+00,0.000000000000000000e+00,0.000000000000000000e+00,0.000000000000000000e+00,0.000000000000000000e+00,0.000000000000000000e+00,0.000000000000000000e+00
0.000000000000000000e+00,0.000000000000000000e+00,0.000000000000000000e+00,0.000000000000000000e+00,0.000000000000000000e+00,0.000000000000000000e+00,0.000000000000000000e+00,0.000000000000000000e+00,0.000000000000000000e+00,0.000000000000000000e+00
-0.000000000000000000e+00,-0.000000000000000000e+00,-0.000000000000000000e+00,-0.000000000000000000e+00,-0.000000000000000000e+00,0.000000000000000000e+00,-0.000000000000000000e+00,-0.000000000000000000e+00,0.000000000000000000e+00,-0.000000000000000000e+00
-0.000000000000000000e+00,1.195344185654578583e-04,2.515647136097251720e-03,-9.259364701674751088e-05,-6.712080337003154145e-06,8.660116902451254605e-05,-1.060479674024490974e-03,-1.241341460603377622e-04,4.439550361345449147e-05,-3.335633476679932896e-04
-0.000000000000000000e+00,0.000000000000000000e+00,5.360024490225212546e-18,-6.776263578034402713e-21,-0.000000000000000000e+00,2.710505431213761085e-20,-0.000000000000000000e+00,-0.000000000000000000e+00,6.776263578034402713e-21,-3.964114193150125587e-19
-0.000000000000000000e+00,0.000000000000000000e+00,0.000000000000000000e+00,-0.000000000000000000e+00,-0.000000000000000000e+00,0.000000000000000000e+00,-0.000000000000000000e+00,-0.000000000000000000e+00,0.000000000000000000e+00,-0.000000000000000000e+00
0.000000000000000000e+00,0.000000000000000000e+00,0.000000000000000000e+00,0.000000000000000000e+00,0.000000000000000000e+00,0.000000000000000000e+00,0.000000000000000000e+00,0.000000000000000000e+00,0.000000000000000000e+00,0.000000000000000000e+00
0.000000000000000000e+00,0.000000000000000000e+00,0.000000000000000000e+00,0.000000000000000000e+00,0.000000000000000000e+00,0.000000000000000000e+00,0.000000000000000000e+00,0.000000000000000000e+00,0.000000000000000000e+00,0.000000000000000000e+00
0.000000000000000000e+00,0.000000000000000000e+00,0.000000000000000000e+00,0.000000000000000000e+00,0.000000000000000000e+00,0.000000000000000000e+00,0.000000000000000000e+00,0.000000000000000000e+00,0.000000000000000000e+00,0.000000000000000000e+00
0.000000000000000000e+00,0.000000000000000000e+00,0.000000000000000000e+00,0.000000000000000000e+00,0.000000000000000000e+00,0.000000000000000000e+00,0.000000000000000000e+00,0.000000000000000000e+00,0.000000000000000000e+00,0.000000000000000000e+00
0.000000000000000000e+00,0.000000000000000000e+00,0.000000000000000000e+00,0.000000000000000000e+00,0.000000000000000000e+00,0.000000000000000000e+00,0.000000000000000000e+00,0.000000000000000000e+00,0.000000000000000000e+00,0.000000000000000000e+00
0.000000000000000000e+00,0.000000000000000000e+00,0.000000000000000000e+00,0.000000000000000000e+00,0.000000000000000000e+00,0.000000000000000000e+00,0.000000000000000000e+00,0.000000000000000000e+00,0.000000000000000000e+00,0.000000000000000000e+00
0.000000000000000000e+00,0.000000000000000000e+00,0.000000000000000000e+00,0.000000000000000000e+00,0.000000000000000000e+00,0.000000000000000000e+00,0.000000000000000000e+00,0.000000000000000000e+00,0.000000000000000000e+00,0.000000000000000000e+00
0.000000000000000000e+00,0.000000000000000000e+00,0.000000000000000000e+00,0.000000000000000000e+00,0.000000000000000000e+00,0.000000000000000000e+00,0.000000000000000000e+00,0.000000000000000000e+00,0.000000000000000000e+00,0.000000000000000000e+00
0.000000000000000000e+00,0.000000000000000000e+00,0.000000000000000000e+00,0.000000000000000000e+00,0.000000000000000000e+00,0.000000000000000000e+00,0.000000000000000000e+00,0.000000000000000000e+00,0.000000000000000000e+00,0.000000000000000000e+00
0.000000000000000000e+00,0.000000000000000000e+00,0.000000000000000000e+00,0.000000000000000000e+00,0.000000000000000000e+00,0.000000000000000000e+00,0.000000000000000000e+00,0.000000000000000000e+00,0.000000000000000000e+00,0.000000000000000000e+00
0.000000000000000000e+00,0.000000000000000000e+00,0.000000000000000000e+00,0.000000000000000000e+00,0.000000000000000000e+00,0.000000000000000000e+00,0.000000000000000000e+00,0.000000000000000000e+00,0.000000000000000000e+00,0.000000000000000000e+00
0.000000000000000000e+00,0.000000000000000000e+00,0.000000000000000000e+00,0.000000000000000000e+00,0.000000000000000000e+00,0.000000000000000000e+00,0.000000000000000000e+00,0.000000000000000000e+00,0.000000000000000000e+00,0.000000000000000000e+00
0.000000000000000000e+00,0.000000000000000000e+00,0.000000000000000000e+00,0.000000000000000000e+00,0.000000000000000000e+00,0.000000000000000000e+00,0.000000000000000000e+00,0.000000000000000000e+00,0.000000000000000000e+00,0.000000000000000000e+00
0.000000000000000000e+00,0.000000000000000000e+00,0.000000000000000000e+00,0.000000000000000000e+00,0.000000000000000000e+00,0.000000000000000000e+00,0.000000000000000000e+00,0.000000000000000000e+00,0.000000000000000000e+00,0.000000000000000000e+00
0.000000000000000000e+00,0.000000000000000000e+00,0.000000000000000000e+00,0.000000000000000000e+00,0.000000000000000000e+00,0.000000000000000000e+00,0.000000000000000000e+00,0.000000000000000000e+00,0.000000000000000000e+00,0.000000000000000000e+00
0.000000000000000000e+00,0.000000000000000000e+00,0.000000000000000000e+00,0.000000000000000000e+00,0.000000000000000000e+00,0.000000000000000000e+00,0.000000000000000000e+00,0.000000000000000000e+00,0.000000000000000000e+00,0.000000000000000000e+00
0.000000000000000000e+00,-0.000000000000000000e+00,-0.000000000000000000e+00,0.000000000000000000e+00,7.519582418032856944e-03,-0.000000000000000000e+00,0.000000000000000000e+00,0.000000000000000000e+00,-0.000000000000000000e+00,0.000000000000000000e+00
-4.642333318758168521e-04,-4.291294855771747921e-03,-2.350483900756178413e-03,3.589968017132714323e-03,7.302827545807439842e-04,-7.639773879147382374e-03,4.435386286864659994e-03,2.523648487346040990e-03,-0.000000000000000000e+00,8.218624686424245897e-04
-1.884947023969838582e-03,-8.909322509196334738e-04,2.329695306764511587e-04,-1.473698668574032573e-03,1.270587321475572830e-03,-2.620548094266051775e-04,5.625892958701791903e-05,-1.547971503535575197e-03,2.492768483418797854e-03,2.473119773026134175e-03
1.826224899350147865e-05,4.736854029684237685e-04,-5.536782501838585953e-04,1.029347546095226665e-03,-1.577309918656401430e-03,-1.787672825157371600e-03,1.420452937794862598e-03,1.622981695258115576e-04,6.761085195049676075e-04,-1.313352122033490516e-04
-4.828273618057857069e-05,3.494917503809910186e-04,2.683647378294955741e-04,-5.149588128499417325e-05,-5.993782188451054690e-04,3.077475429615748230e-04,1.528459468803558118e-04,-2.049303522195533871e-04,-1.672698014385980766e-05,-8.913792746606026161e-05
2.227398765270446684e-04,-2.785911684367647152e-04,-7.253480984281524642e-04,-9.053465353998039068e-05,2.043700027937355425e-05,-1.762103292354849800e-04,3.203122439542022224e-04,8.783217280571966657e-05,5.068483241993795374e-04,1.236313860534613300e-04
-2.356095237224612051e-05,3.672364053769838988e-05,-6.650327729153805408e-04,3.998259452960163511e-04,-1.718858021891141923e-04,-2.521700590575238652e-04,4.481930347747635772e-04,9.499529305769927707e-05,5.370986905618571546e-05,7.533827051041208742e-05
4.052987563938587967e-04,1.704119759407644874e-04,-1.901771424487659233e-04,-9.369214848760826681e-06,-3.382672185124915810e-04,-4.988903344357609746e-04,9.410138112782907057e-05,3.116510584229309776e-05,2.127222986061087936e-04,1.184599675885468815e-04
-8.385103393965954836e-05,-9.275334483489017310e-05,-3.443318386059891962e-04,2.251743058368486266e-04,-3.036963242902392481e-04,4.973754903410680835e-04,5.823781448152977065e-04,-2.333664063019749626e-04,-1.326249608989593285e-04,-1.104949083229327681e-04
3.597915623764417320e-04,-2.495767704644826293e-04,-2.051869069975033853e-04,3.902536533728917522e-05,-4.832103266242476986e-04,-3.631585203187942166e-04,4.919979666111304242e-04,2.578706039497982629e-04,1.048608706438015697e-04,4.715631499570289563e-05
-3.583394466700152103e-04,1.584758106083556295e-04,-1.237444712076056356e-04,7.453627709347143790e-05,1.998093154110718646e-04,2.645125949008537351e-04,-1.747961661541278758e-04,-2.325681351400331158e-04,1.150715780259877206e-04,8.108275500040290228e-05
1.555326883238102498e-04,7.473647030811195104e-05,-1.806577385739282279e-04,3.240316732755164355e-05,-4.067950380889988576e-04,-5.670632112884920888e-05,3.772038866328166450e-04,5.451406389610518357e-05,-6.327140306936119727e-05,1.120626451847493815e-05
-1.578172841151817497e-04,-2.532899590630905209e-04,4.775408081278785109e-04,1.916906881796985867e-04,-2.841149526251849234e-04,6.361009167765638826e-05,-4.490957858357632108e-04,-3.257466929744224412e-04,4.310116935102549984e-04,3.088043995019320578e-04
1.630061946423400510e-04,6.516902412162937550e-05,-5.969798127867343785e-04,2.484945964141306777e-05,-1.469105418443198883e-04,-1.556235897708232400e-04,6.225376175821418319e-04,-1.252661388587058818e-04,-3.818267134845400985e-05,1.877516299864464720e-04
-1.039263758738757194e-04,-2.724183076951347451e-04,-3.524285930052669692e-04,2.260117473992479616e-04,2.011257236652155573e-04,9.347420389671245468e-05,5.026620644205711651e-05,7.174234674030065495e-06,5.928977501768400256e-05,8.019506102805366409e-05
2.216063068285505013e-04,2.139657727931293634e-04,-4.341480433532348250e-04,6.152084844494949602e-04,-6.383579293323908956e-05,-4.815452834469684772e-04,5.464197529677547981e-04,-4.158629491371146304e-04,-1.187640088630947640e-04,-8.826493426915511603e-05
-1.120954298922548404e-04,-3.971159678977052572e-04,1.331085767067311985e-04,-4.155232248116572991e-04,1.294818177137908605e-04,-3.463315184290835318e-04,1.835671108942965796e-04,1.077531259474801977e-04,5.904941172916940454e-04,8.097957805148193696e-05
4.865820002791533256e-04,-3.808575077285917708e-04,-3.815470278238460218e-04,1.436933227965676765e-03,-1.026247342407044655e-03,5.954767992833834593e-04,-2.934638153812447201e-04,4.833204474744483514e-05,-7.800144851537604439e-06,-4.539474463620281320e-04
-2.620745906989639055e-03,9.313531035901817057e-05,7.227449643513043139e-04,-1.246057684584921370e-03,8.145666097976561300e-04,1.294158735172486262e-04,3.386562402887913215e-03,6.912160974934886956e-07,1.312054639992533414e-04,-5.495488067371402706e-04
8.562984351563519446e-04,-8.829524235777177132e-04,-1.083203413724986158e-03,8.268459442170589127e-04,-2.696387640096826847e-03,-1.776371162177564134e-04,2.464066095224797664e-03,-5.502150937796392765e-04,1.336370247251485264e-03,4.388327706418158804e-04
0.000000000000000000e+00,0.000000000000000000e+00,0.000000000000000000e+00,0.000000000000000000e+00,0.000000000000000000e+00,0.000000000000000000e+00,0.000000000000000000e+00,0.000000000000000000e+00,0.000000000000000000e+00,0.000000000000000000e+00
0.000000000000000000e+00,0.000000000000000000e+00,0.000000000000000000e+00,0.000000000000000000e+00,0.000000000000000000e+00,0.000000000000000000e+00,0.000000000000000000e+00,0.000000000000000000e+00,0.000000000000000000e+00,0.000000000000000000e+00
0.000000000000000000e+00,0.000000000000000000e+00,0.000000000000000000e+00,0.000000000000000000e+00,0.000000000000000000e+00,0.000000000000000000e+00,0.000000000000000000e+00,0.000000000000000000e+00,0.000000000000000000e+00,0.000000000000000000e+00
0.000000000000000000e+00,0.000000000000000000e+00,0.000000000000000000e+00,0.000000000000000000e+00,0.000000000000000000e+00,0.000000000000000000e+00,0.000000000000000000e+00,0.000000000000000000e+00,0.000000000000000000e+00,0.000000000000000000e+00
0.000000000000000000e+00,0.000000000000000000e+00,0.000000000000000000e+00,0.000000000000000000e+00,0.000000000000000000e+00,0.000000000000000000e+00,0.000000000000000000e+00,0.000000000000000000e+00,0.000000000000000000e+00,0.000000000000000000e+00
0.000000000000000000e+00,0.000000000000000000e+00,0.000000000000000000e+00,0.000000000000000000e+00,0.000000000000000000e+00,0.000000000000000000e+00,0.000000000000000000e+00,0.000000000000000000e+00,0.000000000000000000e+00,0.000000000000000000e+00
-1.416171550286390163e-03,-1.028858818265562282e-02,-4.861299796435485619e-03,9.783781466758092321e-03,-2.562944399024518882e-03,-6.801700389911890902e-03,5.022504017772533779e-04,5.378658282405033957e-03,1.250722880917970285e-02,-2.675897897847477895e-04
0.000000000000000000e+00,-0.000000000000000000e+00,-0.000000000000000000e+00,0.000000000000000000e+00,-0.000000000000000000e+00,0.000000000000000000e+00,-0.000000000000000000e+00,0.000000000000000000e+00,0.000000000000000000e+00,-0.000000000000000000e+00
3.469590535735155067e-04,-1.631188112404424089e-03,-6.323294513618567952e-04,8.588054386975687519e-04,-8.391599886516999153e-04,-1.558906976458622603e-03,5.793149132130757332e-04,5.799714033075105239e-04,1.485676358900566612e-03,7.701115726491920355e-04
-3.679237411607885061e-03,1.343238814604391825e-03,2.345409156195336735e-03,3.971312387420291874e-04,1.834591425214456310e-03,1.150237974109140490e-03,-2.166970280757221558e-03,-7.085016644134382196e-05,-1.336986695696367128e-03,9.024614042174748858e-05
6.184542986321952510e-05,8.058199103856395320e-04,6.448249941126088600e-04,5.498363219755828587e-04,-4.595106419185834433e-04,2.485502986338249142e-04,-1.372133990647964692e-03,1.016181544986272318e-04,-4.878492392702266220e-04,-9.456488432103213055e-05
7.260317142939962673e-04,-2.471677150327323104e-04,-3.182295798791940928e-04,2.704179673435308626e-04,-3.444148790045971093e-04,-5.419686081354715447e-04,6.267243508887472558e-04,-3.408351178156203225e-04,2.146585261508098278e-04,-2.374400189705101977e-05
-1.470087130541615733e-04,1.830044572346331154e-04,-3.781142986013908791e-04,-2.465550869273652897e-04,-4.229631045221304755e-04,2.040689994554728223e-04,7.200996300736902484e-04,-1.220152188361702439e-04,2.250698439201046115e-04,-1.735306569508739230e-05
-2.629345087517590777e-04,-3.140563340154960918e-04,2.399544305457440730e-06,3.301198354725999313e-04,1.399089483488864837e-05,6.404653557075376449e-05,1.737504179448353243e-05,2.173277019673721300e-05,-1.022842254692032699e-04,2.288650363721273678e-04
-9.442575090598942500e-05,1.537122773390162423e-05,-3.305168348946704252e-04,1.337785444130667301e-05,-3.388626917499133685e-04,6.812739160764875426e-05,6.639737028216763934e-04,-1.354524675582962419e-04,1.568298632257300314e-04,-1.615398054648374326e-05
-4.294914038475303528e-05,-2.031967861582922169e-04,-1.820980687396841959e-04,3.444143027602681087e-04,-1.819153177769295489e-04,-1.757004957053695895e-04,4.603161244502677473e-05,7.432306283297885057e-05,1.623957561482180069e-04,1.582071404841835563e-04
-1.594370850091852770e-04,8.497135859001810879e-05,-1.307738804159390086e-04,-3.903831782769306589e-05,-3.436013115456435234e-04,-4.510589764954625815e-06,4.757099671524660190e-04,5.828199785972542813e-06,9.216546604753985707e-05,1.891348487214401892e-05
-1.226404440195990881e-05,-2.598060052750087072e-05,-5.066402386267480689e-04,1.523851946937792180e-04,-1.421365986206582065e-04,-1.948934949281731712e-04,6.123405509890678024e-04,1.042096118864677953e-04,8.014457313553020250e-05,-6.664104954433533738e-05
-6.464273819338115998e-05,-2.451108260662620007e-05,-2.834766346701670693e-04,9.432781671056454057e-05,-6.281628867723774328e-05,-9.365690379790509996e-05,2.769119275466756075e-04,3.756123219674356443e-05,2.699189843768646347e-05,9.304496159573259111e-05
-5.247840717197662432e-05,-1.925563463806315520e-05,-1.826262565834000035e-04,4.143110994937867288e-05,-7.858536560751424140e-05,-6.428751119255873153e-05,2.613240070618145193e-04,7.335965939441809619e-05,9.577535314301177156e-06,1.169388392511328303e-05
-2.188066376619918045e-04,2.586987000084156014e-05,-3.532505217135834073e-04,1.250669117892648974e-04,-1.137083163324719792e-04,-9.095746917156371776e-05,5.389879495038816561e-04,3.796349597758876085e-05,9.177281701795790125e-05,-4.317780534414451831e-05
-1.392107911722167068e-04,-4.763209201527057323e-05,-2.413518052598315536e-04,1.491487399541682670e-04,1.161083508708220855e-05,-3.496929218839214403e-05,2.233834412912129210e-04,3.717776525925209851e-05,1.907501424074262459e-05,2.233449284828981115e-05
-1.473611846476569065e-04,-4.435615870065636276e-05,-2.605780576200170183e-04,8.075927431428632345e-05,-8.591905453582033311e-05,-2.270409548960668894e-04,4.465352551169499921e-04,2.136926752347938395e-05,1.890815520863447271e-04,2.817058301862640810e-05
-1.698057937733276712e-04,-7.643111545092996157e-06,-2.954682603565544148e-04,1.464694322933082836e-04,1.129585718617548613e-04,-1.078837623579567890e-04,2.536291341828157448e-04,4.334368236828764915e-05,8.554133090313638030e-05,-6.122975828124204312e-05
-2.251977943057050641e-04,1.357336329954527184e-05,-9.598405934793247378e-05,1.809365780811580669e-05,-2.844125115887645292e-05,-1.490750443772239601e-04,2.656847314914929470e-04,-5.856902588582766224e-05,1.226866405789866078e-04,1.364547594914056574e-04
2.193227913744149043e-04,-8.130869743461708579e-05,-1.199873561484132527e-04,3.810164592769285329e-06,-3.175994896325435007e-05,-3.007175494249323495e-04,3.761277018083677396e-04,1.519514711584000241e-04,-1.142571904295125321e-04,-1.013403206710622836e-04
-4.157389617109229977e-04,-7.365658950814668506e-05,-2.553010378877524386e-04,2.427589834760486012e-04,-1.926043887823970650e-04,2.968917692242300219e-04,6.703944321924527709e-04,-1.414531021752385279e-04,1.018565662473627282e-04,-2.307389393515120468e-04
-9.035578730853120646e-05,3.844431949459250087e-04,-2.821551472940434288e-05,1.229859738160622826e-04,2.155551646117579323e-04,-1.317460485139024717e-04,1.352427286639579652e-04,2.721959205580909424e-04,-7.091963211767187292e-04,-1.848132517410967801e-04
3.205774417560423406e-04,-5.238086850424520822e-04,4.776106861763955728e-05,-4.882662020064365387e-04,6.473898134406241628e-04,-1.552360287619950884e-03,-1.080090310439148476e-03,-1.352412811841187151e-04,2.002017151988950971e-03,7.787371162876310492e-04
-4.473474299717053872e-04,-1.490489459769233542e-04,8.065506450568786338e-04,7.096640864467319756e-04,-7.093971602506266363e-04,8.144880497652000296e-04,9.114065471172884533e-04,3.400495981873958673e-04,-1.532884296949014406e-03,-7.550106506223441642e-04
0.000000000000000000e+00,0.000000000000000000e+00,0.000000000000000000e+00,0.000000000000000000e+00,0.000000000000000000e+00,0.000000000000000000e+00,0.000000000000000000e+00,0.000000000000000000e+00,0.000000000000000000e+00,0.000000000000000000e+00
0.000000000000000000e+00,0.000000000000000000e+00,0.000000000000000000e+00,0.000000000000000000e+00,0.000000000000000000e+00,0.000000000000000000e+00,0.000000000000000000e+00,0.000000000000000000e+00,0.000000000000000000e+00,0.000000000000000000e+00
0.000000000000000000e+00,0.000000000000000000e+00,0.000000000000000000e+00,0.000000000000000000e+00,0.000000000000000000e+00,0.000000000000000000e+00,0.000000000000000000e+00,0.000000000000000000e+00,0.000000000000000000e+00,0.000000000000000000e+00
0.000000000000000000e+00,0.000000000000000000e+00,0.000000000000000000e+00,0.000000000000000000e+00,0.000000000000000000e+00,0.000000000000000000e+00,0.000000000000000000e+00,0.000000000000000000e+00,0.000000000000000000e+00,0.000000000000000000e+00
-6.617355811193678964e-04,-3.328589164167842585e-04,-3.353635589138835148e-03,1.603952623870942172e-03,-6.443119229414501041e-05,-1.686385914618922796e-03,2.949430486190436282e-03,-5.337629626470602809e-04,8.871138829314325312e-04,4.820415185996808870e-04
2.071754274776535162e-03,8.881364422466058546e-04,-1.933410910521311983e-03,-3.836142908786878067e-03,-2.856843032951248470e-03,3.378385489746444297e-06,9.759414503917294287e-03,-5.079381427146151783e-03,-1.744103942019088055e-04,1.921670521679012377e-03
-3.852335103112232428e-03,-3.165290226953919707e-04,-1.310025067664472584e-03,-3.048333759539287660e-03,-4.996581957772460239e-03,5.865023917259687934e-03,4.029939412125855755e-03,-1.319602798416994642e-03,1.759459393624273477e-03,3.424655715606094754e-03
-4.297814194139792520e-04,4.911130184144418993e-04,-4.699607551021300813e-04,1.878043786767797860e-03,-3.225023575141860717e-04,-6.155421054891209746e-04,-4.730884275918242199e-05,-4.596843409248186209e-04,2.013307910950107326e-05,-3.546302310304516169e-05
-7.480749117277737297e-04,-3.686427678062695985e-04,-8.979484259472459828e-05,-3.437305096956409897e-04,1.322573932007141395e-04,4.114759769400218943e-04,7.237972550048424195e-04,3.135506403268147426e-04,2.355712989740744114e-05,-4.892020451220376129e-05
-1.800578795625867596e-04,-8.847296497789226632e-06,1.786684904364597992e-04,1.578143328762749017e-04,-4.807348826759239111e-04,-2.574830263252148770e-04,2.730173694333764330e-04,6.996957355428996611e-05,1.609711978720367769e-04,8.149257424027215278e-05
-1.681928084521225875e-05,-1.580118249136346629e-04,8.069841744807029814e-05,-9.045608681657012003e-06,6.382939654709342205e-05,2.716747076761212229e-04,-2.493497742496326693e-04,7.450175716789210251e-05,-1.523637422146418294e-04,9.812246781515501564e-05
-2.405304944258786052e-04,5.732852652433785280e-05,9.353492522689233672e-05,-9.744051751334692967e-05,7.420756434675628694e-05,-1.527624751772172613e-04,2.661356058692330445e-05,1.190302614039944422e-04,5.897136482954145676e-05,5.983969122619138455e-05
-1.256653471835128048e-05,-2.296710634265070787e-04,1.617170344870400109e-04,-1.764061627345919335e-04,-1.106636033141214471e-04,1.492351317142836620e-04,1.124460218075908627e-04,4.938683105605735636e-05,6.078900872828885404e-05,-4.067658439423615303e-06
1.480838326501164260e-05,4.251251837390004749e-05,-4.404071201832072583e-05,-1.175533419856321051e-05,1.773705895751261509e-04,-2.841584236037214485e-04,2.674967366114863474e-05,1.083632937268961203e-05,7.390551781781314197e-05,-5.504079880072788319e-06
-9.536755905877508698e-05,-1.630649960806500190e-04,1.552953069835201570e-04,1.474557355829800829e-04,-4.481603895423101434e-05,9.649508752232123542e-05,-1.777442939869445680e-04,8.637093351463278387e-05,-2.799502138219259190e-05,2.354004533990428069e-05
8.997721982552980466e-05,-6.630596256385269021e-05,9.678781089715654464e-05,-9.538556285996583901e-05,-1.340488590454389786e-04,-4.961142328714361377e-05,-1.188031991459013423e-05,2.334246903531878099e-05,1.093328027266756472e-04,3.799762551301228612e-05
-8.544494019891979420e-05,-1.030099417872917372e-04,8.596941081395094854e-05,8.617541705413210855e-05,-7.866312865679088450e-05,-8.422324599289358611e-05,1.111703294628162353e-04,1.310572905801842455e-05,1.353945563266521364e-05,4.145719065976966261e-05
-4.533069786432254445e-05,-3.710427704022031619e-05,-1.505929723162306873e-05,1.140220036997141465e-04,-9.538587330766749666e-05,-1.223309328238212550e-04,1.199557360175855416e-04,2.543851949103491906e-05,7.059267239236097821e-05,-1.408856341993351211e-05
-7.780022461544306019e-05,-1.384933508933582102e-04,1.121239987843433963e-06,7.410013580864206794e-05,-6.897797615883766837e-05,-8.424144398928557181e-05,1.603531101597868518e-04,2.194183610927423215e-05,8.635702625108683495e-05,2.599581739965937989e-05
-6.477852199547101317e-05,-2.017615494652783863e-05,-7.502875881679274019e-05,8.775767375418745805e-05,-1.396748265216037673e-04,-1.135812943973922156e-04,2.473111694316591368e-04,-2.047980567907762713e-05,7.656674810780645507e-05,2.252987667349537837e-05
-1.703616976475296483e-04,-9.893580082276140345e-05,-5.820317931813713303e-05,1.112740384592433233e-04,-1.387735332414957398e-04,-1.104185397303656513e-04,3.189366383601083960e-04,6.108646342509620783e-05,1.126939116616934160e-04,-2.732140269673309123e-05
-9.010481377382019712e-05,-6.994925888654986981e-05,-1.239194703850453718e-04,4.892545738792850643e-05,-6.237520290034075999e-05,-1.512849159624608374e-04,4.180175074540470642e-04,4.325246566050456654e-05,3.049614616509016389e-05,-4.247436858803079753e-05
-1.779915277503109382e-04,-2.434770764654195811e-04,-1.314907690957415774e-04,1.310897712664633248e-04,-1.051704961016215864e-04,-1.245613650791115295e-04,4.915579368532094814e-04,1.081404666238717762e-04,1.365303029987230583e-04,-8.481618269672860444e-05
-1.645640345061469821e-04,-1.624807661698667840e-04,-3.227442396939387680e-05,9.945856459554977829e-05,-5.897169524227743312e-05,-2.847327430381553070e-04,4.907086271712999929e-04,-3.664285660718883341e-05,2.202108082919446684e-04,-7.111214900385984825e-05
-1.569091312179733883e-04,-7.180256740335955504e-05,-2.421590425726182925e-04,-5.458242271807172829e-05,-2.044866211656319114e-05,-2.199057945342793822e-04,5.308358637747899846e-04,2.843458599474940759e-05,1.178141726732879612e-04,8.951583007010523391e-05
-6.828354653315718765e-05,-1.244714478334235240e-04,-2.752670051204852996e-04,4.043306118277983853e-04,1.629654320306481771e-04,-5.461446040546472655e-04,7.010044710544442021e-05,-1.409279946687641944e-05,4.953143174886134783e-04,-1.042195757271438013e-04
-1.076722241653880970e-04,-4.224233000207503266e-04,-8.429120348234862945e-05,-3.398123524125420654e-04,-9.641891653846565522e-04,-6.824489948032653672e-04,2.469886051268306570e-03,2.719345900324636993e-05,9.392170012844501699e-05,1.246426321924175328e-05
7.368248529819976071e-04,6.293589484696174080e-04,8.407132734983810190e-05,3.013931991811431019e-04,1.723375134221652753e-03,-1.573189372639878438e-04,-2.852237534389998486e-03,-2.899324275222618565e-04,-3.377626527285128646e-04,1.530476502646746669e-04
2.184874229745146362e-03,-1.432850979582516501e-03,-4.214415582107249774e-04,-1.003753839079566485e-03,-3.862550678767753994e-03,-5.208454422967534643e-03,8.899386997190556273e-03,-1.056131134850497172e-03,9.644182912132851296e-04,1.035880468760603124e-03
0.000000000000000000e+00,0.000000000000000000e+00,0.000000000000000000e+00,0.000000000000000000e+00,0.000000000000000000e+00,0.000000000000000000e+00,0.000000000000000000e+00,0.000000000000000000e+00,0.000000000000000000e+00,0.000000000000000000e+00
0.000000000000000000e+00,0.000000000000000000e+00,0.000000000000000000e+00,0.000000000000000000e+00,0.000000000000000000e+00,0.000000000000000000e+00,0.000000000000000000e+00,0.000000000000000000e+00,0.000000000000000000e+00,0.000000000000000000e+00
0.000000000000000000e+00,0.000000000000000000e+00,0.000000000000000000e+00,0.000000000000000000e+00,0.000000000000000000e+00,0.000000000000000000e+00,0.000000000000000000e+00,0.000000000000000000e+00,0.000000000000000000e+00,0.000000000000000000e+00
-1.086180781487636931e-03,-2.762998114209877249e-03,-6.147734731705914793e-03,3.986939067557827496e-03,1.363665736818886302e-03,-4.276115059789076939e-03,4.493671037969368615e-04,-4.945526422622651720e-04,6.781541204957594604e-03,2.759858701870890416e-03
-1.639892002423606670e-03,-1.518729884580549781e-03,-3.760648817080109851e-03,4.171023369808787157e-03,-5.507313985024286972e-04,-2.250542194832524153e-03,-1.123697631050128059e-03,1.085437466664258745e-03,5.368000939872398167e-03,5.404556275775942911e-04
6.466276429571617829e-05,-5.661066035299024092e-04,1.108001866200047513e-04,-1.370223704307766666e-05,3.452953274043394862e-05,-1.187042070013334536e-04,4.229586509237731867e-04,-3.617350062537446655e-04,-1.058449085852709967e-04,5.420297274644041152e-04
-1.074523082995016917e-04,-1.894331124035803404e-04,-8.638089704695093131e-05,4.372338104021871222e-04,3.275106579378236075e-05,-3.434116337218924629e-05,1.322730049700383365e-05,-1.463457008275672125e-04,-3.274094600925051734e-05,1.128587532084268994e-04
7.699824737808482410e-05,-4.371701574198876217e-05,4.541364100299633282e-04,-3.149937570379774559e-04,-2.350905774569307704e-04,2.829491954347573032e-05,1.328692239969783597e-04,4.720261842823419328e-05,-6.355942114653057831e-05,-8.044234320693414520e-05
-1.124612843089662820e-04,-3.797585140734446933e-05,2.957909507582902109e-05,1.918184745878808340e-04,7.431203166947000056e-05,2.744993179095037847e-05,-9.417720468063409499e-06,-1.664663913471127376e-05,-8.106797552234194413e-05,-6.351358831090700256e-05
6.897337483847610002e-05,-5.632614212170880644e-05,-1.060555726492664664e-04,3.733486261789880869e-05,-2.619095905710084739e-05,-2.631403997171388688e-04,1.325580750180867544e-04,8.713670652350662441e-05,2.451770051074133672e-04,-1.206874671718163601e-04
-3.571828479194848660e-05,-1.186263138260023340e-04,2.211475177640812181e-04,9.459063365188039724e-05,-4.407921569353730667e-05,2.803310356516700892e-05,-1.675657768020320402e-04,-2.706375147204285490e-05,8.191163644762043130e-05,-3.147881912666176246e-05
-1.467747289407918806e-05,-9.039337353967403230e-05,8.353378084400394559e-05,1.113385156276392970e-04,-2.252065027753723454e-04,-3.137835157570638262e-06,7.499301046812846818e-06,1.446159408626436035e-05,1.576607553763748992e-04,-4.096566286187006004e-05
-5.091123075741536907e-06,-9.985847400836838229e-05,4.446551438506951402e-05,7.886193418307935220e-05,-9.355789210135831955e-05,-7.270416172938941627e-06,-1.383793853032655279e-04,-2.688167278507287057e-05,1.480480356123346579e-04,1.000313114941028960e-04
1.401943521359822858e-05,2.087811785504471246e-05,1.266244873027977359e-04,-3.955454224132550957e-06,-1.340714164883719066e-06,-7.181960831697616250e-05,-3.310511948083759317e-05,-5.964864092768167096e-05,7.931396597773409936e-05,-7.070801699305603860e-05
6.321260882955777706e-05,1.180634795024107026e-05,7.436159958815386807e-05,3.137425954882446444e-05,-4.033098173207585687e-05,-1.014246523614912801e-04,-9.491350749029885277e-05,-4.633382742011454603e-05,1.028915951787239067e-04,-2.557397308499104363e-07
-4.521566651740348432e-05,-2.416290119899326116e-06,4.550394413099303901e-05,-1.623521706449140454e-05,-4.822592269681216434e-05,-1.468830307488162532e-05,-2.419102086320882761e-05,-3.108704011585189299e-05,8.762087260950200847e-05,4.910990776505554144e-05
4.218217687550211605e-05,3.460061331783285477e-05,1.975229543952154767e-05,3.437463414215520259e-05,-6.731007059109611038e-05,-3.596748326023912736e-05,-1.013102926019871723e-04,-6.466903828108218908e-05,5.770647918983687818e-05,8.083942786479536818e-05
1.667764398892610062e-06,-6.763435295060261964e-05,8.402092649177804397e-05,-1.021962771226409989e-05,-2.736562117746136640e-05,-5.986794720280964553e-06,-5.281642048689302312e-05,-8.579766756897314202e-06,1.043237296835694777e-05,7.680298564502500362e-05
-1.182183443420597408e-05,3.830930464971069320e-05,-6.725575256130853689e-05,3.321239886328118917e-05,4.339887143984868796e-05,-5.270951781392258580e-05,-4.387644339768466894e-05,-4.330401444501274925e-05,1.481705763285861954e-06,1.028208610135226676e-04
-3.200022060431876691e-05,-4.079925153920285134e-05,5.754254891690828449e-05,4.192775003367994616e-05,-1.327386865215723502e-05,7.980424965415582845e-06,-3.022606954252675794e-05,-6.808200068152131653e-05,1.681462562060851280e-05,6.047223934483598312e-05
7.623390858413936250e-05,9.340721545192078512e-05,-9.972102061362291274e-05,3.583679252456032846e-05,-3.882590652242293215e-06,-1.012560496974605100e-04,-6.198620564249725186e-05,-2.440739460317558007e-05,1.993312576166282314e-05,6.625915185020092850e-05
-9.537888343951255127e-05,7.294829818367988951e-05,-7.782636098798677643e-06,1.821758007554727022e-05,8.231651722296874857e-05,-1.181337364732775878e-04,5.326403804791423561e-05,-7.812792191504431118e-05,2.371066601721321060e-05,4.926181921665231375e-05
-3.924232960823636980e-05,2.895594280842449426e-05,-8.674375198955083539e-05,-7.381595021775931879e-05,4.822807598821304792e-06,5.171308485589381398e-05,8.844437877247590530e-07,-9.164091785127855615e-06,5.524885553325199322e-05,6.760396450266806375e-05
-6.138624094510425279e-05,-2.316834484738924331e-05,-9.152123706773944239e-05,1.402952807728747827e-04,-3.190135468670155693e-05,-4.757765731682761805e-06,8.746117650853091720e-05,-9.814981180547494618e-05,6.256835999811259316e-05,2.164942601148361282e-05
-1.347682855608270001e-04,3.908854840950261322e-05,-1.164677635843218792e-04,-2.696731360955613118e-04,6.291001820512259594e-05,3.373237480308571411e-04,6.433735267166723745e-05,-1.260933063261721530e-07,-3.336272296191360518e-05,5.008417155035003993e-05
-1.641173448787839521e-04,-2.761475673316948851e-04,-1.168846081834542557e-04,2.119587251056416466e-04,1.384595743841285137e-04,1.288442526209121193e-04,-1.382943690189872299e-04,-1.990064825904779130e-04,3.115990397710964328e-04,1.075526668712187175e-04
-4.302285322606325699e-05,1.004501325425118802e-04,-1.765453388647642428e-05,2.215368509080544202e-05,-5.017436508379125319e-05,3.597133551230461529e-04,5.101182486383703607e-04,8.307891384091364644e-05,-1.114521433526094191e-03,1.356752480882278899e-04
-4.067472192999879461e-04,-2.590811750605969679e-04,1.386229687358191305e-03,-3.115081901006798264e-04,8.810006660230113203e-04,7.694459754576879343e-04,-1.419609999916180733e-03,-2.445398372148158096e-04,-9.406742019210725676e-05,-2.206157705784768288e-04
-2.449732348013425841e-03,-3.103548852211478280e-03,-1.579226374940296239e-03,1.068501951596853095e-03,1.325291107904430759e-03,-2.955990876880580003e-04,2.766418245318367011e-02,-1.773409066401869126e-03,-1.602498747428441478e-02,0.000000000000000000e+00
0.000000000000000000e+00,0.000000000000000000e+00,0.000000000000000000e+00,0.000000000000000000e+00,0.000000000000000000e+00,0.000000000000000000e+00,0.000000000000000000e+00,0.000000000000000000e+00,0.000000000000000000e+00,0.000000000000000000e+00
0.000000000000000000e+00,0.000000000000000000e+00,0.000000000000000000e+00,0.000000000000000000e+00,0.000000000000000000e+00,0.000000000000000000e+00,0.000000000000000000e+00,0.000000000000000000e+00,0.000000000000000000e+00,0.000000000000000000e+00
-2.339122071593739032e-04,2.167309653904227282e-03,-3.150915257372740642e-04,-1.659194150374887467e-04,1.079725743614784678e-03,-7.942040568763373675e-04,9.388958768765194498e-04,-2.611597354964066611e-03,-4.594184093913485241e-04,4.105947910076067657e-04
-3.169371737884732140e-05,1.212363745578976941e-04,6.036830411553969480e-04,1.673932304778480169e-04,1.553155884041965682e-04,6.451972264140431361e-05,-2.851445350036603305e-04,-2.518591743960996144e-04,-9.421552966821052826e-04,3.756905634832060346e-04
2.329868016784944712e-04,1.094224819802784934e-05,-1.348654695065807936e-04,-5.457286585427563951e-05,-3.750896450414891348e-04,3.548150193312925586e-04,2.835481689463073053e-04,-1.349041921423437917e-04,2.789200178350255836e-05,-2.109131807726400396e-04
-1.705116586616620730e-06,1.349866662156740701e-04,1.588061993880485764e-04,-1.613511145442227064e-05,-6.399261797339349277e-05,-8.215829241017320482e-05,-3.016866348088983844e-04,2.640733897508025182e-04,9.021825500399851736e-05,-1.816804280784488910e-04
2.515772438551700389e-05,2.528326848695460451e-05,-2.824214359719513421e-04,3.869992771115311628e-04,1.020861518596443915e-04,-2.298558891808129918e-04,-9.770504243019909811e-05,-5.988279472092791425e-05,-1.841914939729270145e-05,1.486659706984045238e-04
-3.575882215741499570e-05,-4.037523579003098588e-05,1.050831016385493665e-04,7.207865954411370031e-06,8.930556401665454725e-05,2.040116325808156560e-07,-2.078173828530431924e-04,-9.670330101870570178e-05,1.044690829064234177e-04,7.464670127053692347e-05
-1.273189749373003412e-04,-5.657662699281769956e-05,-4.659656863021549735e-06,2.788462147476501431e-05,-6.195960107021528226e-05,2.642153546292482392e-05,2.269388116282774998e-05,1.340857132528871022e-05,1.916426466336996353e-06,1.586071755249054093e-04
-4.994954125808839682e-05,7.547949000352824857e-06,3.466402027105797010e-05,-8.147495836036532254e-05,1.430503738489022282e-04,-5.949415521976534151e-05,-1.061020838594729698e-05,-6.643100564474963464e-06,-1.468493632504010378e-05,3.831290752623900132e-05
-3.175687386344757193e-05,-9.553471899790630796e-05,2.792524720558476605e-05,8.838902145494655375e-05,1.035718480077166104e-05,-5.205453770645951075e-05,6.210268174015676830e-05,4.031266848206934415e-05,-1.110486686594679080e-04,6.137460358272350065e-05
-4.855400982387019529e-05,-9.013108926560186305e-05,1.068181009999373966e-04,4.055933766274839788e-05,8.653148242316933980e-06,-1.712738844002275904e-05,-8.355265918647424744e-05,-6.055820951056269227e-05,1.746741601415892340e-05,1.267953779362877831e-04
-7.833177844711763135e-05,-3.369976190293079150e-05,-5.410217422129595387e-06,5.588945822874043348e-05,-2.590308324500651570e-05,-1.089335640033650975e-04,3.919399635255933800e-05,7.119899950570185562e-05,3.008175707236147200e-05,5.598903995787922488e-05
2.612775222178081124e-05,-4.832677150152015806e-05,7.198338760814816564e-05,7.552855955906046296e-05,-3.495903106228415035e-06,-9.916806333095401645e-05,-9.847645445404020609e-05,-3.112667150781572211e-05,3.136654234958684187e-05,7.613455967376497413e-05
-4.892880370349123362e-05,-6.577533753190491846e-05,2.908878732834229263e-05,3.714680064576243674e-05,4.873122915398669811e-05,-1.155070876068115795e-04,1.076247597587515748e-06,2.860074062351583132e-05,1.307203470191661918e-04,-4.473884519115622281e-05
-1.018863350358503066e-05,-2.620284554665856295e-05,2.544375351942508928e-05,2.993894203364272107e-06,6.493861562759339857e-05,-1.057190549677214776e-04,-1.958253895576276342e-05,4.354831050675269218e-05,5.288967891506688021e-05,-2.795314986989493820e-05
-1.220878771182580620e-05,-4.427062169751646686e-05,2.319323745822787840e-05,1.663714799636701298e-05,9.834429131125846022e-05,-1.018164592276515272e-04,1.447807795975492289e-05,3.144197238100064238e-05,9.199188592039897862e-05,-1.174312560244901633e-04
-5.923167054459976603e-06,-4.777237504642202877e-05,7.193683991754752411e-05,-8.605144175670091493e-05,1.324333273879662419e-05,-8.607900523725468139e-06,-3.126764332711625994e-05,7.045776689047766883e-05,1.290561229383326968e-04,-1.049356150759007315e-04
-8.197652891776836391e-05,-5.453410804583318867e-05,1.859924737623067805e-05,-4.707597744246233567e-05,5.442410338217110931e-05,-5.448679125127825663e-05,1.928259422767263496e-05,9.798092643473295860e-05,1.400953865816133390e-04,-9.200876647919556037e-05
-5.485078168566397178e-06,-2.607016145439763454e-05,-6.452459502543346545e-06,4.223116999928728216e-06,2.504029205167930672e-06,-1.603076766559450767e-05,1.483621245332606502e-05,2.790576163821456497e-05,2.365378731671241713e-05,-1.884157834600822486e-05
-8.505428486354837470e-05,5.778922382927768673e-06,3.196454240340450507e-08,-9.664884697334725171e-05,-4.340202840185943234e-05,1.663940582256131801e-04,-3.468344538038655589e-05,5.819372814047790856e-05,2.592823182337369921e-05,3.814948260887332061e-06
-6.507673934028258443e-05,5.988969912003064099e-05,4.664204231598930003e-05,-1.054662474700884307e-04,-4.906797910317347260e-05,1.063305250279059235e-04,-2.091843225880716081e-06,4.028374045141146882e-05,-3.088805383806074537e-05,-2.625360554788024102e-08
-1.689678060901782599e-04,-5.771970647965182587e-05,4.184874477167230906e-05,-1.201835811883193956e-05,1.451331699881469287e-05,1.115387201453341685e-04,2.436445855454799690e-05,3.621921009970776624e-05,-3.131412634775918518e-05,4.160562250654330761e-05
-1.304926316066507528e-04,-1.004909503325989018e-05,2.574084966407500291e-05,-2.394665338320915422e-05,1.520091120640376160e-04,1.783165429295560005e-04,-3.883541948142607271e-05,7.801832802801085239e-05,-1.812338701094705221e-04,-4.904309294527332895e-05
-6.195611730836647233e-05,-7.927635838175396536e-05,2.115349010998333792e-05,-1.415167340227478791e-05,-1.414745666676368266e-04,7.573358636137743642e-05,1.053029480645409246e-04,1.404345992556019728e-04,-7.695692039012492689e-05,2.985650624241744232e-05
-1.112409055822851165e-04,-2.098196934287983005e-04,-3.412067875287918390e-05,2.432622827061313214e-04,-4.955508368279613938e-07,-2.297983708066876261e-04,7.171600594293149286e-05,4.447749600353432088e-05,2.062066582408078185e-04,2.020319345077847042e-05
-6.679312279908985930e-04,-2.090026264956144897e-05,1.798040736804445733e-04,1.087031513280885820e-05,-9.215410068808391111e-04,1.348750875484365898e-03,-8.560595752820157611e-05,2.990975138024652680e-04,-4.824876841871267573e-05,-8.950755830141290850e-05
-9.975590450669633014e-03,-1.471284898998663493e-03,1.875033155950442572e-03,3.509567590467945700e-03,-2.992414316857516885e-03,8.652542814064981269e-03,5.064744968732949934e-06,-7.728525891493007215e-04,-2.752235666451693756e-03,3.680075663838170297e-03
0.000000000000000000e+00,0.000000000000000000e+00,0.000000000000000000e+00,0.000000000000000000e+00,0.000000000000000000e+00,0.000000000000000000e+00,0.000000000000000000e+00,0.000000000000000000e+00,0.000000000000000000e+00,0.000000000000000000e+00
0.000000000000000000e+00,0.000000000000000000e+00,0.000000000000000000e+00,0.000000000000000000e+00,0.000000000000000000e+00,0.000000000000000000e+00,0.000000000000000000e+00,0.000000000000000000e+00,0.000000000000000000e+00,0.000000000000000000e+00
1.255510662207154175e-03,-5.063319525970192249e-04,-1.271703671191642742e-03,-5.617600881141638757e-04,-1.132010326230697755e-03,4.156361105223677229e-04,6.811223876453029440e-04,2.538162897604351580e-03,1.045104144227927244e-05,-1.428995475754356011e-03
-2.331303666632956312e-04,-3.432249885480008859e-06,1.236449736104480246e-04,7.169530921895579537e-04,1.981593723594911934e-04,-4.278971748362979453e-04,-2.264839117647160613e-04,-2.187162433670296548e-06,-4.177396881072198580e-06,-1.357272877621565343e-04
-1.432459471728641631e-04,-7.381065785068512662e-05,2.050891885649676371e-04,-2.298873969056976221e-05,2.406999624409834166e-04,-3.296500017145632413e-04,-5.582214555943386570e-05,2.247203101627896066e-04,-1.336824932356011372e-05,-3.345654493402029102e-05
-2.219896245068763525e-04,-1.305442380466427976e-04,2.473597397669950043e-04,-1.087855055257161191e-04,-7.285872990166425509e-05,1.390450493700183895e-05,2.559162167540455381e-06,-9.891459189892820830e-05,1.242014533489214174e-04,2.455147903021301153e-04
-1.316036564693250231e-05,-1.153257028917773999e-04,5.818699816809690535e-05,-7.121078585984437980e-05,-8.633675306503346301e-05,1.298250551684277565e-05,6.968916377028089543e-05,1.712923601038064735e-04,1.570695016945506187e-04,-1.832468644427727076e-04
-4.478899690370850113e-05,-5.797491307710180599e-05,1.606127368129279718e-04,-5.058271908576270732e-05,-6.837237554696624811e-05,8.461750425400026004e-07,1.008241066249547513e-04,5.445625556878273853e-05,-4.372745671673268719e-05,-5.100393058865831665e-05
2.780083785443002609e-05,-1.019205466996294415e-04,4.025890228247538504e-05,1.559366433448050474e-04,-1.084061657683151091e-04,-6.081656339129721248e-05,1.376378823756414834e-05,2.651728839244943444e-05,2.593841278761553252e-05,-1.912381593299057153e-05
-4.438231089641554841e-05,-9.946728667076087515e-05,5.172463461618499584e-05,1.110900976049420817e-04,-3.821185597338444821e-05,-2.043645665807613220e-05,2.181848197923989873e-05,2.928992891311946287e-05,2.529524787310268665e-05,-3.638380809929174731e-05
-7.327784467786933973e-05,-1.016371871068631278e-04,6.185382271888710884e-05,1.104579704159194586e-04,-5.231422174418714067e-05,1.317850886720349987e-05,-2.449804937645040244e-05,4.271288040476720375e-05,5.471675127636096227e-05,-3.121574269609430003e-05
-8.447459160175711999e-06,-8.593917882471066642e-06,-1.757762265062323822e-05,5.664823421440854582e-05,-5.140319193025082888e-05,-2.114601444706505558e-05,-3.037952918300652547e-05,2.562568987553312925e-06,2.495749397712033880e-05,5.375010911685868832e-05
-1.562374168217913246e-05,-6.968261116067660645e-05,5.978582662134398362e-05,3.700968739077377487e-05,-7.298965159570233686e-05,-1.731610208320000834e-05,-3.014049060155723988e-06,-2.941417575857151504e-05,8.888831495758711730e-05,2.234393352553800570e-05
1.551552958363291762e-05,-3.466581562516144577e-05,-5.480483220628724596e-06,2.712352637766130136e-05,-1.320772344217380190e-04,-1.690550436892168020e-05,7.820001939135803976e-06,2.818210424176889792e-06,2.057482709363001109e-05,1.152988960243377543e-04
-1.220710998162207124e-05,-9.405759549703540825e-06,1.147309216886121171e-06,-4.489006381182272902e-06,-1.099101864088958161e-04,3.314513245809816211e-05,8.337489946366531443e-06,1.503468469049321200e-06,-1.377020046534814345e-05,1.058276016027663981e-04
-8.170057074345210671e-06,-3.108325989732244076e-05,4.063282451857552606e-05,1.802579930367736121e-05,-3.551313214842817669e-05,-4.903212657060637290e-05,-4.173024448855918095e-05,-3.628680307304795990e-05,6.195234941409344940e-05,8.138232763805473586e-05
-3.877677491250365420e-05,-5.232667781586664647e-05,2.668001142060090875e-06,7.170581782621494448e-05,-9.099590000758037633e-05,-5.556923540313764585e-05,2.074780850968376317e-05,-1.648501721269973974e-05,1.180366480966560939e-05,1.472996448326425914e-04
-2.456919876087267085e-05,-5.931082095935718960e-05,6.164918071176872906e-05,3.685496661059691231e-07,-9.003386393183887950e-05,-3.743026705079135775e-05,1.733606048791602489e-05,-6.537407805161242925e-05,3.625795159158213887e-05,1.611615354414514553e-04
1.761209316525616308e-05,-1.990009665052432078e-05,6.544312462510380403e-06,3.878503270974923838e-05,-1.017607982786779844e-04,-8.505445712452833695e-06,-3.640434919480841681e-05,-1.120943744702598827e-04,1.213053263771773915e-05,2.038694845224330759e-04
-3.061092538201962853e-05,-1.884603985640287874e-05,4.508471801789811254e-05,-7.219485605148033341e-05,6.832907689747866445e-07,7.028932289996495591e-06,-4.640428127919961018e-05,-3.150442871326528197e-05,9.942110628703235294e-05,4.761265173087876184e-05
1.626325609202695869e-05,-9.486257300806819030e-06,1.125597025063374388e-05,3.751796609335097520e-05,9.097392981745146085e-07,-1.080975316204795431e-05,-4.534410368730232006e-05,-9.217602415052259847e-05,1.802449282785906028e-05,7.420728035397635152e-05
1.775946373884807684e-05,-1.889813120626908317e-05,-2.548546918582362658e-05,2.110079194183194469e-05,3.187837368052088188e-05,-7.156029216597506047e-05,-1.731696705583520582e-05,2.744611384557952198e-06,7.665522336898506893e-05,-1.647348777333683739e-05
4.624235136395422359e-05,-1.018052820261404159e-04,-1.258665273126054296e-05,4.464580549864658745e-05,5.271480544367921121e-05,6.490152167245320845e-05,-4.085878014445287802e-05,1.353109584425105854e-05,-1.036463860457603334e-06,-6.567144042465307549e-05
-5.984386379284620000e-05,-5.776016842896310774e-05,-6.328883986171952576e-05,2.938189840313370509e-05,1.453769253976088687e-04,-1.156195412043892106e-06,3.522523658242169897e-05,-1.170121328914277718e-04,1.191046729342166950e-04,-2.985726187513432870e-05
-2.205864372324104795e-04,-6.701005397187751497e-05,4.837920208410868915e-05,7.780399093628184270e-05,7.375594166236894495e-05,4.687494705537363507e-04,-1.711837707162796056e-04,-3.766875507074094370e-05,-8.027043684330895156e-05,-9.062200429019141249e-05
-1.239164576657033976e-05,-1.119495721001760554e-05,-1.019802775340558458e-04,-4.338702990853857181e-07,-1.134397343324144113e-04,6.116913251428353262e-05,5.900451665817641226e-05,-1.583463115351209136e-05,1.260666195937503928e-04,8.730632224704320496e-06
-2.792762161456205676e-04,-1.541691958139211561e-04,2.609331552890939519e-04,-1.718118862650583364e-05,2.242306221150782699e-04,4.381098166246448619e-04,-3.375645606088920135e-05,-1.603646174076223401e-04,-1.026228218367765101e-04,-1.733182169143422245e-04
1.155600486939373895e-04,-7.131913935541127564e-04,4.606210838453934984e-04,-6.921493501307063594e-05,-3.919922741446286800e-04,5.866886911510363909e-04,-8.341354415364317474e-05,-3.255988365588270619e-04,3.131918342004644468e-04,1.281968392727057663e-04
-9.380192745608731744e-04,0.000000000000000000e+00,-0.000000000000000000e+00,0.000000000000000000e+00,2.951562141048641322e-04,-0.000000000000000000e+00,0.000000000000000000e+00,4.285056893810803777e-03,2.981409063574609955e-04,3.804145534208673270e-04
8.467276366735632890e-04,-1.295004539560138746e-03,-2.599271942251873101e-03,3.006704200707796971e-03,-1.964426196463104051e-04,-4.127840408014888936e-04,3.806771291816565838e-04,-2.036676176886214565e-04,1.482015697449630973e-03,-7.986808452995401795e-04
-8.474129901861431188e-04,2.085788881402211783e-04,7.360602579690841063e-04,-9.993176463161540252e-04,3.451606257492856756e-04,6.660978606016036143e-05,1.790942004612526084e-04,-2.979588986063767234e-04,1.360434958406446645e-04,4.552292462849015183e-04
-4.783753505866449198e-05,-1.677798661041525702e-04,3.309495685201982907e-04,1.831848091620261469e-04,-4.176326202113746374e-04,-8.140187283185620470e-05,-1.323476537279303213e-04,1.741212981484265563e-04,-1.159261235366816077e-05,1.721717434352577881e-04
-4.997259222733124895e-06,-8.367954409229181993e-06,-1.083155544011992199e-04,1.807904148251167570e-04,1.973041947539269680e-05,-3.169089188066627472e-05,3.829380680801450221e-05,-1.874355916735816403e-04,2.111369726712968378e-04,-1.098206832101625730e-04
8.275377720021413741e-05,3.325212760169162966e-05,-2.707961822786672990e-05,-1.154591467139219157e-04,7.082447542696739180e-05,5.042947106277721286e-05,-4.417122919121879325e-05,9.898976077587346139e-05,2.710146416780919999e-05,-1.766039576618940701e-04
-7.894903076696041001e-06,-5.377561664369247409e-05,4.353242918966042401e-05,-2.068434567727451141e-05,7.234003414411955407e-05,-4.189427691909527546e-05,-4.846321914955852624e-05,9.562928747533287440e-05,-1.189960048185217316e-04,8.085231207242756933e-05
2.653004869002035707e-05,-7.939637168710452603e-06,-3.204371898897882131e-06,-3.697373633473693776e-05,4.948885955528692365e-05,1.326612791967010902e-05,-5.371543140956612104e-05,-4.453139869283346533e-05,2.927273526209248278e-05,2.800071463474330507e-05
-5.711448604238480883e-05,-4.758988712243777323e-05,3.607994082021641542e-05,-3.985264223507592235e-05,9.403182625183700437e-05,-6.346531162019990288e-05,-3.098275986872890209e-05,-6.454807613472474128e-06,1.151393951887632071e-04,1.868091087182511532e-07
6.173184716838559557e-05,-4.666934230232785856e-06,-2.141374996579428687e-05,-5.087544584877873018e-05,1.825046307779539507e-05,-4.530335532729013002e-05,-6.210188704684756637e-06,5.077238530741906916e-05,2.811703839535527013e-05,-3.016113723585984053e-05
-3.422350772877287805e-05,-4.906607121758263361e-05,-3.395102922390475029e-05,-3.922641131112260574e-05,3.423506175353463861e-05,2.423623068651257931e-05,-8.777406811071599118e-06,-1.595453206012019707e-06,6.111003947909649479e-05,4.740531455556360081e-05
-2.973500973647816754e-06,-8.124717057964610104e-05,5.655513576404896584e-05,-1.016758995697008932e-05,3.006912099120027230e-07,-1.361366205902896969e-05,-1.127793402545251393e-05,-5.659754883699519968e-06,5.946403412455918819e-05,8.599116640823092173e-06
1.532235042269058679e-05,2.597270016986564356e-05,-2.333955141121721836e-05,-1.254954050308061800e-05,-1.972531656957004907e-05,-2.936148589889424603e-05,6.503935359257560423e-06,1.359662664777312781e-05,-1.067189310209545894e-05,3.467434814166411134e-05
2.097534479639697472e-05,3.588407068225374163e-05,-2.360369595490969326e-05,-6.953875125776099768e-06,1.671368168463669752e-05,-7.104017647300955635e-05,-2.594914655188980331e-05,-8.100684201560032747e-05,5.840400180795245433e-05,7.663687908755091171e-05
5.567240561778833135e-05,-1.488909419143089761e-05,5.768563077574585566e-06,5.386273780204057273e-05,-5.429020299530477330e-05,-3.219515649532870546e-05,-1.921603411273232307e-05,-1.273336685245356247e-04,-1.468595954920599099e-05,1.474518756225992708e-04
1.670720247240855064e-05,-1.987009030396456026e-05,-2.514768998335199004e-05,4.561713097822733538e-05,-4.976775673409345119e-05,-8.689740346924815586e-05,1.632275236073489193e-06,-1.151293930017469784e-04,7.904260691135402465e-05,1.539910096809926849e-04
-8.584502317294990628e-06,-1.544049058687160046e-05,4.962054667958323720e-05,-7.562426107719023136e-06,-5.147799095534374487e-05,4.332153632832819884e-06,-4.699843504835213336e-05,-9.512893125345499355e-05,1.913539424017666657e-05,1.521901894061372499e-04
3.212832243557787944e-05,-1.510901130786061018e-05,-1.161790651239125223e-05,2.207136800689523030e-05,-8.220362739819792091e-06,-1.266646349204359075e-05,-1.336828207723673096e-05,-3.899594917041683328e-05,2.240278942358463093e-05,2.360304279202259483e-05
1.534251211384277688e-05,1.426090993837440758e-05,-1.443729299216931661e-05,-3.160955929966336104e-05,-4.213585418635290832e-06,5.126619130272757219e-06,-2.272663604883046892e-05,-2.514584454143005173e-06,5.975554753799619106e-05,-1.878085749736905006e-05
2.801228068935511265e-05,4.519650018064565281e-05,-1.102370516985040713e-05,3.599066444560712917e-05,-3.129062751136267182e-06,-3.012657700497485923e-05,1.695362285528725151e-06,-9.014503521113281559e-06,-5.651427695102632264e-05,-8.099454354246567195e-07
-3.878007134936211259e-05,1.003543840659862981e-05,-4.663544144508293153e-05,6.700737595869476278e-05,-3.208202448935944929e-05,-5.680078983369115167e-05,2.072962277675318948e-05,3.070511445351364752e-05,4.320368108973320922e-05,2.591618111601728862e-06
-2.318672063350903383e-05,-5.243461235116337384e-05,5.079497858144345308e-05,-5.122528811985148199e-05,-2.249014334712784845e-05,7.488646615648557857e-05,2.204132003422422384e-05,-5.519873524373141273e-05,5.507527552043345759e-05,1.597993582619568180e-06
-6.132269024097202457e-05,2.079959877889933246e-05,1.344878792202043474e-04,3.402971911847087552e-05,-1.998101565570036616e-05,-4.521020321502244204e-05,-4.254792178541833117e-05,-2.468149763749519975e-05,1.402800454869877102e-05,-9.159946211570330348e-06
-1.834581111500738226e-05,-1.611230913641027818e-05,-6.189926067377783583e-05,6.636661781236606627e-05,4.833266134770043720e-05,-1.322719090988219426e-05,-2.083430868465282809e-05,-4.018242748690113210e-05,1.029110736850450628e-04,-4.661627738379528366e-05
-1.428534166569023081e-04,-1.364532414863409095e-04,6.115154682650723633e-05,-1.099590510569691134e-04,-2.157728071112930898e-04,3.339007156287783344e-04,8.015262478432799394e-05,7.784239580618175264e-05,5.453925221830041109e-05,-2.940816097420657865e-06
-1.425193793140155224e-04,-9.838803508392745623e-05,4.380823074292628308e-05,1.709608885831461400e-04,-2.340696257773146219e-04,5.595620319572302583e-04,-4.804127875986131393e-05,-8.577841734691066993e-05,-9.610989471750221906e-05,-6.840248090085510773e-05
-3.385030755230898788e-04,-1.052192831173416333e-04,-1.212546627811162969e-05,3.127233016158631929e-04,-5.826258311534257740e-05,-1.081196599611567002e-04,9.213554073297079445e-05,2.400085715621452047e-05,1.264926681741547531e-04,6.636907053058536076e-05
3.409909668453617467e-04,-3.104903885855938954e-04,1.044916244569488775e-04,-2.756454745469749386e-04,-2.007493058770042386e-04,-8.388076537819449301e-04,1.286599932851159307e-04,6.517465790645892787e-04,-1.684825313618561985e-04,5.412687578462569088e-04
-4.825652369157611100e-04,-4.956918296845035359e-04,1.768470817200523248e-03,-2.144246759461261500e-03,-2.653025823615601545e-04,-1.093695321928332893e-04,9.411995398713260148e-05,1.811739474743752484e-03,2.404428276121574619e-04,-2.399163417491188702e-04
4.735871678746969766e-04,5.981826791909771682e-04,9.337800947978471379e-04,-6.660611150867907018e-04,4.830230136919540511e-04,-6.462036238629735758e-04,3.271386122726173558e-04,-5.535792573275882811e-04,6.838279734681274480e-05,-1.068797063169685431e-03
3.575578354216134850e-05,-2.365567256684839853e-05,2.377937384802406137e-05,-2.498289013206173785e-04,-1.534528355052557135e-04,1.449220955807738653e-04,-6.272971134120992323e-05,4.078547670093386670e-04,5.407111952823478762e-05,-1.705509701477368560e-04
-7.754214574595417520e-05,1.672314282736062942e-06,-1.525366842380561794e-04,-2.495342664700528169e-05,4.857914131109790303e-04,-6.699846649350677148e-05,1.203653228010664254e-04,-5.745577921940443940e-05,-1.078849930735358654e-04,-1.205578645277956431e-04
5.483807275684230822e-06,5.731369445441030977e-05,4.315522806053970092e-05,-8.622845702976096192e-05,5.132026517402262915e-05,-9.364376571891603294e-05,-6.286394339787746116e-05,-5.780943775838494255e-05,4.455713704085325478e-05,9.925211177000979655e-05
6.410656974302181667e-05,-5.438036583407876033e-05,-3.364347692442751827e-05,7.320357180787173310e-05,1.070706545078885366e-04,-3.692770381320395267e-05,-1.210928360177686596e-05,-1.290351967536170342e-04,-2.714190565936867321e-05,4.885296791739558562e-05
1.649201672826797278e-06,-3.357603675070999040e-05,1.020206559093560195e-04,2.347676827218238350e-05,1.298592263733022966e-05,-9.677881381423823510e-05,-4.930248881374619721e-05,-4.846458557064495384e-05,1.179441131440136430e-04,-2.971945786633523029e-05
-7.077520433162949641e-05,-5.238328026544541679e-05,-1.416401826678857435e-05,-2.563959264120914768e-05,3.725434329656811982e-05,7.689797100391792243e-06,1.136713461532604572e-05,5.506570963399185696e-05,1.483818350962342442e-04,-9.666842388414168485e-05
-3.528676805903888911e-05,-2.679170740856418604e-05,6.682475561642862159e-06,-7.672662707581906982e-05,-5.772805805233115125e-05,8.397145309725689768e-05,2.565808356546775830e-05,1.915501152039019066e-05,-2.883656481637164039e-06,6.419527864758958519e-05
-3.655673591408968364e-05,2.279148421964937088e-06,-1.386102448846114150e-05,-4.701892453789542235e-05,6.829807832373668603e-05,7.099499210440371428e-06,3.197201468909540394e-05,-3.111487718980335927e-05,8.057980543109173751e-05,-6.166801919066372669e-05
1.144067450414182407e-05,1.001001522053158562e-05,-2.272985859525876570e-05,-2.512289225774665851e-05,-3.404970653723358434e-05,1.338017966883416965e-05,1.704439009461527932e-05,5.537380195790803984e-05,3.366309399776725830e-05,-5.877485000147906374e-05
-4.195564665976819389e-05,-6.464625256483494918e-05,-3.532311372500150979e-05,2.115069523362865829e-05,1.949821889075694555e-05,5.335375064995809491e-05,3.804141260976939392e-05,4.827607829440258076e-05,2.115203341927902566e-05,-5.951553395267724771e-05
-8.592587910302028323e-06,-2.627593752274836358e-05,-3.182934695696230904e-05,7.510636589252046033e-05,-4.303600683832882554e-05,1.698934140992716384e-05,-1.592421161418042472e-05,2.885230542922717845e-06,3.713211156273759375e-05,-6.244337051606618228e-06
-1.846710585713481645e-05,3.604846153856783959e-05,-8.776055091298698934e-06,2.831194551914780342e-05,-6.993528754423015319e-05,-5.743118824535211285e-05,-3.022013153663047688e-05,9.843095171615368796e-06,6.066022861113943730e-05,5.012001752423535998e-05
1.930777652323746198e-05,-4.104656407292511611e-06,7.260963925899527566e-05,-1.516397708318187066e-05,-9.351635239574344915e-05,-5.648534323342599729e-06,-2.154094917153758518e-05,1.165081589977975532e-05,-4.836307920555346675e-06,4.144116425541977025e-05
6.084715153024358898e-05,-1.617310232081809761e-05,1.436314164413519878e-05,-4.236986271290994727e-05,-5.951979686269572619e-05,2.347124025856360638e-06,-2.805818810285649724e-05,5.976742559446977381e-06,3.095178496965077865e-05,3.184215616330757052e-05
9.464823908837039130e-05,2.688261804278873414e-06,-3.094873759504515018e-05,-2.167365424967345733e-05,-5.488129223046566823e-05,-2.101791565472293098e-05,-5.436725060130604678e-05,-3.123707039829711531e-05,2.931684024793626726e-05,8.772035542328636339e-05
1.091909097272931068e-05,5.131021553680358276e-05,-2.273745224354448217e-05,2.354909222870108044e-05,-7.290582085544799990e-06,-6.356420911259190362e-06,-2.015894524968138332e-05,-8.326325592173643545e-07,-4.332039456265000024e-05,1.521848652411884454e-05
1.952583173552650459e-05,3.388337491041072089e-05,-3.345436365648352253e-05,4.973607406695256932e-05,2.495438168614967850e-05,-1.437856683001367029e-05,-3.490382165184947850e-05,-3.111377548005430174e-05,-5.229256535839958827e-05,3.825485355462660632e-05
2.074002921933229427e-05,-3.279912593422846785e-05,-3.325683548992440443e-05,5.781360300619501578e-05,3.439837360833288140e-05,-1.095018952283386550e-05,-2.619066575834661976e-05,7.607924627510023218e-06,5.327529625804585355e-05,-7.057317369674609030e-05
3.469715122182484703e-05,-3.008490732476605875e-05,5.934978807563660597e-05,1.833605592777415633e-05,4.535237633533761029e-05,5.792322427305747620e-05,-5.165126484769139625e-05,-5.526941974910088345e-05,-3.944591089661644189e-05,-3.893417881930686585e-05
-3.350826859785279295e-05,-1.540073532667126199e-05,-1.307166477660713019e-05,1.172546593771196360e-04,1.828878817577995483e-06,-3.114197040870812078e-05,3.025700753609973344e-05,-3.323953844419590527e-05,1.576695379532045901e-05,-3.861043758007803211e-05
3.636397383852580804e-05,-2.173657451194742831e-05,-1.702551447124534348e-06,7.188635586110894108e-05,7.104147549585468214e-06,-1.836395283674189442e-04,4.563601734218813896e-05,8.034803598045235217e-06,8.731435495556565682e-05,-4.919973850177050001e-05
-7.578571208510636854e-05,-4.913497039556158873e-05,1.830090046679168800e-05,-2.856146543237525763e-05,-3.150909226058040718e-05,1.587264864414635642e-04,4.295160830539774855e-05,1.254131915993042529e-05,-4.600287648100674001e-06,-4.248504726072597641e-05
-1.904208574967253828e-04,-6.423370920647268948e-05,-1.695715879210703682e-04,1.493549313154982517e-04,1.374657004616615461e-04,2.444511415324971152e-04,-5.976289110026991586e-05,-1.704163946706407082e-04,1.180670287713358248e-04,5.066139362437295935e-06
-1.987830169256920058e-04,-2.118507894065040857e-04,-7.913434718920025947e-05,-2.266679115926105914e-05,-3.435095932759855020e-04,5.786292294562816584e-04,6.074305782032454856e-05,8.815411308597810548e-05,-1.050192043974687908e-04,2.337207471886071071e-04
-1.843996701089684444e-04,-1.833796179866678278e-05,3.608507228787805597e-04,-1.298331914881243091e-04,-4.995277973374945621e-05,3.348691599014681059e-04,1.299155006015377031e-05,-9.701361686335464136e-05,-2.445114887084649086e-04,1.579887961022353961e-05
-1.400815551400639040e-03,4.420016966947561653e-04,-3.046776391171662033e-05,4.860996090823933901e-04,2.327741463209127609e-04,1.513372182345909880e-03,-7.572344486873137243e-04,-2.479795247392578561e-04,4.424027167351337377e-05,-2.616475456479931488e-04
-4.137597681135184624e-04,-2.292527983600964499e-04,2.737314181181205695e-04,-8.945630558527574439e-05,-1.316736181094089152e-03,4.253286855630893884e-05,-3.098983576515566113e-04,3.828659078804073392e-03,2.488490496429845902e-04,-2.933190594242558280e-04
3.099646651096552605e-04,-3.162043955791514634e-04,-2.827485636153278408e-04,6.846016297322134918e-04,-5.362784328629247076e-04,-1.562748938100829961e-04,-3.218302612715528413e-04,-1.526927675359541876e-05,-2.527315579306143776e-04,9.121486747549635956e-04
-6.061581033561796051e-04,-6.443752154997002069e-05,-6.509929830199921252e-05,1.187679782036469867e-04,1.584343983640744424e-04,1.110487096844769747e-05,2.438315221071141788e-04,3.652587180047918306e-04,-1.597569959452314978e-04,-4.797729680139437629e-06
-2.657539480996214709e-05,6.734523429048752327e-05,2.202012854164464667e-06,4.839389649438032741e-05,-3.253837321999469932e-04,4.602254727308623144e-05,-1.771246941295421954e-04,6.443856528967568725e-05,8.565992679847673683e-05,2.115054143849798773e-04
-1.488216475227796347e-04,-1.698881726917570909e-05,2.540608569659959042e-04,2.254662677261639643e-05,-9.611810351748340724e-05,-2.122215154138948454e-05,-6.064758690871028851e-05,1.239183977753506778e-04,2.027915822164505171e-05,-7.622049620107935585e-05
-1.018726586001788182e-04,-1.153512349733129701e-04,1.576202556094329511e-04,-1.002039807740627699e-04,9.444857081699495013e-05,1.391987969282188448e-05,-6.829351941693558796e-05,1.047269635773389723e-04,1.031339653229482075e-04,-8.796628887529123241e-05
1.250229530738341682e-05,4.814943207628662414e-05,-2.156107667216733512e-04,2.600902711488923660e-05,-6.642686944180058047e-06,3.628726132581417150e-05,4.157983382277076744e-05,-9.891605370665499471e-05,7.303291090086049247e-05,8.338511859635937902e-05
-1.775896962432119792e-06,4.229040077938429247e-05,-4.256312310023532640e-05,-5.016322899190624825e-05,2.336240580532794397e-05,-2.817057897621711411e-05,4.825064297395118164e-05,2.604814792753838473e-06,9.096746895108102286e-05,-8.468973946124393431e-05
3.853080393159324452e-05,-2.345097949626945703e-05,-5.471591805318929666e-05,-6.029848135828962423e-05,3.059745347806958770e-05,8.684876359314922065e-05,1.216027951620768918e-05,6.948242411888692514e-05,5.425788648614663463e-05,-1.530675734495829342e-04
1.313080482002976796e-05,-1.327502152713767103e-06,-4.851852248738759601e-05,-5.338344453531177993e-05,3.358541351127467152e-05,7.964031808804608963e-07,-7.294848993936497597e-06,5.059969956168061195e-05,8.083699371230034902e-05,-6.843766181748164520e-05
2.254901497461141540e-05,-2.278125517443496171e-05,1.053051845717931068e-05,-1.960370746153732539e-05,1.233580986994431026e-05,-1.535330239118516471e-05,-7.247911168953393555e-06,5.227291668367341681e-05,3.636188966536627233e-05,-6.888555753210415841e-05
-3.871603147387237036e-05,-6.339338426617396926e-05,1.607594940779096855e-05,-4.377876874587309747e-05,-7.158601534297370620e-05,7.974937007600743470e-05,1.356704624430775789e-05,9.706743929155953340e-05,3.266288370257261866e-05,-2.167743442362283710e-05
5.031486932665592190e-06,-7.867476416154912814e-05,3.440162116118437561e-06,-2.740048004608707785e-05,-3.247966174182347960e-05,-1.755569202152952441e-05,1.389650606914826608e-05,1.591483488548940705e-04,4.661450875240588657e-06,-2.974394319887935757e-05
6.582399541477648101e-05,9.585677594516378613e-06,1.716018157799970134e-05,-6.534846797269313365e-05,-3.143938100704291353e-05,-4.200335321263746699e-05,4.988652478924725319e-06,8.215458108401867100e-05,4.658681868342318886e-06,-4.538855627505610846e-05
5.460574144309949943e-05,3.238262571210893931e-05,4.656898600034788918e-05,-2.936128454364091335e-05,-1.392237041957472110e-04,-6.102039419086165584e-05,-5.277125953951807816e-06,9.912122854479874271e-05,3.720433408281745655e-06,-1.297529050543470944e-06
3.084775941904697977e-05,2.679634779888296446e-05,2.933724119553607161e-05,8.684615470464566482e-06,6.528871246245649253e-06,-3.814574802806684431e-05,-8.038054155544682158e-05,6.090909311011749187e-05,-3.627970604165362516e-05,-7.924605156155267887e-06
1.646840566105448693e-05,1.826165357449485861e-06,-3.558560481877058374e-06,2.144087110583258986e-05,-9.122977160533822071e-06,-1.633660219024203554e-05,-4.490666012843999555e-05,8.729604180578672316e-05,1.241993336221761884e-05,-6.521374454711818683e-05
4.159300537512501385e-05,9.459936227026561540e-07,-6.581582586159185391e-06,7.302276374868185485e-06,6.143880780697364666e-05,4.275270753695882947e-06,-6.624367692402567231e-05,3.669532197852487656e-05,-2.351605046288254323e-05,-5.582656428225128665e-05
4.458949458334476114e-05,-2.078941156268359516e-05,6.327691058240878341e-06,4.657426256316681088e-05,1.299438279965772830e-05,6.177437504792449321e-06,-5.314226490744506086e-05,8.701210659396374819e-07,-2.536791401668140228e-05,-1.811075742377200501e-05
5.233158447647387652e-05,-1.318640173762036050e-05,-8.267840550695265171e-07,3.065437169256806960e-05,-1.418179890694979451e-05,-3.041614435115592658e-06,-3.544760093543734489e-05,-3.345011417624910974e-05,4.047113339336489568e-05,-2.320646926988113691e-05
1.933640492146172827e-06,-2.423705423655862925e-05,-3.146148298600543385e-05,4.919255418544745014e-05,4.543132979472965468e-06,-7.207433850994910405e-05,-7.275585092329387376e-06,-4.154386549131445242e-05,1.024337070730402141e-04,1.882094342539792587e-05
2.445087098197874112e-05,-1.107504734133712880e-05,-1.957147841814572270e-05,1.332142827624726049e-05,1.548347573626453108e-05,1.115885344077822389e-06,-9.504232353197020219e-06,-2.733674681488117698e-05,5.289422428624707129e-05,-3.936511495544841286e-05
-4.538936743773595034e-06,-1.001922626859978544e-05,7.035466949270451781e-05,8.209956460080106307e-05,3.424576679078024610e-05,-1.143353923755818774e-05,-1.404235048935517248e-04,-3.072011060104894647e-05,4.359797312774609841e-05,-3.338359446745479693e-05
2.848586264878276550e-05,-4.429455665374123558e-06,6.006590098997735024e-06,4.897154609325761883e-05,4.000783998986410844e-05,-1.622879723757099531e-04,-1.322914991509355141e-05,3.239477168206155539e-05,4.898832678888380779e-05,-2.470004798087400145e-05
9.299984397833896256e-06,-6.199697597613624655e-05,-6.213379433747621690e-05,-9.148901839572258531e-05,-1.965245835450004112e-04,3.696261876817963886e-04,-2.490966706959684186e-06,-3.543309212812019383e-05,9.115729008428295104e-05,-1.948530834062227169e-05
-2.825157471008174644e-04,-2.695725352320518624e-04,6.214599508334908956e-05,4.432800332134973257e-05,-2.207805445864773509e-04,9.841807439073741500e-04,6.962826184078248660e-05,-9.698568400110936755e-05,-2.547310741573862976e-04,-3.524012887821449826e-05
-1.184121439385725586e-04,1.761720841522937961e-04,-1.320139650637439772e-04,4.006462725214543497e-04,7.746490116549468671e-05,-5.290399520623942278e-04,-1.083813006013179899e-06,-4.908352403075007855e-05,1.916979128240239741e-04,-1.789214806019047868e-05
-2.447203064872680478e-04,5.620346287919129533e-04,2.523856137742191562e-04,-3.785083116044480841e-04,-2.409528183889484668e-04,-3.816867257317291110e-04,1.544371454863387953e-04,2.889583170016315626e-04,-4.362239999704544367e-04,4.082050578030018860e-04
-3.276720468712095396e-04,-4.399867121916326658e-05,2.737830125258846714e-04,-5.558257134750823171e-04,-4.791652828870236177e-05,1.243503480865168996e-04,-8.990667678985957381e-06,4.139036019027887708e-06,8.949626054720373762e-05,-7.330057130487672816e-04
-9.436010419868351993e-04,4.008941133722895302e-04,4.718963295914416732e-04,-5.636866159167832702e-04,5.027344662042217268e-04,-2.436010573705283864e-04,4.267205988683658207e-04,6.206223027865875050e-04,5.818059252467518453e-04,-1.288285706206112810e-03
3.555256792028382677e-04,-1.011589869825544783e-04,-1.849593333459073575e-04,-3.028322647629273518e-04,3.335046054501069170e-04,1.787524153888890696e-04,-8.785208304631289403e-05,-5.181597281500425643e-04,2.983249805015327069e-04,2.837981140055889818e-05
-2.308394245946435462e-05,-1.302469464220941907e-04,1.539328962399874601e-04,2.132673207222095897e-04,-4.281107126870996218e-05,-2.431700670825737262e-04,7.191242150993870002e-06,-2.289362748036647666e-05,-1.092186146014755444e-04,2.003979875820106351e-04
-6.963765659778999788e-05,-2.977628026626561348e-05,-1.527720852752717008e-04,-1.252141195527729117e-04,1.435652383058066593e-04,5.058315341477995751e-05,4.899582711030188729e-05,-1.035471561045110076e-04,2.859574513286626345e-04,-4.731189921188392369e-05
3.660206404206065560e-05,-5.668453720051144551e-05,9.310777937529497850e-06,1.493586222695441258e-05,-1.014193728985276208e-04,7.545344936904490186e-05,3.207565326752711643e-05,9.989759640360146818e-05,-6.964818708675776923e-05,-4.126236444634515137e-05
2.016943463792172573e-05,-6.606931654727951186e-05,1.154111567972924995e-04,-7.239781596935258314e-05,6.100402136256358784e-05,-1.125192300702656389e-04,-2.390153655615434870e-05,2.799804861407347907e-05,9.253882355599436999e-05,-4.185423133140270583e-05
9.227321898679676355e-06,-7.385775064329427041e-06,-3.390729923261982180e-05,-2.994633759445441338e-05,7.645173645312687896e-05,-2.880622148481770445e-05,1.006070277805013736e-05,8.024225000236593144e-05,5.478875381775687067e-06,-8.110661424142984698e-05
5.082642748458905410e-06,-2.246838259682177683e-05,3.511621573388208015e-05,-3.625301157779898159e-05,-1.744925315851529807e-05,-2.332137662718183685e-05,-2.567795339636488863e-06,7.516584025326696506e-06,3.289626518656336008e-05,2.132630154044025335e-05
8.053663539813322699e-05,-3.689116091333805009e-05,-4.048135106755160702e-06,-1.119211323632289670e-04,1.289177102798651048e-05,2.051182598608785329e-05,-6.763856414880925678e-05,2.785154166869458314e-05,9.307673957683692092e-05,-1.397287660709255617e-05
2.550341598281718542e-05,-9.615915999146594967e-06,-8.063531906632680541e-06,-1.097879363617925710e-04,2.168781746409916632e-05,-2.239074782965317373e-05,-7.468814780561675385e-06,-7.220709146110409999e-06,8.723466535190329153e-05,3.033460632348258963e-05
4.953668007393359084e-05,-1.020503150557324729e-05,-1.523378044414540713e-05,-1.152796591043731900e-04,-2.985523576982369263e-05,5.017579606940956327e-05,-2.583639921587284108e-05,-3.296507124813114061e-05,9.821376458078681529e-05,3.155575981591443553e-05
3.827012603232845156e-05,-6.389369445006558778e-05,-3.318857656865516632e-05,-6.950028206041005785e-05,9.358853492356440000e-05,3.792038715018711519e-05,7.272146863074304128e-08,-4.919477375555824565e-05,8.526565031730004205e-05,-3.920493213186151748e-05
-3.087515633445241111e-06,-3.700881149384450172e-05,-6.720451250551017386e-05,3.586655113772938588e-05,1.122019102932755370e-05,1.072970600447360928e-05,4.483406770099904068e-05,6.779282408072950892e-05,-2.950849945379115002e-05,-3.347536878570106067e-05
-7.824981361499584354e-06,1.255618740359067467e-04,-7.879084041821799521e-06,9.815129460454147540e-05,-2.492943164435958299e-05,-6.105918356231543939e-05,-3.119056527109070952e-05,1.562671287365659562e-05,-6.881980660345753500e-05,-3.722336950174682586e-05
3.843315796010836842e-05,8.842032837646524458e-05,-4.081780040371594083e-05,5.194706851681440350e-05,8.720774021757925185e-06,-1.043697954492524223e-04,-3.922015318033786042e-05,3.921902734399121220e-05,-3.209672345517163657e-05,-1.037170362932389998e-05
3.765187368796082783e-05,-7.318369266300939495e-05,2.570173909925875457e-05,7.528904009303506967e-05,-4.048945126727639316e-05,-1.046948285539946443e-04,-6.926032669968477224e-05,1.004899830427919099e-04,-2.828079467018748467e-06,5.147689635726490816e-05
4.655072229027829424e-05,-2.220504760364898394e-05,5.956614402438214069e-05,1.856756269406318897e-05,4.999955212622545647e-05,-1.742142352928902700e-04,-5.067164713171472756e-05,7.732991723335806439e-05,4.772924031386195295e-05,-5.256899568844260667e-05
5.266619530840732562e-05,-5.007114036806367127e-05,3.852876725988662774e-05,7.991322448237971100e-07,-1.380238272150261970e-05,-7.257042102271780623e-05,-4.558943827074657168e-05,4.293251181312379868e-05,6.143746982189152986e-05,-1.409615473398629855e-05
-5.281999047949887556e-07,-1.008690482318226387e-05,1.257688830064912046e-05,-2.400329494337483175e-05,1.444345424292487072e-05,-8.585799419310178779e-05,-6.796254640621141204e-05,8.928369711888008359e-05,5.773703431322367590e-05,1.450034022016606557e-05
8.844748316078487481e-05,-3.996309185969942272e-05,1.228425507982608970e-05,4.295672532206775421e-05,3.163636874731165673e-05,-9.748441185929424522e-05,-2.410555573739399051e-05,5.865081127816552606e-05,1.103258322108559782e-05,-8.326220101323630592e-05
3.294343421977781607e-05,-2.541842917669111322e-05,-1.002469830211831092e-05,9.706806024612413933e-06,5.056690117291187745e-05,-1.036356410605581595e-04,-8.191532329727709667e-05,6.473213545435915794e-05,1.099039893476625590e-04,-4.648663540918981815e-05
8.508012352488105725e-05,2.435159552116025109e-06,-3.616624960452940682e-05,-4.968345617978375871e-05,4.190881054633735720e-05,-1.653848603794739656e-04,-3.418156010708493629e-05,1.336188363217160160e-04,9.517611826587785617e-05,-7.274517121369080352e-05
1.565601804058375994e-04,-5.347573027220484815e-05,9.488001018706106708e-06,2.878412234162099276e-05,-1.022719870427146217e-04,-2.453131800839390675e-04,-8.749380849863518496e-05,4.931477343868749476e-05,1.543714685901754677e-04,9.004699134570948638e-05
-4.548132777962808626e-05,-6.174521336196240153e-05,5.995772778085993221e-05,2.179956153152753104e-04,6.069405277528155289e-05,-2.025406278702464652e-05,-1.516072245487671134e-04,7.504651990736730652e-05,2.090138714875852549e-06,-1.370145992162911692e-04
-4.818849811797937407e-04,-5.442824908852749512e-05,-3.967372022632568497e-04,6.632723010014219091e-05,-7.076957624237167300e-06,1.108203166822125003e-03,-6.541137726968024606e-06,-2.380471965578169718e-04,-2.011861040843793342e-05,2.936181545522664789e-05
-2.474925015683078640e-04,-2.139372943200425214e-04,6.139951327417284086e-04,-2.363943585853741153e-05,-8.128760758600163221e-04,1.140949508427657874e-03,1.040713514037139753e-04,1.844167541550100788e-04,-7.005926408638016864e-04,-4.221677872692763798e-05
4.984727706996952730e-04,3.771147860728347621e-04,-7.028987252675036922e-04,5.902555332563761553e-04,2.386219851007085301e-03,-4.114306827369155692e-03,-9.341042027802552066e-04,4.745907561452673932e-05,2.997198862931443712e-03,-1.180796751004903897e-03
-1.596687017384538099e-03,9.805576300592751086e-04,1.407640124503865700e-03,-2.432285382696295836e-03,1.608720890618896998e-04,3.493360065898713394e-05,1.414875616513763531e-05,2.783657269329818142e-03,6.409222134690749232e-04,-2.152505081773018348e-03
1.007277413981228636e-03,-7.544820697043110123e-04,-3.323030308235616864e-04,4.043609027648753171e-04,-7.764090440633982610e-04,-1.002637642254914957e-04,-6.163809262896972115e-04,2.980359959964192255e-05,1.017351444172553228e-04,1.080178485115337655e-03
-6.016255612163321420e-04,-1.189689933139226547e-04,3.443789971814220727e-04,9.007465518533497317e-05,-5.432096990582124764e-04,-2.254890192998415868e-04,2.230892443539415047e-04,7.316376676266827129e-04,-9.564282435103117937e-05,2.024804332099216836e-04
-1.969080859020841444e-04,-5.477885752748926714e-06,1.733300667538731224e-04,3.277431316165032010e-04,9.640584657420774506e-05,1.123211325905475848e-05,7.626941124803897072e-05,-1.891793317835764555e-04,-8.123052775453007976e-05,-2.149986912829109499e-04
-2.681528646484599847e-06,3.527644557408617825e-05,-9.068991876782584241e-05,-5.577756907326545099e-05,9.758480869318271055e-05,5.930138139223548841e-05,5.134918879502454162e-05,9.278390072073747978e-05,-1.175690837491228291e-04,-6.908702040229915120e-05
-1.035892846653333659e-04,2.988520621590355796e-05,1.320526299534084908e-04,-1.577819476920668158e-04,1.161698937896770816e-04,-6.429232781919064384e-05,-2.635838945806471628e-05,-3.120470176355164221e-05,5.702232090834989870e-05,4.877063480840518529e-05
5.047903621998454032e-05,-4.097982339162464620e-05,-1.053748638515991784e-04,-1.055379393373477184e-05,-3.255616719899232019e-05,-7.996419719437198874e-06,-2.410043056375846222e-07,2.045464069130769941e-04,1.593921306851345970e-04,-2.165063644056076215e-04
3.701829536046846790e-05,-2.731987175571822473e-05,-1.896180128458922733e-06,-2.143123243651795496e-04,-1.184526102972575245e-04,1.286541151170835005e-04,-5.136007517368581485e-05,2.168962284629153932e-05,1.184633120050263688e-04,1.072180424012802568e-04
3.664967352988429135e-05,-8.758544244467370823e-06,-2.503122449677596103e-06,-1.255441247078306535e-04,3.756483578017172289e-05,-6.826053920765611871e-05,-5.350072476554222476e-05,1.539237440053582679e-05,9.176177103883475324e-05,7.733381589773657917e-05
-5.767883766387426491e-05,-1.448572410950162240e-06,-2.417951943292507484e-05,-8.717671512769643340e-05,-6.295106622635067114e-05,4.442187168227300066e-05,3.615644948684601577e-05,-2.919426994832119912e-06,1.255908533391851436e-04,3.003853346797962580e-05
9.644346025714740502e-06,1.780897776662550429e-05,-3.664269388113126300e-05,-1.193755106447447656e-04,5.610470363592464889e-05,4.664806503940436309e-06,-9.349713289129192703e-06,-1.273545724871866066e-06,2.912806008699260837e-05,4.927186081286886494e-05
-7.430733799288356443e-06,-6.985472852034387654e-05,-2.474435834157613759e-05,-8.461547493786659763e-05,7.872515520927298111e-05,4.750549901921949440e-05,-4.571549798671372663e-05,-1.008353247114378283e-05,1.054370883507837748e-04,1.084520847915385580e-05
-5.919574952543960305e-05,-8.880397307099266208e-05,-6.446620499282522084e-05,-8.237620164746268299e-05,5.701903712239683546e-05,2.475885606248982252e-05,2.655224325689358066e-05,-1.602025999291317975e-07,1.863254871830977806e-04,3.283579487493626149e-07
-4.922100743652516600e-06,-7.243439521992543545e-05,-1.024328208105228330e-04,-2.030168400452354762e-05,-2.671503945813186504e-05,3.643084724837072653e-05,6.088563633740348273e-05,-1.051414471494297896e-05,1.170093635732167436e-04,2.304506817398929835e-05
-7.337511407116001025e-05,1.513805418438153442e-04,-9.023563720458512309e-05,1.072329204265501146e-04,-2.842125055548315818e-05,-6.043804491202998665e-05,2.690634858021912894e-05,-6.478978823029070254e-06,-1.147534772420685303e-05,-1.476034816795948237e-05
-3.440622105733961089e-05,1.225776048190847507e-04,-1.476864728363511127e-05,1.464431662708191688e-04,2.275331598464036355e-05,-8.302802026702639797e-05,-9.615987975034619281e-05,-2.094456597641513636e-05,-6.757695419623567480e-05,2.533048839316002032e-05
-4.830082641502559976e-05,-8.151330573152075151e-05,8.932169945007128136e-06,7.514023464976365182e-05,1.513588953884561789e-04,-3.946583312237580445e-05,-1.622207357305462244e-05,8.292612099952037898e-06,-1.874077637290579040e-05,-3.940021067357588351e-05
-3.683726122134243373e-06,-3.578261107869519720e-05,-2.437459309955380794e-05,5.534042688559358080e-05,4.367459525548395108e-05,-1.120622570513904123e-04,-2.623964801858413658e-05,7.034212302963728121e-06,3.818414375476759666e-05,5.814401445458231764e-05
-1.787184261587748191e-05,3.524137871239560091e-05,-3.085705982925917811e-06,-1.363208749340953339e-05,4.598717785241766734e-05,-1.282154127865841209e-04,-4.982635009616713460e-06,1.419231710007034887e-05,6.658216358131535716e-05,5.759822008428564473e-06
2.120454309353582664e-05,-1.355766931267227256e-05,3.012338252706045540e-05,2.409995711823650447e-05,6.278572670489212008e-05,-1.308736021578728456e-04,-1.085007058723755528e-05,-4.507297316430169102e-06,2.709255683632884459e-05,-5.630478545638063268e-06
2.696378479100657009e-05,-1.385860082639524039e-06,-1.192730630440256355e-05,-1.510926267480723281e-06,-1.056061067226120115e-05,-1.353618619483071023e-04,-7.350396826207761692e-05,3.815581277445456764e-05,5.421396488481312512e-05,1.149835368567063003e-04
7.330947756527535588e-05,2.711079268040161329e-05,5.019953958834953180e-05,-9.264735569528501633e-05,1.650685930878965628e-05,-1.273520109461961350e-04,-1.483518991216657083e-06,6.252367168114292663e-05,-1.009342702408677555e-05,1.950526990957524236e-06
8.228800107163988331e-05,-3.507857267545025218e-05,7.643156437291564358e-05,-1.479316467450593665e-05,-1.346820139729685434e-04,-2.520478713709714525e-04,-6.724096263754695917e-05,1.143377397785970911e-04,1.660987168421791161e-04,6.464309514021293905e-05
2.769094159625525844e-04,-1.942418741701186934e-06,-4.774897353614191727e-05,3.481438315303943374e-06,-1.528879580372416219e-04,-1.785342798864014854e-04,-8.955708602044594403e-05,-2.478656613976319202e-05,1.973956956083535005e-04,1.863046005710694894e-05
8.460687170120742844e-05,-1.755914720751046269e-05,1.000009308480564633e-04,-1.185767124854697496e-04,-2.452359973987109916e-04,-3.426086358119847641e-04,-1.270649691500124682e-04,1.518073114603909579e-04,3.147471443101428155e-04,1.998281296416146754e-04
-3.218268557631473480e-04,-3.072515383153831309e-04,-6.674243048597968699e-05,1.778161367360373620e-04,-3.401079201641505787e-04,1.135818398391251656e-03,2.501216011830440064e-04,-2.693804849314325738e-04,-8.194833377388916504e-05,-1.729994806245821676e-04
-6.284165106010520217e-04,-2.130877516222268276e-05,-1.023537207662430162e-05,2.384911766509627284e-04,2.288494698284168844e-04,-3.245665945632298494e-04,-4.159313407709393251e-04,2.454212551326945193e-05,1.365181080829958211e-03,-4.555383074738756938e-04
-2.498134925302730649e-04,9.864660922534358722e-04,-5.692507527116035361e-04,1.159916683279162402e-03,2.347297324153836402e-04,4.690485640554692935e-03,2.971124605373738018e-03,-5.774514104563911905e-03,-2.687915725390444249e-03,-7.543862425338610607e-04
-1.102307900065702595e-03,-2.726775521228916657e-03,-8.199066714049597525e-04,2.180966147494595858e-03,-3.884028296593165265e-03,1.381834102903622876e-03,4.351524462881766722e-04,1.990757278224929486e-04,-3.283504395198417851e-04,4.634621433866201873e-03
-1.205230482503848134e-03,2.437124147575900487e-04,8.797046860599389267e-04,-1.074795408116633504e-03,-1.393269907525005813e-03,4.713666029225533813e-05,3.344894125279297735e-04,1.960786404172030865e-03,2.189344682133499015e-04,-5.450748179341119535e-05
1.469092317036635518e-04,-2.221280057775434674e-04,-5.228462946840233190e-05,7.540018120588515250e-05,5.844306626571929390e-04,-2.060810241827633706e-04,-1.696566763731023965e-06,-5.049935941579345171e-05,7.122664060971528404e-05,-3.460867461161456528e-04
6.537046008353041590e-05,8.209637271595125014e-05,-8.025237825174289202e-05,-5.893281605163136396e-04,-1.956170794759783235e-04,2.352581281653291962e-04,-4.293739351205245092e-05,6.544966697326124296e-04,1.039053013201004513e-04,-2.338001993972949446e-04
-1.100758345397126638e-04,-1.176925304194394064e-04,2.998404609675469593e-04,8.506665074683813122e-05,-1.249778119638667950e-04,8.396096695322608275e-05,-1.291941187934875083e-04,8.790178839398141706e-05,1.412730278267859067e-04,-2.165055930775133439e-04
5.547922709972041930e-05,-8.807657954478128031e-05,-3.258286666655702939e-05,-8.142804314813754940e-05,-1.501493810412635936e-04,8.089525891978870294e-05,-6.585270602327604556e-06,9.621352840020764435e-05,5.560964732189409445e-05,7.112525433242669517e-05
-2.017593649550467511e-05,4.385036083048741230e-05,-1.092562179856432068e-04,-1.080908721357757923e-04,-1.255203936201444313e-04,9.108137106817795205e-05,1.215327259571909622e-05,-6.579986983974794401e-05,3.556332001615356226e-05,2.457998397472773528e-04
-6.089293406708118155e-05,-7.420660246665949111e-06,-8.941420724611016046e-05,-4.052680092050199622e-05,-5.410826780102410609e-06,2.745293234901091372e-05,4.977453376180531152e-05,-3.146087739840708927e-05,7.307030371223125756e-05,8.486887653421307926e-05
6.133337516839537907e-06,3.400441647270125741e-05,-3.675147379493548267e-05,-5.521768681711406297e-05,4.093028276463425388e-05,6.912266496574260525e-05,-2.011773475627588707e-06,-5.070504555602938396e-05,-4.239613715465277314e-05,3.688880040675444877e-05
-2.408749252022450625e-05,-1.867298044661269810e-05,-6.401334985979505025e-05,-2.380229388617321654e-05,7.272682064631723949e-05,5.802486678092954335e-06,2.606294330838024911e-05,-3.884688334157434625e-05,2.320198995724936464e-05,4.164607405327960208e-05
4.596753359672858072e-06,2.996044636818789813e-06,-2.493497806612287226e-05,-2.387064584957057450e-05,1.981939729388899809e-05,8.084217531447383104e-05,-3.410788326193450281e-05,-5.517485920831244621e-05,-4.777370272745776449e-07,3.007106434770529926e-05
-4.145850329793397069e-05,-9.927273716656734886e-06,-1.050817447777631358e-04,-6.730139672899226682e-05,5.329198027866525003e-05,8.533392578884920518e-05,8.336947551213222732e-05,2.024008510145159777e-05,2.135247792209400485e-05,-3.963121016336515235e-05
4.740930319855821101e-06,-1.522000966000536259e-04,-9.261969476209173165e-05,6.718314777572688716e-05,8.473174038913033424e-06,3.782362234108614950e-05,6.208539022381076979e-05,-3.207441908309577972e-05,1.276982046772132844e-04,-3.097979510307851314e-05
-3.355571021799881842e-05,-7.825588202336495128e-05,-1.029733338639463275e-04,-9.591035563667681018e-06,7.336299573449924167e-05,7.821198684222149279e-05,1.745554325305159795e-05,-3.533122880285696174e-05,1.041130631085145325e-04,-1.362491081196032289e-05
-1.663360001500829638e-04,3.804916110286848431e-04,-1.543952936311793092e-04,1.624298400697071429e-04,-1.486835812215925692e-04,2.434775712248621571e-05,-1.535377073783757615e-05,-1.549230203148673629e-04,5.087665595655381658e-05,2.200865601145055511e-05
-9.950137351494413448e-05,-7.599267690183400981e-06,2.822934938153075292e-05,4.955682616409732330e-05,5.688497896200008695e-05,-1.120925735886690443e-05,-4.380448372898027875e-06,-5.081795735814814523e-05,-2.124794977074874770e-05,6.015558322744202490e-05
-1.311399054937119725e-04,-5.483504623966982080e-05,1.584143255061933205e-05,4.349516022046030821e-05,5.048976874429294458e-05,-3.433428278085329916e-05,3.970803085554010101e-05,5.157024861416442777e-05,-2.980661732648959834e-05,4.909786997144458226e-05
-1.054277361284009710e-04,-2.897888871388556669e-05,-1.677916980729126124e-05,-1.975303567333456842e-05,9.362888146052667231e-05,4.676762452258102385e-06,5.059816825677009478e-06,2.341965348649711394e-06,2.799567992972159736e-05,3.724290197787276954e-05
-1.053369718700541020e-04,1.196725401236679005e-05,-5.781416256036577346e-06,-2.117660929542124407e-05,3.895663410714437423e-05,2.051167346524690528e-05,-1.202700279464008075e-05,1.225077749737860053e-05,-1.270252790340630480e-05,7.313105803102952767e-05
-3.662708932009087453e-05,-5.463278054857561643e-07,5.511503613207982121e-05,-2.632991462695939315e-05,-2.998606120399591329e-06,-5.386639892697460663e-05,-9.478290355339189484e-06,-4.956270668355793852e-06,2.917316117292414156e-05,5.051673736375121619e-05
1.255624599869717794e-05,2.165622633292567877e-05,-1.691931930551038901e-05,-2.300112628741816413e-05,-5.287097488454168512e-05,3.456169876442458116e-05,1.716223783853582544e-05,-6.676429160016095535e-05,-4.097685179276840144e-05,1.144937324939375786e-04
-1.561309760960067402e-05,8.393121021297332356e-06,-4.790794126786503652e-05,-7.373445234586193525e-05,-9.693960246208373514e-05,-4.926355467100748778e-05,8.156936360911508463e-05,-4.867823347406228504e-05,1.203274648618057484e-04,1.216833045739005177e-04
7.432283869092241348e-05,-1.993178708027959969e-05,-9.322730537095254440e-05,1.780677559809487883e-05,-1.169138976258475630e-04,-6.405831687603028674e-05,5.002696762427013665e-05,-1.110244318156993132e-04,-5.844750105693516449e-05,3.218726693044263458e-04
1.830861875377117615e-04,3.125729390517895090e-05,-2.144016633395673529e-04,5.952252229659744637e-06,4.006752710786594873e-05,-2.318956114489971216e-04,3.820069911789463884e-05,-5.582830013193279691e-05,5.063801524832050856e-05,1.529080442803361188e-04
1.805276129556990434e-04,3.721746897679097394e-07,-6.245877578435627406e-05,9.866629804706125435e-05,1.434876948738433107e-04,-3.722669325233039675e-04,1.276932758758434492e-04,-2.622956760062261574e-04,3.056169537960437521e-06,1.431543213392178133e-04
1.032942188386276025e-04,2.661124812226183835e-04,-2.538611351597469209e-04,2.374074998653024422e-04,1.238793545113508554e-04,-1.061377082028324955e-03,1.472993443932992658e-04,2.482988608450972324e-04,2.652919140191575798e-04,-8.016003657196513362e-05
-8.680845733380035704e-04,1.499514900033091156e-04,1.486752406182549439e-03,-2.881822527155103087e-05,-1.134075279782960485e-03,1.014168862843676036e-03,-9.486757369708361974e-04,-4.443396717316722144e-04,9.642059832619841913e-04,-1.836259518478428456e-04
9.746067903862573514e-04,6.999322395663475603e-04,5.488094772924118482e-05,-2.187214684594600018e-03,6.820480937857241813e-04,-1.282129163122112513e-03,-1.900285574538763175e-03,2.292083889980262544e-03,1.989222611322376526e-03,-1.421072207117826799e-03
2.439202097705139675e-03,2.139197917330902879e-03,-9.033591409467649561e-04,-1.231817620190428161e-03,6.290944864297677401e-04,-2.398356672915113639e-04,-0.000000000000000000e+00,-1.521538378749857229e-03,0.000000000000000000e+00,-6.603540358997611777e-04
3.058941241052792227e-03,-7.638010569977644057e-04,-2.266297871220376240e-03,-8.435152962236592937e-04,6.201727438707433206e-04,2.226792911570111069e-03,-8.699948698361090844e-04,-3.016936381670701564e-03,7.244245746431390506e-04,1.306607661922510721e-03
-8.319632428578302170e-04,-2.428610082007801204e-04,1.484721307267652393e-04,6.704889844259707618e-04,1.902293698885917179e-04,-8.886408524077549253e-05,3.860911639583614551e-04,-2.636321095188227481e-04,3.050634524214450302e-05,1.867700679142132841e-05
1.341184122228607375e-04,-2.662596789765967614e-04,4.826778016879650773e-04,3.925276032545076447e-04,-3.515134627578629743e-04,-3.061464488363570572e-04,-2.038898811303674395e-04,1.630923035203717488e-04,-1.775123576175070361e-04,1.308501456557218138e-04
7.926117547244653854e-07,-3.516918337677572056e-05,-1.698023557440985314e-05,-2.704661016379034111e-04,-2.149245471088801363e-04,1.717752695804465493e-04,6.825555957145588586e-06,-1.843979642366649156e-05,-3.688123881974113147e-05,4.114544886009515899e-04
-2.293310729903788882e-05,9.291827221801633127e-07,-9.070936489869528660e-05,6.067158074777506059e-05,-8.371934664771440136e-05,2.350230350793040205e-04,9.450347910034199962e-05,-1.629022644318703144e-04,-1.483317638510231505e-04,1.167473483862544684e-04
1.556965494623233185e-05,-3.279474105954642815e-05,-1.890600773236921904e-04,8.497608315849069420e-05,1.714090551423829743e-05,2.181508354586988215e-05,1.373756485252394701e-04,-1.084404529795391444e-04,-4.435998091717172808e-05,9.793459684538118374e-05
1.811455323213260717e-05,-2.866109846632486176e-05,-9.592059407444345029e-05,-4.959732479897669320e-06,1.007929485961244138e-04,6.018440568343380506e-05,3.084211604583352652e-05,-1.075375675802527461e-04,-6.724486121613949493e-05,9.481133630550054865e-05
-4.280185660295755129e-05,-3.745299399959373653e-06,-5.760481560247288741e-05,2.568768543907215952e-05,3.449010516747779787e-05,3.364366436831277431e-05,4.527675432757137194e-05,-4.548666223138351123e-05,-6.857754227928104047e-05,7.876534429205396841e-05
1.216330237414506075e-05,-5.897584012882710930e-06,-2.856125232293843890e-05,-6.148876499358198135e-05,6.427467413748560933e-05,4.144091172082711336e-05,1.212032274652076512e-05,-2.157947716604407133e-05,-9.277765075275493201e-06,-3.167779397508128385e-06
1.046032449611293952e-05,-6.887109357101486032e-06,-2.468128667623265186e-05,-2.683847709231484903e-05,1.215618877736282353e-04,-1.025156222001528427e-06,4.283735717651386663e-05,-2.382481105893522372e-05,-9.449266348380912879e-05,2.973984770246748160e-06
-1.283409882223154899e-05,-2.814730512675768878e-05,-4.950181781673634136e-05,2.262936271271006260e-05,1.259216585320891561e-05,4.340149201554566264e-05,6.743392548394031428e-05,-5.126143299826488395e-05,-2.297743836322193274e-05,1.887139152828345707e-05
-3.412975922903772343e-05,-2.264285096116389474e-04,3.945172801727872199e-06,1.370790563990076090e-04,-5.052312005197505179e-05,3.107547175018939175e-05,1.942325431647936126e-05,-2.625079171511763001e-05,1.868149825867122620e-04,-4.143842239060049518e-05
-7.373675548930982428e-05,1.796842231283845275e-06,-1.884922339545870237e-05,7.848235317751331549e-06,6.955556229486283275e-05,-1.574520682141019657e-05,2.029337307050262205e-05,-3.378138980358156456e-05,5.022169057374416355e-05,-7.503925382593094393e-06
-1.186332061483709167e-04,3.362572444467353851e-04,8.295521013353606099e-06,1.232630515847067706e-05,-4.875522393695405973e-05,-1.406152458548292874e-05,-4.604960092056594454e-05,-1.844743202402551404e-04,1.203489619828188975e-05,4.351621889078593044e-05
-3.249607312668044673e-05,2.137071448862551800e-05,-7.674252095302251935e-05,-7.077121464423323169e-05,2.370526248137111184e-05,-5.752100898871603541e-05,6.319740804057653156e-05,-4.880947954708835529e-06,5.839521882031395238e-05,7.572750707961258139e-05
-2.704819112247152657e-05,-5.606586887108002337e-05,-2.487625322066695912e-05,7.869429834640594590e-05,3.530489996934566222e-05,-1.785431490692361231e-05,5.305427197707384675e-06,-2.888699140384819422e-05,-2.489056050918677412e-05,6.006655548895614060e-05
-7.675913677045280708e-05,-7.310329085618158193e-05,-4.797941319698370097e-06,3.865874235799936752e-05,9.028152237143942404e-05,-1.475612692691048895e-05,3.027586877146347483e-05,2.721652410106843124e-06,-4.985633532256464898e-05,5.740045294192470233e-05
-8.376984799492406711e-05,3.127592016068963572e-05,1.168527606562288903e-05,5.039444223308042243e-05,-4.419951242519760574e-05,1.580287257275612086e-05,4.201896104123535147e-05,-3.437893332409214004e-05,-4.643554637323904955e-05,5.739395911628973021e-05
-4.811543574114894914e-05,2.878327878516372194e-05,-3.703569445231310567e-05,-3.987793116687406728e-05,-7.005924456646552348e-05,4.110534012646154846e-05,3.914289777356009582e-05,-2.378130288901520366e-06,-8.046099783806840054e-06,9.654524037544856812e-05
-6.109738314923074138e-05,2.707378537606811434e-05,-2.734669630023184729e-05,6.114732515926401863e-05,-1.433693311843123545e-05,-2.645756812055749605e-05,7.882895322767213773e-06,-4.701648292986527695e-06,6.000202160631363068e-06,3.203884599316395769e-05
9.648240010117777694e-06,-4.003150142799115276e-05,-7.395636869174905472e-05,8.607050325615384943e-06,1.290006962148581932e-05,4.795966413766158601e-05,8.416145580678880669e-05,-1.682973822051685880e-05,-5.871546824246235747e-05,2.650512470356507523e-05
9.157658663670325020e-05,-1.222554242623524651e-06,-1.192205655942126327e-04,-4.346391734376501707e-05,7.054041440828063929e-05,7.395449339030247437e-06,7.693411026940742106e-05,-8.431021562553376951e-05,3.522718036040126951e-05,-3.294111644212912058e-05
1.264933031879794255e-04,-3.561880992502755453e-05,-2.939571797185813978e-05,1.985914942347610576e-05,2.525293892027698466e-05,-4.697561983321064006e-05,1.884923062692409903e-04,-9.081623332651080115e-05,-1.530445008709004399e-04,-3.969052290719958713e-06
-1.136974848075238169e-04,-9.655432680443855646e-05,3.360420941351916451e-05,1.373105713052453685e-05,-1.400480001780472317e-04,1.760116548078845158e-04,2.344294699778958217e-04,9.190652984744963091e-05,-2.126687039116242786e-04,1.357192711691455177e-05
1.075118978814345482e-04,-3.308248814263659390e-04,7.189316553281393477e-05,-1.912056954415267091e-05,2.082938700244248923e-05,2.284457767150610281e-04,3.570650750053234014e-04,-2.421179303863200147e-04,-3.636205038294993254e-04,1.720988773396671205e-04
1.389197247803288991e-05,-1.246135787713792626e-03,2.423442671770422753e-03,4.097405751671615286e-05,9.852217578036124961e-04,-1.018525621006425696e-03,-1.414509918744913690e-03,3.335145232716273957e-04,3.885561053861913893e-04,-5.214315317670641277e-04
