-0.000000000000000000e+00,0.000000000000000000e+00,0.000000000000000000e+00,-0.000000000000000000e+00,0.000000000000000000e+00,0.000000000000000000e+00,-0.000000000000000000e+00,0.000000000000000000e+00,-0.000000000000000000e+00,-0.000000000000000000e+00
0.000000000000000000e+00,0.000000000000000000e+00,0.000000000000000000e+00,0.000000000000000000e+00,0.000000000000000000e+00,0.000000000000000000e+00,0.000000000000000000e+00,0.000000000000000000e+00,0.000000000000000000e+00,0.000000000000000000e+00
0.000000000000000000e+00,0.000000000000000000e+00,0.000000000000000000e+00,0.000000000000000000e+00,0.000000000000000000e+00,0.000000000000000000e+00,0.000000000000000000e+00,0.000000000000000000e+00,0.000000000000000000e+00,0.000000000000000000e+00
0.000000000000000000e+00,0.000000000000000000e+00,0.000000000000000000e+00,0.000000000000000000e+00,0.000000000000000000e+00,0.000000000000000000e+00,0.000000000000000000e+00,0.000000000000000000e+00,0.000000000000000000e+00,0.000000000000000000e+00
0.000000000000000000e+00,0.000000000000000000e+00,0.000000000000000000e+00,0.000000000000000000e+00,0.000000000000000000e+00,0.000000000000000000e+00,0.000000000000000000e+00,0.000000000000000000e+00,0.000000000000000000e+00,0.000000000000000000e+00
0.000000000000000000e+00,0.000000000000000000e+00,0.000000000000000000e+00,0.000000000000000000e+00,0.000000000000000000e+00,0.000000000000000000e+00,0.000000000000000000e+00,0.000000000000000000e+00,0.000000000000000000e+00,0.000000000000000000e+00
0.000000000000000000e+00,0.000000000000000000e+00,0.000000000000000000e+00,0.000000000000000000e+00,0.000000000000000000e+00,0.000000000000000000e+00,0.000000000000000000e+00,0.000000000000000000e+00,0.000000000000000000e+00,0.000000000000000000e+00
0.000000000000000000e+00,0.000000000000000000e+00,0.000000000000000000e+00,0.000000000000000000e+00,0.000000000000000000e+00,0.000000000000000000e+00,0.000000000000000000e+00,0.000000000000000000e+00,0.000000000000000000e+00,0.000000000000000000e+00
0.000000000000000000e+00,0.000000000000000000e+00,0.000000000000000000e+00,0.000000000000000000e+00,0.000000000000000000e+00,0.000000000000000000e+00,0.000000000000000000e+00,0.000000000000000000e+00,0.000000000000000000e+00,0.000000000000000000e+00
0.000000000000000000e+00,0.000000000000000000e+00,0.000000000000000000e+00,0.000000000000000000e+00,0.000000000000000000e+00,0.000000000000000000e+00,0.000000000000000000e+00,0.000000000000000000e+00,0.000000000000000000e+00,0.000000000000000000e+00
0.000000000000000000e+00,0.000000000000000000e+00,0.000000000000000000e+00,0.000000000000000000e+00,0.000000000000000000e+00,0.000000000000000000e+00,0.000000000000000000e+00,0.000000000000000000e+00,0.000000000000000000e+00,0.000000000000000000e+00
0.000000000000000000e+00,0.000000000000000000e+00,0.000000000000000000e+00,0.000000000000000000e+00,0.000000000000000000e+00,0.000000000000000000e+00,0.000000000000000000e+00,0.000000000000000000e+00,0.000000000000000000e+00,0.000000000000000000e+00
0.000000000000000000e+00,0.000000000000000000e+00,0.000000000000000000e+00,0.000000000000000000e+00,0.000000000000000000e+00,0.000000000000000000e+00,0.000000000000000000e+00,0.000000000000000000e+00,0.000000000000000000e+00,0.000000000000000000e+00
-0.000000000000000000e+00,-0.000000000000000000e+00,0.000000000000000000e+00,-0.000000000000000000e+00,-0.000000000000000000e+00,-0.000000000000000000e+00,-0.000000000000000000e+00,-0.000000000000000000e+00,-0.000000000000000000e+00,-0.000000000000000000e+00
-0.000000000000000000e+00,-0.000000000000000000e+00,0.000000000000000000e+00,-0.000000000000000000e+00,-0.000000000000000000e+00,-0.000000000000000000e+00,-0.000000000000000000e+00,-0.000000000000000000e+00,-0.000000000000000000e+00,-0.000000000000000000e+00
-0.000000000000000000e+00,-0.000000000000000000e+00,0.000000000000000000e+00,-0.000000000000000000e+00,-0.000000000000000000e+00,-0.000000000000000000e+00,-0.000000000000000000e+00,-0.000000000000000000e+00,-0.000000000000000000e+00,-0.000000000000000000e+00
-0.000000000000000000e+00,-0.000000000000000000e+00,0.000000000000000000e+00,-0.000000000000000000e+00,-0.000000000000000000e+00,-0.000000000000000000e+00,-0.000000000000000000e+00,-0.000000000000000000e+00,-0.000000000000000000e+00,-0.000000000000000000e+00
0.000000000000000000e+00,0.000000000000000000e+00,0.000000000000000000e+00,0.000000000000000000e+00,0.000000000000000000e+00,0.000000000000000000e+00,0.000000000000000000e+00,0.000000000000000000e+00,0.000000000000000000e+00,0.000000000000000000e+00
0.000000000000000000e+00,0.000000000000000000e+00,0.000000000000000000e+00,0.000000000000000000e+00,0.000000000000000000e+00,0.000000000000000000e+00,0.000000000000000000e+00,0.000000000000000000e+00,0.000000000000000000e+00,0.000000000000000000e+00
0.000000000000000000e+00,0.000000000000000000e+00,0.000000000000000000e+00,0.000000000000000000e+00,0.000000000000000000e+00,0.000000000000000000e+00,0.000000000000000000e+00,0.000000000000000000e+00,0.000000000000000000e+00,0.000000000000000000e+00
0.000000000000000000e+00,0.000000000000000000e+00,0.000000000000000000e+00,0.000000000000000000e+00,0.000000000000000000e+00,0.000000000000000000e+00,0.000000000000000000e+00,0.000000000000000000e+00,0.000000000000000000e+00,0.000000000000000000e+00
0.000000000000000000e+00,0.000000000000000000e+00,0.000000000000000000e+00,0.000000000000000000e+00,0.000000000000000000e+00,0.000000000000000000e+00,0.000000000000000000e+00,0.000000000000000000e+00,0.000000000000000000e+00,0.000000000000000000e+00
0.000000000000000000e+00,0.000000000000000000e+00,0.000000000000000000e+00,0.000000000000000000e+00,0.000000000000000000e+00,0.000000000000000000e+00,0.000000000000000000e+00,0.000000000000000000e+00,0.000000000000000000e+00,0.000000000000000000e+00
0.000000000000000000e+00,0.000000000000000000e+00,0.000000000000000000e+00,0.000000000000000000e+00,0.000000000000000000e+00,0.000000000000000000e+00,0.000000000000000000e+00,0.000000000000000000e+00,0.000000000000000000e+00,0.000000000000000000e+00
0.000000000000000000e+00,0.000000000000000000e+00,0.000000000000000000e+00,0.000000000000000000e+00,0.000000000000000000e+00,0.000000000000000000e+00,0.000000000000000000e+00,0.000000000000000000e+00,0.000000000000000000e+00,0.000000000000000000e+00
0.000000000000000000e+00,0.000000000000000000e+00,0.000000000000000000e+00,0.000000000000000000e+00,0.000000000000000000e+00,0.000000000000000000e+00,0.000000000000000000e+00,0.000000000000000000e+00,0.000000000000000000e+00,0.000000000000000000e+00
0.000000000000000000e+00,0.000000000000000000e+00,0.000000000000000000e+00,0.000000000000000000e+00,0.000000000000000000e+00,0.000000000000000000e+00,0.000000000000000000e+00,0.000000000000000000e+00,0.000000000000000000e+00,0.000000000000000000e+00
0.000000000000000000e+00,0.000000000000000000e+00,0.000000000000000000e+00,0.000000000000000000e+00,0.000000000000000000e+00,0.000000000000000000e+00,0.000000000000000000e+00,0.000000000000000000e+00,0.000000000000000000e+00,0.000000000000000000e+00
0.000000000000000000e+00,0.000000000000000000e+00,0.000000000000000000e+00,0.000000000000000000e+00,0.000000000000000000e+00,0.000000000000000000e+00,0.000000000000000000e+00,0.000000000000000000e+00,0.000000000000000000e+00,0.000000000000000000e+00
0.000000000000000000e+00,0.000000000000000000e+00,0.000000000000000000e+00,0.000000000000000000e+00,0.000000000000000000e+00,0.000000000000000000e+00,0.000000000000000000e+00,0.000000000000000000e+00,0.000000000000000000e+00,0.000000000000000000e+00
0.000000000000000000e+00,0.000000000000000000e+00,0.000000000000000000e+00,0.000000000000000000e+00,0.000000000000000000e+00,0.000000000000000000e+00,0.000000000000000000e+00,0.000000000000000000e+00,0.000000000000000000e+00,0.000000000000000000e+00
0.000000000000000000e+00,0.000000000000000000e+00,0.000000000000000000e+00,0.000000000000000000e+00,0.000000000000000000e+00,0.000000000000000000e+00,0.000000000000000000e+00,0.000000000000000000e+00,0.000000000000000000e+00,0.000000000000000000e+00
0.000000000000000000e+00,0.000000000000000000e+00,0.000000000000000000e+00,0.000000000000000000e+00,0.000000000000000000e+00,0.000000000000000000e+00,0.000000000000000000e+00,0.000000000000000000e+00,0.000000000000000000e+00,0.000000000000000000e+00
-0.000000000000000000e+00,-0.000000000000000000e+00,-0.000000000000000000e+00,-0.000000000000000000e+00,-0.000000000000000000e+00,-0.000000000000000000e+00,0.000000000000000000e+00,-0.000000000000000000e+00,-0.000000000000000000e+00,-0.000000000000000000e+00
-0.000000000000000000e+00,-0.000000000000000000e+00,-0.000000000000000000e+00,-0.000000000000000000e+00,-0.000000000000000000e+00,-0.000000000000000000e+00,0.000000000000000000e+00,-0.000000000000000000e+00,-0.000000000000000000e+00,-0.000000000000000000e+00
-0.000000000000000000e+00,-0.000000000000000000e+00,-0.000000000000000000e+00,-0.000000000000000000e+00,-0.000000000000000000e+00,-0.000000000000000000e+00,0.000000000000000000e+00,-0.000000000000000000e+00,-0.000000000000000000e+00,-0.000000000000000000e+00
-0.000000000000000000e+00,-0.000000000000000000e+00,-0.000000000000000000e+00,-0.000000000000000000e+00,-4.343271846346828452e-05,-0.000000000000000000e+00,5.234898410316648451e-05,-0.000000000000000000e+00,-0.000000000000000000e+00,-0.000000000000000000e+00
-0.000000000000000000e+00,-0.000000000000000000e+00,-0.000000000000000000e+00,-0.000000000000000000e+00,-0.000000000000000000e+00,-0.000000000000000000e+00,0.000000000000000000e+00,-0.000000000000000000e+00,-0.000000000000000000e+00,-0.000000000000000000e+00
-0.000000000000000000e+00,-0.000000000000000000e+00,-0.000000000000000000e+00,-0.000000000000000000e+00,-0.000000000000000000e+00,-0.000000000000000000e+00,0.000000000000000000e+00,-0.000000000000000000e+00,-0.000000000000000000e+00,-0.000000000000000000e+00
-0.000000000000000000e+00,-0.000000000000000000e+00,-0.000000000000000000e+00,-0.000000000000000000e+00,-0.000000000000000000e+00,-0.000000000000000000e+00,0.000000000000000000e+00,-0.000000000000000000e+00,-0.000000000000000000e+00,-0.000000000000000000e+00
0.000000000000000000e+00,-0.000000000000000000e+00,-0.000000000000000000e+00,-0.000000000000000000e+00,-0.000000000000000000e+00,-0.000000000000000000e+00,0.000000000000000000e+00,-0.000000000000000000e+00,-0.000000000000000000e+00,-0.000000000000000000e+00
0.000000000000000000e+00,-0.000000000000000000e+00,-0.000000000000000000e+00,-0.000000000000000000e+00,-1.829854643593587828e-04,-0.000000000000000000e+00,1.830356613577963933e-04,-0.000000000000000000e+00,-0.000000000000000000e+00,-0.000000000000000000e+00
0.000000000000000000e+00,-0.000000000000000000e+00,0.000000000000000000e+00,-0.000000000000000000e+00,-0.000000000000000000e+00,-0.000000000000000000e+00,6.888968996256783335e-06,-0.000000000000000000e+00,-0.000000000000000000e+00,-0.000000000000000000e+00
-0.000000000000000000e+00,0.000000000000000000e+00,0.000000000000000000e+00,-0.000000000000000000e+00,-0.000000000000000000e+00,-0.000000000000000000e+00,0.000000000000000000e+00,-0.000000000000000000e+00,-0.000000000000000000e+00,-0.000000000000000000e+00
0.000000000000000000e+00,0.000000000000000000e+00,0.000000000000000000e+00,-0.000000000000000000e+00,-3.996762794543313253e-04,-0.000000000000000000e+00,0.000000000000000000e+00,-0.000000000000000000e+00,-0.000000000000000000e+00,-0.000000000000000000e+00
0.000000000000000000e+00,0.000000000000000000e+00,0.000000000000000000e+00,-0.000000000000000000e+00,-4.128403097029990161e-04,-0.000000000000000000e+00,0.000000000000000000e+00,-0.000000000000000000e+00,-0.000000000000000000e+00,-0.000000000000000000e+00
0.000000000000000000e+00,-0.000000000000000000e+00,-0.000000000000000000e+00,-0.000000000000000000e+00,-0.000000000000000000e+00,-0.000000000000000000e+00,0.000000000000000000e+00,-0.000000000000000000e+00,-0.000000000000000000e+00,-0.000000000000000000e+00
-0.000000000000000000e+00,-0.000000000000000000e+00,-0.000000000000000000e+00,-0.000000000000000000e+00,-0.000000000000000000e+00,-0.000000000000000000e+00,0.000000000000000000e+00,-0.000000000000000000e+00,-0.000000000000000000e+00,-0.000000000000000000e+00
-0.000000000000000000e+00,-0.000000000000000000e+00,-0.000000000000000000e+00,-0.000000000000000000e+00,-0.000000000000000000e+00,-0.000000000000000000e+00,0.000000000000000000e+00,-0.000000000000000000e+00,-0.000000000000000000e+00,-0.000000000000000000e+00
-0.000000000000000000e+00,-0.000000000000000000e+00,-0.000000000000000000e+00,-0.000000000000000000e+00,-0.000000000000000000e+00,-0.000000000000000000e+00,0.000000000000000000e+00,-0.000000000000000000e+00,-0.000000000000000000e+00,-0.000000000000000000e+00
-0.000000000000000000e+00,-0.000000000000000000e+00,-0.000000000000000000e+00,-0.000000000000000000e+00,-0.000000000000000000e+00,-0.000000000000000000e+00,0.000000000000000000e+00,-0.000000000000000000e+00,-0.000000000000000000e+00,-0.000000000000000000e+00
-0.000000000000000000e+00,-0.000000000000000000e+00,-0.000000000000000000e+00,-0.000000000000000000e+00,-0.000000000000000000e+00,-0.000000000000000000e+00,0.000000000000000000e+00,-0.000000000000000000e+00,-0.000000000000000000e+00,-0.000000000000000000e+00
-0.000000000000000000e+00,-0.000000000000000000e+00,-0.000000000000000000e+00,-0.000000000000000000e+00,-0.000000000000000000e+00,-0.000000000000000000e+00,0.000000000000000000e+00,-0.000000000000000000e+00,-0.000000000000000000e+00,-0.000000000000000000e+00
0.000000000000000000e+00,0.000000000000000000e+00,0.000000000000000000e+00,0.000000000000000000e+00,0.000000000000000000e+00,0.000000000000000000e+00,0.000000000000000000e+00,0.000000000000000000e+00,0.000000000000000000e+00,0.000000000000000000e+00
0.000000000000000000e+00,0.000000000000000000e+00,0.000000000000000000e+00,0.000000000000000000e+00,0.000000000000000000e+00,0.000000000000000000e+00,0.000000000000000000e+00,0.000000000000000000e+00,0.000000000000000000e+00,0.000000000000000000e+00
0.000000000000000000e+00,0.000000000000000000e+00,0.000000000000000000e+00,0.000000000000000000e+00,0.000000000000000000e+00,0.000000000000000000e+00,0.000000000000000000e+00,0.000000000000000000e+00,0.000000000000000000e+00,0.000000000000000000e+00
0.000000000000000000e+00,0.000000000000000000e+00,0.000000000000000000e+00,0.000000000000000000e+00,0.000000000000000000e+00,0.000000000000000000e+00,0.000000000000000000e+00,0.000000000000000000e+00,0.000000000000000000e+00,0.000000000000000000e+00
0.000000000000000000e+00,0.000000000000000000e+00,0.000000000000000000e+00,0.000000000000000000e+00,0.000000000000000000e+00,0.000000000000000000e+00,0.000000000000000000e+00,0.000000000000000000e+00,0.000000000000000000e+00,0.000000000000000000e+00
0.000000000000000000e+00,0.000000000000000000e+00,0.000000000000000000e+00,0.000000000000000000e+00,0.000000000000000000e+00,0.000000000000000000e+00,0.000000000000000000e+00,0.000000000000000000e+00,0.000000000000000000e+00,0.000000000000000000e+00
-0.000000000000000000e+00,-0.000000000000000000e+00,-0.000000000000000000e+00,-0.000000000000000000e+00,-0.000000000000000000e+00,-0.000000000000000000e+00,0.000000000000000000e+00,-0.000000000000000000e+00,-0.000000000000000000e+00,-0.000000000000000000e+00
-0.000000000000000000e+00,-0.000000000000000000e+00,-0.000000000000000000e+00,-0.000000000000000000e+00,-0.000000000000000000e+00,-0.000000000000000000e+00,0.000000000000000000e+00,-0.000000000000000000e+00,-0.000000000000000000e+00,-0.000000000000000000e+00
-0.000000000000000000e+00,-0.000000000000000000e+00,-0.000000000000000000e+00,-0.000000000000000000e+00,-0.000000000000000000e+00,-0.000000000000000000e+00,0.000000000000000000e+00,-0.000000000000000000e+00,-0.000000000000000000e+00,-0.000000000000000000e+00
-0.000000000000000000e+00,-0.000000000000000000e+00,0.000000000000000000e+00,-0.000000000000000000e+00,-0.000000000000000000e+00,-0.000000000000000000e+00,0.000000000000000000e+00,-0.000000000000000000e+00,-0.000000000000000000e+00,-0.000000000000000000e+00
-0.000000000000000000e+00,-0.000000000000000000e+00,0.000000000000000000e+00,-0.000000000000000000e+00,-0.000000000000000000e+00,-0.000000000000000000e+00,0.000000000000000000e+00,-0.000000000000000000e+00,-0.000000000000000000e+00,-0.000000000000000000e+00
-0.000000000000000000e+00,-0.000000000000000000e+00,-0.000000000000000000e+00,-0.000000000000000000e+00,-1.725436991362067367e-04,-0.000000000000000000e+00,2.766312254666706714e-04,-0.000000000000000000e+00,-0.000000000000000000e+00,-0.000000000000000000e+00
-0.000000000000000000e+00,-0.000000000000000000e+00,-0.000000000000000000e+00,-0.000000000000000000e+00,-2.843858674321834371e-04,-0.000000000000000000e+00,5.534959305954205867e-04,-0.000000000000000000e+00,-0.000000000000000000e+00,-0.000000000000000000e+00
-0.000000000000000000e+00,-0.000000000000000000e+00,5.622316133227893024e-05,-0.000000000000000000e+00,-8.816698944375118399e-05,-0.000000000000000000e+00,4.893688734671535400e-04,-0.000000000000000000e+00,-0.000000000000000000e+00,-0.000000000000000000e+00
-0.000000000000000000e+00,-0.000000000000000000e+00,0.000000000000000000e+00,0.000000000000000000e+00,-6.371902492403060635e-04,-0.000000000000000000e+00,1.315166663306694284e-03,-0.000000000000000000e+00,-0.000000000000000000e+00,-0.000000000000000000e+00
-0.000000000000000000e+00,-0.000000000000000000e+00,0.000000000000000000e+00,0.000000000000000000e+00,-5.142966895628741644e-04,-4.216823477997723186e-05,1.075504367535955359e-03,-0.000000000000000000e+00,-0.000000000000000000e+00,-0.000000000000000000e+00
-0.000000000000000000e+00,0.000000000000000000e+00,0.000000000000000000e+00,2.137337784576581794e-05,-1.202454351385562293e-03,-0.000000000000000000e+00,1.467238725648298226e-03,-0.000000000000000000e+00,-0.000000000000000000e+00,-0.000000000000000000e+00
-0.000000000000000000e+00,3.087876681000255893e-04,0.000000000000000000e+00,-0.000000000000000000e+00,-1.077102531539338289e-03,-0.000000000000000000e+00,1.275699612271356809e-03,-0.000000000000000000e+00,-0.000000000000000000e+00,-0.000000000000000000e+00
-7.885105189684356059e-05,5.194261662892968095e-04,0.000000000000000000e+00,-0.000000000000000000e+00,-3.944192676700987248e-04,-5.114202251025031583e-05,1.111628564086269803e-03,-0.000000000000000000e+00,-0.000000000000000000e+00,-0.000000000000000000e+00
-2.707334162048240754e-04,1.223992452932960587e-03,2.242820373428740103e-04,-1.086578267618360351e-04,-6.970593734473689304e-04,-0.000000000000000000e+00,5.732740399123293284e-04,-0.000000000000000000e+00,-0.000000000000000000e+00,-0.000000000000000000e+00
-2.386819993482541878e-04,5.679440932284167626e-04,1.960527516953580577e-04,-0.000000000000000000e+00,-8.016809062352019339e-04,0.000000000000000000e+00,4.478380081036303874e-04,-0.000000000000000000e+00,-0.000000000000000000e+00,-0.000000000000000000e+00
-1.381332742868407720e-04,0.000000000000000000e+00,0.000000000000000000e+00,-0.000000000000000000e+00,-1.623527056146874411e-04,7.589010532507279411e-05,7.662656858361688045e-04,-0.000000000000000000e+00,-0.000000000000000000e+00,-0.000000000000000000e+00
-0.000000000000000000e+00,0.000000000000000000e+00,0.000000000000000000e+00,-5.407570525727744053e-07,-1.918244367478392544e-04,2.185488857882218400e-05,8.203049470408470007e-04,-0.000000000000000000e+00,0.000000000000000000e+00,-0.000000000000000000e+00
-0.000000000000000000e+00,0.000000000000000000e+00,-2.967958492652377584e-04,-0.000000000000000000e+00,-1.040282484937876390e-06,0.000000000000000000e+00,8.148272540239084177e-04,-0.000000000000000000e+00,-0.000000000000000000e+00,-0.000000000000000000e+00
-0.000000000000000000e+00,0.000000000000000000e+00,-0.000000000000000000e+00,-0.000000000000000000e+00,-0.000000000000000000e+00,-0.000000000000000000e+00,6.924587383893107033e-04,-0.000000000000000000e+00,-0.000000000000000000e+00,-0.000000000000000000e+00
-0.000000000000000000e+00,-0.000000000000000000e+00,-0.000000000000000000e+00,-0.000000000000000000e+00,-0.000000000000000000e+00,-0.000000000000000000e+00,6.024573932240842979e-04,-0.000000000000000000e+00,-0.000000000000000000e+00,-0.000000000000000000e+00
-0.000000000000000000e+00,-0.000000000000000000e+00,-0.000000000000000000e+00,-0.000000000000000000e+00,-0.000000000000000000e+00,-0.000000000000000000e+00,2.920462432134274407e-04,-0.000000000000000000e+00,-0.000000000000000000e+00,-0.000000000000000000e+00
-0.000000000000000000e+00,-0.000000000000000000e+00,-0.000000000000000000e+00,-0.000000000000000000e+00,-0.000000000000000000e+00,-0.000000000000000000e+00,1.278992215029693357e-06,-0.000000000000000000e+00,-0.000000000000000000e+00,-0.000000000000000000e+00
-0.000000000000000000e+00,-0.000000000000000000e+00,0.000000000000000000e+00,-0.000000000000000000e+00,-0.000000000000000000e+00,-0.000000000000000000e+00,-0.000000000000000000e+00,-0.000000000000000000e+00,-0.000000000000000000e+00,-0.000000000000000000e+00
-0.000000000000000000e+00,-0.000000000000000000e+00,0.000000000000000000e+00,-0.000000000000000000e+00,-0.000000000000000000e+00,-0.000000000000000000e+00,-0.000000000000000000e+00,-0.000000000000000000e+00,-0.000000000000000000e+00,-0.000000000000000000e+00
0.000000000000000000e+00,0.000000000000000000e+00,0.000000000000000000e+00,0.000000000000000000e+00,0.000000000000000000e+00,0.000000000000000000e+00,0.000000000000000000e+00,0.000000000000000000e+00,0.000000000000000000e+00,0.000000000000000000e+00
0.000000000000000000e+00,0.000000000000000000e+00,0.000000000000000000e+00,0.000000000000000000e+00,0.000000000000000000e+00,0.000000000000000000e+00,0.000000000000000000e+00,0.000000000000000000e+00,0.000000000000000000e+00,0.000000000000000000e+00
0.000000000000000000e+00,0.000000000000000000e+00,0.000000000000000000e+00,0.000000000000000000e+00,0.000000000000000000e+00,0.000000000000000000e+00,0.000000000000000000e+00,0.000000000000000000e+00,0.000000000000000000e+00,0.000000000000000000e+00
0.000000000000000000e+00,0.000000000000000000e+00,0.000000000000000000e+00,0.000000000000000000e+00,0.000000000000000000e+00,0.000000000000000000e+00,0.000000000000000000e+00,0.000000000000000000e+00,0.000000000000000000e+00,0.000000000000000000e+00
-0.000000000000000000e+00,0.000000000000000000e+00,-0.000000000000000000e+00,-0.000000000000000000e+00,-0.000000000000000000e+00,-0.000000000000000000e+00,-0.000000000000000000e+00,-0.000000000000000000e+00,-0.000000000000000000e+00,-0.000000000000000000e+00
-0.000000000000000000e+00,0.000000000000000000e+00,-0.000000000000000000e+00,-0.000000000000000000e+00,-0.000000000000000000e+00,0.000000000000000000e+00,0.000000000000000000e+00,-0.000000000000000000e+00,-0.000000000000000000e+00,-0.000000000000000000e+00
-0.000000000000000000e+00,-0.000000000000000000e+00,-0.000000000000000000e+00,-0.000000000000000000e+00,-0.000000000000000000e+00,0.000000000000000000e+00,0.000000000000000000e+00,-0.000000000000000000e+00,-0.000000000000000000e+00,-0.000000000000000000e+00
-0.000000000000000000e+00,-0.000000000000000000e+00,-0.000000000000000000e+00,2.895287863559106137e-04,-0.000000000000000000e+00,-0.000000000000000000e+00,0.000000000000000000e+00,-0.000000000000000000e+00,-0.000000000000000000e+00,-0.000000000000000000e+00
-0.000000000000000000e+00,-0.000000000000000000e+00,-0.000000000000000000e+00,1.180705352922711338e-04,-6.976022880670720611e-05,-0.000000000000000000e+00,2.649616553425578622e-04,-0.000000000000000000e+00,-0.000000000000000000e+00,-0.000000000000000000e+00
-9.422325230783630816e-05,-0.000000000000000000e+00,0.000000000000000000e+00,2.257339672806324784e-04,-4.717943108835292499e-05,-0.000000000000000000e+00,2.938124787293821031e-04,-0.000000000000000000e+00,-0.000000000000000000e+00,-0.000000000000000000e+00
-0.000000000000000000e+00,-0.000000000000000000e+00,4.072364129578017996e-04,2.538925075363417582e-04,-6.438095417693286875e-04,-0.000000000000000000e+00,3.255978959677344187e-04,-0.000000000000000000e+00,-0.000000000000000000e+00,-0.000000000000000000e+00
-0.000000000000000000e+00,-3.531475245596850214e-04,1.557071052191857322e-03,3.843840282926464896e-05,-1.207412948494813012e-03,-0.000000000000000000e+00,8.472335874205696223e-04,-0.000000000000000000e+00,-0.000000000000000000e+00,-0.000000000000000000e+00
0.000000000000000000e+00,-6.027272262967549397e-04,1.346529607534409020e-03,1.966034807564754564e-04,-1.379195630871713320e-03,0.000000000000000000e+00,1.207551624804157914e-03,-5.915369264546038389e-05,0.000000000000000000e+00,-0.000000000000000000e+00
0.000000000000000000e+00,-3.297863089088808866e-04,1.612158440502256453e-03,1.113983432564705006e-03,-1.341761945006697586e-03,-6.424767765695881547e-04,7.354271161532114839e-04,-1.784093788239269859e-04,-0.000000000000000000e+00,-0.000000000000000000e+00
0.000000000000000000e+00,0.000000000000000000e+00,1.243620418250013151e-03,1.872177664090981034e-03,-1.935134192528274819e-03,-3.743518858213851371e-04,2.060558383124692385e-04,-0.000000000000000000e+00,-2.197969747145034130e-04,-3.532977007326433132e-05
1.985449310920412650e-04,1.482920505726216748e-04,1.652517535547531500e-03,7.533537780956051002e-04,-2.510708133260704938e-03,-6.845510857446871064e-04,9.590375057474938379e-04,-1.165875472132227025e-05,0.000000000000000000e+00,-2.163878969476648638e-04
1.514492389972490539e-04,1.306134748675349879e-04,1.020416158260629763e-03,1.280330755662752087e-03,-1.433084322685681177e-03,-5.333032721769400027e-04,6.256658146845672785e-04,-9.315511869952088672e-05,-2.691671075145696821e-04,-4.157433835380351466e-04
0.000000000000000000e+00,6.280822603418928680e-04,4.529023359210712684e-04,1.217478447142415678e-03,-1.407126733066011619e-03,7.588480031705487669e-05,2.849197564810642194e-04,-9.193241296220867279e-05,-1.022278534828429753e-03,-4.659088958635234593e-04
3.684647391507815304e-05,4.264267276201476591e-04,2.706969342937956611e-04,1.081275514002997965e-03,-1.358955053579166943e-03,2.322607684212720360e-04,1.952020893814616833e-04,-0.000000000000000000e+00,-7.885011248825367575e-04,-4.150343725386575807e-04
7.019259072597086027e-05,-1.178335043352176395e-04,3.118523961971384059e-04,6.513829049035709581e-04,-1.077169001668062606e-03,5.753670116279537223e-04,1.844007825533026858e-04,-0.000000000000000000e+00,-6.473559636682709253e-05,-1.419578700797069146e-04
-5.010581014717813619e-04,-3.347317624796166942e-05,-9.052150860295144440e-05,7.321269550676049072e-04,-8.518031375460873023e-04,8.949396890356400456e-04,6.151428051511609665e-04,-0.000000000000000000e+00,0.000000000000000000e+00,0.000000000000000000e+00
-4.760581793737437921e-04,0.000000000000000000e+00,-6.162914229193461758e-04,3.142680477351546763e-04,-7.444006911897689312e-06,9.045489904317961750e-04,9.316717286427994354e-04,-0.000000000000000000e+00,-3.296548903613267926e-04,-0.000000000000000000e+00
-3.211093089612467553e-04,-1.551740738656080495e-04,-4.184731356898422185e-04,6.960151345366356532e-04,-0.000000000000000000e+00,6.247575335720758271e-04,2.743799386549093840e-04,-0.000000000000000000e+00,-0.000000000000000000e+00,-0.000000000000000000e+00
-4.419204704181970149e-04,-4.885740660275909213e-04,-0.000000000000000000e+00,-0.000000000000000000e+00,-0.000000000000000000e+00,3.885821203329552979e-04,6.711071039217143298e-04,-0.000000000000000000e+00,0.000000000000000000e+00,-0.000000000000000000e+00
-1.104418869556606220e-05,-1.123746383940393514e-04,-0.000000000000000000e+00,-1.448530044787202278e-04,-0.000000000000000000e+00,8.095976669307039487e-05,6.235895508220070608e-04,-0.000000000000000000e+00,0.000000000000000000e+00,-0.000000000000000000e+00
-0.000000000000000000e+00,-0.000000000000000000e+00,-4.992294004158903187e-05,-0.000000000000000000e+00,-0.000000000000000000e+00,-0.000000000000000000e+00,4.835620157091377017e-04,-0.000000000000000000e+00,0.000000000000000000e+00,-0.000000000000000000e+00
-0.000000000000000000e+00,-0.000000000000000000e+00,-0.000000000000000000e+00,-0.000000000000000000e+00,-0.000000000000000000e+00,0.000000000000000000e+00,0.000000000000000000e+00,-0.000000000000000000e+00,0.000000000000000000e+00,-0.000000000000000000e+00
-0.000000000000000000e+00,-0.000000000000000000e+00,0.000000000000000000e+00,-0.000000000000000000e+00,-0.000000000000000000e+00,0.000000000000000000e+00,-0.000000000000000000e+00,-0.000000000000000000e+00,0.000000000000000000e+00,-0.000000000000000000e+00
-0.000000000000000000e+00,-0.000000000000000000e+00,-0.000000000000000000e+00,-0.000000000000000000e+00,-0.000000000000000000e+00,0.000000000000000000e+00,0.000000000000000000e+00,-0.000000000000000000e+00,-0.000000000000000000e+00,-0.000000000000000000e+00
0.000000000000000000e+00,0.000000000000000000e+00,0.000000000000000000e+00,0.000000000000000000e+00,0.000000000000000000e+00,0.000000000000000000e+00,0.000000000000000000e+00,0.000000000000000000e+00,0.000000000000000000e+00,0.000000000000000000e+00
0.000000000000000000e+00,0.000000000000000000e+00,0.000000000000000000e+00,0.000000000000000000e+00,0.000000000000000000e+00,0.000000000000000000e+00,0.000000000000000000e+00,0.000000000000000000e+00,0.000000000000000000e+00,0.000000000000000000e+00
0.000000000000000000e+00,0.000000000000000000e+00,0.000000000000000000e+00,0.000000000000000000e+00,0.000000000000000000e+00,0.000000000000000000e+00,0.000000000000000000e+00,0.000000000000000000e+00,0.000000000000000000e+00,0.000000000000000000e+00
-0.000000000000000000e+00,0.000000000000000000e+00,-0.000000000000000000e+00,0.000000000000000000e+00,-0.000000000000000000e+00,-0.000000000000000000e+00,-0.000000000000000000e+00,-0.000000000000000000e+00,-0.000000000000000000e+00,-0.000000000000000000e+00
-0.000000000000000000e+00,0.000000000000000000e+00,-0.000000000000000000e+00,0.000000000000000000e+00,-0.000000000000000000e+00,-0.000000000000000000e+00,-0.000000000000000000e+00,-0.000000000000000000e+00,-0.000000000000000000e+00,-0.000000000000000000e+00
-0.000000000000000000e+00,0.000000000000000000e+00,-0.000000000000000000e+00,0.000000000000000000e+00,-0.000000000000000000e+00,-0.000000000000000000e+00,0.000000000000000000e+00,-0.000000000000000000e+00,-0.000000000000000000e+00,-0.000000000000000000e+00
-1.197954140500026723e-04,0.000000000000000000e+00,0.000000000000000000e+00,1.006944089105108993e-03,0.000000000000000000e+00,-5.354119317662814955e-04,0.000000000000000000e+00,-0.000000000000000000e+00,-0.000000000000000000e+00,-0.000000000000000000e+00
-1.631682368141445749e-05,0.000000000000000000e+00,2.051355785066217099e-04,1.099167755692739140e-03,-4.074660150367568889e-06,-5.674888866377394633e-04,0.000000000000000000e+00,-0.000000000000000000e+00,-0.000000000000000000e+00,-0.000000000000000000e+00
-0.000000000000000000e+00,0.000000000000000000e+00,5.269303096638104205e-05,1.011057346735357108e-03,0.000000000000000000e+00,-0.000000000000000000e+00,0.000000000000000000e+00,-0.000000000000000000e+00,-0.000000000000000000e+00,-0.000000000000000000e+00
-0.000000000000000000e+00,-0.000000000000000000e+00,8.627937766493062183e-04,1.481191316808385490e-03,-7.471283912719590666e-04,-8.246348073536372654e-04,1.326999854286893435e-04,-1.378627661530046615e-04,7.628527857513200277e-05,-0.000000000000000000e+00
0.000000000000000000e+00,-4.649093811213074229e-04,1.862864902853259702e-03,8.484175717802521248e-04,-8.947112608987933119e-04,-0.000000000000000000e+00,0.000000000000000000e+00,-6.254688670082633696e-04,2.209581474439190204e-04,-1.148608608486587632e-04
-0.000000000000000000e+00,-2.010759750509376635e-04,6.988067157341064806e-04,1.198258483560243068e-03,-1.056118519741666793e-03,3.573894786486511536e-04,2.104121925253577344e-04,-8.671281651684979068e-04,0.000000000000000000e+00,-3.672989073966989094e-04
6.907848262832867519e-04,-4.879805014007501836e-04,8.457735263567647821e-04,1.268665535770890744e-03,-9.465574218585200107e-04,7.823140482309012518e-04,-4.413221996806822138e-04,-8.509259693607177689e-04,0.000000000000000000e+00,-4.808425286421704457e-04
0.000000000000000000e+00,0.000000000000000000e+00,1.289105972159598290e-03,1.489497207641540897e-03,-1.195890259941424956e-03,5.202805662207659926e-05,-9.655647421840716062e-04,-6.625378038577112334e-04,8.400160285355656904e-04,-7.221634896518973204e-04
4.393777158534735493e-05,1.000161013425364832e-03,5.988843735530384850e-04,1.847152909580622318e-03,-4.603659874078428957e-04,-7.496867962138894755e-04,-5.878972410466506157e-04,-7.920648930780833669e-04,2.549311675729175265e-04,-1.019651728412589902e-03
0.000000000000000000e+00,3.450933872890723782e-04,1.393359229144365639e-03,8.513004797601383391e-04,-9.977160801981817002e-04,-0.000000000000000000e+00,-6.897443586925895752e-04,-8.051814160285500170e-04,1.007934645469390654e-03,-8.737245797424404541e-04
6.012996371859589885e-05,2.162754583118768246e-04,5.995789984132367679e-04,1.184308064308910212e-03,-1.141713838851398863e-03,9.142973912849843444e-04,-9.449895786046784126e-04,-1.028232728448748605e-03,5.228674849995090801e-04,-1.255476651885104869e-03
0.000000000000000000e+00,5.127932266285782571e-05,-0.000000000000000000e+00,1.289640344268569048e-03,-3.532868256963592863e-04,4.042002312322226726e-04,-0.000000000000000000e+00,-1.201940491789016494e-03,6.567312325702415188e-04,-1.623333453175127656e-03
5.758745006070551000e-05,0.000000000000000000e+00,2.943002849029258475e-04,2.898417295184709604e-04,-8.575921075602910889e-04,7.364558263457980040e-04,0.000000000000000000e+00,-9.913147209993167577e-04,3.511864412878156643e-04,-1.084245752780325228e-03
0.000000000000000000e+00,0.000000000000000000e+00,1.635675821291403980e-04,7.418537067733786466e-04,-7.046186295209577776e-04,1.463424357311493389e-03,-3.339683563419508722e-04,-7.206647841670757665e-04,2.345008340407109607e-04,-8.377899136171336860e-04
-3.224102814464457640e-04,5.388043265837523781e-04,-4.459536686944717745e-04,4.719135132897821715e-04,3.989318619052201480e-04,5.116865684674047339e-05,-8.390467248910792671e-05,-1.594641258232052381e-04,0.000000000000000000e+00,-8.118772173906567110e-04
-7.760553135552393858e-04,0.000000000000000000e+00,-1.865542459019106127e-04,-2.778028803121255710e-05,1.433153505375754210e-03,-1.430951934193680443e-04,6.766318862496124549e-04,-0.000000000000000000e+00,4.866520300909559470e-04,-5.090385815099055097e-04
-8.531455174123373994e-04,0.000000000000000000e+00,-1.062806174073215384e-03,-4.692689581483311368e-04,1.143910375098055633e-03,6.825201184220085725e-04,1.039958242850815093e-03,-0.000000000000000000e+00,1.383579134786497137e-04,-5.153213294357832401e-04
-3.347829667853385741e-04,-0.000000000000000000e+00,-1.430743747080493117e-03,-4.762331248287602356e-04,8.158048482261262167e-04,1.269986921072258903e-03,1.300738971446925140e-03,-0.000000000000000000e+00,-0.000000000000000000e+00,-3.377925995375150731e-05
-2.578734860182111798e-04,-0.000000000000000000e+00,-6.585223030743722747e-04,-7.553812133768926084e-04,4.014323267176646021e-04,1.448725652869100678e-03,5.885962845989851531e-04,-0.000000000000000000e+00,-0.000000000000000000e+00,-0.000000000000000000e+00
-8.715425591617514587e-05,-8.902838290406300511e-05,-1.037134628007928749e-04,-0.000000000000000000e+00,3.002451389044271139e-04,1.219945120069592564e-03,-2.982333501266760402e-04,-0.000000000000000000e+00,0.000000000000000000e+00,-0.000000000000000000e+00
-0.000000000000000000e+00,-0.000000000000000000e+00,-0.000000000000000000e+00,-0.000000000000000000e+00,0.000000000000000000e+00,2.873203586492304655e-04,-0.000000000000000000e+00,-0.000000000000000000e+00,-0.000000000000000000e+00,-0.000000000000000000e+00
-0.000000000000000000e+00,-0.000000000000000000e+00,-0.000000000000000000e+00,-0.000000000000000000e+00,-0.000000000000000000e+00,0.000000000000000000e+00,-0.000000000000000000e+00,-0.000000000000000000e+00,0.000000000000000000e+00,-0.000000000000000000e+00
-0.000000000000000000e+00,-0.000000000000000000e+00,-0.000000000000000000e+00,-0.000000000000000000e+00,-0.000000000000000000e+00,-0.000000000000000000e+00,0.000000000000000000e+00,-0.000000000000000000e+00,-0.000000000000000000e+00,-0.000000000000000000e+00
0.000000000000000000e+00,0.000000000000000000e+00,0.000000000000000000e+00,0.000000000000000000e+00,0.000000000000000000e+00,0.000000000000000000e+00,0.000000000000000000e+00,0.000000000000000000e+00,0.000000000000000000e+00,0.000000000000000000e+00
0.000000000000000000e+00,0.000000000000000000e+00,0.000000000000000000e+00,0.000000000000000000e+00,0.000000000000000000e+00,0.000000000000000000e+00,0.000000000000000000e+00,0.000000000000000000e+00,0.000000000000000000e+00,0.000000000000000000e+00
-0.000000000000000000e+00,0.000000000000000000e+00,-0.000000000000000000e+00,0.000000000000000000e+00,-0.000000000000000000e+00,-0.000000000000000000e+00,0.000000000000000000e+00,-0.000000000000000000e+00,-0.000000000000000000e+00,-0.000000000000000000e+00
-0.000000000000000000e+00,0.000000000000000000e+00,0.000000000000000000e+00,0.000000000000000000e+00,-0.000000000000000000e+00,-0.000000000000000000e+00,-0.000000000000000000e+00,-0.000000000000000000e+00,-0.000000000000000000e+00,-0.000000000000000000e+00
-0.000000000000000000e+00,0.000000000000000000e+00,0.000000000000000000e+00,7.943094871001173899e-04,-0.000000000000000000e+00,-4.843580647931609081e-04,-0.000000000000000000e+00,-0.000000000000000000e+00,-0.000000000000000000e+00,-0.000000000000000000e+00
-3.812606318725547867e-04,3.222962875026121228e-04,0.000000000000000000e+00,1.606501222232338631e-03,0.000000000000000000e+00,-9.861173923860348019e-04,-2.431177052702765840e-04,4.500870178168807855e-04,-1.592806067481497491e-04,-0.000000000000000000e+00
-9.930836566477048172e-05,1.494501961032314189e-04,0.000000000000000000e+00,2.052465869770474238e-03,-0.000000000000000000e+00,-1.308526568026371776e-03,-0.000000000000000000e+00,6.748190483839516893e-04,-3.168513134790287519e-04,-0.000000000000000000e+00
-3.583208416023625866e-04,0.000000000000000000e+00,9.682856937789004756e-04,1.521951983270366507e-03,-0.000000000000000000e+00,-6.745267078584335973e-04,-2.624945658348155778e-04,2.212223209154066928e-04,-0.000000000000000000e+00,-2.103989535522366968e-04
-3.811532173409247590e-05,-4.114767588955877851e-04,8.751447218417831870e-04,6.044025747944936633e-04,-2.540686286266308192e-04,0.000000000000000000e+00,1.928176234825550476e-04,2.149977187297639927e-04,-1.415224881920251537e-04,-4.536472026512109726e-04
0.000000000000000000e+00,-4.702401309564266082e-04,4.891783299365901451e-04,2.777347380093937983e-04,-4.033448125237863981e-06,-0.000000000000000000e+00,1.299523136641097870e-04,3.538545326635092383e-04,4.653327429620424295e-05,-7.056694697186058308e-04
3.444512234573146765e-04,-1.124999016569825597e-03,7.230913450829126905e-04,1.027501842704546661e-03,-6.426217259709368342e-05,-3.919125537644743777e-05,2.444095233870019349e-04,-1.254560759158984485e-05,-1.892038991648231216e-04,-4.237035665786984462e-04
2.214022508693736608e-04,-1.549262471843541704e-03,1.665408499515744689e-03,-0.000000000000000000e+00,-3.571841317782357582e-04,2.380641710580683884e-04,-1.347581496325366696e-03,-8.277063797400088536e-04,5.990453938880069360e-04,8.498358814194296963e-04
-3.929478800626950996e-05,-7.226770223163365156e-04,9.254482945700066724e-04,2.991394467765292960e-05,-2.384545715631087497e-04,-0.000000000000000000e+00,-2.121643535272296635e-04,-9.022943348326877173e-04,6.689483824284694728e-04,8.216568011868031346e-04
6.389676368803097169e-04,4.507310988015494663e-04,4.126911758269905775e-04,5.905621945457324848e-04,-1.135056638770553551e-03,-0.000000000000000000e+00,-1.455712415594583552e-03,-7.818675232267934894e-04,-3.286576772621124885e-05,8.120852247356348747e-04
9.105109410961123974e-04,-1.789149813359798455e-05,7.249082217654919487e-04,1.733339940030041357e-04,-2.926961948230347708e-04,-1.389916034641585924e-04,-1.780813865095813575e-04,-1.205890034591642745e-03,7.662436719946359373e-04,-3.473831277628069438e-04
-0.000000000000000000e+00,5.694319265031402844e-04,3.990972252375161967e-04,2.839626527756387354e-04,0.000000000000000000e+00,-9.305547863055089802e-04,-9.771090983244199617e-05,-1.217515733912950121e-03,1.387027027760523738e-04,5.006063754500580715e-05
-1.774798242870409938e-04,0.000000000000000000e+00,1.594410318168015903e-03,1.249572302896262985e-03,-0.000000000000000000e+00,3.257854353715825343e-05,-4.893889703833475668e-04,-1.326727872154958915e-03,8.505350480882570914e-05,-1.104261909614064454e-03
6.008326561158284802e-04,-6.295482680239520559e-04,1.154690162784585391e-03,-0.000000000000000000e+00,-1.411379211741634358e-03,1.181810411719096251e-03,1.136446883087369907e-04,-1.305619519924869267e-03,7.882964034687283328e-04,-5.860413274393235211e-04
7.275506299818511758e-04,-5.663992525611239930e-07,4.970736963712087467e-04,0.000000000000000000e+00,-1.970095280324135265e-04,4.520056915243563796e-05,3.646473540201557542e-04,-1.260955374396987606e-03,-0.000000000000000000e+00,-8.860508511977188521e-04
2.344985578559427382e-05,0.000000000000000000e+00,0.000000000000000000e+00,8.209736711395481399e-04,0.000000000000000000e+00,-1.758942791401614590e-04,7.126617981645389779e-04,-1.917424547334212279e-03,-0.000000000000000000e+00,-7.834463624818958786e-04
-2.774880169280812955e-05,6.703108679261230319e-04,1.491378039486069482e-05,-1.043331836737808750e-04,-1.549911472846375235e-04,1.069688398559624602e-03,2.728941197185207209e-04,-1.579894179247298951e-03,3.046627203748841794e-04,-5.593732726823143903e-04
-1.030817601705776330e-04,8.979810571443073595e-04,9.867768070152831042e-05,-9.769579843210318866e-04,-0.000000000000000000e+00,3.518979981696909406e-04,7.125744591616341682e-04,-7.319568888099519310e-04,1.212362306513133320e-04,-5.820802769547047317e-04
0.000000000000000000e+00,5.842166211542298634e-04,-4.305373393799386906e-04,-6.376280438030307567e-04,1.043216038915989810e-03,9.581951296049408305e-04,2.579213229939185978e-04,-1.238728577980549410e-04,-1.857488083189381078e-04,-8.930487254655708820e-04
-4.057163048347823923e-04,3.240370274471715442e-04,-5.249685154155790375e-04,-6.066041513962229861e-04,1.598697357319071735e-03,1.360122396336020927e-03,5.363292860982740804e-04,-0.000000000000000000e+00,-9.166514312551734883e-04,-4.774993072875622475e-04
-5.336510897030110820e-04,0.000000000000000000e+00,-5.147691679558510404e-04,-0.000000000000000000e+00,3.016654469022433537e-04,1.772732373977031371e-03,0.000000000000000000e+00,-0.000000000000000000e+00,-0.000000000000000000e+00,-0.000000000000000000e+00
-8.733309715987022586e-06,-0.000000000000000000e+00,-0.000000000000000000e+00,-0.000000000000000000e+00,0.000000000000000000e+00,6.781683394326048966e-04,-0.000000000000000000e+00,-0.000000000000000000e+00,0.000000000000000000e+00,-0.000000000000000000e+00
-0.000000000000000000e+00,-0.000000000000000000e+00,-0.000000000000000000e+00,-0.000000000000000000e+00,-0.000000000000000000e+00,0.000000000000000000e+00,0.000000000000000000e+00,-0.000000000000000000e+00,-0.000000000000000000e+00,-0.000000000000000000e+00
-0.000000000000000000e+00,-0.000000000000000000e+00,-0.000000000000000000e+00,-0.000000000000000000e+00,-0.000000000000000000e+00,0.000000000000000000e+00,0.000000000000000000e+00,-0.000000000000000000e+00,-0.000000000000000000e+00,-0.000000000000000000e+00
0.000000000000000000e+00,0.000000000000000000e+00,0.000000000000000000e+00,0.000000000000000000e+00,0.000000000000000000e+00,0.000000000000000000e+00,0.000000000000000000e+00,0.000000000000000000e+00,0.000000000000000000e+00,0.000000000000000000e+00
0.000000000000000000e+00,0.000000000000000000e+00,0.000000000000000000e+00,0.000000000000000000e+00,0.000000000000000000e+00,0.000000000000000000e+00,0.000000000000000000e+00,0.000000000000000000e+00,0.000000000000000000e+00,0.000000000000000000e+00
-0.000000000000000000e+00,-0.000000000000000000e+00,-0.000000000000000000e+00,-0.000000000000000000e+00,-0.000000000000000000e+00,-0.000000000000000000e+00,-0.000000000000000000e+00,0.000000000000000000e+00,-0.000000000000000000e+00,-0.000000000000000000e+00
-0.000000000000000000e+00,0.000000000000000000e+00,0.000000000000000000e+00,2.743593300870818610e-04,-0.000000000000000000e+00,-0.000000000000000000e+00,-0.000000000000000000e+00,6.072415427704778502e-05,-0.000000000000000000e+00,-0.000000000000000000e+00
-0.000000000000000000e+00,0.000000000000000000e+00,7.185201057691881926e-05,9.220743265764029051e-04,-0.000000000000000000e+00,-7.532661463420680693e-04,-0.000000000000000000e+00,9.184828543157248722e-06,-0.000000000000000000e+00,-0.000000000000000000e+00
-0.000000000000000000e+00,0.000000000000000000e+00,1.575246327512128943e-04,5.204903812895969812e-04,7.746710897811712095e-05,-1.372659759928416070e-04,-7.430073383246534047e-04,9.131755432970792112e-04,-5.101506628516512323e-06,-3.572145282422815806e-04
-0.000000000000000000e+00,0.000000000000000000e+00,3.911040076819215336e-04,7.635570678107212253e-04,-0.000000000000000000e+00,-1.304167150277151573e-04,-9.568722288648443897e-04,1.739273584658418415e-03,-2.876253817610348513e-04,-6.218340261381147130e-04
-3.895095926931571947e-05,-9.178752577928677445e-05,1.035105851944297583e-03,-0.000000000000000000e+00,0.000000000000000000e+00,7.794087451241634226e-05,-2.560841187990929146e-04,1.157139383579586234e-03,-6.454989379793748270e-04,-7.663457296512537868e-04
-7.077989256616151910e-05,-4.332458809484020798e-04,0.000000000000000000e+00,1.772193950680830640e-04,-0.000000000000000000e+00,6.045832227377673663e-04,0.000000000000000000e+00,8.451683518130669428e-04,-4.046552614538802007e-05,-6.341154840538854986e-04
-9.031636872214689801e-04,-9.700079049189502638e-04,7.898572560391917304e-04,8.761476361181808883e-04,-0.000000000000000000e+00,5.848155352504348257e-04,-7.807554026002780953e-05,6.673654648944647803e-04,0.000000000000000000e+00,-3.443295763158433988e-04
0.000000000000000000e+00,-1.593329505786746569e-03,9.281691724958500249e-04,1.670598943906074097e-03,-7.175774577511619037e-04,4.412910293251043705e-04,-1.003126977800539556e-03,8.124411256832585150e-04,-3.129224251042499481e-05,-1.043106032549318842e-04
7.737110137465404787e-05,-8.685559558217728800e-04,-1.605780717733828368e-05,1.474461734102091497e-04,-1.557667433468023404e-03,5.749986572997175974e-05,-1.002065454029542379e-03,1.267357203687765861e-03,-0.000000000000000000e+00,7.085317087813956458e-04
-3.591259536506017530e-04,-1.075206544385869708e-03,-2.851391388030354127e-05,0.000000000000000000e+00,-1.531948900741952370e-03,8.837017183896586072e-04,-7.493697109902979414e-04,8.752332287131225517e-04,1.419252940614455869e-03,6.957310765542701900e-04
7.089690140017251754e-04,-1.016218031825443045e-03,-2.410878408745513490e-04,1.391578839629894777e-03,-1.634883415031827434e-03,3.212194391676228427e-05,-7.603172066378156282e-04,-1.259058017518392572e-04,3.163803909779050027e-04,1.244301836367247768e-03
3.530635089577120527e-04,-9.788645053429496402e-04,1.762939337004624336e-04,-1.097471569233560620e-06,-1.664684675283140212e-03,7.642259399560994955e-04,-4.955680251997948834e-04,0.000000000000000000e+00,3.884662260466716327e-05,1.043548668386744434e-03
2.862693573212203617e-05,-9.180474964122768049e-04,6.345819847891125088e-04,2.070152186558553670e-04,-1.709630331670608690e-03,-4.004281251515686151e-04,-4.008064343764247738e-04,6.495891298813515546e-04,4.513448384704446125e-04,8.947370940270471572e-04
8.470965660347114885e-04,-1.020919265224097799e-03,-0.000000000000000000e+00,8.404406409776739566e-04,-1.282642420043446493e-03,-4.884930924861765272e-05,-1.183322197771928931e-03,2.453103152775177982e-05,3.663711936018756261e-04,1.246612429423009762e-03
1.478984018504117103e-04,-1.883109575685242313e-03,0.000000000000000000e+00,2.533257291203340326e-04,-1.081447568736645590e-03,2.860173722323740026e-04,-2.676395259813820556e-04,1.301426977706264369e-04,1.315281445840720692e-04,1.002487800463452072e-03
8.537995320322015269e-04,-1.122196213938665016e-04,-4.215278283048411027e-04,8.265910671273375438e-04,-1.433806345350210378e-03,1.211957082728933456e-04,-5.412038047541232327e-04,0.000000000000000000e+00,-4.899523479013483422e-04,1.406555298768183025e-03
6.250969943373036906e-04,-2.397678937249543096e-04,-8.222206087951413050e-05,-0.000000000000000000e+00,-5.265080883570104776e-04,3.193886274187578839e-04,-7.710395625655021594e-04,0.000000000000000000e+00,1.066805781485795227e-03,4.184304869857512617e-05
0.000000000000000000e+00,4.824452125685871015e-04,-1.638029870811172567e-04,5.836735370774486431e-04,-4.745211559784758958e-04,-0.000000000000000000e+00,-3.001034365152451433e-04,-6.649732700166322268e-04,4.020414767002134236e-05,2.289107844766852468e-04
7.703787942534809667e-04,-0.000000000000000000e+00,2.632066734654737087e-07,-3.032388230959680035e-05,-5.623104558335719535e-04,-5.474059911115739365e-05,0.000000000000000000e+00,4.749808145635089251e-05,-0.000000000000000000e+00,-1.184647028462848983e-04
1.249152174734672813e-03,-6.575549792405227349e-05,-3.579023684860083111e-04,-4.856382460649002683e-04,7.965657509184627741e-04,0.000000000000000000e+00,0.000000000000000000e+00,-0.000000000000000000e+00,-3.169924344880794295e-05,-1.125866274853929002e-03
-0.000000000000000000e+00,0.000000000000000000e+00,-1.717767871681087372e-03,3.642080557423823068e-08,1.886837542495602626e-03,6.026468106541065352e-04,6.578294138834047820e-05,-3.256795010718037289e-04,5.912919081821809081e-04,-1.407115178307013917e-03
-9.396899873822353892e-04,-0.000000000000000000e+00,-1.122530138249520611e-03,-0.000000000000000000e+00,2.893226209616197694e-05,3.411663552269925646e-03,1.060782966017095386e-04,-0.000000000000000000e+00,1.389321869878966061e-04,-5.646230365089695584e-04
-8.439306995628854903e-04,-0.000000000000000000e+00,-0.000000000000000000e+00,-0.000000000000000000e+00,-6.300932794203463168e-05,1.481056609808711899e-03,0.000000000000000000e+00,-0.000000000000000000e+00,8.116236419661742620e-04,-0.000000000000000000e+00
-2.145935135893384672e-04,-0.000000000000000000e+00,-0.000000000000000000e+00,-0.000000000000000000e+00,-0.000000000000000000e+00,4.923379882836522066e-04,0.000000000000000000e+00,-0.000000000000000000e+00,0.000000000000000000e+00,-0.000000000000000000e+00
-0.000000000000000000e+00,-0.000000000000000000e+00,-0.000000000000000000e+00,-0.000000000000000000e+00,-0.000000000000000000e+00,0.000000000000000000e+00,0.000000000000000000e+00,-0.000000000000000000e+00,-0.000000000000000000e+00,-0.000000000000000000e+00
-0.000000000000000000e+00,-0.000000000000000000e+00,-0.000000000000000000e+00,-0.000000000000000000e+00,-0.000000000000000000e+00,-0.000000000000000000e+00,-0.000000000000000000e+00,0.000000000000000000e+00,-0.000000000000000000e+00,-0.000000000000000000e+00
-0.000000000000000000e+00,-0.000000000000000000e+00,-0.000000000000000000e+00,0.000000000000000000e+00,-0.000000000000000000e+00,-0.000000000000000000e+00,-0.000000000000000000e+00,-0.000000000000000000e+00,-0.000000000000000000e+00,-0.000000000000000000e+00
-0.000000000000000000e+00,-0.000000000000000000e+00,0.000000000000000000e+00,-0.000000000000000000e+00,-0.000000000000000000e+00,-0.000000000000000000e+00,-0.000000000000000000e+00,0.000000000000000000e+00,-0.000000000000000000e+00,-0.000000000000000000e+00
-0.000000000000000000e+00,-0.000000000000000000e+00,0.000000000000000000e+00,6.895878839053169100e-05,-0.000000000000000000e+00,-9.158636844227480459e-05,-7.382271678826543299e-05,3.776116111017752759e-04,-0.000000000000000000e+00,-0.000000000000000000e+00
-0.000000000000000000e+00,0.000000000000000000e+00,6.211769244706772872e-04,1.023470258951492693e-03,0.000000000000000000e+00,-1.365946859564414482e-03,-0.000000000000000000e+00,0.000000000000000000e+00,0.000000000000000000e+00,-5.315660746565053964e-04
-0.000000000000000000e+00,-2.413970513815621652e-04,3.545825160398477765e-04,9.740901513531255006e-04,8.182041255402043188e-04,-2.042545678252532745e-04,-4.337258619531235535e-04,3.156875210573774088e-04,-0.000000000000000000e+00,-1.121376007742291934e-03
0.000000000000000000e+00,-8.549597460309655986e-04,1.400657434992305878e-03,3.416178907095887736e-04,3.028336618136242132e-04,4.129770553140603120e-05,-1.184970286735504948e-03,1.190922103768095536e-03,-5.535269361420276516e-04,-6.089558210110703265e-04
0.000000000000000000e+00,-2.474960128473902964e-04,-0.000000000000000000e+00,3.862984969186356683e-04,0.000000000000000000e+00,0.000000000000000000e+00,-1.349869459609243365e-04,1.476798739482873242e-03,-0.000000000000000000e+00,-1.189354375937253438e-03
-3.786819390926425316e-04,-1.101132106372831225e-03,0.000000000000000000e+00,1.413824697772586342e-04,-1.813141276223094141e-04,8.842529449768189937e-04,-4.979420274134900137e-04,-2.064784223309798446e-07,1.082117928199277483e-03,5.328703047249045315e-07
3.042249814187646017e-05,-1.121086778084672084e-03,-2.525662773706973405e-04,1.217760100557745124e-04,-3.875455209570688149e-04,2.731632262418408406e-04,-3.679321778125152140e-04,1.036210795724878215e-03,-0.000000000000000000e+00,0.000000000000000000e+00
2.987465335492753607e-04,-9.486402524130996966e-04,-1.158376319652765191e-04,-2.908608825627877616e-04,-9.423035604069260720e-04,1.316808904783753169e-03,-6.549047658714341868e-04,7.180120203423951634e-04,-0.000000000000000000e+00,8.857421134313803006e-04
4.433956348145126083e-04,-8.531527286704706755e-04,-0.000000000000000000e+00,-0.000000000000000000e+00,-5.637173652260899686e-04,3.887256713405674228e-04,0.000000000000000000e+00,6.343127555941191140e-04,-7.847056889049758331e-04,4.571953879561670045e-04
0.000000000000000000e+00,0.000000000000000000e+00,-1.610797863324913966e-04,9.901644170801507730e-04,-1.829191224974227375e-03,1.494024582638678561e-04,-6.329585249874212453e-04,9.039841121361143423e-04,-1.898609797637771366e-04,8.533096095520233430e-04
8.254560866747073073e-05,-8.494082972692847729e-04,7.313071162365405173e-04,-0.000000000000000000e+00,-9.169883420259951822e-04,-4.625545413525763224e-04,-9.684239223772824574e-04,3.281079870147920763e-05,4.236014155523286167e-05,1.925687027240077093e-03
3.007065169809249516e-04,0.000000000000000000e+00,1.648272903752600368e-04,8.241921734782740221e-04,-1.072114474454833591e-03,5.743602923659242186e-04,-4.155142991026823662e-04,-1.991371724371551321e-04,-1.163068947014760405e-03,9.704396265951637998e-04
8.421561516745449858e-05,-1.553599594053475157e-03,-3.559311773446714776e-04,1.118257178779145673e-03,-1.443695806351746273e-03,-6.447939417150339199e-04,-2.198794678127501264e-04,1.809488582178583275e-04,8.872430261846710924e-04,1.945647517199218784e-03
0.000000000000000000e+00,-5.286023199885635107e-04,0.000000000000000000e+00,-0.000000000000000000e+00,-1.669142568050723408e-03,7.454045617341774777e-04,-1.288720982882354859e-03,5.484836234683931238e-04,-3.862100935974244111e-06,1.998767401721267614e-03
9.640721650800679506e-04,-1.245246950960315468e-03,-4.666695280429092167e-04,4.980912282697066160e-04,-2.305611003670891281e-04,1.767237125112622255e-04,-8.010703543742594013e-04,7.731001319807263503e-04,-4.350505251715360640e-04,7.836232753201421205e-04
1.149608412682557278e-03,-4.757489287829829360e-04,-5.346294506214317098e-05,-1.982261152896220018e-04,-1.490277020054199975e-03,0.000000000000000000e+00,-1.317363024726064943e-03,1.648083673729934962e-03,3.571352376078110462e-04,4.678887009517922321e-04
1.976038562127374002e-04,-2.589888749862698277e-05,-2.614181359585793793e-04,1.562255022688024931e-04,-7.760318725558829588e-04,2.388121321707543248e-04,-1.539978285009555459e-03,2.265051244064335875e-04,6.200900065601656398e-05,6.823329876051277901e-04
0.000000000000000000e+00,2.730204584470952395e-04,-8.285334815490598545e-04,2.771823088973044942e-04,-7.488485872286941483e-04,2.713877212273849387e-04,-9.255231900163466601e-04,7.278916405187224126e-04,0.000000000000000000e+00,2.122734851571882056e-04
-0.000000000000000000e+00,-0.000000000000000000e+00,4.193333536344975854e-04,-9.024026656651521882e-04,-8.244923324167728390e-04,2.430632069756582516e-04,-2.251826477274965709e-04,2.744907283127038839e-04,6.722693220569383793e-04,1.999457821420526327e-04
5.177640050384515268e-06,-1.658122291255219045e-04,4.570098305484475367e-04,-2.156325072852125597e-04,-1.534427634827934786e-04,0.000000000000000000e+00,-3.423027026794899560e-04,5.711624312129352093e-04,2.304538621009842035e-06,0.000000000000000000e+00
6.065392127137581892e-04,-6.749606267106146671e-04,-1.514316743331105362e-03,-1.048370108501269892e-03,9.904656073171811889e-04,1.401359329624824639e-03,-3.645999482679408515e-04,0.000000000000000000e+00,1.278791129664660344e-03,-4.713570918283399558e-04
-3.234525905600400039e-05,-9.499721065733436739e-04,-1.097626525206383576e-03,-4.014081595423229999e-04,1.720920736487423154e-04,3.381024016547264262e-03,2.375661936827429754e-04,-0.000000000000000000e+00,5.761854561602230930e-04,-8.197717404748947881e-04
-8.871357431698723714e-04,-2.764051315569477025e-04,0.000000000000000000e+00,-0.000000000000000000e+00,0.000000000000000000e+00,3.106114591771529012e-03,-0.000000000000000000e+00,-0.000000000000000000e+00,1.792970375131262329e-04,-3.617019186277571131e-04
-2.156520988449132264e-04,-0.000000000000000000e+00,-0.000000000000000000e+00,-0.000000000000000000e+00,0.000000000000000000e+00,1.927379116611674370e-04,0.000000000000000000e+00,-0.000000000000000000e+00,0.000000000000000000e+00,-0.000000000000000000e+00
-0.000000000000000000e+00,-0.000000000000000000e+00,-0.000000000000000000e+00,-0.000000000000000000e+00,-0.000000000000000000e+00,-0.000000000000000000e+00,0.000000000000000000e+00,-0.000000000000000000e+00,-0.000000000000000000e+00,-0.000000000000000000e+00
0.000000000000000000e+00,-0.000000000000000000e+00,-0.000000000000000000e+00,-0.000000000000000000e+00,-0.000000000000000000e+00,-0.000000000000000000e+00,-0.000000000000000000e+00,-0.000000000000000000e+00,-0.000000000000000000e+00,-0.000000000000000000e+00
-0.000000000000000000e+00,-0.000000000000000000e+00,0.000000000000000000e+00,0.000000000000000000e+00,-0.000000000000000000e+00,-0.000000000000000000e+00,-0.000000000000000000e+00,0.000000000000000000e+00,-0.000000000000000000e+00,-0.000000000000000000e+00
0.000000000000000000e+00,-0.000000000000000000e+00,0.000000000000000000e+00,-0.000000000000000000e+00,0.000000000000000000e+00,-0.000000000000000000e+00,-0.000000000000000000e+00,1.806600844839675868e-04,-0.000000000000000000e+00,-0.000000000000000000e+00
0.000000000000000000e+00,-0.000000000000000000e+00,0.000000000000000000e+00,-0.000000000000000000e+00,0.000000000000000000e+00,-1.663326067879520979e-04,-0.000000000000000000e+00,1.147419838704688815e-03,0.000000000000000000e+00,-5.538349694130215465e-04
-5.560818954909619012e-08,-0.000000000000000000e+00,1.587248179023790888e-03,8.042267346661970259e-04,0.000000000000000000e+00,-1.856183572225995719e-03,-0.000000000000000000e+00,5.369779679572580806e-04,0.000000000000000000e+00,-1.129741297560367267e-03
-0.000000000000000000e+00,-2.096067460718568671e-04,5.536900607352986461e-04,1.041042361845168898e-03,7.743560658057001061e-04,-1.354511733626026114e-03,-2.511685645393089278e-04,7.075678682951959267e-04,0.000000000000000000e+00,-7.564058565026300293e-04
-0.000000000000000000e+00,-9.024254651503983357e-04,2.853991565793986265e-04,-0.000000000000000000e+00,2.917553887751477503e-04,-5.926523664041420973e-04,-6.627592815272782302e-04,8.444639366650800744e-04,6.425399788084535822e-04,-4.756759027299066299e-05
-1.354166663123158073e-04,-5.102351820804819273e-04,2.152299781835536160e-05,4.484046096317852777e-04,0.000000000000000000e+00,-6.522025573354878203e-04,-6.193842538368244484e-04,1.892438012416648415e-03,1.030909140932186486e-03,-1.285917077978010687e-03
9.292434513246448458e-05,-1.035452252731537594e-03,-3.872879333652909877e-05,-2.517207940155747345e-04,-5.536472953743780531e-04,6.465162223985737068e-04,-4.801070534727552657e-04,1.124596082914934526e-03,-1.778500808453041465e-06,7.391003351546046119e-04
2.570311886720711434e-04,-1.249293479320731388e-03,-5.059649546966205150e-05,-4.665660116481485558e-04,0.000000000000000000e+00,6.417157711293201795e-04,-2.880927501376119040e-04,9.066059193807219415e-04,6.874846600296668055e-04,0.000000000000000000e+00
-0.000000000000000000e+00,-3.156872550211144569e-04,9.062740570595969464e-04,0.000000000000000000e+00,-5.060231368424370976e-04,0.000000000000000000e+00,-7.179385737242438906e-04,-0.000000000000000000e+00,5.571379004471739387e-04,-0.000000000000000000e+00
-4.196174632540270485e-04,-9.327398895177746799e-04,2.627422550100784828e-04,1.237159273262751122e-04,-3.226267775974609332e-04,7.988850450507142906e-04,-4.628149947708784409e-04,1.542399533821714984e-03,3.581522492593258353e-04,-9.496836770579868180e-04
0.000000000000000000e+00,-7.712000873257794089e-05,0.000000000000000000e+00,1.630209441779010323e-04,-1.099473028382937393e-03,7.847842906706616799e-05,-3.363629771655280072e-04,1.297395738858382911e-03,4.974052991940304709e-04,-7.694674585520487869e-04
1.591736035996935042e-04,3.141482059477602307e-05,-1.916753408128104110e-04,1.440444910991008304e-04,-1.461217494399994149e-03,-3.441508853240740780e-04,-5.122710871812646101e-04,2.980034538811252563e-04,9.885152399227987823e-04,3.903079198322359890e-04
9.227516129959199495e-04,6.760498371808733363e-05,-0.000000000000000000e+00,1.115140726847953196e-04,-1.368292512360879971e-03,-8.361222812721244492e-05,-1.424796002649653592e-03,7.994577239119598361e-04,-4.408329852516711523e-04,7.047013124054222382e-04
9.634916461468145694e-04,-0.000000000000000000e+00,-0.000000000000000000e+00,4.414404552142024078e-04,-1.078242532603893369e-03,-4.339168985560164964e-04,-1.454053694305300608e-03,1.562625652190415384e-03,-5.469965488201050359e-04,9.010840786907139055e-04
2.025022260930744913e-03,-8.920738268160103603e-04,-0.000000000000000000e+00,1.170499256793474887e-04,-1.799324101698356699e-03,-1.196080220389144597e-04,-1.586156161716946499e-03,1.202991619442976990e-03,1.843404819568150743e-04,6.556261894842136664e-04
1.482533883588119626e-03,1.429351091149355787e-04,3.756384450678363561e-06,3.832065013389673869e-04,-8.123742334729744993e-04,-0.000000000000000000e+00,-1.797750633169854957e-03,1.101530167012071144e-03,-0.000000000000000000e+00,-4.980439174998813967e-04
4.531216766797311430e-04,0.000000000000000000e+00,-8.539242775484156113e-04,8.136646013718648162e-04,-9.631102359528460064e-04,1.552995987621394707e-05,-2.597717808217455022e-03,1.512170246602971514e-03,-0.000000000000000000e+00,6.031382717887008365e-04
-6.806320450376636736e-05,-8.415946966712994047e-04,7.093995901753219046e-04,6.377359833446666045e-04,-5.133245822152356650e-04,0.000000000000000000e+00,-1.705098312955016879e-03,5.098949285301966269e-04,2.528706787351027181e-04,0.000000000000000000e+00
3.009661610187900488e-04,-6.097880194930196084e-04,-0.000000000000000000e+00,8.008542298795876284e-04,-6.400081879458557801e-04,1.140498460745149488e-03,-1.751766409859296545e-03,5.684113768482161556e-04,0.000000000000000000e+00,-1.490618438278794257e-04
6.858625594869693953e-05,-7.665037953866482307e-04,-0.000000000000000000e+00,8.544659342935962635e-04,-2.125887109346860854e-04,3.436109668839552769e-04,-1.072402083859103116e-03,0.000000000000000000e+00,1.293650555228513098e-04,0.000000000000000000e+00
1.025448259518442528e-03,-6.085429097095510723e-04,0.000000000000000000e+00,1.116092993251047334e-03,-4.823982017904545564e-04,-1.601509128109507307e-04,-9.697109915603362639e-04,6.201291186028108117e-04,-5.766127174479410745e-07,-1.894531801192255956e-04
9.987512150435896852e-04,-1.678379166133577840e-03,1.838363539498905487e-04,-1.863326707706993053e-03,8.149748972638390680e-04,1.741238072911493453e-03,-1.332914723079593527e-03,0.000000000000000000e+00,7.648146116591066643e-04,-7.560656708371529366e-05
5.274716297774616853e-05,-1.442347091958757523e-03,-1.060068192124485973e-03,-1.174772772833400500e-03,9.290285137776027472e-04,3.582975621455248769e-03,-9.727044138760520446e-04,-5.176030667129465253e-04,2.116359215557041783e-03,-4.822308342016523586e-04
-1.110448969152492407e-03,-3.718658133904305082e-04,-9.946267843134891829e-05,-0.000000000000000000e+00,4.705876632310531521e-04,3.509579154967120817e-03,-6.058465857594918548e-04,-5.354576291591287463e-06,4.324837953067453187e-04,-2.993198590282013672e-04
-2.232952800681262790e-04,-0.000000000000000000e+00,-0.000000000000000000e+00,-0.000000000000000000e+00,-0.000000000000000000e+00,6.687932697547966168e-04,-2.939606991015837904e-05,-0.000000000000000000e+00,1.984642398361962073e-04,-0.000000000000000000e+00
-0.000000000000000000e+00,-0.000000000000000000e+00,-0.000000000000000000e+00,-0.000000000000000000e+00,-0.000000000000000000e+00,0.000000000000000000e+00,-0.000000000000000000e+00,-0.000000000000000000e+00,0.000000000000000000e+00,-0.000000000000000000e+00
-0.000000000000000000e+00,-0.000000000000000000e+00,-0.000000000000000000e+00,-0.000000000000000000e+00,-0.000000000000000000e+00,-0.000000000000000000e+00,-0.000000000000000000e+00,0.000000000000000000e+00,-0.000000000000000000e+00,-0.000000000000000000e+00
-0.000000000000000000e+00,-0.000000000000000000e+00,-0.000000000000000000e+00,0.000000000000000000e+00,-0.000000000000000000e+00,-0.000000000000000000e+00,-0.000000000000000000e+00,9.496279606623866151e-05,-0.000000000000000000e+00,-0.000000000000000000e+00
0.000000000000000000e+00,-0.000000000000000000e+00,-0.000000000000000000e+00,0.000000000000000000e+00,0.000000000000000000e+00,-0.000000000000000000e+00,-0.000000000000000000e+00,5.290277794242982711e-04,-0.000000000000000000e+00,-1.947414630379900691e-04
0.000000000000000000e+00,-0.000000000000000000e+00,0.000000000000000000e+00,3.694437549066806846e-04,-1.523735394903632167e-04,-2.800016773845244943e-04,-0.000000000000000000e+00,1.667631145145931663e-03,0.000000000000000000e+00,-5.925175316765226652e-04
-2.220430846407517929e-04,-0.000000000000000000e+00,1.026874278506059463e-03,1.436030885745535326e-03,-1.031952799301755333e-04,-1.006208519927846408e-03,-5.337615778225776418e-06,9.827730802060583113e-04,0.000000000000000000e+00,-9.908084703544178806e-04
-2.438256374594413296e-04,-7.345252273478856129e-04,1.634152295076605555e-03,5.965436516369020418e-04,0.000000000000000000e+00,-1.205239222259064762e-03,-4.781517865790470235e-04,1.154399079256505185e-03,5.963309369831926854e-05,-5.991928691782746202e-04
-1.454129436442363792e-05,-8.145050365458554077e-04,-1.422676828738177798e-03,8.430778283311097501e-05,-8.050790671998208975e-05,0.000000000000000000e+00,-5.542753167336520164e-04,1.404225770362704448e-03,1.306428775099357630e-03,6.204614263083960222e-04
-1.832636685181712917e-04,-4.296387862660161440e-04,-8.634896187465154489e-04,1.889163543231481247e-04,-0.000000000000000000e+00,0.000000000000000000e+00,-2.444469286455726073e-05,7.095595982939994269e-04,7.263644808919757223e-04,0.000000000000000000e+00
-9.435512038719699713e-05,-6.170971977083110306e-04,-4.247884247750548107e-04,4.624484532099395356e-04,-2.542926817227808577e-04,8.905775410928622833e-04,-3.302379629425811311e-04,0.000000000000000000e+00,4.335724083269724559e-04,1.761484983750011204e-04
3.011035060888058321e-06,-9.877601607291815536e-04,0.000000000000000000e+00,3.466863094586652570e-04,-1.344391487239751160e-04,2.829870445841775020e-04,-8.000349026808866674e-04,8.397991523475333117e-05,4.650679103125194267e-04,0.000000000000000000e+00
4.792961872141957382e-04,-4.056374698564471312e-04,1.229470540445249619e-03,-8.061351851118014086e-05,-1.136262880391164997e-03,1.065218618733862639e-04,-1.489118369044524970e-03,0.000000000000000000e+00,0.000000000000000000e+00,7.349183959049080186e-04
-3.121587609670784013e-04,-1.589484874661735566e-04,4.363762601225186152e-04,-2.036188938803666724e-03,-9.634110380635402032e-05,1.927090634458409430e-03,-7.411549226722968006e-04,5.782524781294934822e-04,0.000000000000000000e+00,6.047045107076360823e-04
1.476468477192276077e-04,-2.670375015899356815e-04,-0.000000000000000000e+00,-8.039849682421054081e-04,-6.321087116163368611e-04,7.362453008189252801e-04,-9.476464483341552961e-04,1.684921691176030070e-03,-1.489604520152391595e-04,2.518648629339348931e-04
1.326940788203158101e-03,1.583653025841704940e-04,7.499415860480968595e-05,-3.040357654580575332e-04,-3.330244422071228227e-04,-5.119403091608075310e-04,-1.214152572768711609e-03,0.000000000000000000e+00,-0.000000000000000000e+00,4.666544203958486610e-04
0.000000000000000000e+00,2.405265255629833996e-04,7.616303441547241527e-04,4.661831335185637778e-04,-2.605729420290817545e-03,-1.199603275724312346e-03,-4.929896564531410785e-04,2.381442783095582411e-03,-8.145517420204290973e-04,5.277862873079167474e-04
-5.835336604699662734e-04,1.806147987303126758e-03,1.267366086980349161e-04,1.333270256241860310e-03,-9.342815122280583853e-04,-1.375118593268378044e-03,-1.996820028600357171e-03,1.578402992098005544e-03,-1.752186307985073403e-03,1.578399905545423447e-03
8.252870815904455150e-04,2.847997074886249444e-04,2.065290187413758836e-04,6.129124046408076934e-04,-3.477573720854023362e-04,-1.238114885156686240e-03,-1.870551304728594816e-03,8.211645556081582096e-04,-2.325677640832166581e-04,1.531904713732969376e-04
9.485622084541915329e-04,1.202931175098725686e-04,-7.935419743811337047e-05,5.626591632147417109e-04,-1.195574739442849482e-04,-5.313564119972391401e-04,-2.566912718940598213e-03,1.700975784297637438e-03,-7.237274287177000308e-05,0.000000000000000000e+00
1.254788203588027900e-03,0.000000000000000000e+00,-6.348840356224717710e-05,1.011383296881668287e-04,-8.885397226706768928e-05,1.036181788659814028e-06,-2.250593085489254082e-03,1.153891118652254893e-03,-2.590429631197569793e-04,1.410199445360853991e-04
1.264170141400762634e-03,-1.089923064600657526e-03,-2.656026414252172303e-04,1.305162814048867496e-03,0.000000000000000000e+00,-3.940140218403832199e-04,-2.123758168581666751e-03,1.425799053219037197e-03,2.796874815158303896e-04,-0.000000000000000000e+00
3.112112658553216294e-04,-1.015803272091397392e-03,-3.239842755984798897e-04,1.211571721403274619e-03,-9.429360460686981855e-05,-0.000000000000000000e+00,-1.460020489470119408e-03,5.201138686513287089e-04,1.573000102239162791e-04,1.588124049502796179e-04
-1.084113886355973257e-04,-1.182131570997154834e-03,-8.492399685429708939e-06,1.091548539082420324e-03,-2.247854876773702919e-05,1.042170083537957400e-03,-1.203459613562382147e-03,3.563950622261731266e-04,6.825954949095709321e-04,-3.552839196115197126e-04
-4.151594331621260957e-05,-1.327190094234286400e-03,-0.000000000000000000e+00,1.421263231050393745e-03,-1.107092135525628539e-04,4.206728015867911116e-04,-1.431152019015767681e-03,3.131185993989952067e-04,7.213372316597390895e-04,-2.932152042679914483e-05
8.846823472609946157e-04,-1.676434350455731793e-03,0.000000000000000000e+00,-3.385209632063817652e-04,4.280192753292655404e-04,1.087693471071440572e-03,-1.143265775885097353e-03,0.000000000000000000e+00,1.542447275602995896e-03,-6.042845268377087294e-04
8.316230108318941683e-04,-9.258803698220507148e-04,-1.063434523397235962e-03,-1.266434318324675956e-03,-1.741587251489247078e-05,4.667059355084233162e-03,-8.616017779840976420e-04,-2.346571606819021234e-04,1.089301037901578778e-03,-3.988829106987362922e-04
-1.243637567833873799e-03,-7.056516718025181937e-05,-8.119275975188845436e-05,-0.000000000000000000e+00,-2.848855624711328421e-04,4.622531100755174205e-03,-7.857797189498826052e-04,-0.000000000000000000e+00,6.711821515081596275e-04,-2.521256066323873516e-04
-1.859439786139938143e-04,-0.000000000000000000e+00,-0.000000000000000000e+00,-0.000000000000000000e+00,-0.000000000000000000e+00,8.814727162852033573e-04,-2.024026334728332621e-04,0.000000000000000000e+00,1.916263288958193229e-04,-0.000000000000000000e+00
-0.000000000000000000e+00,-0.000000000000000000e+00,-0.000000000000000000e+00,-0.000000000000000000e+00,-0.000000000000000000e+00,0.000000000000000000e+00,-0.000000000000000000e+00,0.000000000000000000e+00,-0.000000000000000000e+00,-0.000000000000000000e+00
-0.000000000000000000e+00,-0.000000000000000000e+00,-0.000000000000000000e+00,-0.000000000000000000e+00,-0.000000000000000000e+00,-0.000000000000000000e+00,-0.000000000000000000e+00,0.000000000000000000e+00,-0.000000000000000000e+00,-0.000000000000000000e+00
-0.000000000000000000e+00,0.000000000000000000e+00,-0.000000000000000000e+00,0.000000000000000000e+00,-0.000000000000000000e+00,-0.000000000000000000e+00,-0.000000000000000000e+00,0.000000000000000000e+00,-0.000000000000000000e+00,-0.000000000000000000e+00
0.000000000000000000e+00,-0.000000000000000000e+00,-0.000000000000000000e+00,-0.000000000000000000e+00,-0.000000000000000000e+00,-0.000000000000000000e+00,-0.000000000000000000e+00,6.277837243368951815e-04,-0.000000000000000000e+00,-1.917548898274964433e-04
0.000000000000000000e+00,-0.000000000000000000e+00,0.000000000000000000e+00,1.089809078416910729e-03,-7.972450981342821957e-05,-3.173618586010889891e-04,-5.186502900410295809e-05,1.227696655917827773e-03,-0.000000000000000000e+00,-5.794241514176920113e-04
-0.000000000000000000e+00,-0.000000000000000000e+00,-1.382684131261158482e-04,5.000088501678663644e-04,-1.457086410768207671e-05,0.000000000000000000e+00,-1.149343359634699560e-04,1.159552765987294102e-03,1.607187017795516003e-05,-7.439869867228729797e-04
0.000000000000000000e+00,-6.562492759605902332e-04,5.652073282718020732e-04,-0.000000000000000000e+00,-3.604083201556000518e-04,-1.113122718921678048e-04,-1.776156258227914021e-04,1.207133913990893377e-03,0.000000000000000000e+00,1.102008833208767657e-04
-0.000000000000000000e+00,-9.925685087868105216e-04,4.901370472111739622e-04,0.000000000000000000e+00,-2.210464862273373618e-04,-0.000000000000000000e+00,-2.017788018603468173e-04,0.000000000000000000e+00,6.118047632835814939e-04,5.586399320700729133e-04
-1.546057868829046075e-04,-9.632118491905781576e-04,-7.354186660520609457e-06,0.000000000000000000e+00,-3.078199589091424942e-04,9.022417840824512253e-04,0.000000000000000000e+00,0.000000000000000000e+00,5.907378769645650184e-04,4.366541067923460410e-04
0.000000000000000000e+00,-4.999717413099602362e-04,1.094621134135230966e-04,-4.352897165231672414e-04,-1.407745954497040882e-04,8.381972921859029120e-04,0.000000000000000000e+00,-2.795363477356902198e-04,1.960774893182914112e-04,2.859825217710473214e-05
1.991703795910210564e-04,-6.257694379771805426e-04,-0.000000000000000000e+00,-2.369241597809781073e-03,-0.000000000000000000e+00,1.392666568306139647e-03,-6.732803259215814490e-04,1.708848198109946424e-04,1.076426331839621222e-03,1.393978215593587452e-04
-4.372249480121460528e-04,-5.627876863268781057e-05,1.189363226112050395e-06,-1.784670033064610214e-03,0.000000000000000000e+00,9.112560048862281860e-04,-8.188501544543818830e-05,-0.000000000000000000e+00,8.803310858408889064e-04,4.102872211408691940e-06
3.117031933497722081e-04,4.226989775128742449e-05,-2.597911971620906835e-04,-1.393109931725521186e-03,-0.000000000000000000e+00,4.147390934711870768e-04,-5.473624848516587356e-04,-3.859219766250625121e-04,1.037211519632845989e-03,9.173456884084366396e-05
3.639713360468508165e-04,6.241069977878868505e-04,-6.478846782710786720e-04,-1.786251265214854186e-03,7.233911917186035441e-04,1.664507338140634599e-03,-1.387126416927338818e-03,-7.491798291635942209e-04,5.914275345231588630e-04,1.698671709635594156e-06
5.438426330106481323e-04,6.446312098537377959e-04,-8.267156225298374688e-04,3.436295116952280994e-04,-9.976789391347375309e-04,1.051376480074194724e-03,-1.938809006078363612e-04,1.152613313849941076e-03,-3.256441791648593143e-04,-1.369792601844728452e-03
5.096234611099877268e-05,2.112399645883828239e-03,2.833727637828863262e-05,5.934743281575081963e-04,-3.008702503366576970e-03,5.590267682177997143e-04,-1.659635815477583480e-03,1.325289323031104364e-03,-1.061107725223227083e-05,-3.292347017941860501e-04
-1.473845505545442254e-04,3.378339551965276605e-03,0.000000000000000000e+00,3.215013990357022374e-04,-2.297320784461657369e-05,-1.489378638936796019e-04,-1.889857399765226560e-03,2.011969360916192502e-03,-1.003980820388563093e-03,-8.740380091105967673e-04
1.407352465887206749e-04,7.911084366829337390e-04,-5.917196815313607020e-06,6.748560088582456710e-04,-2.050931146837530774e-04,-9.494507322847886999e-04,-1.678503943231435475e-03,2.427078910188738663e-03,-1.155584387196697312e-03,1.670188828664918607e-04
1.018305861120883966e-03,7.005795510183975786e-04,1.015321498400964832e-03,3.531647228443405857e-04,4.451595419550806779e-04,-2.566143275207779639e-03,-1.729744280919910020e-03,9.010954704770344787e-04,-5.319901075588498278e-04,-4.481495284874305297e-04
1.159258840802378709e-03,-6.514467830156986904e-04,1.621986936828788059e-04,5.486247654167717910e-04,0.000000000000000000e+00,-9.447635415104102367e-04,-1.469360598429759589e-03,1.015149640961427726e-03,3.706355063277686304e-05,-0.000000000000000000e+00
1.367779031051400231e-04,-4.901166456027918972e-04,-1.755796986058253501e-04,-0.000000000000000000e+00,0.000000000000000000e+00,-1.115929364914928232e-03,-1.077112562064892753e-03,1.414798564748546419e-03,6.608304410530732413e-04,4.848952743087285621e-04
1.980194078396766246e-04,-1.497099760518936888e-03,0.000000000000000000e+00,8.795379394310704835e-04,-6.615003878172491048e-05,-1.831295899165247016e-04,-1.165532397070074893e-03,1.226222707813491748e-03,1.679623601893908346e-04,-0.000000000000000000e+00
7.033852289663211112e-04,-1.014609835339836882e-03,-4.970287901185272989e-04,1.770560464620266972e-04,-1.580593716152136979e-04,1.099644880859248326e-04,-1.592704936194084620e-03,1.453104531502806811e-03,4.719573422836459333e-04,-3.815318325753008061e-05
3.731706834535703020e-04,-8.790848556329488531e-04,-0.000000000000000000e+00,6.458202342918615939e-04,-3.605943497705295939e-04,-0.000000000000000000e+00,-1.197023052502729995e-03,1.060817548605443115e-03,7.033816549999468521e-04,-2.669723230064838422e-04
1.222097702014313114e-03,-9.020918834685637613e-04,-3.518680002400776649e-05,2.289354496409695680e-05,-1.127800360324246551e-03,1.833836647878305188e-03,-2.600681642191855227e-04,-1.653586614651240190e-04,1.090613197233923897e-03,-8.485507227920685732e-05
8.255055596327378611e-04,-5.580254059649455501e-04,-8.946373459035107971e-04,-7.912385109497124336e-04,-7.196265858006591857e-04,5.568107533173165431e-03,-6.935025405487649306e-05,-5.415505767738617617e-04,0.000000000000000000e+00,-4.307677398310364174e-04
-9.580052732271884331e-04,-0.000000000000000000e+00,-5.833248221896928076e-05,-0.000000000000000000e+00,-2.469338230539106860e-04,5.741589607030165784e-03,-1.236900981317913192e-03,0.000000000000000000e+00,-3.293120563482229159e-04,-4.597177626347600881e-05
-2.620553421836766548e-04,-0.000000000000000000e+00,-0.000000000000000000e+00,-0.000000000000000000e+00,-0.000000000000000000e+00,1.495914080404622945e-03,-1.009268968719982744e-04,0.000000000000000000e+00,0.000000000000000000e+00,-0.000000000000000000e+00
-0.000000000000000000e+00,0.000000000000000000e+00,-0.000000000000000000e+00,-0.000000000000000000e+00,-0.000000000000000000e+00,-0.000000000000000000e+00,-0.000000000000000000e+00,0.000000000000000000e+00,-0.000000000000000000e+00,-0.000000000000000000e+00
-0.000000000000000000e+00,-0.000000000000000000e+00,-0.000000000000000000e+00,-0.000000000000000000e+00,-0.000000000000000000e+00,-0.000000000000000000e+00,-0.000000000000000000e+00,0.000000000000000000e+00,-0.000000000000000000e+00,-0.000000000000000000e+00
0.000000000000000000e+00,0.000000000000000000e+00,-0.000000000000000000e+00,0.000000000000000000e+00,-0.000000000000000000e+00,-0.000000000000000000e+00,-0.000000000000000000e+00,2.929729256544146498e-05,-0.000000000000000000e+00,-0.000000000000000000e+00
-0.000000000000000000e+00,0.000000000000000000e+00,-0.000000000000000000e+00,0.000000000000000000e+00,-0.000000000000000000e+00,-0.000000000000000000e+00,-0.000000000000000000e+00,8.317549292566555437e-04,-0.000000000000000000e+00,-5.270299218084630423e-04
0.000000000000000000e+00,-0.000000000000000000e+00,0.000000000000000000e+00,8.924502349394075910e-04,-0.000000000000000000e+00,-1.677683147840253674e-04,-1.182111443598375981e-04,1.391428445000258323e-03,-0.000000000000000000e+00,-6.048162115432403809e-04
-0.000000000000000000e+00,-0.000000000000000000e+00,-4.487831457912309918e-04,2.528435774928308364e-04,-9.383642082537375136e-04,1.448043152527605604e-04,-0.000000000000000000e+00,1.879762219145735729e-03,-0.000000000000000000e+00,-1.145613269937365887e-04
-4.632207156600093626e-04,-1.528192324092474206e-04,6.504840156351299652e-05,-7.576831414693685441e-04,0.000000000000000000e+00,0.000000000000000000e+00,0.000000000000000000e+00,1.530385410845855917e-04,2.095828367104671469e-04,1.076747690262584364e-03
-0.000000000000000000e+00,-8.345504027501913624e-04,-4.682977474649213439e-04,-8.010917718477648247e-04,1.753562965479138491e-04,1.124891033662811919e-04,0.000000000000000000e+00,3.509520541957456799e-05,2.471980182565382224e-04,8.533468306286744014e-04
-0.000000000000000000e+00,-1.084032695213076741e-03,-1.062292428125576060e-03,-2.499847153373417619e-03,-0.000000000000000000e+00,4.357481264668479695e-04,3.796261475899874189e-04,4.312464490576175722e-04,1.860337692089949688e-03,7.242498706900006187e-04
2.364322381467776773e-04,-1.243335941225468802e-03,-1.519371131946150233e-03,-1.856330292827102412e-03,6.050815324262871298e-04,7.168667461849479545e-04,-0.000000000000000000e+00,0.000000000000000000e+00,2.474201519758715976e-04,1.518972499025458703e-03
-4.871408322023272879e-04,-6.017337392933228696e-04,-2.248662464600661125e-03,-2.437212894245005968e-03,1.081613834488887645e-03,2.082407925001331973e-05,1.216351599277598746e-03,6.783746536600909326e-04,1.450140260096270629e-03,4.094750564780360799e-04
-5.119676205957985997e-04,-5.775125229901057134e-05,-3.444487555617525929e-03,-2.122537277338651905e-03,1.468056495164529957e-03,4.780340701780837870e-04,3.349599595180567679e-04,1.180866937234868307e-03,4.929892660505887786e-04,1.249438323886073194e-03
-0.000000000000000000e+00,-3.441163000004511269e-05,-1.969278431543689759e-03,-5.012822638751390000e-04,4.911815097754632011e-04,7.969115445009969986e-04,-4.229436842324217041e-04,9.282533881631940560e-04,0.000000000000000000e+00,6.417327196947374005e-04
-9.430042894052121424e-04,-9.493180279815624273e-05,-1.846812792808843074e-03,-6.965163871868778256e-04,2.798710152122955118e-03,9.484798180040807146e-04,9.537800772163928045e-05,-4.688718123871823636e-04,7.576515497361544123e-04,1.085025109899883180e-04
-0.000000000000000000e+00,1.345766346670552484e-03,-3.943913517548625763e-03,-0.000000000000000000e+00,-2.741775130310561501e-03,1.335434437762850852e-03,3.229085163880333594e-04,1.081199031232410945e-04,9.304235592462308056e-04,9.774074559385954875e-04
-9.115933109021137713e-04,2.658629696953104631e-03,-2.735314557927849728e-03,8.402066070684187805e-04,-3.747286889299544874e-03,0.000000000000000000e+00,-6.134962701281479816e-04,1.866515952296701579e-03,1.472927127229601381e-03,3.591792137497997590e-04
-1.894545222017547876e-03,2.901584503453243091e-03,-1.634897869536333301e-03,9.478727730934449411e-04,2.925043561584578862e-04,-0.000000000000000000e+00,-2.766897467629454623e-03,1.959492507395777482e-03,-1.350302258567768977e-04,3.509712530035383649e-04
-1.732241654679677256e-03,6.806922354702057195e-04,-6.403347033025286270e-04,-1.134633431587861305e-04,1.698331846716488562e-03,-3.945145696327228787e-04,-9.518491838708895971e-04,1.576932242882846721e-03,-5.645826096143959603e-04,1.036444878046599918e-03
1.483763947572587863e-04,-0.000000000000000000e+00,-1.530450464314940702e-03,1.165427220844121115e-03,4.677029041750104324e-04,-5.903113735450651531e-04,-1.790548111808107790e-03,1.361957749673114179e-03,-6.801574792910348392e-04,1.586291823617434326e-03
-1.489292061277103696e-04,-4.484721986091471795e-05,0.000000000000000000e+00,6.863366637623225137e-04,-0.000000000000000000e+00,-4.281694978932117936e-04,-1.294194155967809661e-03,2.246494513249867441e-03,-5.378288981094450638e-04,1.157395745723536823e-03
2.564589943868415757e-04,-6.538749315229300078e-04,9.805568727987773112e-04,3.422140357129846260e-04,-2.406157853438845007e-04,-1.449103778710327970e-03,0.000000000000000000e+00,7.625793897626486880e-04,-1.720326485219570789e-04,-4.532825668446914801e-05
8.234466182014413488e-04,-7.163925289071697376e-04,-1.624136371828949937e-04,1.083710274233133045e-03,-5.778570666877592445e-04,-3.210407143202775350e-03,-4.528757988371040401e-04,1.642348343149188173e-03,-5.169803249321925487e-05,2.155545988478863896e-03
1.297797015577146400e-03,-6.336771149678076514e-04,-0.000000000000000000e+00,-1.136268235148246101e-04,-1.833619566029720419e-04,-2.352808970046416093e-03,0.000000000000000000e+00,1.701350335524675446e-03,2.095352486475044742e-04,6.403653974035209513e-04
1.310916160962651272e-03,-3.356739816850200946e-04,0.000000000000000000e+00,0.000000000000000000e+00,-7.160924367461151720e-04,-2.518782387360701900e-03,-3.479950517824857204e-04,1.321691610171779260e-03,9.188217042592970426e-04,1.272328482227657253e-04
1.379996244402211881e-03,-1.038685713887773732e-04,-4.712468039849085225e-04,-3.145738986539012511e-04,-1.154888788489390064e-03,1.366863855072400751e-04,6.172334399552575727e-04,-2.813933119717686843e-04,1.134577872997314090e-03,0.000000000000000000e+00
7.911250163462831041e-04,-1.875303238953480035e-04,-5.470851112333167986e-05,-6.061185134858170171e-04,-8.898613928379668376e-04,2.296176509460205826e-03,0.000000000000000000e+00,-6.537531350266288484e-04,5.493057569673033330e-04,-1.690954973870210758e-04
-1.130079833201557533e-04,-0.000000000000000000e+00,0.000000000000000000e+00,-0.000000000000000000e+00,-1.291863688114149673e-04,3.540527162086136524e-03,-1.198107051714841949e-03,-0.000000000000000000e+00,-2.221304618311070104e-04,-2.124867127390030352e-05
-3.092625793851952378e-05,-0.000000000000000000e+00,-0.000000000000000000e+00,-0.000000000000000000e+00,-0.000000000000000000e+00,6.517858813446993646e-04,-4.667113074334080201e-04,0.000000000000000000e+00,2.512110098667410412e-04,-0.000000000000000000e+00
-0.000000000000000000e+00,-0.000000000000000000e+00,-0.000000000000000000e+00,-0.000000000000000000e+00,-0.000000000000000000e+00,0.000000000000000000e+00,-0.000000000000000000e+00,0.000000000000000000e+00,-0.000000000000000000e+00,-0.000000000000000000e+00
-0.000000000000000000e+00,-0.000000000000000000e+00,-0.000000000000000000e+00,-0.000000000000000000e+00,-0.000000000000000000e+00,-0.000000000000000000e+00,-0.000000000000000000e+00,0.000000000000000000e+00,-0.000000000000000000e+00,-0.000000000000000000e+00
0.000000000000000000e+00,-0.000000000000000000e+00,-0.000000000000000000e+00,-0.000000000000000000e+00,-0.000000000000000000e+00,-0.000000000000000000e+00,-0.000000000000000000e+00,3.369082832618955820e-06,-0.000000000000000000e+00,-0.000000000000000000e+00
-0.000000000000000000e+00,-0.000000000000000000e+00,-0.000000000000000000e+00,-0.000000000000000000e+00,-0.000000000000000000e+00,-0.000000000000000000e+00,-0.000000000000000000e+00,1.090220969797544171e-03,-0.000000000000000000e+00,-5.631046993330642578e-04
0.000000000000000000e+00,-0.000000000000000000e+00,-2.919308153423194832e-05,0.000000000000000000e+00,-6.583901539273220773e-04,-0.000000000000000000e+00,-4.547177725985002079e-05,2.532589317715831529e-03,-0.000000000000000000e+00,-6.612560312027516854e-04
0.000000000000000000e+00,0.000000000000000000e+00,-5.667044102511466534e-04,-0.000000000000000000e+00,-1.441464966784919421e-03,1.182546692505606194e-04,-2.452859772122683332e-04,2.571738153953802026e-03,-7.573632792085799683e-05,4.247710998557462331e-04
-0.000000000000000000e+00,-1.071190328429167293e-04,-1.673153627605385120e-03,-9.278351489686929680e-04,-1.110770169533669403e-04,2.633699404059322222e-04,0.000000000000000000e+00,6.651986991259329100e-04,5.458656050423802168e-04,1.469615297432592298e-03
4.384209014282828550e-05,-0.000000000000000000e+00,-3.473753474954081270e-03,-1.597474414030526646e-03,1.779825339428256134e-04,7.940899474346239115e-04,8.678795339118731576e-04,2.990891612216994518e-04,6.117730297468533728e-06,1.203339865470874973e-03
-0.000000000000000000e+00,-3.092010316711252455e-04,-3.961338825613414452e-03,-1.617936801023226422e-03,8.446854007867033798e-04,4.121635693037420107e-04,6.498123608262134634e-04,9.999083352130349375e-04,7.472134345002719603e-04,8.870376451650018512e-04
0.000000000000000000e+00,-1.008955485651342023e-03,-2.790469931090217796e-03,-1.724505013743101367e-03,2.123087877410723568e-03,-2.366548398125844794e-04,7.863555968817643668e-04,1.938823020757607981e-03,-0.000000000000000000e+00,3.182429165057085044e-04
0.000000000000000000e+00,-5.996814493993559651e-04,-2.367675031834560236e-03,-8.498623828551183246e-04,6.293642322828002945e-04,-0.000000000000000000e+00,1.090640115179341250e-03,2.043560825093030395e-04,0.000000000000000000e+00,1.480922217622027354e-03
3.530318384808594665e-04,-9.856102139263807783e-04,-2.468101072344906863e-03,1.122481976635734567e-04,1.571615133691532402e-03,8.817115256497205572e-04,2.731406093691577850e-04,-1.363325473635977473e-04,-6.376416065238718059e-04,4.717015592651275244e-04
1.114131250778125401e-04,-1.530704783001134769e-03,-1.696827044736838293e-03,-6.788201641974041635e-04,1.808521486415570366e-03,5.040892046410586471e-04,9.594756638891836428e-04,6.590964915542998068e-05,-4.420729219436642121e-04,4.517667781269257788e-04
4.511198473036092619e-04,-4.726425063287336662e-04,-2.112760933069168356e-03,3.078432538073767270e-04,2.648002045521641572e-03,5.308439069111050516e-04,8.404047235020367093e-04,-2.326405916083228945e-03,2.941273243180350314e-04,-1.058451119693643418e-03
0.000000000000000000e+00,1.644895012006025682e-03,-2.051290456039254854e-03,1.483605626313926160e-04,0.000000000000000000e+00,1.739371175516542028e-03,5.094079134621178192e-04,-3.161537030920555033e-03,1.157917272072865166e-03,-4.437645384102661614e-04
-1.963463018271270708e-03,3.693747239756830971e-03,-1.645805895310759742e-03,2.418200579285074460e-03,-2.043588459601057127e-03,-2.371646354738958572e-04,-1.206504616155698465e-03,-2.478564916770417117e-04,7.612292694366043066e-04,9.711952769547731353e-04
-2.425516528275800665e-03,2.077445171274672209e-03,-2.479980504689515992e-03,3.991899683928585674e-04,9.254370372917231861e-04,0.000000000000000000e+00,-1.041601306899695182e-03,1.635050478739228470e-03,-1.731049867701764898e-04,5.023193736435844830e-04
-1.951236089491207920e-03,1.094405632313907514e-03,-1.178959091317024728e-03,1.254585830925211568e-04,1.186419184458726911e-03,-1.371132621570427673e-03,-5.679646781380946275e-04,2.162585497639002343e-03,-5.063958925240809881e-04,9.934889220106445356e-04
0.000000000000000000e+00,1.295655998720174535e-04,-1.217598054073296479e-03,5.822029608418984162e-05,-1.166417210327635787e-07,-1.325873997266456897e-03,0.000000000000000000e+00,1.477179707447578072e-03,-0.000000000000000000e+00,7.763339153649799224e-04
-0.000000000000000000e+00,0.000000000000000000e+00,-8.847412379621078958e-04,2.674628906687807482e-04,0.000000000000000000e+00,-4.890324409165723802e-04,-6.688154667079687253e-04,1.241097451047820004e-03,-2.537951097959867202e-04,1.213316830590053640e-03
4.528251869606566074e-04,-7.719396125247732221e-04,5.156351530761401616e-04,-5.498775521623693963e-05,5.057847087033898181e-04,-1.704539525290358877e-03,-1.445697520431031514e-03,0.000000000000000000e+00,2.498296872294773416e-04,1.631807828976326912e-03
4.442775939351640462e-04,-3.601354068895910648e-04,-6.483018107350007253e-04,1.083365785175995523e-05,0.000000000000000000e+00,-8.955587580719255114e-04,-6.927020377917731927e-04,1.874859773914910565e-05,1.272481543784807279e-04,1.691986407007493604e-03
-0.000000000000000000e+00,-0.000000000000000000e+00,-0.000000000000000000e+00,-2.493227416507767715e-03,3.785360172861815015e-04,-2.337584426764576992e-03,-0.000000000000000000e+00,1.754837815064382988e-04,1.274368791449128138e-03,1.896969259526499552e-03
1.269509725410349456e-03,-0.000000000000000000e+00,-5.335287928413242958e-04,-1.198981230514451499e-03,0.000000000000000000e+00,-3.989643568931751719e-03,1.055610186769977100e-03,3.769183234584834799e-04,9.644974967381786174e-04,1.504142703273761471e-03
1.815048014693360339e-03,-0.000000000000000000e+00,-9.652040995331173136e-04,-9.552964136750757580e-04,0.000000000000000000e+00,-4.099183535281411377e-03,2.455956285012646755e-03,-5.164018475402053264e-04,2.661178006236825447e-03,3.362335609289731557e-04
2.229586487379351268e-03,-0.000000000000000000e+00,0.000000000000000000e+00,-1.988200376099588456e-04,0.000000000000000000e+00,-3.584851409438261517e-03,7.224772424994300567e-04,-5.454634678606921829e-04,2.125469815344879342e-03,-5.414412367619960038e-04
1.290025861468510496e-04,-0.000000000000000000e+00,5.083625986022036625e-04,-0.000000000000000000e+00,-0.000000000000000000e+00,0.000000000000000000e+00,-4.236703358392567551e-04,0.000000000000000000e+00,-0.000000000000000000e+00,-2.255181591816523884e-04
-0.000000000000000000e+00,-0.000000000000000000e+00,3.406203226307484805e-04,-0.000000000000000000e+00,-0.000000000000000000e+00,2.343809618299422324e-04,-5.422208193570813651e-04,0.000000000000000000e+00,-0.000000000000000000e+00,-0.000000000000000000e+00
-0.000000000000000000e+00,-0.000000000000000000e+00,0.000000000000000000e+00,-0.000000000000000000e+00,-0.000000000000000000e+00,-0.000000000000000000e+00,-0.000000000000000000e+00,0.000000000000000000e+00,-0.000000000000000000e+00,-0.000000000000000000e+00
-0.000000000000000000e+00,0.000000000000000000e+00,-0.000000000000000000e+00,-0.000000000000000000e+00,-0.000000000000000000e+00,-0.000000000000000000e+00,-0.000000000000000000e+00,-0.000000000000000000e+00,-0.000000000000000000e+00,-0.000000000000000000e+00
0.000000000000000000e+00,-0.000000000000000000e+00,-0.000000000000000000e+00,-0.000000000000000000e+00,-0.000000000000000000e+00,-0.000000000000000000e+00,-0.000000000000000000e+00,0.000000000000000000e+00,-0.000000000000000000e+00,-0.000000000000000000e+00
0.000000000000000000e+00,-0.000000000000000000e+00,-0.000000000000000000e+00,-0.000000000000000000e+00,-0.000000000000000000e+00,-0.000000000000000000e+00,-0.000000000000000000e+00,4.954841174074942371e-04,-0.000000000000000000e+00,-1.087603200940428469e-04
0.000000000000000000e+00,0.000000000000000000e+00,-0.000000000000000000e+00,0.000000000000000000e+00,-4.835260387086865569e-04,-0.000000000000000000e+00,-0.000000000000000000e+00,1.745450322697381573e-03,-0.000000000000000000e+00,-6.125880595031950521e-05
1.443609929020528741e-04,0.000000000000000000e+00,-1.631441645956055756e-03,-3.456565390319204026e-04,-6.562732359861401035e-04,1.864636400109622707e-04,-3.874554680570298573e-04,2.479693980707302521e-03,-3.438175663939423859e-04,1.374674617508760046e-03
-0.000000000000000000e+00,-0.000000000000000000e+00,-3.074536632409714983e-03,-1.162113046736840734e-03,1.340927947701592879e-04,1.199204773577658683e-03,0.000000000000000000e+00,7.385591674258369351e-04,0.000000000000000000e+00,1.510276480713076182e-03
1.074302657674165848e-03,-1.416329609115095810e-05,-4.322184257634252222e-03,-1.040706679654334298e-03,1.630093472631511612e-03,-1.601825837564966790e-04,1.772456989376960512e-03,8.893539152798536792e-05,-0.000000000000000000e+00,2.792948791731386139e-04
9.395055301377650513e-04,-5.199539454397359133e-04,-3.378213000438441520e-03,-1.167706607164623175e-03,1.637521195138549272e-03,7.541486011052772652e-04,6.139261825392384889e-04,-0.000000000000000000e+00,-0.000000000000000000e+00,6.262161577040000014e-04
3.252871410964780930e-04,-1.612863539143529704e-04,-1.670339933432422137e-03,-4.810546678723059814e-04,1.265940610525065520e-03,5.521852851229025689e-04,2.413306259555744442e-05,-7.109142107179893802e-04,-1.496460309803603907e-04,1.006375579747276769e-03
7.526827806934397597e-04,-1.054507356058387952e-03,-7.992041597355805304e-04,-4.207516431202226823e-04,1.389429744834794721e-03,8.193561487780100195e-04,-0.000000000000000000e+00,-4.577539221546245043e-04,1.053792814356885104e-04,-1.424483052471040034e-04
6.571948022747487470e-04,-2.577946985250499905e-03,-1.190953251874079231e-04,-1.138249830264789026e-03,1.645741666211692844e-03,2.513442239821411274e-04,1.092532251869816244e-03,-0.000000000000000000e+00,-4.291609343765102370e-04,2.868272023246296759e-04
1.070020402728258081e-04,-2.891315736054893889e-03,-3.392800108671285581e-04,-9.460624941022740793e-04,1.956650271587144149e-03,1.326312790432669034e-03,8.342842696530748496e-04,-6.621256389207021056e-04,-5.281827500699616730e-05,5.269201061089680239e-04
6.374794287534189851e-04,-2.934529063209075192e-04,-3.190477435350681334e-04,2.002431891312520689e-04,1.329601948786875805e-03,1.278590782658899517e-03,2.838555903727095530e-04,-3.877663041263266185e-03,9.047823788316609449e-04,-9.977142683727851721e-04
-1.295718534925661232e-03,1.388021598962651095e-03,0.000000000000000000e+00,1.523312564887052906e-03,-5.480764062867245212e-04,6.745421040640839361e-04,-0.000000000000000000e+00,-3.951392260022035773e-03,1.396696116141607838e-03,9.215907232411317624e-06
-2.999964847898457538e-03,3.148245463773491435e-03,1.728644196567567229e-04,3.688436337013857916e-04,0.000000000000000000e+00,-1.637452401792133488e-04,-8.468288863805837220e-04,-2.498808519501251519e-04,-0.000000000000000000e+00,1.077595637859544249e-03
-3.138300794804837947e-03,2.042799232772182262e-03,-1.039699952763417255e-03,-7.609126139020031074e-04,1.342659064624154722e-03,-1.763440759312839834e-03,-0.000000000000000000e+00,6.230439699635207350e-04,1.612891768462432120e-03,8.667660185340225580e-04
-2.277995944013420059e-03,1.076194345790383675e-03,-2.764476868940107779e-04,0.000000000000000000e+00,2.762184489730812103e-04,-2.036595562062254363e-03,-4.220748177493565496e-04,7.823356384886173340e-04,2.589753049768697061e-04,1.558228204814436938e-03
-1.078742746480398430e-04,4.687204939364191078e-04,-8.541255309556470285e-04,1.760823456629598564e-04,1.393896479034547210e-03,-5.709728930336978748e-04,-5.669195372190828424e-04,0.000000000000000000e+00,-2.550498835643227576e-04,1.291490092375703830e-03
2.196275051854563369e-04,-9.226161067851416193e-04,-4.412121055019040507e-04,1.258728594053727841e-03,3.691751256030045207e-04,-6.650382483602939850e-04,-4.574043378499685554e-04,1.490140784918582428e-04,0.000000000000000000e+00,7.289246683406844880e-04
3.420860143394261485e-05,-1.113462069569485981e-03,-1.993278517178120933e-04,-7.289697112320878657e-04,7.127232049651153686e-04,0.000000000000000000e+00,5.769925197472516062e-05,-4.855825122747117729e-04,3.084726857078341658e-04,2.396821252549290876e-03
-9.164103067379451460e-04,-3.864861312581305709e-04,-1.389339574699206695e-04,-1.468673318471511733e-03,1.260975805899455142e-03,0.000000000000000000e+00,-2.137139729348090308e-04,6.966940413241599493e-05,7.791568460345844362e-04,1.577618388259158363e-03
-4.289341005313688300e-04,-1.483358196369695783e-04,-2.163318905201576413e-04,-1.509887522474191637e-03,1.012498455951642675e-03,-6.354835319588441082e-04,5.530275636400354584e-04,2.461422327470357582e-04,-1.312615284803918020e-04,1.849502615429672332e-03
8.294800415887892226e-04,-1.362689658683053024e-04,-2.842814833902710054e-04,-2.075474653483070937e-03,4.127725724141413123e-04,-1.105832565197921837e-03,1.479788948132161651e-03,-1.682994878520056284e-05,5.624552369831718095e-04,2.906266808279125631e-06
1.655860512505007501e-03,-5.688242678590762152e-05,0.000000000000000000e+00,-8.781535038618950304e-04,0.000000000000000000e+00,-2.587477737439911139e-03,3.074821386234384904e-03,-5.830324106376759191e-04,1.372018676684159250e-03,-1.027619660494293822e-03
1.822171385702158180e-03,-0.000000000000000000e+00,1.359919880233811202e-03,-2.560736037720985061e-04,-5.229128373341829445e-04,-2.865985215335004749e-03,1.431088083594343969e-03,-0.000000000000000000e+00,7.320350351654625765e-04,-1.125782987930256567e-03
3.227876607981169065e-04,-0.000000000000000000e+00,1.475989187636066874e-03,-0.000000000000000000e+00,-0.000000000000000000e+00,-5.039436197405754506e-04,-4.515834493061262429e-04,0.000000000000000000e+00,0.000000000000000000e+00,-3.285353843959221815e-04
