-4.847241535779883148e-01,8.832209839312994415e-01,1.897397258000130538e-01,-3.133069842499972002e-01,1.685427891293013181e-01,1.893297718515323691e+00,-2.457553994941906184e-01,1.120847947027012292e+00,-2.614147903975456710e+00,-5.977147231053150378e-01
0.000000000000000000e+00,0.000000000000000000e+00,0.000000000000000000e+00,0.000000000000000000e+00,0.000000000000000000e+00,0.000000000000000000e+00,0.000000000000000000e+00,0.000000000000000000e+00,0.000000000000000000e+00,0.000000000000000000e+00
0.000000000000000000e+00,0.000000000000000000e+00,0.000000000000000000e+00,0.000000000000000000e+00,0.000000000000000000e+00,0.000000000000000000e+00,0.000000000000000000e+00,0.000000000000000000e+00,0.000000000000000000e+00,0.000000000000000000e+00
0.000000000000000000e+00,0.000000000000000000e+00,0.000000000000000000e+00,0.000000000000000000e+00,0.000000000000000000e+00,0.000000000000000000e+00,0.000000000000000000e+00,0.000000000000000000e+00,0.000000000000000000e+00,0.000000000000000000e+00
0.000000000000000000e+00,0.000000000000000000e+00,0.000000000000000000e+00,0.000000000000000000e+00,0.000000000000000000e+00,0.000000000000000000e+00,0.000000000000000000e+00,0.000000000000000000e+00,0.000000000000000000e+00,0.000000000000000000e+00
0.000000000000000000e+00,0.000000000000000000e+00,0.000000000000000000e+00,0.000000000000000000e+00,0.000000000000000000e+00,0.000000000000000000e+00,0.000000000000000000e+00,0.000000000000000000e+00,0.000000000000000000e+00,0.000000000000000000e+00
0.000000000000000000e+00,0.000000000000000000e+00,0.000000000000000000e+00,0.000000000000000000e+00,0.000000000000000000e+00,0.000000000000000000e+00,0.000000000000000000e+00,0.000000000000000000e+00,0.000000000000000000e+00,0.000000000000000000e+00
0.000000000000000000e+00,0.000000000000000000e+00,0.000000000000000000e+00,0.000000000000000000e+00,0.000000000000000000e+00,0.000000000000000000e+00,0.000000000000000000e+00,0.000000000000000000e+00,0.000000000000000000e+00,0.000000000000000000e+00
0.000000000000000000e+00,0.000000000000000000e+00,0.000000000000000000e+00,0.000000000000000000e+00,0.000000000000000000e+00,0.000000000000000000e+00,0.000000000000000000e+00,0.000000000000000000e+00,0.000000000000000000e+00,0.000000000000000000e+00
0.000000000000000000e+00,0.000000000000000000e+00,0.000000000000000000e+00,0.000000000000000000e+00,0.000000000000000000e+00,0.000000000000000000e+00,0.000000000000000000e+00,0.000000000000000000e+00,0.000000000000000000e+00,0.000000000000000000e+00
0.000000000000000000e+00,0.000000000000000000e+00,0.000000000000000000e+00,0.000000000000000000e+00,0.000000000000000000e+00,0.000000000000000000e+00,0.000000000000000000e+00,0.000000000000000000e+00,0.000000000000000000e+00,0.000000000000000000e+00
0.000000000000000000e+00,0.000000000000000000e+00,0.000000000000000000e+00,0.000000000000000000e+00,0.000000000000000000e+00,0.000000000000000000e+00,0.000000000000000000e+00,0.000000000000000000e+00,0.000000000000000000e+00,0.000000000000000000e+00
0.000000000000000000e+00,0.000000000000000000e+00,0.000000000000000000e+00,0.000000000000000000e+00,0.000000000000000000e+00,0.000000000000000000e+00,0.000000000000000000e+00,0.000000000000000000e+00,0.000000000000000000e+00,0.000000000000000000e+00
-4.689607886004407302e-07,-1.012075413039354373e-07,7.023947675839929766e-06,-3.031436223852020597e-07,-2.704691677254025502e-06,-1.045880304139075726e-07,-2.419964013422424143e-06,-1.606291434078566521e-07,-2.975154390120087089e-07,-4.632474200401080495e-07
-1.012955303376952833e-05,-2.186082892164992602e-06,1.517172697981423481e-04,-6.547902243520325781e-06,-5.842134022868707653e-05,-2.259101456940409741e-06,-5.227122268992439062e-05,-3.469589497609696125e-06,-6.426333482659376932e-06,-1.000614427286633374e-05
-1.012955303376952833e-05,-2.186082892164992602e-06,1.517172697981423481e-04,-6.547902243520325781e-06,-5.842134022868707653e-05,-2.259101456940409741e-06,-5.227122268992439062e-05,-3.469589497609696125e-06,-6.426333482659376932e-06,-1.000614427286633374e-05
-4.220647097403980019e-07,-9.108678717354103194e-08,6.321552908255925524e-06,-2.728292601466822349e-07,-2.434222509528632565e-06,-9.412922737251709459e-08,-2.177967612080175460e-06,-1.445662290670714395e-07,-2.677638951108066310e-07,-4.169226780360977157e-07
0.000000000000000000e+00,0.000000000000000000e+00,0.000000000000000000e+00,0.000000000000000000e+00,0.000000000000000000e+00,0.000000000000000000e+00,0.000000000000000000e+00,0.000000000000000000e+00,0.000000000000000000e+00,0.000000000000000000e+00
0.000000000000000000e+00,0.000000000000000000e+00,0.000000000000000000e+00,0.000000000000000000e+00,0.000000000000000000e+00,0.000000000000000000e+00,0.000000000000000000e+00,0.000000000000000000e+00,0.000000000000000000e+00,0.000000000000000000e+00
0.000000000000000000e+00,0.000000000000000000e+00,0.000000000000000000e+00,0.000000000000000000e+00,0.000000000000000000e+00,0.000000000000000000e+00,0.000000000000000000e+00,0.000000000000000000e+00,0.000000000000000000e+00,0.000000000000000000e+00
0.000000000000000000e+00,0.000000000000000000e+00,0.000000000000000000e+00,0.000000000000000000e+00,0.000000000000000000e+00,0.000000000000000000e+00,0.000000000000000000e+00,0.000000000000000000e+00,0.000000000000000000e+00,0.000000000000000000e+00
0.000000000000000000e+00,0.000000000000000000e+00,0.000000000000000000e+00,0.000000000000000000e+00,0.000000000000000000e+00,0.000000000000000000e+00,0.000000000000000000e+00,0.000000000000000000e+00,0.000000000000000000e+00,0.000000000000000000e+00
0.000000000000000000e+00,0.000000000000000000e+00,0.000000000000000000e+00,0.000000000000000000e+00,0.000000000000000000e+00,0.000000000000000000e+00,0.000000000000000000e+00,0.000000000000000000e+00,0.000000000000000000e+00,0.000000000000000000e+00
0.000000000000000000e+00,0.000000000000000000e+00,0.000000000000000000e+00,0.000000000000000000e+00,0.000000000000000000e+00,0.000000000000000000e+00,0.000000000000000000e+00,0.000000000000000000e+00,0.000000000000000000e+00,0.000000000000000000e+00
0.000000000000000000e+00,0.000000000000000000e+00,0.000000000000000000e+00,0.000000000000000000e+00,0.000000000000000000e+00,0.000000000000000000e+00,0.000000000000000000e+00,0.000000000000000000e+00,0.000000000000000000e+00,0.000000000000000000e+00
0.000000000000000000e+00,0.000000000000000000e+00,0.000000000000000000e+00,0.000000000000000000e+00,0.000000000000000000e+00,0.000000000000000000e+00,0.000000000000000000e+00,0.000000000000000000e+00,0.000000000000000000e+00,0.000000000000000000e+00
0.000000000000000000e+00,0.000000000000000000e+00,0.000000000000000000e+00,0.000000000000000000e+00,0.000000000000000000e+00,0.000000000000000000e+00,0.000000000000000000e+00,0.000000000000000000e+00,0.000000000000000000e+00,0.000000000000000000e+00
0.000000000000000000e+00,0.000000000000000000e+00,0.000000000000000000e+00,0.000000000000000000e+00,0.000000000000000000e+00,0.000000000000000000e+00,0.000000000000000000e+00,0.000000000000000000e+00,0.000000000000000000e+00,0.000000000000000000e+00
0.000000000000000000e+00,0.000000000000000000e+00,0.000000000000000000e+00,0.000000000000000000e+00,0.000000000000000000e+00,0.000000000000000000e+00,0.000000000000000000e+00,0.000000000000000000e+00,0.000000000000000000e+00,0.000000000000000000e+00
0.000000000000000000e+00,0.000000000000000000e+00,0.000000000000000000e+00,0.000000000000000000e+00,0.000000000000000000e+00,0.000000000000000000e+00,0.000000000000000000e+00,0.000000000000000000e+00,0.000000000000000000e+00,0.000000000000000000e+00
0.000000000000000000e+00,0.000000000000000000e+00,0.000000000000000000e+00,0.000000000000000000e+00,0.000000000000000000e+00,0.000000000000000000e+00,0.000000000000000000e+00,0.000000000000000000e+00,0.000000000000000000e+00,0.000000000000000000e+00
0.000000000000000000e+00,0.000000000000000000e+00,0.000000000000000000e+00,0.000000000000000000e+00,0.000000000000000000e+00,0.000000000000000000e+00,0.000000000000000000e+00,0.000000000000000000e+00,0.000000000000000000e+00,0.000000000000000000e+00
0.000000000000000000e+00,0.000000000000000000e+00,0.000000000000000000e+00,0.000000000000000000e+00,0.000000000000000000e+00,0.000000000000000000e+00,0.000000000000000000e+00,0.000000000000000000e+00,0.000000000000000000e+00,0.000000000000000000e+00
-2.700576632220207461e-07,-1.717034278367244499e-07,-1.217426929996057874e-05,-1.371933125077963279e-07,-5.759104587774899902e-05,-2.823884673603421893e-07,7.371372469397170606e-05,-2.081057528255301138e-07,-1.118940113452159659e-06,-1.760020779057609014e-06
-9.459372014439601133e-07,-5.441711669273022655e-07,-3.697878379816184238e-05,-4.657314105159467287e-07,-3.579410362236934450e-04,-8.816441458055692020e-07,4.075329691808051639e-04,-9.080944247754679091e-07,-3.356268068312527790e-06,-5.511302741168749035e-06
-9.418400173588715847e-06,-2.259396969148903560e-06,-1.708303092035014150e-04,-7.504796078086708310e-06,-1.503345581803905602e-02,-1.065708620830304377e-05,1.527793171813397917e-02,-1.500930525235299634e-05,-4.076730649322716988e-06,-2.471987556058561033e-05
-2.339046211068526650e-05,-6.890786710267667091e-05,-4.542134421970401843e-04,-1.855391926013728659e-05,-4.477803652778923615e-02,-2.161504393710657641e-05,4.559966558689359378e-02,-1.053663620417380405e-04,-4.865186441744419170e-05,-8.093009803762394390e-05
-4.984542192835819967e-05,-2.999315734593333439e-03,-3.570673856809434069e-03,-1.037684243215136217e-04,-2.120599335291452683e-02,-3.511719661784998118e-05,2.950814325136265348e-02,-5.307310879406937874e-04,-8.245077004510669794e-04,-1.881904757858380813e-04
-1.790325227258962896e-04,-2.448948143045398713e-03,-1.185351204275501488e-02,-1.079043385640489231e-04,-1.213692455168884077e-02,-9.568705647530671113e-05,2.813635381981937494e-02,-2.800706859581473195e-04,-7.904689443211382208e-04,-2.438055342855467277e-04
-1.941371446852079756e-03,-1.438527808192644310e-03,-1.039832787339544685e-02,-1.491666269344073573e-04,-1.961268013783645792e-02,-3.744630666759814772e-04,3.658312456298677684e-02,-4.684319480444099591e-04,-4.438643494011907374e-04,-1.756291305654276080e-03
1.229381226763469163e-02,-5.025262195284181145e-04,-9.496625883987247843e-03,-2.210550077651257314e-04,-4.149323777999155971e-02,-4.098333907303707653e-04,5.297089064028297906e-02,-5.798791258039876113e-03,-6.556317891108539696e-04,-6.687001578764206408e-03
2.787681540750619816e-02,-5.694379821992435987e-04,-9.428171519001713949e-03,-2.953467120700938487e-04,-7.859679204966384114e-02,-2.512984743566410491e-04,8.763287688852593182e-02,-1.461482365554700805e-02,-7.858155587892983992e-04,-1.096800634440384982e-02
1.180397553200522413e-02,-5.668211573416759427e-04,-5.947435698976881631e-03,-2.370960000130974685e-04,-3.741426476055199207e-02,-8.606655009523603642e-04,4.312220817970366382e-02,-4.609787163510070673e-03,-7.997937957370643801e-04,-4.490319634625860971e-03
-9.867908902146695343e-04,8.506534384155382475e-03,4.817604041231877791e-03,-3.528944787514522348e-03,-4.268538307971160399e-03,-1.962888406384962880e-03,1.550767929402247424e-03,-2.045257787652267280e-04,-1.826967755529253831e-03,-2.096250428409706604e-03
1.373231648478720132e-02,1.005245412589270831e-02,3.869387148919375269e-02,-4.356519019084520092e-03,-6.114728603724395306e-02,-1.233746444689929386e-03,1.320543919774819740e-02,-5.701773423528345031e-04,-1.297447349109818711e-03,-7.078905105140736315e-03
3.828854870321266035e-02,-6.922009513075511999e-04,4.805477590561666595e-02,-1.843070383982764677e-03,-7.819457549242138372e-02,-8.683133419450408648e-04,1.447422259854040140e-02,-1.308138357826919710e-03,-2.246682415677369107e-03,-1.566456626420848278e-02
1.777802721665841176e-02,-1.167624462855255778e-03,-6.750001336916164503e-03,-7.002855722937051906e-04,-2.848359908505023255e-02,-1.011563916737575437e-03,3.270136339643495843e-02,-6.815872118134182504e-04,-1.887257597925990878e-03,-9.797471429501016654e-03
-9.401673540192173693e-04,-1.608593974728214063e-04,-1.291362053378491970e-02,-1.293380368940336188e-04,-9.935219540675241032e-03,-2.588991436933924493e-03,2.922269552766182388e-02,-1.563087980809089983e-04,-9.963972058142675330e-04,-1.401793223986502659e-03
-6.023916534123333272e-04,-4.407303479108533285e-05,-1.022874724169365104e-02,-1.019592874348332226e-04,-2.315308339283407221e-02,-2.350165562519416010e-03,3.815563949092512508e-02,-1.968717846752751340e-04,-6.495701742118368269e-04,-8.287773593525796451e-04
-3.390349968784366172e-04,-4.122156384692740420e-05,-5.029741701768985704e-03,-1.277346749945494923e-04,-1.597996688550821012e-02,-1.168105269110581703e-03,2.380726455776303874e-02,-9.370216376229985485e-05,-3.543639459116542430e-04,-6.733933559814544870e-04
-1.318976493149726266e-04,-1.583066410580278948e-05,-1.319689144864548067e-03,-3.650411753101466658e-05,-1.496554831853875306e-02,-2.739879946893340507e-04,1.710796751859833265e-02,-1.318316390263841209e-05,-1.269354049077966941e-04,-2.243910607435234655e-04
-3.276227682878936603e-05,-6.276337586762646571e-06,-2.786804307535468267e-04,-1.033186460183474244e-05,-2.407546438297943764e-02,-2.260671143448635158e-05,2.478743162759254604e-02,-1.569855334261338598e-05,-8.581311714014694750e-05,-2.597979529248832953e-04
-2.272354804917481523e-06,-1.485316804534855529e-06,-1.109327541149527626e-04,-1.837484054211001785e-06,-1.052172780770703302e-02,-7.796253698182939391e-06,1.086099363352661419e-02,-1.714858245825111066e-05,-3.335045756473197122e-05,-1.644426223197817481e-04
0.000000000000000000e+00,0.000000000000000000e+00,0.000000000000000000e+00,0.000000000000000000e+00,0.000000000000000000e+00,0.000000000000000000e+00,0.000000000000000000e+00,0.000000000000000000e+00,0.000000000000000000e+00,0.000000000000000000e+00
0.000000000000000000e+00,0.000000000000000000e+00,0.000000000000000000e+00,0.000000000000000000e+00,0.000000000000000000e+00,0.000000000000000000e+00,0.000000000000000000e+00,0.000000000000000000e+00,0.000000000000000000e+00,0.000000000000000000e+00
0.000000000000000000e+00,0.000000000000000000e+00,0.000000000000000000e+00,0.000000000000000000e+00,0.000000000000000000e+00,0.000000000000000000e+00,0.000000000000000000e+00,0.000000000000000000e+00,0.000000000000000000e+00,0.000000000000000000e+00
0.000000000000000000e+00,0.000000000000000000e+00,0.000000000000000000e+00,0.000000000000000000e+00,0.000000000000000000e+00,0.000000000000000000e+00,0.000000000000000000e+00,0.000000000000000000e+00,0.000000000000000000e+00,0.000000000000000000e+00
0.000000000000000000e+00,0.000000000000000000e+00,0.000000000000000000e+00,0.000000000000000000e+00,0.000000000000000000e+00,0.000000000000000000e+00,0.000000000000000000e+00,0.000000000000000000e+00,0.000000000000000000e+00,0.000000000000000000e+00
0.000000000000000000e+00,0.000000000000000000e+00,0.000000000000000000e+00,0.000000000000000000e+00,0.000000000000000000e+00,0.000000000000000000e+00,0.000000000000000000e+00,0.000000000000000000e+00,0.000000000000000000e+00,0.000000000000000000e+00
-1.177914666479169744e-06,-3.242644511412751091e-07,-1.387826484115874330e-06,-7.822763478462548130e-07,-4.461994741004790070e-06,-1.316385811930836371e-06,1.352837028952554503e-05,-3.193139541635128961e-07,-2.019938379599842386e-06,-1.738455453244047808e-06
-1.021214723095235027e-04,-7.481514369938913677e-08,-6.478590810078666087e-06,-9.148773121186253635e-07,-2.537587770218500577e-06,-3.236812351264202123e-05,1.453385784306917552e-04,-2.753295098546423572e-07,-2.459038819651891676e-07,-3.218781805911089136e-07
-8.534786377029203190e-06,-5.619453503815142731e-06,-7.109386204831558923e-04,-8.550053123461859948e-06,-4.677226013027366118e-04,-1.429868165276998676e-05,1.309680415643864945e-03,-6.865796618996866926e-06,-6.290061381204077042e-05,-2.424980876985691723e-05
-6.495844030037607134e-04,-1.705378830045623694e-05,-1.872529967668467438e-04,-1.191520709927858555e-04,-8.648216945996065573e-04,-9.206294547046197253e-06,1.899152098908633542e-03,-5.225631497833847826e-06,-3.207705916991724808e-05,-1.477816003037826319e-05
-5.119451684104424707e-03,-9.102473169266770553e-05,-1.136618162515969045e-03,-6.722968292077213283e-04,-2.393703041154812347e-02,-4.122995475412198879e-05,3.125497111060667604e-02,-4.801874762451749037e-05,-1.361612032933184717e-04,-7.313938586586849215e-05
-7.533606559758992613e-03,-1.303812874799634321e-03,-2.855606854457036058e-03,-1.718202472069510706e-03,-6.126627606930949710e-02,-4.842674619597347649e-04,7.638362385128331933e-02,-4.434406943234143247e-04,-4.855899752031773552e-04,-2.928208894022319895e-04
-1.153098710674524754e-02,-1.940921200810815511e-02,1.005030348629766535e-02,-7.714993440861217175e-03,-6.339027047197530462e-02,-1.744140559146301886e-03,9.751373789083880861e-02,-1.119349748339623727e-03,-2.129977122251781527e-03,-5.251109197087069436e-04
-1.804931461396568071e-02,-3.711602836693712881e-02,5.574451040378121391e-02,-1.421670743331614195e-02,-6.375554498356524047e-02,-8.482921548414680893e-03,1.007105136599296125e-01,-3.334295050871512438e-03,-9.694501435526785976e-03,-1.805710631113724950e-03
-1.447863516488161889e-02,-1.800443514452550881e-02,1.299688121565799152e-02,2.746342829402915846e-03,-1.354426297261394629e-01,-3.222124326473549405e-02,2.184397550590538584e-01,-7.722786611921880935e-03,-1.815053114686452501e-02,-8.162718045045983667e-03
-1.863596924440653543e-02,-9.667346494812831606e-03,2.464367016374495109e-02,3.452994535296846634e-02,-1.467216797820546648e-01,-5.281447061072425814e-02,2.214321217352423765e-01,-1.872194557072662593e-02,-2.094806510395339633e-02,-1.309626044527697347e-02
-1.561543119857496803e-02,1.954791654980877038e-04,4.512385348253993012e-02,2.167982109135649024e-02,-2.085083820804878030e-01,-4.217445445056786091e-02,2.688217400509240740e-01,-2.114482788764929927e-02,-2.623239567283818657e-02,-2.214540250020028897e-02
-1.902178597838672172e-02,4.779245792955622019e-02,3.053135750879767962e-02,-1.564193899529322390e-02,-1.565895910693664850e-01,-4.322107045770260531e-02,2.276647211740683296e-01,-1.125920235349006995e-02,-3.722491063848610421e-02,-2.303003711969690837e-02
-5.261501830493384851e-02,8.791888790384944086e-02,-3.413036781000231001e-03,-1.372549390312757973e-02,-7.118167604472980248e-02,-6.045210682964560767e-02,1.773055061427624146e-01,-7.324797340985827326e-03,-3.593240939846112370e-02,-2.057985544372800332e-02
-7.835470635289540353e-02,1.249325395384712073e-01,1.542334419649579215e-02,-2.160649665018502669e-02,-1.086908996329565280e-01,-3.288976046265515429e-02,1.656930482665379123e-01,-7.373666397558300591e-03,-3.909969231602955508e-02,-1.803371018922457492e-02
-7.788529881430654445e-02,6.304833994569325473e-02,6.511887663488337419e-02,-1.028821841572598143e-02,-1.120957251640791325e-01,7.722143564489613796e-03,1.295711498011025697e-01,-4.780568478897501312e-03,-4.048784353987436302e-02,-1.992285553328502351e-02
-6.552048966283724463e-02,-3.224083034217397996e-03,3.274704306034709189e-02,-1.198534702941507664e-02,-6.783534429819447487e-02,1.602656986820208060e-02,1.397934559948930955e-01,-3.234054091057743472e-03,-2.422357728335089097e-02,-1.254417352436996459e-02
-3.864660673386794559e-02,-7.002432812349719884e-03,1.311901521180360193e-02,-2.855553442793360569e-02,-7.135766434134131753e-02,3.815893182486961195e-03,1.366103971786495341e-01,-1.745038017762295512e-03,3.055691923242018562e-03,-9.293721162927448889e-03
-2.451377985650862387e-02,1.501150208371561726e-02,-4.549045717792691429e-02,-1.255408149642842780e-02,-4.660951712353603171e-02,-1.596000111690636103e-02,1.531971625475129495e-01,-1.064152704892009846e-03,-1.535565779006050485e-02,-6.661017364969120010e-03
-1.956328513981349729e-02,-5.316445249545859392e-04,-2.774833277009833982e-02,-3.884095733092688719e-03,-2.881665182623252205e-02,-5.627259347198075579e-02,1.503821906997847013e-01,-7.382650493572963466e-04,-8.487014379647198417e-03,-4.340307804608211500e-03
-9.337152184096888380e-03,-3.125960205238429226e-03,-2.040400411606452594e-02,-4.992201984192179941e-03,-2.860565508530900358e-02,-5.130836778356050176e-02,1.325287528912616475e-01,-5.481595963968637466e-04,-7.849202371131324893e-03,-6.358049565272212017e-03
-3.342131359007320321e-03,-1.812162360610839341e-03,-1.564200391808853036e-02,-3.269059834713960219e-03,-3.728901964233757166e-02,-2.845307895192142333e-02,9.831238577416813451e-02,-3.003665284516160612e-04,-5.373940567324883913e-03,-2.830622611711929026e-03
-1.532658126307938828e-03,-4.929490660098660975e-04,-2.296892737724140487e-03,-3.705527010500992238e-04,-1.785360371126823095e-02,-2.863866632888312919e-02,5.361867647539053650e-02,-5.672974963725619226e-05,-2.135597266757534828e-03,-2.410267877524608705e-04
-3.870233597813437800e-04,-7.430901294896127601e-05,2.506802960522280799e-02,-1.039690547588026289e-04,-1.959075269543701821e-03,-1.317846311050988733e-02,-7.749374112655768240e-03,-2.991757956264780725e-05,-1.549552530767077906e-03,-3.634557469461574688e-05
-2.444022706711734312e-05,-3.081032309553661744e-05,1.716162781641471582e-02,-6.534662293525491403e-06,-2.160965881191300418e-04,-1.487817453494685600e-03,-1.465520395639572683e-02,-3.266855445568436253e-06,-7.241738714309195512e-04,-1.328387907249575175e-05
0.000000000000000000e+00,0.000000000000000000e+00,0.000000000000000000e+00,0.000000000000000000e+00,0.000000000000000000e+00,0.000000000000000000e+00,0.000000000000000000e+00,0.000000000000000000e+00,0.000000000000000000e+00,0.000000000000000000e+00
0.000000000000000000e+00,0.000000000000000000e+00,0.000000000000000000e+00,0.000000000000000000e+00,0.000000000000000000e+00,0.000000000000000000e+00,0.000000000000000000e+00,0.000000000000000000e+00,0.000000000000000000e+00,0.000000000000000000e+00
0.000000000000000000e+00,0.000000000000000000e+00,0.000000000000000000e+00,0.000000000000000000e+00,0.000000000000000000e+00,0.000000000000000000e+00,0.000000000000000000e+00,0.000000000000000000e+00,0.000000000000000000e+00,0.000000000000000000e+00
0.000000000000000000e+00,0.000000000000000000e+00,0.000000000000000000e+00,0.000000000000000000e+00,0.000000000000000000e+00,0.000000000000000000e+00,0.000000000000000000e+00,0.000000000000000000e+00,0.000000000000000000e+00,0.000000000000000000e+00
-2.956150836353350090e-06,4.072563324879920456e-04,-5.391445328038479030e-05,-2.721040806061811424e-05,-1.026903659198849054e-05,-6.230854608780045782e-06,-2.088800800739222302e-04,-1.087562123802155769e-06,-9.233410401154856079e-05,-4.373682900594551442e-06
-1.014452858969048773e-03,9.593508062088512602e-05,-1.299322073504553029e-04,-4.123918500258667814e-05,-3.991639229151441697e-04,3.225682010626545007e-04,1.282070255208760763e-03,-1.102385015072404740e-05,-7.095326625509252791e-05,-3.380824624924924166e-05
-6.081658353618835805e-03,-4.678116056997702442e-05,-4.489231729014576781e-03,-3.873177419512798848e-03,-8.850692791802849480e-04,9.293948934611552873e-03,6.924838837075526082e-03,-5.397838100163022479e-04,-2.624226609917177429e-04,-4.066335878256985661e-05
-2.314683822709410338e-02,-1.798751883294500602e-03,-6.699636359962725558e-03,4.301154287014030686e-02,-3.697347528595700764e-03,-2.629388302890445228e-02,2.229084234378992876e-02,-8.001634103620333107e-04,-2.365326091046501995e-03,-5.004386846701441155e-04
-3.242114552764002733e-02,-1.981780628810124022e-03,-7.804444270583911838e-03,3.027181369935495053e-02,-4.102492843797224398e-02,-1.571007535040699551e-02,7.543885085301813009e-02,-1.010745586801700289e-03,-4.655029912423338037e-03,-1.102514837734642041e-03
-4.884059161391538645e-02,-8.125963309820672525e-03,1.153576985111201200e-02,6.290468857426848026e-02,-4.983096525091840201e-02,-2.253478231488225889e-02,7.558792762142871324e-02,-1.016989463190330102e-02,-8.633587047466747405e-03,-1.892601877902709995e-03
-2.957418851922589964e-02,-3.489307752026932913e-02,6.972543948361804855e-02,8.866238160984338257e-02,-1.039539152886166246e-01,-3.330805098604233683e-02,8.497421126193102636e-02,-2.727522128779217431e-02,-9.868163571726528208e-03,-4.489415181719384404e-03
-4.598012772082823302e-02,-6.113954175682062564e-02,2.099804915982677600e-01,3.716170801419166336e-02,-1.581291908929962353e-01,-5.259331409947887170e-02,1.406117515867675027e-01,-2.492482737789864650e-02,-3.149742697712940714e-02,-1.348952237407565619e-02
-2.541184062398677349e-02,-1.157628440041270079e-01,1.861514839742491323e-01,9.095211174748146776e-02,-1.885086543019149075e-01,-3.523289451396766775e-02,1.985237467509436970e-01,-4.819222231713653215e-02,-3.695823344009453032e-02,-2.556065327144641658e-02
-6.187582241225914742e-03,-1.216159805177755848e-01,2.163485172552853109e-01,1.879008332869856468e-01,-2.341209888306659548e-01,-9.824337880507535981e-02,2.062115253402431458e-01,-6.640618174828444298e-02,-4.707543510778072066e-02,-3.681132863170714226e-02
-2.153284939037747314e-02,-5.239029011556283616e-02,2.333912479819517660e-01,2.214744965892555539e-01,-3.371956000043133672e-01,-5.130188678277970010e-02,1.594361955437368084e-01,-4.008220460902435500e-02,-5.483236006662496609e-02,-5.696674914626091712e-02
4.756858275646692891e-02,-1.294905653193269453e-02,2.295636887891360223e-01,1.092294953697596910e-01,-3.365686687376988617e-01,-9.245012391988674527e-02,2.013692216258600454e-01,-4.584057028057279826e-02,-2.224697550710448210e-02,-7.767559356402699289e-02
5.013329610173347661e-02,-4.292999522619789926e-03,1.778206181052871815e-01,1.968645540628477797e-01,-2.238208176639690239e-01,-1.002493561536734190e-01,1.338667624380998900e-01,-5.432642565224336112e-02,-7.568769781157555498e-02,-1.003079339038863982e-01
1.420674801497495005e-02,8.526107167998644987e-02,1.138855954340793480e-01,1.938030901628205460e-01,-2.608927701021290235e-01,-6.149929653509354430e-03,1.766361841083791684e-01,-5.223139562393813023e-02,-1.533412414154294579e-01,-1.111773526052354383e-01
1.863523107254421232e-02,6.617948238208951062e-02,1.264632552410109023e-01,1.299051620965774034e-01,-2.015748470806454362e-01,1.973010736972565654e-02,8.344853737473574562e-02,-3.744790293572457240e-02,-1.212942849261721134e-01,-8.404474059414136777e-02
1.335710565038639684e-02,-9.473516580141748411e-02,7.739124702288154023e-02,1.253033281773688334e-01,-1.478174966126668544e-01,6.657089464878072904e-02,7.624952112355931622e-02,-2.193443434209588899e-02,-4.360108620261294449e-02,-5.078391366418426311e-02
-7.350367195556517519e-02,-1.172754789781799561e-01,-5.114133553668682303e-02,1.352288355390980079e-01,-1.381069490586746829e-01,9.259041420542316048e-02,1.665516061349007204e-01,-1.834951587551962929e-02,2.679391347724650527e-02,-2.278781795204232186e-02
-9.027899937241795625e-02,-5.622105916283502008e-02,-4.479210285040011869e-02,1.069764510414116798e-01,-2.763689118762145333e-02,6.580696439892913530e-02,1.781688884333111067e-01,-7.632689245624209133e-03,-8.598454613425010606e-02,-3.840601592050365415e-02
-6.420113777248875886e-02,-8.027509739796301336e-02,-7.609962233057070147e-02,1.367625591959235887e-01,-8.992932975169310242e-03,1.396345022397650903e-01,4.994834158836346932e-02,-7.484816474050591355e-03,-4.806315333459060257e-02,-4.122864273921936218e-02
-9.602571194130239685e-02,-9.250160497015898209e-02,-4.852304006885912319e-02,-1.303621657998865237e-02,4.131935574841864856e-03,1.192432548781403173e-01,1.392424293920934697e-01,-6.065950691074262560e-03,1.340205416930075055e-02,-1.986714976299286048e-02
-4.666612248250771172e-02,-6.449713266603784856e-02,-5.946420635300283392e-02,-6.455437291832374913e-02,5.356905803226708583e-03,5.932348629599933088e-02,1.356660244952073435e-01,-2.426561668648855724e-03,4.100344203792192360e-02,-3.741462543834524809e-03
-7.641645730541408478e-03,-3.346613106614659133e-02,-5.868788925433349873e-02,-3.871368027312550864e-02,2.314516939989220978e-03,3.720080522786387706e-03,9.241841549688907531e-02,-6.314716168399574616e-04,4.191506271136832829e-02,-1.227257730045889670e-03
2.353414977462857903e-03,-2.787946535835519532e-02,-3.825980233414129697e-03,-1.240033098596303972e-02,-9.111752707572067650e-03,3.224517589198152429e-02,9.363589253690090056e-03,-1.506856841542134366e-04,9.854899838455374872e-03,-4.488649921312437953e-04
-6.634903950110731564e-03,-9.668223295614612744e-03,1.322196736807919326e-02,-1.566971833787912313e-04,-3.057376742065008395e-04,4.210790289371707518e-02,-3.955813096158590503e-02,-1.516887214173994363e-05,1.066264011536653070e-03,-5.727233629477603997e-05
-2.204875937986979124e-03,-1.398353822544888894e-02,-3.851785819514757419e-04,-1.198515318510807288e-05,-1.696938275146873921e-04,5.608193341917464859e-03,1.393406238395990780e-02,-1.445202826718466930e-06,-2.780844508714517757e-03,-4.694288248941581128e-06
0.000000000000000000e+00,0.000000000000000000e+00,0.000000000000000000e+00,0.000000000000000000e+00,0.000000000000000000e+00,0.000000000000000000e+00,0.000000000000000000e+00,0.000000000000000000e+00,0.000000000000000000e+00,0.000000000000000000e+00
0.000000000000000000e+00,0.000000000000000000e+00,0.000000000000000000e+00,0.000000000000000000e+00,0.000000000000000000e+00,0.000000000000000000e+00,0.000000000000000000e+00,0.000000000000000000e+00,0.000000000000000000e+00,0.000000000000000000e+00
0.000000000000000000e+00,0.000000000000000000e+00,0.000000000000000000e+00,0.000000000000000000e+00,0.000000000000000000e+00,0.000000000000000000e+00,0.000000000000000000e+00,0.000000000000000000e+00,0.000000000000000000e+00,0.000000000000000000e+00
-2.540691587380493127e-05,1.392934951805088273e-03,-5.506805098716867613e-04,9.858572365168737171e-04,-8.542232479890397547e-06,-9.227294301685975281e-04,-8.271593394740908191e-04,-2.146435228312922131e-06,-3.534515789749279789e-05,-6.782167328088755617e-06
-3.850471096982071846e-04,-9.240743249023092626e-06,-3.163707258903269027e-03,1.151920800919015858e-02,-5.018885367979065027e-04,-3.427020320844563830e-03,-3.496936573732900566e-03,-2.490703963554888542e-05,-4.202323741279998860e-04,-9.022805220071653182e-05
-5.437685414876604686e-03,4.040268991707929823e-03,-2.537386671346554892e-02,2.874035026166926049e-02,9.411628731284057622e-03,-2.466188897615733538e-02,1.952684569147663043e-02,-1.846100113400523171e-03,-3.837204023820096812e-03,-5.623484344178413842e-04
-4.452402683173757592e-02,2.580524501880809146e-02,7.726706876751748745e-04,9.614186299200297436e-02,7.366936123050491815e-03,-8.637475656395171564e-02,3.250382144663576528e-02,-7.793489758074948967e-03,-2.080313998429467875e-02,-3.095123130113599987e-03
-4.166001930076496107e-02,1.949197828319461714e-02,9.243978968406903196e-02,1.169153257452262978e-01,-5.274404986402148748e-02,-8.658036165014017238e-02,1.707234169806785135e-02,-1.190144327586032183e-02,-4.766385269152473986e-02,-5.369708628246086177e-03
-2.765981313698021721e-02,7.180634473112743402e-03,4.585272608513179388e-02,1.534096326408799504e-01,-1.355140665514464708e-02,-6.906799962086539180e-02,1.198439241889984533e-02,-4.375156111362860784e-02,-4.929916747585291747e-02,-1.509743761555267828e-02
-3.326254455468622556e-02,-2.574361065904545373e-02,1.262225696698822397e-01,1.788477361508138408e-01,-6.902042904977352678e-02,-1.814927595896840551e-01,6.644966496162589553e-02,-5.904083468296579540e-02,3.198078765160981829e-02,-3.494057989777687306e-02
1.466345171808070523e-02,-8.201256749084993858e-02,2.822124862928001021e-01,1.293102675604298479e-01,-1.329635232840185033e-01,-1.066439039800474997e-01,7.484386006787567026e-03,-1.030037820065013293e-01,6.640629293278237089e-02,-7.545310774946246968e-02
4.418425828964885581e-03,-6.418744665554752815e-02,1.522414650099157551e-01,1.907049355049119654e-01,-1.756968806255399806e-01,2.122266992161434343e-02,6.734039682175338437e-02,-1.467558851718308854e-01,6.155567154917847977e-02,-1.108433521834196467e-01
6.044774732387069027e-02,-8.581835357110879914e-02,1.589220792957570516e-01,2.082584941621306585e-01,-1.673828013990150132e-01,8.197342655232228714e-02,-3.712332900172123085e-02,-1.798395001290238604e-01,8.109620193272136512e-02,-1.205339651659331074e-01
-1.026789948186214961e-02,-1.441021917532190125e-02,2.018268163694406647e-01,2.098998092543816751e-01,-1.473317027355057485e-01,-1.361014192191777918e-03,-8.983428344266604360e-02,-1.562686275824015647e-01,1.528225319580995278e-01,-1.450754109719737950e-01
6.185721952609197355e-02,8.545749573513181097e-02,1.699876739334585107e-01,2.647544618505123237e-01,-1.340463186394554862e-01,-1.490733147859509833e-01,-6.100412446644694342e-02,-1.449517273463427069e-01,9.506353961526453622e-02,-1.880449054222622374e-01
7.746523405794816103e-03,4.328784802815519028e-02,1.866776841849632496e-01,1.691010276923901601e-01,-2.208019873285674839e-01,-2.457700108518936707e-02,-7.531251700766107560e-02,-1.471026439772443462e-01,2.285358413429467439e-01,-1.675547752555877068e-01
6.346752679291119137e-02,4.191474184420758420e-02,5.722903528847771842e-02,1.611240251540916046e-01,-1.649140855214914214e-01,1.406928680192258418e-01,-7.272674924601429947e-02,-1.785602570974363368e-01,1.587866140403980941e-01,-2.070137192743697341e-01
3.778200208732247073e-02,1.819843652120786345e-02,-1.864826005177245075e-02,1.660970465610458191e-01,-8.485817330736410147e-02,8.275028437790539482e-02,3.089847609081101260e-02,-1.713230555941314404e-01,1.816982618818715478e-01,-2.425950185668966363e-01
3.668842553604873685e-02,-1.742139726838317151e-02,3.641902311763815531e-03,2.024946003773496830e-02,-1.058089012669658213e-01,1.646814133459587881e-01,1.142876441675303167e-01,-1.518698555028497321e-01,1.223592474347629938e-01,-1.868079387956012305e-01
-4.097762123587757668e-03,-9.762792733886076213e-03,-2.654686078004628996e-02,1.253855495687490884e-01,-9.996444321521491538e-02,2.059548712450782748e-01,1.265132233853554118e-02,-1.227766298950044160e-01,8.770330607398407752e-02,-1.685465604786067495e-01
-3.661810212022936772e-02,1.006643802220560935e-01,-1.328486776899739097e-01,5.994707506398543051e-02,1.202423158142382070e-01,6.232661643216372283e-02,5.379151916672800932e-02,-7.505976879311077044e-02,2.407827371916772610e-02,-1.765236318150258943e-01
-7.311140961823781037e-02,3.751934050085353051e-02,-9.411048907062204150e-02,-1.820864758484700904e-02,1.859080972335394322e-01,-5.501099722722749275e-02,1.006976767389160948e-01,-4.721749022142109758e-02,9.619519124492485751e-02,-1.326612719958790154e-01
-8.827736024197649356e-02,3.851952202672685038e-02,-1.899019819071779969e-01,-9.744344052998137051e-02,1.665407066176144701e-01,1.597121569978302291e-01,8.516708133333845965e-02,-1.641820569552852188e-02,5.044001403083488155e-02,-1.083384926316806329e-01
-3.374280871141312893e-02,-1.223437599310027088e-02,-2.071235880907175142e-01,-8.053892464966831699e-02,1.444817298762960667e-01,1.010791107959126967e-01,1.474864937147180588e-01,-2.508686273407668629e-02,2.535115353084693365e-02,-5.967192773879696072e-02
-3.162898534496992597e-02,-1.980584300636628603e-02,-1.208926247116615532e-01,-1.374970835163669414e-01,1.134815633907160365e-01,1.622222092586504127e-01,9.726835641266547150e-02,-1.218960215005298123e-02,-3.155014402196743006e-02,-1.940784631064654264e-02
-5.306252768259736574e-02,-7.113481232231942675e-02,-6.097471422798597662e-02,-2.231625079436092701e-02,1.053218482199866218e-01,2.087084537099525017e-01,-1.067682980662844061e-01,-3.688650871132938703e-03,1.107245135302844380e-02,-7.157499318286064498e-03
-2.805510904400640437e-02,-4.912412917054122252e-02,-2.371867324019985915e-03,-1.848705744642247569e-03,3.072938922983734292e-02,9.205807732592174997e-02,-3.524621198133617156e-02,-2.768385294867230836e-04,-4.363820909522566661e-03,-1.500783852203483237e-03
-1.197221611987036617e-03,-6.022348797242240391e-03,-4.964247949454112310e-03,-1.259615300460250925e-04,-7.041082065245597710e-03,3.123833980683075450e-03,4.834619205769074592e-03,-7.489512851198403410e-05,1.241188656734653652e-02,-9.445826713116695734e-04
-1.427987424643627744e-04,-2.711670271178624921e-03,-4.743646701800312108e-03,-2.659246122882413118e-05,-2.265204108404229432e-03,-2.557814189313542107e-03,1.010576638177003612e-02,-1.604514641144893320e-05,2.542118116985998908e-03,-1.841128779546395732e-04
0.000000000000000000e+00,0.000000000000000000e+00,0.000000000000000000e+00,0.000000000000000000e+00,0.000000000000000000e+00,0.000000000000000000e+00,0.000000000000000000e+00,0.000000000000000000e+00,0.000000000000000000e+00,0.000000000000000000e+00
0.000000000000000000e+00,0.000000000000000000e+00,0.000000000000000000e+00,0.000000000000000000e+00,0.000000000000000000e+00,0.000000000000000000e+00,0.000000000000000000e+00,0.000000000000000000e+00,0.000000000000000000e+00,0.000000000000000000e+00
-2.045566437559284180e-04,7.533618319177763385e-04,1.368086798544074255e-04,2.384175800073194858e-03,-7.902392314744587489e-05,-2.389772796608945985e-03,2.856636002317565698e-05,-2.774739148127379094e-04,-3.193321056407036210e-04,-3.275328790279060683e-05
-3.094739831240490065e-03,6.591853089197612786e-03,5.409114639191366092e-03,5.200530629295566781e-02,-1.258592543690787921e-03,-2.566167370582805168e-02,-2.274548029656646084e-02,-1.173319172440929949e-03,-8.719330222664018262e-03,-1.353138248913796950e-03
-1.807757755093480218e-02,1.279257031542485427e-02,2.546203658093853378e-02,1.193291671658768122e-01,4.818330379063903539e-03,-1.186688606676840757e-01,1.350780241104485892e-02,-5.621883311517786655e-03,-2.554387781266346386e-02,-7.997707509549173421e-03
-5.835152568074538498e-02,7.509299541537649281e-02,1.971934726861658896e-02,1.813971916236949700e-01,1.568528145377216798e-02,-1.335695727395923016e-01,-7.887131381982717682e-02,6.947153099897816764e-02,-6.888311124715493228e-02,-2.169082327311837310e-02
-2.102459068920291621e-02,5.002562741400905233e-02,1.366972041670992330e-02,2.329003451900063526e-01,-2.743086746774010473e-02,-1.547242588901566185e-01,-5.726571527675460710e-02,9.253770448153685046e-02,-8.362736857400043800e-02,-4.506059660440737968e-02
-2.839330650819680418e-02,-1.111202405572259480e-02,1.025437394450922218e-01,1.863307862112426883e-01,5.052833708565458541e-03,-1.232399104695692527e-01,-6.097745733070280422e-02,1.760881789389002680e-02,-1.281733282370387493e-02,-7.499614607089498397e-02
1.198888545378038947e-02,-9.983339756733480841e-02,1.477274029209707240e-01,9.449516385859520196e-02,-2.102666855875473528e-02,-7.567433663548840672e-02,8.230310721817840972e-03,6.313216993519489562e-02,-2.121236433123325354e-02,-1.078271657975482384e-01
1.643546823582127392e-02,-8.300306728612613649e-02,9.408683932582045939e-02,7.581564620680822375e-02,-8.896501367908080105e-03,-2.995597245250604390e-02,1.852483358173282737e-03,5.092111970716758224e-02,5.860951327753345652e-02,-1.758655290047829167e-01
9.877746483975800851e-02,-1.502136418873962487e-01,1.408152154515525389e-01,1.090890976024590092e-01,-3.568435726635776906e-02,5.168738707828656777e-04,7.943221698801128383e-02,-6.305295304931832212e-02,-6.154358231865583728e-02,-1.181363342308357628e-01
4.890569940463201926e-02,-2.084224590586725712e-01,2.318845830957692311e-01,6.586596617604927040e-02,-6.757631348516929259e-02,-3.332430238741305312e-02,-1.590732046435706648e-01,-1.240013635710447287e-01,1.137753975278514851e-01,1.319659969415683809e-01
-2.693385904552986210e-02,-1.294123116040658827e-01,1.646016798826774596e-01,6.198400897601692022e-02,-1.963528410434987534e-02,-1.140781469230530559e-01,-1.091880995366467794e-01,-7.698098659843689850e-02,1.779649305601433973e-01,7.167806839324508683e-02
1.430399293433276819e-01,3.737881428638752113e-02,1.767311071907658737e-01,9.660850148942985716e-02,-1.399223174282701321e-01,-1.270295754185297166e-01,-1.786279502739956393e-01,-9.510417214713037803e-02,6.991606474875923516e-02,1.700959820925470461e-02
1.734860241292683347e-01,-3.441485923312029294e-02,7.541039331580154381e-02,5.590047705610019096e-02,4.191719432515606664e-02,-1.210959947892898958e-01,-5.616687050205967924e-02,-1.695156069764170714e-01,2.301042809669436862e-01,-1.956250382923826470e-01
9.566934425412006171e-02,6.635243176827726463e-02,8.993162727899174647e-02,5.267957419312957468e-02,6.679576584731822253e-02,-2.084828776020979935e-01,-7.730032443397477637e-02,-2.091432418695867712e-01,2.483548754875204989e-01,-1.248571749236968148e-01
6.161169106095021331e-02,2.180455023061792300e-02,1.966430024508642738e-01,7.469581073433936846e-02,9.451988825701561348e-02,-5.935310464586955603e-02,-1.107427475289947671e-01,-2.337519574791825649e-01,2.341457404146098653e-01,-2.795728734943514482e-01
1.491399893212629335e-01,-1.123339345558632824e-01,1.016207132110520384e-01,-9.555867814464301391e-02,-2.661306951871348497e-02,7.405255799017006202e-02,2.788167100565683634e-03,-2.254112860261613394e-01,3.398145005297764643e-01,-2.074989599074467672e-01
1.549571572616041948e-01,-4.473133991921160457e-02,9.351355686658761879e-02,-2.667744641750444123e-02,8.222343873600057584e-02,6.678024589923177434e-02,1.964095488688517160e-02,-2.175393497635188245e-01,1.011862803242304792e-01,-2.293534978743049513e-01
5.773402562632078822e-02,3.028987685303363361e-02,-5.131699862157308029e-02,6.338721363521000740e-02,1.080892138821595433e-01,5.667934772340620792e-02,9.587579163503098800e-02,-2.690375288639889062e-01,5.690250287482052222e-02,-1.486034447444204987e-01
-3.903105118445931304e-02,8.159910971671879842e-02,-1.038578368372065040e-02,-3.997091504554741576e-02,5.381261004386472813e-02,2.266216252621678084e-01,1.733169053582346228e-02,-2.377458308555998601e-01,9.114372257374109276e-02,-1.433751773629877435e-01
7.909656414232192970e-03,1.194679484072777020e-01,-3.035288463601471150e-03,-1.421356427977553960e-01,6.653050767055108949e-02,1.233878634956818432e-01,4.211764186788601733e-02,-1.573046838155459648e-01,1.062711453224090968e-01,-1.632091481011362644e-01
-7.418715373822474916e-04,9.695385011849487478e-02,-1.000250968142122332e-01,-6.324850344429061577e-02,1.547703078995646131e-01,2.006609284815930594e-01,1.763399572365596454e-02,-8.811180236072589655e-02,-2.855910068275059263e-02,-1.893327073839469743e-01
-6.868211112314145939e-02,7.795939376236239726e-02,-1.276739088723869986e-01,-1.200195491569240186e-01,2.182310739473606043e-01,1.804292596709097807e-01,8.433867081552928746e-02,-5.012421264430190482e-02,-7.509400727025954125e-02,-1.193646091291492017e-01
-7.568779330360227153e-02,2.167964861743046801e-03,-1.050530340640294935e-01,-6.126229953669951045e-02,9.155340919744960060e-02,2.537744789749343810e-01,-1.708190221184431243e-02,-1.379357116676978821e-02,-2.550262370237772747e-02,-4.911462904880381508e-02
-6.231446922936371285e-02,-6.240192280573327727e-02,-2.977501513888924228e-02,-1.199268813925020126e-02,-3.629117159763140931e-04,1.581675080969539293e-01,-2.911913930877956316e-02,-3.770096502147139532e-03,5.521479588657265264e-02,-1.364606114338757191e-02
-1.971431213182941317e-02,-1.250223205160523078e-02,-1.836629212147872572e-02,-1.748600859920641749e-03,-1.800934191260275194e-02,3.244767497325216216e-02,2.525362860990214633e-02,-1.625600459757965471e-03,1.625113508973790796e-02,-1.986059135697398718e-03
-5.079579877101880574e-03,-3.315651812517302760e-03,-6.987921512438654247e-03,-1.040750720515441291e-04,-1.366546787661020504e-04,2.269813080429271615e-03,1.506620295652167686e-02,-4.345086469664036623e-06,-1.690705154507966129e-03,-1.708284309784776150e-05
0.000000000000000000e+00,0.000000000000000000e+00,0.000000000000000000e+00,0.000000000000000000e+00,0.000000000000000000e+00,0.000000000000000000e+00,0.000000000000000000e+00,0.000000000000000000e+00,0.000000000000000000e+00,0.000000000000000000e+00
0.000000000000000000e+00,0.000000000000000000e+00,0.000000000000000000e+00,0.000000000000000000e+00,0.000000000000000000e+00,0.000000000000000000e+00,0.000000000000000000e+00,0.000000000000000000e+00,0.000000000000000000e+00,0.000000000000000000e+00
-4.460823465082159353e-04,-1.159150533521427842e-02,-5.682785169873157301e-03,1.498964209706645130e-02,-7.650604956828390910e-04,-3.567986646903564124e-03,-8.958652627208322063e-04,1.064606390512205097e-02,-1.458897904053534089e-03,-1.227522841232142094e-03
-2.914418075194161011e-03,6.154619892448593386e-03,-4.674214833664499733e-03,1.020323149080103048e-01,-2.410446425045722693e-02,-7.501669636458528634e-02,-1.930461544414155406e-02,5.881807979086894900e-02,-2.442623520695506173e-02,-1.656437041633040258e-02
-2.401361262122044329e-02,1.656420649736455725e-02,8.108601328967850186e-02,1.311107797922963225e-01,-1.941599081524155064e-03,-1.690952487796278381e-01,4.072258478841460014e-03,4.304089267758449272e-02,-4.152408708259305858e-02,-3.929960317079984194e-02
-9.268657161395348065e-03,-5.388777430830665391e-03,4.658491618863266209e-02,1.433655423909053206e-01,5.101192184976081900e-02,-7.651739008205438175e-02,-1.103846765277652769e-01,1.306100809389763306e-01,-6.114519770452372244e-02,-1.088677624617062911e-01
1.787882248706208071e-02,-3.334924114820052299e-02,6.748654343541492240e-02,1.980042130224960450e-01,9.854689208081903948e-03,-9.886011573500909366e-02,-1.631236010127621872e-01,2.190827073155420801e-01,-8.983619099519679629e-02,-1.271378265774284477e-01
1.055543479565567572e-02,-7.118722260401544322e-02,1.522767270749166291e-01,7.719459014854529455e-02,1.024621956787773527e-02,-8.433978286850535300e-02,-4.751764169912267577e-02,1.569935337287078347e-01,-7.294756543394662063e-02,-1.312742927101139268e-01
-4.255567562860732012e-02,-8.958251923790629123e-02,4.131090403307518394e-02,1.232176036539751607e-01,-4.615795862466265387e-02,1.852821110811507868e-02,-2.127281027578186573e-02,1.504384910744486492e-01,-2.688213992582663692e-03,-1.312380321100736491e-01
-1.067271479208345558e-01,-1.392276324295730339e-01,1.643429655533974743e-01,2.405081831841247020e-01,6.111636085061711993e-02,-8.419461947552565884e-02,-1.109778193062772589e-01,9.444907485676215519e-02,-2.208713267108806597e-02,-9.720223264160245125e-02
-2.644074823511412958e-02,-2.115733016492205854e-01,1.503756046081108078e-01,3.478551585488498521e-01,-2.735610580070114636e-02,-8.057387600190685228e-02,-1.593564444825489590e-01,1.426351076841633203e-01,-9.929990347069626161e-04,-1.345723956369250240e-01
3.972675891507271816e-03,-1.382923355381606711e-01,-3.014342197715888863e-02,1.383593062822656983e-01,-7.102430101910453542e-02,-6.019858559375224072e-02,-1.139778490708475839e-01,2.424504355546346912e-01,6.570569647024668281e-02,-3.685162099962985272e-02
-1.004003436885765183e-01,-1.332525775625104658e-01,-6.865723144592730809e-02,1.402491512155854270e-01,-1.132049695527724414e-01,-5.538574999923499831e-02,-1.112693909227888134e-01,1.892071197677994143e-01,2.713241492451324843e-01,-1.861015705670683584e-02
1.188971994532221355e-01,-2.038272100654188179e-01,-3.936810545671411143e-02,2.391864209456509849e-01,-1.487652699594314565e-01,-1.913545763142105172e-01,-1.429375382593785215e-01,9.923784477775133422e-03,1.967069045356026058e-01,1.615383906429019301e-01
5.638727736795857287e-02,-2.050745164665898901e-01,2.108803902343915279e-02,8.903066139664230980e-03,-1.939608526206299255e-01,-6.530647499297588532e-02,-9.184437299605287264e-02,1.101298941700486894e-02,2.648368727851343474e-01,1.939579723430479574e-01
2.651216176320045359e-02,-1.934039746207998067e-01,-5.276659085542795453e-03,5.506221969374193448e-02,-2.293359249071102723e-01,-2.284308529229533147e-01,-5.564904578260194273e-02,6.312239759582431720e-02,3.641187669766312029e-01,2.032809112896101222e-01
9.709019532006958608e-02,-2.086013435998791965e-01,7.647470988859724102e-03,1.012572048225082594e-01,-1.082751417800814075e-01,-2.039128336912253425e-01,-1.936268869849939733e-01,2.813036903388948032e-02,3.374894807329981705e-01,1.428014851578542355e-01
5.245293662713492594e-02,-2.215875955059878888e-01,-2.252941699820898078e-02,-1.424409989216150058e-02,-6.781621459266103102e-02,-6.529101238119378037e-02,-1.180251801341615503e-01,6.020716351185400467e-02,3.118268172994642651e-01,8.500660206592040857e-02
1.086480732583915143e-01,-7.245088999691930154e-02,-1.544779646413071417e-01,6.601552066404409169e-02,-6.091596524453099515e-02,7.623930507763428122e-02,-2.233623203803590529e-01,-2.507020899638701464e-02,1.702350239123884001e-01,1.151394263470446183e-01
5.266405586060862037e-02,-7.829057075728065862e-02,-5.851373545987826469e-02,-1.074214607634510071e-01,2.142049688569085467e-02,1.620973339904888399e-01,-1.399581011806199093e-01,-2.249198053092511806e-02,2.027512167444292801e-01,-3.225725478906252969e-02
5.273499112271574918e-02,3.651455479737542725e-02,-1.087783903015440978e-01,1.001456211608488245e-02,4.746648253518099408e-02,1.612153078857898603e-01,-1.291114125035700833e-01,-5.668483640627942910e-02,7.929630341764513923e-02,-9.266756266339816472e-02
1.257563621056368430e-01,4.267244631372512503e-02,-4.133835449020432234e-02,-7.637725648992668703e-02,1.424112876897966166e-02,8.211426160231585780e-02,-4.912574548039277261e-02,4.655660620418862819e-03,2.421572103698012290e-02,-1.268142239875324484e-01
1.088948518290703965e-01,-5.822138124458551244e-03,-1.102529405501527227e-01,-1.147918538963391966e-01,1.950073653297882681e-01,1.815822528730826335e-01,-3.772268021570360924e-02,-1.775665972187105701e-02,-1.240644597036588345e-02,-1.867317515530505512e-01
-3.378152270382989847e-02,6.054127781593204513e-03,-2.711135398378677341e-01,-4.146565453926290973e-02,2.669461673368638821e-01,1.683806690069466760e-01,1.600774170691554588e-02,-9.654306460347279739e-02,1.415437987175791612e-01,-1.560287228654655689e-01
-1.536981527639023626e-01,-2.897187402031984466e-02,-1.881387509601597230e-01,-9.911559939016535703e-02,8.200874317870376906e-02,4.538962051568761757e-01,9.566077645326281215e-03,-4.350509159281803345e-02,8.055819558595159191e-02,-1.125997528394922231e-01
-1.571575243158603308e-01,-4.753926535288298394e-02,-2.934380077125614550e-02,-2.929080559691746299e-02,-2.988012345519596921e-02,2.541392283075877279e-01,-8.039606087134989684e-03,-1.769021658197123328e-02,1.152736293968355530e-01,-5.047151554320433026e-02
-6.682469394218071290e-02,-6.966482207425925798e-03,-7.940942779038282981e-03,-3.176277145367289740e-03,-3.081285851078099502e-03,9.449086305478478220e-02,8.262333376414130945e-03,-6.303052730396769936e-03,1.060050797119274461e-02,-1.906096974690436180e-02
-1.418040294926077756e-02,-2.268636185298020507e-03,-2.510983757999860413e-03,-8.201846340593569457e-05,-7.942807397332217988e-04,1.158944005896749875e-02,2.035718632723071062e-02,-1.355413809634446645e-04,-1.135061597971042356e-02,-6.241469298265218870e-04
-3.414719824846304198e-07,-2.437391589650424778e-07,-5.077973695356181270e-07,-4.729293952537980120e-06,-7.286296019418407252e-07,-3.586519986893760220e-07,-2.976146876292297916e-07,1.348582168395085261e-05,-6.269018058693920412e-07,-5.651721126297702655e-06
-1.227742999900534424e-04,-6.291544747536600372e-04,-4.650965659244897998e-04,1.023423270342779627e-02,-4.392202937444742057e-04,-1.132469901152005761e-03,-1.125504399866963160e-05,-8.048855609061114635e-04,-1.899583972025399017e-03,-4.729792590932905931e-03
-3.170156156246862166e-03,-1.408039753381767553e-02,2.683759046074852411e-02,-5.724633723097283244e-03,-1.369160666430972381e-03,-1.466926275006913416e-02,-4.824119214900900871e-03,2.744161158879438595e-02,-4.042496890048818958e-03,-6.398975114931305247e-03
-6.841076620838299795e-03,-9.882684659338896935e-03,1.974422120232916314e-02,7.625513539936151775e-02,-1.324206441092074665e-02,-8.999622802149730150e-02,-3.514247216226578513e-02,1.130729764165556012e-01,-1.418600436175147979e-02,-3.978180278163392231e-02
-2.585879626755266739e-02,-2.449785030608162169e-03,1.438139702481618376e-01,1.655484191134334593e-01,1.002578525865154523e-02,-2.637608138767425503e-01,-1.095980271220705921e-03,7.680314332881932327e-02,5.041467215973133471e-03,-1.080674097189149724e-01
-3.443822973079556631e-03,-7.562690241772326849e-02,4.285465966575862512e-02,2.223282906022041594e-01,1.088623740444713967e-01,-6.995104833753376661e-02,-6.056208404713635945e-02,4.592272431873068578e-02,-1.725608743510666926e-02,-1.931281034205850622e-01
4.448045011567770823e-02,-1.400493335570428266e-01,1.213693433669497945e-01,1.493086412116473582e-01,7.844285650163820844e-02,-8.225501390090220188e-02,-1.303498882610029941e-01,1.612053407415691142e-01,-6.135134160324770547e-02,-1.408010546152854980e-01
-1.465196051669477237e-02,-8.790066550300183745e-02,6.231646096081391167e-02,1.049426673868410764e-01,2.843441279420719919e-02,-8.076422013611107842e-02,7.752098779064784707e-03,1.847578956170380926e-01,-1.601118642009652718e-02,-1.888755029620617365e-01
-7.622594579333477616e-02,-1.946852428344666430e-01,8.725717173554450867e-02,1.025924145333459853e-01,2.784575027833543267e-03,4.135671435037546056e-02,-8.313230659276006629e-02,8.958653927244294990e-02,1.512850098694111245e-01,-1.208189295683917280e-01
9.297612598979576246e-03,-1.614054049921040679e-01,3.761792773464740086e-02,1.811211540809683496e-01,-2.405137413031680285e-02,-6.490578556788914599e-02,-7.546181994844214369e-02,1.852137725694519843e-01,1.147554973718573242e-02,-9.890163208248059501e-02
9.048632948638187727e-05,-1.518156272384278693e-01,1.467129851239961161e-02,8.059186696870361544e-02,-7.574687928312465179e-02,-1.286218457684096435e-02,-1.065167465011660763e-01,1.850646299066632527e-01,8.642625018600730291e-02,-1.990309430370031801e-02
6.948628100469875224e-02,-1.925221894179414972e-01,8.869458882908387576e-02,4.724139864365763108e-02,-2.725729743334139726e-02,-1.258444392247864418e-01,-4.754301537077734729e-02,1.517133922532930279e-01,6.018313387004358209e-03,3.001296732910881809e-02
5.610799570225884388e-03,-6.402883409031526196e-02,-4.420112408141209370e-02,1.015404203996518318e-01,-1.873480659911193891e-01,-1.311825968598175629e-01,-1.225036266337347773e-01,7.787230274038560440e-02,3.439093449377066819e-02,3.298497904523633451e-01
6.810329194247372042e-02,-1.530893815051982410e-01,9.906427635863056247e-02,-3.527568801088415418e-02,-2.348390744452612533e-01,-2.526889819904343804e-01,-1.519958184451814520e-01,-1.807198027510286201e-02,1.574922375952178821e-01,5.213011187757412568e-01
4.128552787880429564e-02,-1.406940772287940677e-01,6.126544858928250487e-02,1.397663272630872977e-01,-2.681075468345166524e-01,-9.004758364743610521e-02,-7.073252777669439273e-02,-1.414257968200237914e-01,-5.634624305534779304e-02,5.250364716316391345e-01
3.614716041019157711e-03,-2.796425446901259493e-01,-4.163624097144956460e-02,1.523509179651810763e-01,-2.937952189456555785e-01,-2.276501388032644291e-01,-1.439090685117545287e-01,2.488601593651637925e-02,2.461463668305565455e-01,5.596351951489761944e-01
4.841874255972090230e-02,-1.814245123577239160e-01,-3.140334612345620224e-02,7.403283510194343456e-03,-3.041766679912575322e-01,-1.943507351435917394e-02,-2.408490515751816607e-01,2.945825861946104601e-02,1.136187184427600583e-01,5.783896484298433061e-01
1.462516236313955165e-01,-2.046240882269241279e-01,-1.386470187818110711e-01,-2.575693500569303882e-03,-9.130737306870843895e-02,-8.576165887317722947e-03,-1.453293279519533576e-01,5.663953767869988470e-02,9.191291224116905634e-02,2.962555938660200172e-01
2.061076626695151071e-01,-1.494944912206236098e-01,-5.758211376457387370e-02,-9.499614984589038746e-02,-7.205778563298205486e-02,-4.708774416776546901e-02,-2.554614422020714537e-01,1.325323800418439779e-01,2.333325037551254866e-01,1.047071803674205492e-01
7.888805982144569962e-02,-5.774320679148792906e-02,-5.833072970396219192e-02,-2.528432157008812797e-02,4.959464427654650641e-03,5.003664162711433244e-02,-2.442391729244628717e-01,8.394073975776836227e-03,1.972732454615050146e-01,4.604594567650426018e-02
2.184242027618248788e-02,8.206799199277171886e-03,-1.368657106313069249e-01,-4.628882889751390756e-02,2.074507481758256985e-02,1.452070150011670335e-01,-1.815641624704557866e-01,8.345475770728921772e-02,9.065246448154710979e-02,-5.389829483768778136e-03
1.163604898666805235e-02,-6.099117437615290960e-02,-1.972200025769686033e-02,-2.358015339846469272e-01,1.796845512899798714e-02,2.008200619332643488e-01,-8.890819787541173747e-02,6.231296603961867381e-02,1.182307611253030216e-01,-5.545386719944109775e-03
-1.947862079489406581e-02,-7.513611769049384492e-02,4.322307287131770676e-02,-1.599603617337090888e-01,6.946238810742545733e-02,2.587363272038744610e-01,-1.044504487344716792e-01,6.800064727955711097e-02,3.200879539718104461e-02,-1.124056819057871470e-01
8.216440312855947947e-02,-7.986952560247100041e-02,-2.673301986651102635e-01,-1.922670967365381067e-01,1.698359258123181004e-01,3.544009957335886862e-01,-8.505765468359736958e-02,-3.378919773155033418e-02,1.751327051068891916e-01,-1.232203563620885706e-01
-2.818225283191373373e-02,-1.800308849543529877e-01,-2.093772213108535118e-01,-1.378794422853464319e-01,4.461701709337548977e-02,4.950849198164928300e-01,1.937518102042467757e-02,-4.981361624664653459e-02,1.595722527976275729e-01,-1.133659530988074954e-01
-1.431744948209639490e-01,-8.818755828367869087e-02,-3.656110411535424404e-02,-3.949875512374929204e-02,-4.023657971692912866e-02,4.452958282195542128e-01,-7.005754336631712931e-02,-2.349622273897531560e-02,7.036815020705367019e-02,-7.445172026063991144e-02
-5.128988109669886664e-02,-5.507966345591236608e-03,-1.032738224117790184e-02,-2.953252005690413812e-03,2.730860355395190939e-02,6.055629706582780353e-02,-4.008411621461479418e-03,-5.424392792007970594e-03,1.940299464391710346e-02,-2.775660916106861831e-02
-3.080443787261853781e-03,-3.698073826056768633e-03,-2.136349547575433841e-03,-1.798328102480296626e-04,-1.089889596382118955e-03,6.347522601262092605e-03,1.082888101692035601e-02,-2.466593548614600252e-04,-5.729451854430115190e-03,-1.015702841366705311e-03
8.847034225947781466e-03,-2.091804739809229829e-06,-2.476693453096449763e-04,-2.065319996002873957e-05,-3.448824761046929651e-04,-7.356659232195933689e-06,-8.168153280388109572e-06,-6.283821428175441481e-03,-2.770477634396748665e-05,-1.904686382801625303e-03
-1.300622423671863952e-04,-5.195037110062314736e-04,1.619312180548432897e-03,-5.886043849264793563e-03,-4.099395799714679496e-03,-3.521093039486379865e-04,-2.358311372313278629e-05,2.416762171508157059e-02,-2.694365237469998307e-03,-1.208187063813535508e-02
-7.658483667089987688e-05,-7.264710397283827975e-03,9.154068123640935611e-03,-1.193994211066940966e-02,5.662680591291257073e-03,-1.084072949982819306e-02,-4.131714362911861893e-03,5.053509322586451080e-02,-5.371906815964762848e-03,-2.572625391746770351e-02
1.535000282084147613e-03,-3.471955238474606908e-03,9.577193225105310598e-03,3.063580741248671246e-02,-1.216643777420622907e-02,-9.011670811450223084e-02,-2.657166886840544445e-02,2.019649543876711473e-01,8.472713469979888112e-03,-1.198588987817390261e-01
-4.455519172966779934e-02,-1.934826124280391094e-02,2.088332312240651356e-01,2.082354584180562407e-01,-8.497837403044569346e-03,-3.049488777446495158e-01,-1.848350163260147755e-02,1.281910943230069877e-01,6.730991564936160756e-03,-1.561571057772965510e-01
-2.801692409442096271e-02,-6.960287497781514343e-02,1.019374943421674229e-01,1.721902216306526179e-01,5.676124792844214340e-02,-1.915125272710934412e-01,-4.413742323806589540e-02,1.065084652597369091e-01,2.075009722957059724e-02,-1.248777768091743345e-01
-3.423552912973167744e-02,-1.416444392122425677e-01,7.233335044684061077e-02,7.178992162712836966e-02,3.445780471472720957e-02,-1.233767738840794298e-01,-6.522107802409773947e-02,1.415369852513697901e-01,1.141083715436586460e-01,-6.974861333357254556e-02
-5.126241725279977873e-02,-1.054109310398904653e-01,1.391030142149169702e-01,1.319481354771397108e-01,2.997740427517120096e-02,-2.096898128435467079e-01,-6.842454567568007073e-02,2.673848241770966916e-01,8.983226797403590091e-02,-2.234579393064415886e-01
3.926598001550479777e-02,-1.906441771817366237e-01,2.740390716045980682e-02,-2.755910317585652872e-02,-1.445160188211081984e-02,-5.311175134998782216e-02,-7.137572218827066550e-02,2.264249517368480125e-01,6.355748642021646910e-02,4.900304449332955250e-04
-8.122021122834856971e-03,-2.206133411925439713e-01,-1.216020195785991707e-02,-1.055611166243473377e-02,5.374137717305382117e-02,-2.039872967623932234e-02,-6.160160834266909663e-02,1.935378774218243780e-01,1.849633840680928731e-01,-9.879062470839000687e-02
-2.152900252563373987e-02,-1.193027807425580400e-01,1.037050616134057718e-01,-2.818908469900467673e-02,-4.337767252160339843e-02,-7.259314289390425556e-02,-1.126548511338737457e-01,7.483402777489889246e-02,2.136691891421240996e-01,5.438255986149073337e-03
-3.502128324959729450e-02,-1.847504485340129565e-01,-2.965336983815373625e-03,-4.939767364205585598e-02,-3.422449408473650367e-02,5.694105382907473090e-02,-9.862339565898282923e-02,1.517553714222099059e-01,1.652104983018807538e-01,3.107570860003503604e-02
3.786341995778836050e-03,-1.520552793734164521e-01,-3.696461580602265762e-02,-3.790672036877332923e-02,-1.527480492267753731e-01,3.480428766360840753e-02,-1.180518757343712588e-01,1.199235208866403224e-01,2.348193613354413734e-01,1.043930286278905994e-01
-2.809950592337922062e-02,-8.883567492598375137e-02,-2.995963225179826273e-02,3.812927673378604422e-03,-2.609545706497095607e-01,-9.473793421784512669e-02,-1.099832224581072798e-01,3.251417574105330138e-02,2.332099241904781461e-01,3.430335128219128005e-01
8.711736067546813067e-02,-7.865191423544098948e-02,6.907106619214560539e-02,8.663431747425194562e-02,-3.277598372775602509e-01,-7.699692167697665124e-02,-1.880514721728776539e-01,1.002252271117463206e-01,-2.175954837281107376e-02,3.501717222820548425e-01
8.480513853800422663e-02,-6.697806882511848914e-02,2.941876322910901009e-02,1.783033700663785304e-01,-2.660220803038750859e-01,-1.170400326125419915e-01,-1.987483533751930875e-01,1.238767975268574711e-01,1.586014335705252659e-02,2.165243223993273125e-01
2.181510358852559728e-01,-1.960104964665997651e-01,-1.192599433600912556e-02,1.262306702459030094e-01,-2.808627043308959403e-01,-1.119079051618849102e-01,-2.370776779952576963e-01,9.055417753998125374e-02,1.508047331799797219e-01,2.520441614395285135e-01
1.746906837778482713e-01,-3.142922813227459755e-02,-3.825538825035114388e-02,1.203538033243608807e-01,-1.716708518378327053e-01,-7.676320583362659933e-02,-2.993567656888660444e-01,1.309482248399455873e-01,1.057971417835308348e-01,8.568558601726578017e-02
1.445486602791637432e-01,-1.590465165435915873e-01,-1.197307682550969449e-01,1.141826950625349363e-01,-9.215723591442299967e-02,-4.887911932448760211e-02,-3.688307454959343090e-01,1.600899432937802902e-01,1.785957005242842788e-01,1.912273863737722623e-01
4.694248917929640108e-02,-1.508070077552978727e-01,4.269470705339236533e-02,2.946070874990895649e-02,-3.529456627038855127e-02,2.600648104295011365e-02,-2.590070007633808458e-01,2.813982472462138451e-02,2.341898965462138604e-01,3.767446749268460460e-02
4.873883440090463065e-02,-1.768906201595733807e-01,-6.539487684388438360e-03,4.702333352996243554e-02,3.264540392044414790e-02,2.017123663857691707e-01,-2.576137267709294743e-01,7.818397717707108174e-02,1.206829836560172342e-01,-8.794306445527867722e-02
8.118496589363691229e-02,-1.555248881907909386e-01,-5.190656837970129833e-02,4.425460647027216836e-05,1.892902770779691241e-02,1.540061150778182786e-01,-1.743003763937429340e-01,6.949660000044554503e-03,8.238145212353659153e-02,3.823635755493134253e-02
9.566950498137621883e-02,-1.233181329165557727e-01,-8.013216726117365629e-02,4.595022982877592505e-02,-6.583821862464743491e-02,1.570278137137886831e-01,-1.082264736036779307e-01,1.017423004090316774e-01,4.363286060225220198e-02,-6.650771712917101508e-02
1.410795694356957175e-01,-2.123989926833081410e-01,-5.080698795283204727e-02,-2.618835647080351436e-01,6.780624300379872738e-02,4.095093343431904787e-01,-1.791944872137326283e-01,2.630144166872309258e-02,1.399962129293312041e-01,-8.040876882283155835e-02
4.270730577732448352e-02,-2.334565897563421200e-01,-2.165691682486053926e-01,-1.673057775882401954e-01,7.049489589078015983e-02,5.797932292275602695e-01,-1.861165116414827403e-01,-9.919569881382712950e-02,2.946714726906770609e-01,-8.502315753784450703e-02
-1.586326655113424466e-01,-1.047824733224178850e-01,-8.632313586206799561e-02,-4.885938485970867107e-02,2.770046295147118864e-02,5.412047503093679879e-01,-1.336909422358673050e-01,-5.797917035186226503e-02,9.325760403844335356e-02,-7.189504515601591317e-02
-7.382105717310716297e-02,-8.433252685069943938e-03,-1.176863014495395030e-02,-4.818939739672044482e-03,-2.536711752288108718e-02,1.583006884110096657e-01,-6.112004446153735532e-02,-1.145987492595890167e-02,6.911001697426910617e-02,-3.062178873209843444e-02
-9.193636953564581285e-03,-1.766459966049046051e-03,-2.202577693974106746e-03,-1.228608269743974347e-04,-2.749751090392514152e-03,2.011274953519997036e-02,-7.263204508240608120e-03,-3.848221020693257197e-03,9.406035608376888887e-03,-2.372073083688272174e-03
-8.203909862512102477e-06,-3.811942205063811629e-05,-7.287663298212944265e-06,-1.292323526624050960e-04,-7.432775901253819159e-04,-5.292823808512299937e-05,-8.312810015027973968e-06,2.149324653006128103e-03,-3.420095575689628540e-05,-1.127761711149927052e-03
-9.610752122724302746e-05,-2.839234267969312914e-03,-8.821443290424041796e-04,-2.369610749864808994e-03,-4.039509625615055576e-03,-5.041761645410428516e-04,-6.561051493903222772e-05,2.961469094147906739e-02,-3.215664438426206386e-03,-1.560263332985398384e-02
4.534842008223160734e-03,-4.766958881724607348e-03,-2.645928739590834231e-02,1.082793267523828561e-02,-1.188296487443390483e-03,-3.894329306526594665e-03,-6.261351781524118927e-03,7.487629061699702104e-02,-1.071175013370351259e-02,-3.695709131362785727e-02
9.922127962393617259e-03,-5.368030415356285154e-03,1.162968277251016577e-02,7.524173159081218309e-02,-7.014270622081750228e-02,-9.764665496109130316e-02,-3.159702823408837291e-02,2.081694237477842158e-01,4.838679139409263023e-03,-1.050472253815561974e-01
-4.735778524353446289e-02,-3.768248909470085783e-02,1.573182613550003772e-01,2.174366204690323379e-01,-8.921404879992166082e-02,-1.687387864960250838e-01,-2.212783910923162359e-02,1.529678976535616686e-01,-1.305556885472892656e-02,-1.495462618794517196e-01
-3.885067092520969739e-02,-1.388865667536466897e-01,2.331877585607218251e-01,1.107540601281287590e-01,-9.734545634554841662e-03,-1.861100030779096470e-01,-7.772171706962852089e-02,1.230770474440254364e-01,5.312772040699804271e-02,-6.884308307892450518e-02
-7.209558599039628257e-02,-1.391862784008840725e-01,-6.461599634592389563e-02,9.711260111546511642e-02,-3.183623451385712844e-02,-4.592986378282961496e-02,-9.539306809691316946e-02,1.270132622656728327e-01,1.614969829874033924e-01,6.343418076226238489e-02
-6.375985085988442047e-02,-7.883326372608345789e-02,-1.721011597216932573e-02,8.979339127500463036e-02,-1.721103964295643204e-02,-6.202446868365871224e-02,-1.850338313284560082e-02,1.658859139544044681e-01,5.384328993348754672e-02,-5.198047314529873758e-02
-8.423936983352027508e-02,-1.548842871490422879e-01,-7.018069050823133592e-02,5.704618498198167631e-02,1.660116680046472282e-02,6.095252288743070734e-02,-3.611996929250197580e-02,7.106710554810669045e-02,1.123891307209679558e-01,2.736820584434564510e-02
7.372244970170452241e-04,-1.755214751753070290e-01,-2.513516337207252760e-02,3.994101276384755955e-02,-2.501335975827857078e-02,-1.833986011223606716e-02,-7.881975867055719676e-02,4.794418793808626761e-02,1.823320626169509240e-01,5.187512927254964851e-02
1.018979304988857637e-01,-9.886006666980684532e-02,4.283037977282245362e-02,-7.844867830166132872e-02,-1.068857648409843042e-01,1.187508935640170862e-02,-1.516777944601378769e-01,-1.252242251267736417e-02,1.097591759145466195e-01,1.820321512426106292e-01
-4.006151671889858490e-02,-1.296830468954608961e-01,-1.080352579709371458e-01,-2.579011604055289619e-01,-3.783065683162470383e-02,2.043324087890132368e-01,-1.169106735142845938e-01,1.110036660020529004e-01,2.060023109381978745e-01,1.690839266074708191e-01
2.983147292104478682e-02,-1.983771772213770157e-01,-8.292507578864062590e-02,-9.982078131682939337e-02,-1.002394654483829278e-01,5.395036706889908690e-02,-8.462038209242522813e-02,1.949671986995637485e-01,8.793955258578145529e-02,1.992942905923647812e-01
1.159872298994072959e-01,-9.732740482660158510e-02,1.784867173357344503e-02,-1.267925016097147528e-02,-8.920675866524521713e-02,-8.364040719317522576e-02,-1.573282630434828244e-01,9.614753098353903682e-02,9.516983364674554136e-02,1.150288176262117268e-01
-5.391630445641097669e-02,-3.637151519120303267e-02,4.008255231081545022e-02,1.425426537038671226e-01,-3.715294520143336277e-01,-1.835358244483041024e-01,-1.535142029145889625e-02,3.123771076128779578e-01,3.040665345855193824e-02,1.352955493155987010e-01
-2.472853865018788400e-01,1.687009103733324578e-01,1.305641167409232195e-01,2.753095235807880292e-01,-2.054225435805143440e-01,-2.479137738384582235e-01,-2.025869052784184665e-01,1.739890669702746084e-01,-2.002125584082677448e-02,1.746662473747782329e-01
-1.330639382575285988e-02,1.518014725101816259e-02,4.962310939605674154e-02,2.093008523860824810e-01,-7.694278262849926775e-02,-2.960698686248112166e-01,-2.292777362671271912e-01,1.563709262311948345e-01,1.047510299650512289e-01,8.037071611678615890e-02
7.586858819542137422e-02,-1.047720114887783771e-01,2.180309370144366612e-02,1.386835005411442279e-01,-8.907989170542307544e-02,-2.227467228776946473e-01,-3.480323289052609792e-01,2.897153895172479010e-01,1.572826926900569855e-01,8.127769033184394087e-02
1.293924452664639846e-01,-1.892035610226112941e-01,-8.902445333721101250e-03,4.056126026270152896e-02,1.965763018427330727e-02,-5.965625520389653685e-02,-3.479087178936876579e-01,9.385909063935780894e-02,2.018468478104206709e-01,1.203537052906993310e-01
1.342602382091852842e-01,-2.242068429525016227e-01,-1.687586721062115866e-02,8.940430684021431762e-02,-1.596904814761013203e-02,-9.410108348730772398e-02,-3.253076420959365445e-01,8.760829313511563077e-02,2.656832104962390528e-01,9.950443521322367701e-02
6.387471784532414154e-02,-2.045081898617722160e-01,-1.869027438922751458e-02,1.124085257477861338e-01,-1.534925579481850530e-02,-6.322934340351753224e-02,-2.010819414455524701e-01,5.430302021838645521e-02,2.031861539172897524e-01,6.908658716610203976e-02
2.073686488169011743e-02,-1.808778983077207747e-01,-3.439604537697684566e-02,4.111767581745691402e-02,-2.613134797767196690e-02,1.686729268776798185e-01,-1.546327402811132901e-01,8.420961832423179416e-02,1.824750530509108293e-01,-1.011741070084853505e-01
4.649844305883165524e-02,-1.600011513266176300e-01,-7.202025645631314477e-02,1.029141457069017163e-01,-5.311479740769540353e-02,1.320578974967019925e-01,-1.932824635571080973e-01,8.745618379942819709e-02,1.630802961635599013e-01,-5.358829747768843049e-02
1.340901101740813450e-01,-2.242227809124762439e-01,-4.121518337842279556e-02,-1.211432069641849296e-01,3.467065910602838696e-02,3.195237252592018073e-01,-1.640799716651223650e-01,-4.019744449252175139e-02,1.927804896261575973e-01,-9.020639675274234881e-02
1.340600459210914419e-01,-1.560059530303457009e-01,-1.712828276633084901e-01,-1.850858468410060687e-01,-1.481679040012491289e-01,6.993664054997443813e-01,-1.946258729985858305e-01,-6.076584877191788109e-02,1.582795471102875218e-01,-7.577174522471193108e-02
-1.409031200265530581e-01,-7.364659236235439332e-02,-7.210296838099154726e-02,-4.222854090894311019e-02,-1.193050721984775797e-01,6.445579620027176437e-01,-1.760158631036608801e-01,-3.727642713950086312e-02,1.014032892306920147e-01,-8.448266711292809483e-02
-6.354930966550154103e-02,-5.700403878376481513e-03,-1.451408918583026349e-02,-5.824431641764626390e-03,-3.156319876413451325e-02,1.372688951027838111e-01,-7.281880468286973385e-02,8.975099232636633319e-04,9.253077862269697140e-02,-3.672694583026740039e-02
-2.712652623703206128e-03,-9.109671206200137001e-04,-5.977401167045322478e-04,-1.894302625294580868e-04,-3.874478765708523707e-03,1.126395442473103470e-02,-4.977779987205377225e-03,1.590035758070055052e-02,-1.138322537021593112e-02,-2.518037758744585269e-03
-9.373057772948698726e-06,-4.417311620066582137e-05,-8.141986912232623299e-06,-1.469691348904590136e-04,-8.639845080099909942e-04,-6.165776605479962808e-05,-9.461993177168063536e-06,2.491870629342868380e-03,-3.941999664970216951e-05,-1.308689069674900214e-03
-1.135645125381159380e-04,6.137160902558476535e-04,-8.170371803173633127e-04,-5.819471333789404642e-04,-3.276263670272319163e-03,-5.529207579568903245e-04,-5.864927051842104588e-05,2.191498294117428386e-02,-1.534365967614664599e-03,-1.559395053883347836e-02
2.255082918567358555e-02,-2.541588000550542258e-03,-1.981700084581444060e-02,-4.750195365485158764e-04,-3.237701025259205612e-02,-5.519752346897691293e-03,-1.929256552203205063e-02,1.104873708317455766e-01,-7.561751919356606705e-03,-4.545351159362708698e-02
1.032752680871876910e-02,-2.921226710336628091e-02,3.435607034643844981e-02,1.309232049142099175e-01,-8.082652165385469101e-02,-8.015870620084325493e-02,-4.206936404083287673e-02,1.929362430355670011e-01,-3.113731292280445817e-02,-1.051388731832325341e-01
-3.080905205126096766e-02,-2.947530304260293291e-02,1.181424557202770208e-04,1.071147172535009545e-01,-4.602474336273337796e-02,-5.865631713232521277e-02,-4.240751979401001515e-02,1.683107072246696756e-01,7.880298431787584323e-02,-1.469736158688344507e-01
2.384242508724351145e-02,-1.186955923243067090e-01,1.789159280918175277e-01,-6.244856487805604955e-02,-7.926535263249950836e-02,-8.629622404369635680e-02,-6.535215311750307288e-02,1.597796049749361791e-01,-8.088436184569277460e-03,5.760836502663466141e-02
-4.833209652587830418e-02,-1.559955172888705943e-01,1.989520227911914796e-01,4.752303652567947678e-02,-5.510424677228431545e-02,-3.176739912596492077e-02,-7.971038126010865366e-02,5.930710016005793367e-02,3.225516412475881722e-02,3.287231737141999705e-02
-6.824028217414619679e-02,-1.665676616969058998e-01,-4.693500414488691388e-03,-9.911776272228139950e-03,-2.028328456875983996e-02,8.009609687290959734e-02,4.752492365411332270e-02,5.836634807147498410e-02,9.495073281633177598e-02,-1.124159628830137710e-02
-7.134311275307067546e-02,-1.286268355391493035e-01,5.415039083948400278e-02,-4.572523949614639566e-02,-2.252377422691925150e-03,6.452752156655566784e-02,3.607407209186155872e-02,-1.046994180612077913e-01,9.119311184040133911e-02,1.067018869339641379e-01
3.977206151617108942e-02,-1.611647535932317077e-01,-4.097007753292197102e-02,-2.518054885070373228e-01,4.840180840228706233e-02,1.808366175638686790e-01,-1.038261980890943237e-01,2.100910188387425381e-02,1.969126537811965172e-01,7.083427457488829238e-02
-3.435631359941253293e-02,-6.698615897145274167e-02,-7.583259415992459063e-02,-2.430525992229305710e-01,3.985511164734320544e-03,1.064283387885754384e-01,-5.819490417919267328e-02,-7.908024439923427851e-02,2.630197040496266014e-01,1.840692605292112427e-01
8.403556976039697202e-02,-1.226308578151960767e-02,-9.331257803754339220e-02,-1.927914951418958633e-01,1.684783157511873103e-02,6.045040821521473207e-02,-1.211549169828196465e-01,-1.752339466224109576e-01,2.615007933550234642e-01,1.719214196604363920e-01
1.966463177069660562e-02,-4.051427732930345388e-02,-1.137891235291403208e-01,-1.800129748956529052e-01,8.652499467041818715e-02,1.763531131177822897e-01,-1.495643284493567982e-01,-1.405546441308503369e-01,2.745449154316708107e-01,6.734769334373635896e-02
-2.465731475123339109e-02,6.325722226923846669e-02,-1.959195875673956366e-01,6.957147546928246773e-02,-1.739698181473928740e-01,1.245157498612957936e-01,-3.384197280965855342e-02,1.232949736663906948e-01,1.616988127887001025e-01,-1.139495407792267267e-01
-4.629851012829375168e-02,1.849279238507779144e-01,-3.084646414223326388e-02,1.333569107429087575e-01,-3.528769480927386182e-01,1.823559151786912150e-02,-1.422502598491545145e-01,1.085287307012578889e-01,1.112891350180782307e-01,1.593389038152783627e-02
-1.949144468706340838e-01,3.413906878832855263e-01,-4.232895981466961929e-03,9.847965532943758760e-02,-9.172095581565307965e-02,-5.020310171168678587e-02,-1.944945895640603495e-01,1.602159241272758383e-01,-1.252442488386869800e-02,-5.199585251262798385e-02
-9.007793931718266478e-02,2.223150867979593881e-02,1.308608112550907823e-02,1.321507157551724265e-01,-1.191101217109344079e-01,-1.751160744511622847e-01,-1.683021247886216099e-01,3.186738932027269877e-01,-1.167241891306123810e-02,7.813648041775755893e-02
6.953172718166961142e-02,-6.328672457667898488e-02,1.705140254725496796e-01,9.483824906782431508e-02,2.484902773517771654e-02,-3.297936749873052187e-01,-2.650974910785720562e-01,2.095148853208244899e-01,1.063756372427911157e-01,-1.744566137828084187e-02
5.306040055790878229e-02,-2.078483785625841185e-01,3.552286974540084380e-02,4.477867179132875158e-02,5.206608438324991477e-03,-2.290589230759341455e-01,-2.351086229785488702e-01,1.799158078342862621e-01,2.698776569607397313e-01,8.365390928907970314e-02
-2.513387362964617650e-02,-1.484281948659333938e-01,-6.022952334407164626e-02,1.917307474864661868e-02,1.292475686471698977e-02,-2.275890590374852751e-01,-2.011411727121974191e-01,1.506212855896805203e-01,3.114333032927137368e-01,1.683694030935762309e-01
4.047095849078108376e-02,-2.489633826347695256e-01,8.053499891310588962e-06,4.537390935328657060e-02,-4.512194527928432147e-02,-1.476872916940849823e-01,-1.598462152981931506e-01,1.771480034209071408e-01,2.597994531415563912e-01,7.881845699991051057e-02
1.078562061272572148e-01,-1.421577214890376306e-01,-8.227208283963555191e-02,1.434385040391809168e-02,-2.543727310237221470e-02,-8.944933624906557454e-03,-1.931263898076567287e-01,1.587675656318419948e-01,1.982298728446462988e-01,-2.725909414405549430e-02
1.371936059048301237e-01,-1.618040829663172087e-01,-6.164605810492559262e-02,5.102701779315195474e-02,-5.611406939769451180e-02,5.241190885644634451e-02,-1.817732463275674171e-01,1.031819213270938063e-01,1.843783426180966856e-01,-6.685533970311501040e-02
2.262077028796072586e-01,-1.839621549637444897e-01,-4.724122542123223439e-02,-2.481814699278605402e-02,-2.265406496294350425e-01,3.158243141000011689e-01,-7.354916198110418579e-02,-1.242581114584705992e-01,1.751464532317827116e-01,-3.680901976461918579e-02
1.136221605803640067e-01,-1.342425376374568602e-01,-1.405284796627466748e-01,-1.269059258542461488e-01,-1.458304377336326341e-01,7.802503028259993867e-01,-1.212889796385242386e-01,-1.131433145744894092e-01,7.066221483213027885e-03,-1.189990097884795067e-01
-1.462893677586958319e-01,-3.750355855459169135e-02,-6.081834029455512186e-02,-2.419219048462812466e-02,-6.974895157559191095e-02,7.186998984568865323e-01,-2.103004804264996253e-01,-3.186348430464252396e-02,-6.974274023115123455e-02,-6.824078482653200828e-02
-7.204077063049944829e-02,-1.378220053880515120e-02,-1.174771723575937510e-02,-2.973871914069804549e-03,-2.458330912868628843e-02,1.815364735813531638e-01,-5.721120855169807562e-02,3.860636858054405061e-04,2.888077030433712847e-02,-2.846422957197730294e-02
-4.925505835274016564e-04,3.966658016528719442e-04,-5.799826254997668276e-04,-1.010322915839803403e-04,-1.453949184008149599e-03,4.668240941907844839e-03,-3.769861611926375675e-03,3.432384388592953518e-03,2.320254118065159972e-03,-4.420168953673173778e-03
-1.519750996510425728e-05,-8.892800517495931734e-06,-1.626895129229902076e-05,-8.902437002686614247e-05,-1.071913144166326332e-04,-5.977243686311651286e-05,-4.964482991960936319e-06,7.714541582773612460e-04,-3.159813823467945882e-05,-4.385441539692045408e-04
5.453130055315409848e-03,-1.424690846708167929e-04,-3.989830161313434923e-04,-7.927934430128804732e-04,-1.180425855308743499e-02,-5.232667076851570988e-03,-3.138322556470837972e-04,4.940833083187148866e-02,-1.497261875978675829e-03,-3.467919558180700829e-02
-8.322753286898245404e-04,-4.542547037348752966e-04,-4.829182884402662655e-03,2.076303978223279553e-03,-6.012204392292676280e-02,-1.059227169197402875e-02,-7.496624152102536638e-04,1.805301580570504716e-01,-4.816960485386760638e-03,-1.002098106029481184e-01
-2.751379686374749983e-03,-2.055076363035250597e-02,4.986244621782032031e-03,1.298724975344200949e-01,-7.543092299518709687e-02,-7.468349492434431247e-02,-3.272366817500449443e-02,2.197072832195276215e-01,-3.951977334394787128e-02,-1.089060226205189885e-01
-6.457338749269379841e-02,-9.815413404610770498e-03,-3.653489120329830864e-02,6.931394466055629255e-02,-1.382205370354157581e-01,2.123408883257700021e-04,-1.509480814453552366e-02,2.479210355406872568e-01,2.362966056631102263e-02,-7.683794437532680266e-02
-6.407526921232825634e-02,-5.426872465965543180e-02,1.646584696314342192e-02,-1.448731823941689367e-01,-2.532777899055436988e-02,-3.347680957294617982e-02,2.544900561133077097e-02,6.317752396545543714e-02,6.408714151207553500e-02,1.528422467776485438e-01
-4.377918780739240359e-03,-1.168143507180618573e-01,-1.871626910391988724e-02,-7.893978643814079932e-02,2.234796306784992900e-02,3.481912760000149820e-03,-6.492994104074703045e-03,4.092533476266776993e-02,7.593622642495859165e-02,8.264988212945996449e-02
-3.290197465369372465e-02,-1.547733047287184749e-01,-8.990939094782304797e-02,-2.724693408106744208e-01,-2.692096369935532973e-02,5.660094346640753837e-02,1.166576363118097259e-01,3.500289245001569211e-02,2.555955102073098062e-01,1.131179924047213264e-01
3.628807693913837368e-02,-1.449942569651784252e-01,-1.846629903935287642e-01,-1.617006743869544017e-01,1.055050412114992703e-01,-6.147309901865405379e-03,1.245945224539488083e-02,-3.258062693879845012e-02,9.922695635848667595e-02,2.766063318318077724e-01
-9.002743055397210981e-02,-1.240473960655359698e-01,-3.037487348754946970e-01,-2.224674686974361382e-01,1.728137370461058919e-01,6.693320275596160475e-03,1.003388400401079988e-01,-2.487486495168823517e-02,2.324442942344620566e-01,2.528757035478554349e-01
-7.644765613913517832e-02,-9.015089037580058251e-02,-4.164382680723733854e-01,-1.933740481940016409e-01,1.917206597633164533e-01,9.041317720445300743e-02,6.650347682184526779e-03,-9.932292939253312830e-03,2.108993003688427459e-01,2.866596707017661783e-01
-2.299680811516136014e-02,-8.574794111895867044e-02,-3.022992405692972451e-01,-1.282496211843564549e-01,1.413740049292774581e-01,2.033432052687973723e-01,-1.712669525588094710e-01,-3.648078579232941904e-02,1.719944940551090817e-01,2.303296450857276467e-01
-2.434287486540678003e-01,-1.377911451711409108e-01,-3.522650867744823167e-01,-1.286611351638638212e-01,2.715835686437837460e-01,2.575922345041835593e-01,6.651722020139637370e-02,-1.145010929773339209e-01,2.601341058952902352e-01,1.208200794962339536e-01
-1.165447780444247433e-01,7.499849328610426469e-02,-4.853053943062729525e-01,2.915107373608204558e-02,-2.726064316896930628e-01,3.008812434784582379e-01,9.145100119986293574e-02,-5.113010345962005002e-03,2.430997900966453407e-01,1.399880125892001559e-01
-2.095853131097574484e-01,3.377646444181998109e-01,-2.935747804807918859e-01,1.068412327509295767e-01,-4.057487904487514507e-01,5.543780855310433825e-02,-9.227644287683459123e-02,1.556271182181531987e-01,2.754367422144570199e-01,7.007778076129361766e-02
-3.244136135981589009e-01,3.170271729068463995e-01,-1.633576698815754624e-01,1.381451204633298291e-01,-8.731266709213054283e-03,-3.912826121008648045e-02,-2.847821032401843810e-01,1.139912284054702962e-01,7.810725521740499722e-02,1.731421376461691475e-01
-3.009412225777431393e-01,-4.123185253531375105e-02,-9.818249661524217076e-02,2.695730677025732352e-02,2.004387621943035103e-01,-6.159001256026682553e-02,-1.459588116841898930e-01,2.478375110454995311e-01,8.246411114388241259e-02,9.020670481881516711e-02
-4.570193021555831077e-03,-1.391350896136030746e-01,-1.906379619870426645e-01,6.969813695023982514e-02,1.098364479666854854e-01,-1.397148870226147810e-01,-2.790490972529932612e-01,2.230124023557557567e-01,1.725542624456299357e-01,1.780059791794990909e-01
-1.345139959724836465e-01,-6.689258029536153394e-02,-6.597094390008842457e-03,1.578440164671832471e-02,-4.530055467294028665e-02,-1.794916893243137523e-01,-2.157372612208366958e-01,3.243408556819579180e-01,1.459103941369667146e-01,1.624975244103021854e-01
-2.907237142702801327e-02,-1.357306624967304920e-01,1.244450553076031363e-01,3.355745187899895204e-02,-6.134125167625534975e-02,-2.403506553581658267e-01,-7.096988118992150762e-02,5.772686996516847996e-02,1.538280364686575308e-01,1.679074085276737183e-01
7.776840684337217591e-02,-1.447841863910567795e-01,-8.813916564722536207e-02,1.015886939190208532e-01,-1.080218243259263855e-01,-3.491145771968208189e-01,-1.194360297461172782e-01,2.010616561751009390e-01,1.068698358034887580e-01,3.222071905661647584e-01
2.275574469543473477e-01,-1.291017709492649213e-01,-3.502575409449979610e-02,-5.221078196303444163e-02,-9.201594246330743743e-02,-2.615037200775917614e-01,-2.436724742032211205e-02,1.969621717473369893e-01,8.384826322787881925e-02,8.585733503845822956e-02
1.970286868941784064e-01,-1.279707245499137336e-01,-1.701636535019623864e-02,2.097963991569704381e-02,-1.011581561669098184e-01,-2.763708296182180169e-01,-4.649959362839019977e-02,1.165158083437088654e-01,1.463158060197247701e-01,8.817572814031869599e-02
1.911662493265886553e-01,-9.605603549158506227e-02,-7.339151044800987234e-02,-7.561952355387656366e-02,-2.367807464935967054e-01,7.283351630114949515e-02,1.231424686346195285e-01,-1.074382438084895697e-01,2.272993021882315223e-01,-2.515547665503008179e-02
1.213683993418537693e-01,-8.691021937845473666e-02,-2.689757477893463256e-02,-9.815319108787376456e-02,-1.750985937168435813e-01,3.935114356256751988e-01,-2.214272459849018701e-02,-1.259270034306137209e-01,1.186763837342129091e-01,-9.842691171053101484e-02
-8.821580299570913608e-02,-3.291676381717599520e-02,3.528517753400266938e-02,-1.397180339085811115e-02,-6.931981195983136224e-02,4.807918044189270490e-01,-1.763579130604963907e-01,-3.860923838990195506e-02,-3.696023670972674313e-02,-5.972541162923201974e-02
-5.744410916260216798e-02,-1.520672822950339294e-02,-5.856607990454578382e-03,-1.899583173421451505e-03,-1.059224454527610965e-02,1.302162772418571091e-01,-1.065419104966013886e-01,-3.690259985544007502e-03,9.183699386768136297e-02,-2.082182752613518859e-02
-3.594065051996428017e-04,1.775053303485421650e-03,-6.247083440961635596e-05,-7.489137088977738466e-05,-3.812619607854357833e-04,2.920107752405548800e-03,-8.439512944885928106e-04,1.690864323374249292e-03,-3.637966719925713518e-03,-1.026076693566449613e-03
-3.684079937949307492e-06,-1.320662982340919842e-06,-9.866524470515536794e-06,-4.514139365639782361e-05,-5.835848332624794034e-06,-1.187889252090960313e-05,-1.796129683672900806e-06,6.799482078053669786e-04,-1.527561483947775374e-05,-5.851490613814796290e-04
-7.011223694127764240e-05,-2.862991138369521305e-04,-1.894112452410383395e-04,-2.722783388593762524e-03,-1.867316115864679771e-02,-7.729656148317574048e-03,-3.031703565366571443e-04,5.528225084048479093e-02,-8.448126850190544081e-04,-2.446284450735169980e-02
-7.317764595270405056e-04,-1.047444619330966092e-03,-8.396037494607116623e-04,-5.743893611022459975e-03,-6.752799123755812150e-02,-1.021626166274531428e-02,-6.786534770227556964e-04,1.860860128134644020e-01,-3.440622163381641934e-03,-9.585976583341547508e-02
-6.590855168420116893e-03,-2.897747320730662945e-03,-3.831699679373667955e-02,3.103961744010374710e-02,-1.425422260397153362e-01,-1.107054957743246540e-02,-2.370962233311434825e-02,3.195047475461741948e-01,-2.166276073772362837e-02,-1.037536070154058826e-01
-3.579905606663448536e-02,1.979724891301772038e-02,-5.672143237708913988e-02,-2.464263300407740567e-02,-1.733707473761901818e-01,1.916907995556645095e-02,-4.701227751336253119e-02,2.562722000143868306e-01,-3.220469895238754071e-02,7.451231640676975188e-02
-3.141600186708311260e-02,-3.442006263129267218e-02,-1.920409216400428276e-01,-1.331047563363385311e-01,-6.017498317388775969e-02,1.797449592186311715e-02,3.363943145304887361e-02,6.733884958046570945e-02,1.285351096859916886e-01,2.036688390072751709e-01
1.164508668110551121e-01,-3.687785527634817456e-02,-3.460794715179894010e-01,-1.963874675155387883e-01,5.729011660767595326e-02,5.239317570013476283e-02,1.080331375086307222e-01,-1.460258044093359908e-02,4.658428891837874258e-02,2.131957892049346770e-01
1.958397801768432117e-02,-5.385746092808948310e-02,-4.426442587704986220e-01,-1.471689400329216635e-01,1.137494732105132217e-01,-2.034076916639767849e-02,1.642211484634785723e-01,5.580817098767258677e-02,1.331688703936018958e-01,1.774797878249547711e-01
-2.117437391082251444e-03,-9.013875796143711039e-02,-3.150240319953669377e-01,-1.321119429307187620e-01,2.157027510820662686e-01,-9.459535488786567636e-02,1.188913260374954706e-01,1.359826373841594438e-01,6.517541619348536826e-03,1.568932690433995358e-01
3.122942856938958241e-03,-8.240088792906319348e-02,-2.998299123721419601e-01,-7.290223601518625030e-02,1.418984281467760011e-01,-5.401178998111660565e-03,4.260252368007599877e-02,-1.366901991842232600e-01,9.938887616931485480e-02,3.102116436456212600e-01
4.788492167788235138e-02,-1.895376177327169065e-01,-2.818187776389879939e-01,4.804340401255236676e-02,2.208545247002798584e-01,1.577533535685377020e-01,-8.561469123891950889e-03,-1.806990494457320351e-01,-3.953221135451401302e-02,2.256129213365914987e-01
-4.134113279261646817e-02,-2.196433025513753190e-01,-3.351714210942745575e-01,-1.119600912919784530e-01,2.338978973327598965e-01,1.580924390448770200e-01,1.507037598720537552e-01,-1.274896537425220244e-01,7.479168380391000570e-02,2.181198214191688300e-01
1.778903781071019055e-02,-1.352614883234746490e-01,-2.820401343394223770e-01,3.136330751053892363e-02,2.892260172825444897e-01,2.201517463625904947e-01,9.921090871219424845e-02,-3.584366951399563517e-01,1.708919610726553351e-01,-5.289466094838111282e-02
-7.455622257501130085e-03,6.860816722887720653e-02,-1.752544477913330345e-01,5.615626901130045014e-03,3.407733867537536196e-03,2.443888444316932307e-01,7.186884717059460748e-02,-4.886010218378630254e-01,2.597258070003282682e-01,1.769606528653712083e-02
-2.857409809514644405e-01,4.111473333276322029e-01,-1.483695823074605846e-01,3.124675488093671127e-01,-2.941799474211558296e-01,8.399278494842582488e-02,-1.222279291538230644e-01,-1.578332024095646657e-01,1.450599996131315614e-02,1.862379751967272734e-01
-3.615927908729671403e-01,2.330452613149752716e-01,-2.479529192268478122e-01,1.696154297164930991e-01,4.626326964971825412e-02,1.501672970452093137e-01,-1.759945486340101506e-01,1.304899941852041001e-01,-4.839702746030785652e-02,1.043560342825339687e-01
-3.388745688285917934e-01,-2.628627327239570644e-03,-1.153548940478390239e-01,3.673933728501046353e-02,1.605078540920933106e-01,-9.888279486031771592e-02,-4.873222816354108589e-02,2.892819060401083386e-01,9.067184584455235952e-02,2.727216996576703814e-02
-1.140986078152914501e-01,-2.349130407634811638e-02,-8.793590774803863863e-02,-3.169919250592381083e-02,2.441109733450785857e-02,-2.074554787330812056e-01,-7.078097634329466592e-02,2.619446223828145737e-01,1.999212915381773092e-01,4.918445596647701840e-02
-9.088747552362638760e-02,-2.441247742220880104e-02,-1.409313824738525900e-01,4.790906339345503417e-02,-4.708006812921004119e-02,-1.251521787039055755e-01,-1.383724366032948738e-01,1.978886092937461871e-01,1.149823247837314794e-01,2.060560213851664602e-01
2.151641637570819374e-02,-1.053763845380730479e-01,7.835170228371411694e-02,-8.381579209491038518e-02,8.624445708338561445e-02,-2.731965837549847897e-01,-1.662066902406900415e-01,-3.576713775144788662e-03,2.041063824015867390e-01,2.419532062594088873e-01
5.154642452960583876e-02,-8.604825261792559132e-02,-1.078565326002154656e-01,-6.269965196198495905e-02,5.866066195405529593e-02,-1.613282626344475224e-01,-9.792256977361886439e-02,5.207363495731857223e-02,1.493784658975602364e-01,2.041960822496521610e-01
6.315813785316182205e-02,-3.408205887479470036e-02,1.005790618993197133e-02,-3.020267754599039733e-01,1.238836912280702196e-01,-3.652828471550782496e-01,5.020035738598158798e-02,2.940329323311213425e-02,2.276654061382581140e-01,1.970228894612605086e-01
1.849077984165775901e-01,-3.845436018647757637e-02,-6.062185565089644318e-02,-1.714944668465795685e-01,2.139678749565374072e-02,-4.844299160517990255e-01,1.908254719313320080e-01,6.063885886576390882e-02,1.757565830410568741e-01,1.214750989853681518e-01
2.586928909804276366e-01,-3.252970306323472310e-02,-1.558365096189607280e-01,-1.191661148068191151e-01,-9.584955151475589574e-02,-5.157316451332712992e-01,3.209738846865504702e-01,-4.365203973897181788e-02,3.123098339987971372e-01,7.078895421023770340e-02
2.937842488031126575e-01,-3.071912874095271417e-02,8.051862474766319222e-02,-5.133625087111864244e-02,-6.406357775553617184e-02,-4.180054725235883839e-01,1.353532899894335506e-01,-9.410207672964261694e-02,2.714484853741826464e-01,-1.228781422935543849e-01
1.559144942920238398e-02,-2.386727377930186050e-02,1.199098496760973853e-01,-2.761916878438216375e-03,-5.621527673192825564e-02,1.433660095195569105e-02,-7.722417703228887098e-02,3.010328998972169878e-02,4.856189818778146317e-02,-6.843444381280147648e-02
-2.240288197972975168e-02,-1.421989526469291838e-02,1.174492277967124493e-01,-2.232892350214149232e-04,-3.346259058478154302e-02,6.359680825737847043e-02,-1.450489767921680218e-01,2.475912543346605113e-02,2.849630783498174544e-02,-1.894383546614493430e-02
-7.698447175572316003e-06,-3.064944866564646214e-04,4.812576260863058418e-03,-9.287834743645256071e-05,-3.244076829811952042e-03,-2.233037351546869902e-04,-5.955635594314421383e-03,1.137217456417999144e-02,-5.199665507195406350e-03,-1.154997877298118321e-03
-2.551925163413243326e-07,4.744462073226296219e-05,-6.701624322150008959e-06,-1.442767443021575681e-05,-4.610290557465178829e-07,-1.789446202371932021e-06,-1.433038892838912367e-06,-8.493817954900121170e-06,-6.871706265712597766e-06,-7.011091091985716451e-06
8.188044413574466999e-05,-5.529538870149086703e-05,-2.787710438746697169e-04,-3.065207456406766461e-03,-1.578530400197225916e-02,-1.420619425801654054e-03,-1.209556333900779589e-04,3.476920574472772835e-02,-1.481358662949939142e-04,-1.397679737242154933e-02
-5.586916245954860576e-04,-3.790751040192563552e-04,-5.450821911052971787e-04,-5.465807280688914430e-03,-5.160291094657890043e-02,-3.138764741401478455e-03,-2.915154513281681468e-04,1.285186687284525786e-01,-1.067525914994463601e-03,-6.546929547374036318e-02
-2.282339149153827032e-02,1.830655513867209460e-04,-3.005284935038477628e-02,3.065376484844845734e-02,-1.331942596017456626e-01,1.121620688642101064e-03,-2.404096275935816568e-02,2.479022402022489080e-01,-2.927824672544009771e-02,-4.047098136225928122e-02
2.977106734635347543e-02,1.355341919136755953e-02,-2.110779584357846128e-01,-5.485467954742084123e-02,-7.817406061644498194e-02,3.049923855726864932e-02,-6.649526346801264143e-02,2.045973714400343701e-01,-7.400276166056958538e-02,2.061836271932089570e-01
1.096854652469543903e-02,-1.522056713472370003e-02,-3.354806635683973970e-01,-1.205621094145327837e-01,2.975035524111649052e-02,1.260233457920126587e-01,4.734336498406089416e-02,6.218941805242706594e-02,2.331886250873068528e-02,1.716694470146111207e-01
1.650577576545069758e-01,-2.867104715349716448e-02,-4.102573600036443779e-01,-1.004801779577405435e-01,1.682988647587945752e-01,-5.836555423834365042e-02,1.947602994033672819e-01,5.505369279534171739e-02,-5.775094671196352725e-02,7.235447145317890072e-02
1.544957413836882676e-01,-8.079794022275475773e-02,-3.213133347141990392e-01,-9.963397795850524596e-02,1.294619284820303085e-01,5.988531370522064134e-02,7.809511128656852763e-02,-8.768510397892870234e-02,-2.907573205402835467e-02,1.965679940709088580e-01
7.557234904554561983e-02,-4.703841012230340624e-02,-1.461268619874939168e-01,-4.542178864952051143e-02,1.974046404059875415e-01,-3.926540729218605530e-02,4.902526315965621134e-02,-1.752697126916212822e-01,-8.759752743628432259e-02,2.187174555682195876e-01
8.153395465271957854e-02,-1.305104209866421727e-01,-1.246090777798516819e-01,7.424731769784655676e-03,2.215184577843801739e-01,6.636064677888464658e-02,-3.388446196052900816e-02,-1.486269859660735160e-01,-1.036848751234822376e-02,7.116164321967523299e-02
7.729271481367688823e-02,-3.080164886717398631e-01,-1.204517119392150837e-01,-7.992101908822421552e-02,2.569374274914670297e-01,6.943311725552236968e-02,7.434131399100260551e-02,-7.112373777216514370e-02,-7.210111606371810700e-02,1.736094999833955599e-01
-6.275721992554078588e-02,-3.596419299357123678e-01,-6.238707841203912363e-02,-8.693503797306270653e-02,1.765353147797535938e-01,2.353016897421426612e-01,5.826123456389560584e-02,-1.390776327416487768e-01,1.239010119027517537e-01,1.167996479994617975e-01
2.628663247601743802e-02,-1.013137499346588449e-01,-5.131032893427929509e-02,4.071993395787205927e-02,1.480436149723665662e-01,2.426252054051964147e-01,-1.470412727952669259e-02,-4.710053508007848722e-01,2.438117276635731745e-01,-6.315355752577557491e-02
-2.637484672638375494e-01,5.771782150410217915e-02,3.944872056434847729e-02,2.406304312689550584e-01,-9.924741401759189230e-02,2.189276655603770994e-01,3.881341155187739353e-03,-5.161168720930404685e-01,2.295482484447152749e-01,8.895852487678339304e-02
-4.049267345642518778e-01,2.949422453278459644e-01,-6.563425584548760426e-03,1.566612421044909498e-01,-6.330312082947837926e-02,5.444284374541107085e-02,-6.309171115219718018e-02,-1.811727702469145551e-01,-3.984616521018585766e-02,2.528575964098282447e-01
-4.441647478267222726e-01,1.989396488152169185e-01,-1.840344528393448587e-01,-4.228813183232200783e-03,1.015795972416579651e-01,-1.090100941508360816e-01,8.577697107494754170e-02,-3.483573531182259514e-02,2.124728584683568400e-01,1.775047677117789491e-01
-3.153225049360116605e-01,5.006301532304322476e-03,-7.168051700562251549e-02,5.482007409686930066e-02,8.089808018848732019e-02,-2.522756353838119803e-01,-3.714096730710794020e-02,1.784072278803611467e-01,2.365670236670056603e-01,1.207209172675278858e-01
-1.391306763317996242e-01,2.793739258165139905e-02,-7.055915482513984427e-02,8.568852952042931015e-02,1.472001599428606478e-01,-1.183979076569390138e-01,-1.187120588163777524e-01,3.046868125334660504e-02,6.097965882185186343e-02,9.452537551011548633e-02
-6.027208447747297443e-02,-8.220085416216714458e-02,-1.100872726535205987e-01,1.627609716268367257e-01,1.533809393629771700e-01,-2.055391329432690595e-01,-9.161357603558101248e-02,9.588173419409196097e-02,9.211049849892069541e-02,4.557877658918425834e-02
-5.572350160109004052e-02,-1.498153693696324673e-01,-6.407413635241343552e-02,-8.923064018052691282e-02,1.550397601422038030e-01,-5.800522859421784055e-02,1.062173653325807756e-03,-6.421369844772970015e-02,1.097769344258910651e-01,2.151837063241892889e-01
-1.363337199075276840e-01,-9.230020808219911721e-02,-1.106628840745706305e-01,-1.538040265131798146e-01,2.603060735045618079e-01,-6.768184647431292611e-02,-4.833929913362488423e-02,1.096705805671795153e-01,1.428374944119883416e-01,9.630783570168589824e-02
-5.956487519562918623e-03,-5.102179248580308163e-02,-1.053088603218135279e-02,-1.947983465472552800e-01,1.868079461478505954e-01,-1.902488900453247478e-01,1.225242934411062135e-01,1.024650412291288754e-01,-8.712336080006360950e-02,1.278824826121046365e-01
1.333120413710300323e-01,-6.337705776540160374e-02,5.772833195865872784e-03,-2.833341097985711543e-01,9.698789023993167890e-02,-2.205128136759728352e-01,2.292588159880849796e-01,1.314620165122631391e-02,6.450779905811312998e-02,2.423839973569411055e-02
2.459656065175337414e-01,-5.627545812545604875e-02,3.365033218115630613e-04,-1.302270973933142284e-01,-4.529211310609845831e-02,-3.624428827008798204e-01,3.882654289676838455e-01,-4.334481201480010204e-02,1.594675539701201350e-01,-1.564527294366009624e-01
2.367855654437421298e-01,-4.495672409570530131e-02,2.209988048719144504e-01,-6.337269699578694515e-02,-1.294475977147230561e-01,-3.364534052164340761e-01,2.169549184903091232e-01,-3.214573007512547959e-02,1.200048197685761181e-01,-1.883679544767662695e-01
4.416336593544714639e-02,-2.919998762792889654e-02,2.352120418614968289e-01,-7.434700017315212447e-03,-2.797935043986893300e-02,-8.723367652050027787e-02,-8.810967724819751545e-02,1.733142852136993969e-02,2.288881047073208427e-02,-7.963825493523536692e-02
