-6.993608750702735577e-01,1.796859408359083643e+00,3.410023596746051266e-01,-3.926177847323483738e-01,3.571652993886932914e-01,2.803668530211499643e+00,-4.956444558804278255e-01,1.835540691119484480e+00,-4.472973353673151742e+00,-1.073623941479409316e+00
0.000000000000000000e+00,0.000000000000000000e+00,0.000000000000000000e+00,0.000000000000000000e+00,0.000000000000000000e+00,0.000000000000000000e+00,0.000000000000000000e+00,0.000000000000000000e+00,0.000000000000000000e+00,0.000000000000000000e+00
0.000000000000000000e+00,0.000000000000000000e+00,0.000000000000000000e+00,0.000000000000000000e+00,0.000000000000000000e+00,0.000000000000000000e+00,0.000000000000000000e+00,0.000000000000000000e+00,0.000000000000000000e+00,0.000000000000000000e+00
0.000000000000000000e+00,0.000000000000000000e+00,0.000000000000000000e+00,0.000000000000000000e+00,0.000000000000000000e+00,0.000000000000000000e+00,0.000000000000000000e+00,0.000000000000000000e+00,0.000000000000000000e+00,0.000000000000000000e+00
0.000000000000000000e+00,0.000000000000000000e+00,0.000000000000000000e+00,0.000000000000000000e+00,0.000000000000000000e+00,0.000000000000000000e+00,0.000000000000000000e+00,0.000000000000000000e+00,0.000000000000000000e+00,0.000000000000000000e+00
0.000000000000000000e+00,0.000000000000000000e+00,0.000000000000000000e+00,0.000000000000000000e+00,0.000000000000000000e+00,0.000000000000000000e+00,0.000000000000000000e+00,0.000000000000000000e+00,0.000000000000000000e+00,0.000000000000000000e+00
0.000000000000000000e+00,0.000000000000000000e+00,0.000000000000000000e+00,0.000000000000000000e+00,0.000000000000000000e+00,0.000000000000000000e+00,0.000000000000000000e+00,0.000000000000000000e+00,0.000000000000000000e+00,0.000000000000000000e+00
0.000000000000000000e+00,0.000000000000000000e+00,0.000000000000000000e+00,0.000000000000000000e+00,0.000000000000000000e+00,0.000000000000000000e+00,0.000000000000000000e+00,0.000000000000000000e+00,0.000000000000000000e+00,0.000000000000000000e+00
0.000000000000000000e+00,0.000000000000000000e+00,0.000000000000000000e+00,0.000000000000000000e+00,0.000000000000000000e+00,0.000000000000000000e+00,0.000000000000000000e+00,0.000000000000000000e+00,0.000000000000000000e+00,0.000000000000000000e+00
0.000000000000000000e+00,0.000000000000000000e+00,0.000000000000000000e+00,0.000000000000000000e+00,0.000000000000000000e+00,0.000000000000000000e+00,0.000000000000000000e+00,0.000000000000000000e+00,0.000000000000000000e+00,0.000000000000000000e+00
0.000000000000000000e+00,0.000000000000000000e+00,0.000000000000000000e+00,0.000000000000000000e+00,0.000000000000000000e+00,0.000000000000000000e+00,0.000000000000000000e+00,0.000000000000000000e+00,0.000000000000000000e+00,0.000000000000000000e+00
0.000000000000000000e+00,0.000000000000000000e+00,0.000000000000000000e+00,0.000000000000000000e+00,0.000000000000000000e+00,0.000000000000000000e+00,0.000000000000000000e+00,0.000000000000000000e+00,0.000000000000000000e+00,0.000000000000000000e+00
0.000000000000000000e+00,0.000000000000000000e+00,0.000000000000000000e+00,0.000000000000000000e+00,0.000000000000000000e+00,0.000000000000000000e+00,0.000000000000000000e+00,0.000000000000000000e+00,0.000000000000000000e+00,0.000000000000000000e+00
-0.000000000000000000e+00,-0.000000000000000000e+00,0.000000000000000000e+00,-0.000000000000000000e+00,-0.000000000000000000e+00,-0.000000000000000000e+00,-0.000000000000000000e+00,-0.000000000000000000e+00,-0.000000000000000000e+00,-0.000000000000000000e+00
-0.000000000000000000e+00,-0.000000000000000000e+00,0.000000000000000000e+00,-0.000000000000000000e+00,-0.000000000000000000e+00,-0.000000000000000000e+00,-0.000000000000000000e+00,-0.000000000000000000e+00,-0.000000000000000000e+00,-0.000000000000000000e+00
-0.000000000000000000e+00,-0.000000000000000000e+00,0.000000000000000000e+00,-0.000000000000000000e+00,-0.000000000000000000e+00,-0.000000000000000000e+00,-0.000000000000000000e+00,-0.000000000000000000e+00,-0.000000000000000000e+00,-0.000000000000000000e+00
-0.000000000000000000e+00,-0.000000000000000000e+00,0.000000000000000000e+00,-0.000000000000000000e+00,-0.000000000000000000e+00,-0.000000000000000000e+00,-0.000000000000000000e+00,-0.000000000000000000e+00,-0.000000000000000000e+00,-0.000000000000000000e+00
0.000000000000000000e+00,0.000000000000000000e+00,0.000000000000000000e+00,0.000000000000000000e+00,0.000000000000000000e+00,0.000000000000000000e+00,0.000000000000000000e+00,0.000000000000000000e+00,0.000000000000000000e+00,0.000000000000000000e+00
0.000000000000000000e+00,0.000000000000000000e+00,0.000000000000000000e+00,0.000000000000000000e+00,0.000000000000000000e+00,0.000000000000000000e+00,0.000000000000000000e+00,0.000000000000000000e+00,0.000000000000000000e+00,0.000000000000000000e+00
0.000000000000000000e+00,0.000000000000000000e+00,0.000000000000000000e+00,0.000000000000000000e+00,0.000000000000000000e+00,0.000000000000000000e+00,0.000000000000000000e+00,0.000000000000000000e+00,0.000000000000000000e+00,0.000000000000000000e+00
0.000000000000000000e+00,0.000000000000000000e+00,0.000000000000000000e+00,0.000000000000000000e+00,0.000000000000000000e+00,0.000000000000000000e+00,0.000000000000000000e+00,0.000000000000000000e+00,0.000000000000000000e+00,0.000000000000000000e+00
0.000000000000000000e+00,0.000000000000000000e+00,0.000000000000000000e+00,0.000000000000000000e+00,0.000000000000000000e+00,0.000000000000000000e+00,0.000000000000000000e+00,0.000000000000000000e+00,0.000000000000000000e+00,0.000000000000000000e+00
0.000000000000000000e+00,0.000000000000000000e+00,0.000000000000000000e+00,0.000000000000000000e+00,0.000000000000000000e+00,0.000000000000000000e+00,0.000000000000000000e+00,0.000000000000000000e+00,0.000000000000000000e+00,0.000000000000000000e+00
0.000000000000000000e+00,0.000000000000000000e+00,0.000000000000000000e+00,0.000000000000000000e+00,0.000000000000000000e+00,0.000000000000000000e+00,0.000000000000000000e+00,0.000000000000000000e+00,0.000000000000000000e+00,0.000000000000000000e+00
0.000000000000000000e+00,0.000000000000000000e+00,0.000000000000000000e+00,0.000000000000000000e+00,0.000000000000000000e+00,0.000000000000000000e+00,0.000000000000000000e+00,0.000000000000000000e+00,0.000000000000000000e+00,0.000000000000000000e+00
0.000000000000000000e+00,0.000000000000000000e+00,0.000000000000000000e+00,0.000000000000000000e+00,0.000000000000000000e+00,0.000000000000000000e+00,0.000000000000000000e+00,0.000000000000000000e+00,0.000000000000000000e+00,0.000000000000000000e+00
0.000000000000000000e+00,0.000000000000000000e+00,0.000000000000000000e+00,0.000000000000000000e+00,0.000000000000000000e+00,0.000000000000000000e+00,0.000000000000000000e+00,0.000000000000000000e+00,0.000000000000000000e+00,0.000000000000000000e+00
0.000000000000000000e+00,0.000000000000000000e+00,0.000000000000000000e+00,0.000000000000000000e+00,0.000000000000000000e+00,0.000000000000000000e+00,0.000000000000000000e+00,0.000000000000000000e+00,0.000000000000000000e+00,0.000000000000000000e+00
0.000000000000000000e+00,0.000000000000000000e+00,0.000000000000000000e+00,0.000000000000000000e+00,0.000000000000000000e+00,0.000000000000000000e+00,0.000000000000000000e+00,0.000000000000000000e+00,0.000000000000000000e+00,0.000000000000000000e+00
0.000000000000000000e+00,0.000000000000000000e+00,0.000000000000000000e+00,0.000000000000000000e+00,0.000000000000000000e+00,0.000000000000000000e+00,0.000000000000000000e+00,0.000000000000000000e+00,0.000000000000000000e+00,0.000000000000000000e+00
0.000000000000000000e+00,0.000000000000000000e+00,0.000000000000000000e+00,0.000000000000000000e+00,0.000000000000000000e+00,0.000000000000000000e+00,0.000000000000000000e+00,0.000000000000000000e+00,0.000000000000000000e+00,0.000000000000000000e+00
0.000000000000000000e+00,0.000000000000000000e+00,0.000000000000000000e+00,0.000000000000000000e+00,0.000000000000000000e+00,0.000000000000000000e+00,0.000000000000000000e+00,0.000000000000000000e+00,0.000000000000000000e+00,0.000000000000000000e+00
0.000000000000000000e+00,0.000000000000000000e+00,0.000000000000000000e+00,0.000000000000000000e+00,0.000000000000000000e+00,0.000000000000000000e+00,0.000000000000000000e+00,0.000000000000000000e+00,0.000000000000000000e+00,0.000000000000000000e+00
-0.000000000000000000e+00,-0.000000000000000000e+00,-0.000000000000000000e+00,-0.000000000000000000e+00,-0.000000000000000000e+00,-0.000000000000000000e+00,0.000000000000000000e+00,-0.000000000000000000e+00,-0.000000000000000000e+00,-0.000000000000000000e+00
-0.000000000000000000e+00,-0.000000000000000000e+00,-0.000000000000000000e+00,-0.000000000000000000e+00,-0.000000000000000000e+00,-0.000000000000000000e+00,0.000000000000000000e+00,-0.000000000000000000e+00,-0.000000000000000000e+00,-0.000000000000000000e+00
-0.000000000000000000e+00,-0.000000000000000000e+00,-0.000000000000000000e+00,-0.000000000000000000e+00,-2.847292474606348892e-02,-0.000000000000000000e+00,2.887632655679341076e-02,-0.000000000000000000e+00,-0.000000000000000000e+00,-0.000000000000000000e+00
-0.000000000000000000e+00,-0.000000000000000000e+00,-0.000000000000000000e+00,-0.000000000000000000e+00,-9.032184709961432745e-02,-0.000000000000000000e+00,9.173281804646431226e-02,-0.000000000000000000e+00,-0.000000000000000000e+00,-0.000000000000000000e+00
-0.000000000000000000e+00,-3.108423241066742004e-03,-4.941072095981671741e-03,-0.000000000000000000e+00,-4.278963185018180154e-02,-0.000000000000000000e+00,5.905364190831986770e-02,-0.000000000000000000e+00,-0.000000000000000000e+00,-0.000000000000000000e+00
-0.000000000000000000e+00,-2.022705346489798300e-03,-2.506196930874553946e-02,-0.000000000000000000e+00,-2.226895339674402063e-02,-0.000000000000000000e+00,5.742480031129163637e-02,-0.000000000000000000e+00,-0.000000000000000000e+00,-0.000000000000000000e+00
-3.708147730875609453e-04,-1.066084508751192155e-05,-2.101568607845489059e-02,-0.000000000000000000e+00,-2.871836386136247116e-02,-0.000000000000000000e+00,6.356217723390102103e-02,-0.000000000000000000e+00,-0.000000000000000000e+00,-3.497109254053384431e-04
2.514379150411055405e-02,-0.000000000000000000e+00,-1.568519003985811844e-02,-0.000000000000000000e+00,-6.861225430509720891e-02,-0.000000000000000000e+00,8.574384579097596437e-02,-8.536117776965541568e-03,-0.000000000000000000e+00,-9.791769103615372005e-03
5.848193430325614867e-02,-0.000000000000000000e+00,-1.617067684350673856e-02,-0.000000000000000000e+00,-1.413642667127513464e-01,-0.000000000000000000e+00,1.536398320767237147e-01,-2.698378932838902192e-02,-0.000000000000000000e+00,-1.897434210002541671e-02
2.303482865398040480e-02,-0.000000000000000000e+00,-5.994444866518398515e-03,-0.000000000000000000e+00,-6.229391749793626587e-02,-0.000000000000000000e+00,6.696644299989498728e-02,-6.540782222126089417e-03,-0.000000000000000000e+00,-5.826196704351999968e-03
-0.000000000000000000e+00,1.109114903355567887e-02,1.251097831691682857e-02,-3.128721935168409830e-03,1.012531144301476041e-03,-1.244313595694310215e-03,-9.967155686332346970e-03,-0.000000000000000000e+00,-1.619172280018436167e-04,-1.329092519797131153e-03
3.065561949447935183e-02,1.311946245663900452e-02,7.751791460068757633e-02,-4.481796479328674539e-03,-1.254753535806284181e-01,-0.000000000000000000e+00,2.185566603799214344e-02,-0.000000000000000000e+00,-0.000000000000000000e+00,-1.041380657729841334e-02
8.961972945198752594e-02,-1.267439615082172240e-03,8.305666286846992430e-02,-3.036656176636247286e-04,-1.617677267406028574e-01,-0.000000000000000000e+00,2.613021617982097533e-02,-0.000000000000000000e+00,-9.016744025467252153e-04,-2.607999902003807491e-02
4.041749771973238148e-02,-2.253696122243188519e-04,-2.028684517838640414e-02,-0.000000000000000000e+00,-5.831391408930034631e-02,-0.000000000000000000e+00,6.692621704340902256e-02,-0.000000000000000000e+00,-4.739733171551962403e-04,-1.562929724088227279e-02
-0.000000000000000000e+00,-0.000000000000000000e+00,-2.322371270951019070e-02,-0.000000000000000000e+00,-1.531198789202580131e-02,-2.897066951184256150e-03,5.335949614005491143e-02,-0.000000000000000000e+00,-0.000000000000000000e+00,-0.000000000000000000e+00
-0.000000000000000000e+00,-0.000000000000000000e+00,-1.652722936654231825e-02,-0.000000000000000000e+00,-4.964046324866416837e-02,-1.990727091077249770e-03,7.763340753467058708e-02,-0.000000000000000000e+00,-0.000000000000000000e+00,-0.000000000000000000e+00
-0.000000000000000000e+00,-0.000000000000000000e+00,-6.021693017897171429e-03,-0.000000000000000000e+00,-3.425524150594395217e-02,-0.000000000000000000e+00,4.758089939198704987e-02,-0.000000000000000000e+00,-0.000000000000000000e+00,-0.000000000000000000e+00
-0.000000000000000000e+00,-0.000000000000000000e+00,-0.000000000000000000e+00,-0.000000000000000000e+00,-2.763654117619607914e-02,-0.000000000000000000e+00,3.122008023164193902e-02,-0.000000000000000000e+00,-0.000000000000000000e+00,-0.000000000000000000e+00
-0.000000000000000000e+00,-0.000000000000000000e+00,-0.000000000000000000e+00,-0.000000000000000000e+00,-4.956897686695813793e-02,-0.000000000000000000e+00,5.077370842900621323e-02,-0.000000000000000000e+00,-0.000000000000000000e+00,-0.000000000000000000e+00
-0.000000000000000000e+00,-0.000000000000000000e+00,-0.000000000000000000e+00,-0.000000000000000000e+00,-2.335289367832707463e-02,-0.000000000000000000e+00,2.393512206553013305e-02,-0.000000000000000000e+00,-0.000000000000000000e+00,-0.000000000000000000e+00
0.000000000000000000e+00,0.000000000000000000e+00,0.000000000000000000e+00,0.000000000000000000e+00,0.000000000000000000e+00,0.000000000000000000e+00,0.000000000000000000e+00,0.000000000000000000e+00,0.000000000000000000e+00,0.000000000000000000e+00
0.000000000000000000e+00,0.000000000000000000e+00,0.000000000000000000e+00,0.000000000000000000e+00,0.000000000000000000e+00,0.000000000000000000e+00,0.000000000000000000e+00,0.000000000000000000e+00,0.000000000000000000e+00,0.000000000000000000e+00
0.000000000000000000e+00,0.000000000000000000e+00,0.000000000000000000e+00,0.000000000000000000e+00,0.000000000000000000e+00,0.000000000000000000e+00,0.000000000000000000e+00,0.000000000000000000e+00,0.000000000000000000e+00,0.000000000000000000e+00
0.000000000000000000e+00,0.000000000000000000e+00,0.000000000000000000e+00,0.000000000000000000e+00,0.000000000000000000e+00,0.000000000000000000e+00,0.000000000000000000e+00,0.000000000000000000e+00,0.000000000000000000e+00,0.000000000000000000e+00
0.000000000000000000e+00,0.000000000000000000e+00,0.000000000000000000e+00,0.000000000000000000e+00,0.000000000000000000e+00,0.000000000000000000e+00,0.000000000000000000e+00,0.000000000000000000e+00,0.000000000000000000e+00,0.000000000000000000e+00
0.000000000000000000e+00,0.000000000000000000e+00,0.000000000000000000e+00,0.000000000000000000e+00,0.000000000000000000e+00,0.000000000000000000e+00,0.000000000000000000e+00,0.000000000000000000e+00,0.000000000000000000e+00,0.000000000000000000e+00
-0.000000000000000000e+00,-0.000000000000000000e+00,-0.000000000000000000e+00,-0.000000000000000000e+00,-0.000000000000000000e+00,-0.000000000000000000e+00,0.000000000000000000e+00,-0.000000000000000000e+00,-0.000000000000000000e+00,-0.000000000000000000e+00
-0.000000000000000000e+00,-0.000000000000000000e+00,-0.000000000000000000e+00,-0.000000000000000000e+00,-0.000000000000000000e+00,-0.000000000000000000e+00,0.000000000000000000e+00,-0.000000000000000000e+00,-0.000000000000000000e+00,-0.000000000000000000e+00
-0.000000000000000000e+00,-0.000000000000000000e+00,-0.000000000000000000e+00,-0.000000000000000000e+00,-0.000000000000000000e+00,-0.000000000000000000e+00,0.000000000000000000e+00,-0.000000000000000000e+00,-0.000000000000000000e+00,-0.000000000000000000e+00
-0.000000000000000000e+00,-0.000000000000000000e+00,0.000000000000000000e+00,-0.000000000000000000e+00,-0.000000000000000000e+00,-0.000000000000000000e+00,1.040767315195218401e-03,-0.000000000000000000e+00,-0.000000000000000000e+00,-0.000000000000000000e+00
-6.493760633108106202e-03,-0.000000000000000000e+00,-0.000000000000000000e+00,-0.000000000000000000e+00,-4.954292665370492454e-02,-0.000000000000000000e+00,6.271828615326340006e-02,-0.000000000000000000e+00,-0.000000000000000000e+00,-0.000000000000000000e+00
-1.097603515502689614e-02,-0.000000000000000000e+00,-2.808332594666585694e-03,-1.133388293134249660e-03,-1.253224137982094921e-01,-0.000000000000000000e+00,1.537376340524504725e-01,-0.000000000000000000e+00,-0.000000000000000000e+00,-0.000000000000000000e+00
-1.973813030505424879e-02,-3.621521845229221104e-02,2.265818187204819700e-02,-1.484991693513390554e-02,-1.275835997638749275e-01,-0.000000000000000000e+00,1.899432326095428225e-01,-0.000000000000000000e+00,-5.924811796362749929e-04,-0.000000000000000000e+00
-2.976118170417187472e-02,-7.170523112370731644e-02,1.288139455630396002e-01,-2.652652456466167083e-02,-1.165954866200589884e-01,-1.186692696760938484e-02,1.598852498336074124e-01,-2.267025686728313307e-03,-1.333894738616369681e-02,-3.031236844108466046e-04
-2.108180574614282321e-02,-3.024513297645094884e-02,2.134621624800592601e-02,7.647582821960286284e-03,-2.457389586610855825e-01,-6.557397675345914834e-02,3.928486277905875457e-01,-9.807987614793676687e-03,-2.761758519632867559e-02,-1.070712280099580041e-02
-3.525364993550113291e-02,-1.372538346814466612e-02,5.587015215719148831e-02,8.168156912662821734e-02,-2.425813943700497188e-01,-1.131360724186499800e-01,3.600793779362651548e-01,-3.013971115445296736e-02,-3.238012828420499395e-02,-1.950277434118653438e-02
-2.946674359597494311e-02,8.636310090610455461e-04,1.070361825134150541e-01,6.256157205576047542e-02,-3.626001343796821375e-01,-8.295310415178744345e-02,4.286954204152599868e-01,-3.757510288413017790e-02,-4.159879822170127472e-02,-3.647696772317156333e-02
-3.563528204706857549e-02,1.096095960357070520e-01,6.496645632728872966e-02,-2.134816705091138744e-02,-2.518878343098892025e-01,-7.509510891620668760e-02,3.372403652920477612e-01,-1.820324051684631475e-02,-6.206696306460113277e-02,-3.665422685824692300e-02
-1.013997333169056186e-01,1.739302199453919839e-01,-8.397133292976055943e-03,-2.511422219779643056e-02,-7.711712040627979881e-02,-1.106633800916517335e-01,2.687590237695303697e-01,-1.106050474535887930e-02,-6.047734534786401717e-02,-3.259867224711456707e-02
-1.468270946251898634e-01,2.382719897705881107e-01,4.485400311556636543e-02,-4.890790165790756538e-02,-1.582326877651568930e-01,-4.959849516575512429e-02,2.341195210325043019e-01,-1.065513171725385871e-02,-6.547602220773797443e-02,-2.663959794262261635e-02
-1.417971562078283176e-01,1.204952795265187004e-01,1.334965807628830381e-01,-2.715134268885565499e-02,-1.759891822248930426e-01,3.029613155208763647e-02,1.686078622730735332e-01,-5.169049643262141683e-03,-6.756588744130356816e-02,-2.975636859945982732e-02
-1.181468499386466448e-01,-3.177598219039357626e-03,5.417411298775324374e-02,-3.461542332762430896e-02,-1.111982771642777146e-01,5.403206517523177765e-02,2.272795497813441812e-01,-2.499804890253943482e-03,-3.687317341522569625e-02,-1.786436860258195508e-02
-6.638522386449313695e-02,-1.214380754226997497e-02,4.833352413059372604e-02,-6.918523460239023315e-02,-1.396193665728608924e-01,3.092637102199614560e-02,2.138889254258705408e-01,-5.054742045641398438e-05,1.387537069347958771e-02,-1.310851657612878245e-02
-4.062656115622501063e-02,4.788340191158643039e-02,-6.995942745530042695e-02,-2.730198351953024710e-02,-1.007383037287945121e-01,-1.171871940688701610e-02,2.516348331347744716e-01,-0.000000000000000000e+00,-2.421295043335892905e-02,-9.068991640501690085e-03
-3.352899618293454093e-02,3.932562245771049902e-03,-3.074301712799440076e-02,-5.280877341102874906e-03,-7.227182901099962753e-02,-1.041644223200724750e-01,2.751044206668904479e-01,-0.000000000000000000e+00,-1.217274730419679561e-02,-5.209004459723816892e-03
-1.376818140253167379e-02,-1.752410201232353732e-03,-2.346909078093434645e-02,-7.258601023270932866e-03,-6.997695807396911438e-02,-1.034656478961617221e-01,2.616266554604032013e-01,-0.000000000000000000e+00,-1.208976507680439329e-02,-9.811600904201181125e-03
-2.468545733132538559e-03,-0.000000000000000000e+00,-2.162146669949303879e-02,-3.766300046343903311e-03,-8.032447894451689996e-02,-5.956793424169964241e-02,1.964028127816528080e-01,-0.000000000000000000e+00,-6.323591806891146715e-03,-2.784918078909692091e-03
-0.000000000000000000e+00,-0.000000000000000000e+00,0.000000000000000000e+00,-0.000000000000000000e+00,-3.756243723306523785e-02,-5.996801447979496769e-02,1.105781500634706177e-01,-0.000000000000000000e+00,-1.356576945390840878e-03,-0.000000000000000000e+00
-0.000000000000000000e+00,-0.000000000000000000e+00,4.704111507099511397e-02,-0.000000000000000000e+00,-1.474757909312865824e-03,-2.365576037995109626e-02,-1.284077438404485766e-02,-0.000000000000000000e+00,-4.573780961196829297e-05,-0.000000000000000000e+00
-0.000000000000000000e+00,-0.000000000000000000e+00,3.083199624327138955e-02,-0.000000000000000000e+00,-0.000000000000000000e+00,-0.000000000000000000e+00,-2.656629355202403536e-02,-0.000000000000000000e+00,-0.000000000000000000e+00,-0.000000000000000000e+00
0.000000000000000000e+00,0.000000000000000000e+00,0.000000000000000000e+00,0.000000000000000000e+00,0.000000000000000000e+00,0.000000000000000000e+00,0.000000000000000000e+00,0.000000000000000000e+00,0.000000000000000000e+00,0.000000000000000000e+00
0.000000000000000000e+00,0.000000000000000000e+00,0.000000000000000000e+00,0.000000000000000000e+00,0.000000000000000000e+00,0.000000000000000000e+00,0.000000000000000000e+00,0.000000000000000000e+00,0.000000000000000000e+00,0.000000000000000000e+00
0.000000000000000000e+00,0.000000000000000000e+00,0.000000000000000000e+00,0.000000000000000000e+00,0.000000000000000000e+00,0.000000000000000000e+00,0.000000000000000000e+00,0.000000000000000000e+00,0.000000000000000000e+00,0.000000000000000000e+00
0.000000000000000000e+00,0.000000000000000000e+00,0.000000000000000000e+00,0.000000000000000000e+00,0.000000000000000000e+00,0.000000000000000000e+00,0.000000000000000000e+00,0.000000000000000000e+00,0.000000000000000000e+00,0.000000000000000000e+00
-0.000000000000000000e+00,0.000000000000000000e+00,-0.000000000000000000e+00,-0.000000000000000000e+00,-0.000000000000000000e+00,-0.000000000000000000e+00,-0.000000000000000000e+00,-0.000000000000000000e+00,-0.000000000000000000e+00,-0.000000000000000000e+00
-0.000000000000000000e+00,0.000000000000000000e+00,-0.000000000000000000e+00,-0.000000000000000000e+00,-0.000000000000000000e+00,0.000000000000000000e+00,0.000000000000000000e+00,-0.000000000000000000e+00,-0.000000000000000000e+00,-0.000000000000000000e+00
-8.402781041390703157e-03,-0.000000000000000000e+00,-8.659224199957661627e-03,-6.224949935187739335e-03,-0.000000000000000000e+00,1.894228571871325179e-02,1.004168317717317460e-02,-0.000000000000000000e+00,-0.000000000000000000e+00,-0.000000000000000000e+00
-4.854479388991176508e-02,-2.439779738401676602e-03,-1.866095880969695711e-02,1.037340612703406273e-01,-5.447792820848851476e-03,-5.653309323889055271e-02,4.332191017356272489e-02,-0.000000000000000000e+00,-2.310453681073187503e-03,-0.000000000000000000e+00
-6.825737508095276740e-02,-8.431787505480197679e-04,-1.680733491109282982e-02,6.854336563047305764e-02,-9.377463406755670583e-02,-3.075771408311393090e-02,1.636534321629604383e-01,-0.000000000000000000e+00,-6.991354701426349266e-03,-0.000000000000000000e+00
-1.076003326047548225e-01,-1.151105155652504958e-02,7.484286271483159454e-03,1.300998079934828355e-01,-9.870314353560057097e-02,-3.490277342451843928e-02,1.619501430964517263e-01,-2.107939034926973806e-02,-1.438133121836863981e-02,-4.657780266010564524e-04
-6.343192548614108583e-02,-6.092485077937136867e-02,1.100856572231813379e-01,1.934527781548746883e-01,-2.108821959332530804e-01,-5.212860257886411247e-02,1.653618793620005578e-01,-5.883270403390192943e-02,-7.228312347756286199e-03,-4.581060107620050538e-03
-7.262395044402458755e-02,-1.072762149380634411e-01,3.486853330825530062e-01,8.364637183271994569e-02,-2.979412527354396989e-01,-7.729777156590288134e-02,2.340527480037563057e-01,-4.218513721060491301e-02,-3.672621831625415278e-02,-2.144256375336327583e-02
-2.636212263519855173e-02,-2.079665201265430696e-01,2.492499702929581451e-01,1.798829168406050061e-01,-3.077033917448750433e-01,-3.487898470627644881e-02,3.224578813218937912e-01,-8.769231856276518688e-02,-3.531881061480515727e-02,-4.077795659179822563e-02
1.201293887018418244e-02,-2.142180935035966627e-01,3.020855189002167318e-01,3.544619904080756334e-01,-3.753348584548547029e-01,-1.636542335319932928e-01,3.135721095089651911e-01,-1.250507833678913272e-01,-3.751829201452619444e-02,-5.927451887310668938e-02
-2.314318074636881675e-02,-5.809612462859343324e-02,2.974600476405290794e-01,3.856076706020843958e-01,-5.767258115124043183e-01,-2.703517807914940924e-02,2.203566114934987774e-01,-6.898340164748628656e-02,-4.045043741021280698e-02,-9.810089320298616411e-02
1.189195252466495184e-01,5.472946317379721697e-03,3.014223891283256962e-01,1.020475559296199347e-01,-5.768664778695002937e-01,-9.334584450492688923e-02,3.101122471194051045e-01,-8.237070440839930341e-02,5.098758469168456625e-02,-1.364486308314429575e-01
1.422015186017184796e-01,-1.542433980856412236e-02,2.279323510713567313e-01,2.687558691231203278e-01,-3.318431470384619053e-01,-1.142226735962231510e-01,1.488937928533470012e-01,-9.761808257472151529e-02,-3.873063008091687243e-02,-1.848970686422464482e-01
5.501930601193801007e-02,1.227622413694046261e-01,1.138786950089297756e-01,2.635448298776429943e-01,-3.795470838877233466e-01,7.276367165230394896e-02,2.407083469966558309e-01,-9.160560970032630146e-02,-1.968262282623373383e-01,-2.047021261536136616e-01
7.233238801000418938e-02,1.165163288134727360e-01,1.292333906694547452e-01,1.663549173617486221e-01,-2.780092183049165944e-01,6.357262580838024535e-02,8.409913284196643413e-02,-6.353514765350237736e-02,-1.459947012161266766e-01,-1.490001089108194954e-01
6.925766891004742076e-02,-1.562381443255832503e-01,1.039057851035995461e-01,1.516840302755088077e-01,-2.004223170614055916e-01,7.811842716646488771e-02,7.687720215706018989e-02,-3.535669406943285631e-02,-1.836451078776386251e-03,-8.549366240309123899e-02
-8.805543638034911413e-02,-2.011010334998903637e-01,-8.743731382286747122e-02,2.008163316261455944e-01,-2.224481062707681922e-01,1.060329818539681862e-01,2.369185157197567226e-01,-3.127148343909439548e-02,1.171973847921155276e-01,-2.489073910906956788e-02
-1.166683842734560633e-01,-5.152186763085483262e-02,-4.466056159687343402e-02,1.515381973458443665e-01,-3.764433729477693197e-02,6.706464376806846317e-02,2.675034003063059829e-01,-1.030180231187601339e-02,-1.443910216637648014e-01,-7.000151802549979541e-02
-7.279874834739456790e-02,-1.226820460891366732e-01,-8.664318424461879553e-02,2.790911045788294076e-01,-3.798630762003910727e-02,2.050167272547578079e-01,1.527914572935866119e-02,-1.298114045651942855e-02,-7.560822277686830850e-02,-7.976967209572674578e-02
-1.603268102017427477e-01,-1.671070891375320555e-01,-2.583835201786757740e-02,-1.775280798666211898e-02,-1.630072330027504748e-02,2.044733925592447932e-01,1.916014435967390572e-01,-1.124484756294623182e-02,4.887333465085701156e-02,-3.568580474751926329e-02
-7.188441101929131383e-02,-1.202751389051857772e-01,-7.653890807249921768e-02,-1.336857842131614627e-01,9.510400192592352239e-03,9.175610208215544128e-02,2.141875315024137083e-01,-2.586251634163366266e-03,9.905657810841497768e-02,-3.513278775615701760e-03
-1.482980240025023790e-03,-6.498556826791061780e-02,-1.028122928271629904e-01,-8.262244660217563097e-02,7.287901103758967838e-04,-1.648883284821013595e-02,1.759153544031525351e-01,-0.000000000000000000e+00,9.914278525759642746e-02,-0.000000000000000000e+00
8.159757698791778036e-03,-5.811613091643343804e-02,-2.640695283859832536e-03,-2.469246044809067162e-02,-1.938461194942080190e-02,6.417632316382354540e-02,1.435036722975371361e-02,-0.000000000000000000e+00,2.009066798238718851e-02,-0.000000000000000000e+00
-8.245482345891104112e-03,-2.001291125820113190e-02,2.324649205546182665e-02,-0.000000000000000000e+00,-0.000000000000000000e+00,9.517147144217630306e-02,-9.006118400992582651e-02,-0.000000000000000000e+00,1.035696883799861866e-03,-0.000000000000000000e+00
-1.448392470676686163e-03,-3.092061833588539282e-02,-0.000000000000000000e+00,-0.000000000000000000e+00,-0.000000000000000000e+00,9.728807836124710173e-03,2.903996807218088214e-02,-0.000000000000000000e+00,-2.685527608004347009e-03,-0.000000000000000000e+00
0.000000000000000000e+00,0.000000000000000000e+00,0.000000000000000000e+00,0.000000000000000000e+00,0.000000000000000000e+00,0.000000000000000000e+00,0.000000000000000000e+00,0.000000000000000000e+00,0.000000000000000000e+00,0.000000000000000000e+00
0.000000000000000000e+00,0.000000000000000000e+00,0.000000000000000000e+00,0.000000000000000000e+00,0.000000000000000000e+00,0.000000000000000000e+00,0.000000000000000000e+00,0.000000000000000000e+00,0.000000000000000000e+00,0.000000000000000000e+00
0.000000000000000000e+00,0.000000000000000000e+00,0.000000000000000000e+00,0.000000000000000000e+00,0.000000000000000000e+00,0.000000000000000000e+00,0.000000000000000000e+00,0.000000000000000000e+00,0.000000000000000000e+00,0.000000000000000000e+00
-0.000000000000000000e+00,1.019534615820089259e-03,-0.000000000000000000e+00,0.000000000000000000e+00,-0.000000000000000000e+00,-0.000000000000000000e+00,-0.000000000000000000e+00,-0.000000000000000000e+00,-0.000000000000000000e+00,-0.000000000000000000e+00
-0.000000000000000000e+00,-0.000000000000000000e+00,-4.035439459203502520e-03,2.144216234710625071e-02,-0.000000000000000000e+00,-3.837983096153987656e-03,-4.936672833105480024e-03,-0.000000000000000000e+00,-0.000000000000000000e+00,-0.000000000000000000e+00
-5.393427394581213306e-03,4.988916216248421437e-03,-5.292438992032910683e-02,4.904458580065743090e-02,1.564046636196469303e-02,-4.472989036476356789e-02,4.197401289808774805e-02,-1.406683328386490678e-03,-3.637070769416621621e-03,-0.000000000000000000e+00
-9.293017856952581757e-02,5.371385704363987323e-02,-7.951377472817205668e-04,1.803042793476809236e-01,1.480613271397837258e-02,-1.735025926275888808e-01,8.580739813211966938e-02,-2.462639534429705152e-02,-3.765698208267492797e-02,-1.709474052099267064e-03
-8.502009353719727769e-02,5.158674503357466024e-02,2.005483644633661855e-01,1.851275403039073508e-01,-1.173731793025925840e-01,-1.477208909978304507e-01,5.886512857445652669e-02,-3.585415129313970772e-02,-9.866749039236165364e-02,-5.695852557061887450e-03
-4.705231953516680887e-02,2.620144243080497343e-02,6.463807881689508095e-02,2.129334436731025737e-01,-3.817534462045644832e-03,-4.958903971397703170e-02,1.865123271572208252e-02,-1.083989941084791686e-01,-8.538606440292073607e-02,-2.244916776788706894e-02
-6.476687789941021345e-02,-2.473999405278383412e-02,1.796873435080106607e-01,2.503942042593629291e-01,-1.070847063651645531e-01,-2.531804066585729429e-01,1.065178341763796249e-01,-1.286428804613792554e-01,1.044141053274729308e-01,-5.665120766973719829e-02
4.943666989832937175e-02,-1.374667493396385942e-01,4.541112909597953551e-01,1.391314243697262532e-01,-1.963713966824172097e-01,-1.088097640848268988e-01,-2.905323486433017063e-02,-2.038572964558933165e-01,1.671818370756869843e-01,-1.291299822487671223e-01
1.360614422810523319e-02,-6.157679386668559601e-02,1.724970954997627204e-01,2.551998888496472273e-01,-2.334867135416203721e-01,9.434096583304228678e-02,9.990072663754509530e-02,-2.853423971767484746e-01,1.246021910288678120e-01,-1.841658293874703090e-01
1.643974868007464230e-01,-8.837160537275447203e-02,1.752262417605984501e-01,2.401853697346595373e-01,-1.909534735436486663e-01,1.757655001524124905e-01,-7.399786000360970839e-02,-3.358489143115641062e-01,1.265174609848545573e-01,-1.926607156676869159e-01
-1.792458043390086908e-02,-1.410664811814562811e-02,2.752558723564089149e-01,2.344702160748843300e-01,-1.448986676391271211e-01,2.107727243633917766e-02,-1.429466047535939699e-01,-2.567656574345155707e-01,2.469373780316493350e-01,-1.954258543248922619e-01
1.153736862829879140e-01,1.267637816205173240e-01,2.107390914006577742e-01,3.461731939292641558e-01,-9.626373303872191867e-02,-2.212159917112080099e-01,-9.118585944886102579e-02,-2.278825926547070890e-01,1.081335849398291221e-01,-2.706027250030491604e-01
4.920629000393058998e-03,-1.467950478728548280e-02,2.758888558016566184e-01,2.000066655804469129e-01,-2.602086258038779909e-01,-1.983255448901217674e-02,-1.060024693639592119e-01,-2.249422775518570838e-01,3.526988196191853109e-01,-2.057683967029498018e-01
1.200735653869470926e-01,-6.482850535563860692e-03,3.468234832383361443e-02,1.828729502756353820e-01,-1.710346071634951948e-01,2.312196843082341136e-01,-1.060305012062430913e-01,-2.885015431927320795e-01,2.408344871472965776e-01,-2.419482439554492548e-01
6.775406565072847331e-02,1.496653680350240601e-02,-7.284896604591721558e-02,2.212021572862342134e-01,-1.719676919782601662e-02,8.670779296504055322e-02,2.309655827867373654e-02,-2.870174823160577260e-01,2.753147454474815237e-01,-3.175810485760126589e-01
6.106218958689084431e-02,1.944829300752164494e-02,-4.336599673607677979e-02,-3.930082525916613057e-02,-9.822817273942298366e-02,2.292137458295494257e-01,1.627331703142182728e-01,-2.652609726793340728e-01,2.123109093980431739e-01,-2.375414986157237673e-01
2.366909271343748192e-02,-1.890961585959233205e-03,-4.800169820583033431e-02,1.623795594551979693e-01,-1.149060028477552481e-01,3.256908648377129234e-01,-4.413122039226147209e-02,-2.209423556570198899e-01,1.689281704360160175e-01,-2.454289395349072977e-01
-6.079236031874428459e-03,1.484664213454341963e-01,-1.910113779556942559e-01,2.670941873091721777e-02,2.404820899608267060e-01,1.057641205587126348e-01,5.269379513811200955e-02,-1.266527841155679068e-01,4.435003584888681794e-02,-2.998873431488094932e-01
-7.127292685689401441e-02,-1.731874766091021089e-02,-1.030835365247727287e-01,-4.312475672855724251e-02,3.484003578209660112e-01,-1.255665453093601502e-01,1.138883080376755230e-01,-7.826181786295043075e-02,2.088466678609973426e-01,-2.248511247108961053e-01
-1.217955840970487147e-01,3.578738137865049816e-03,-2.835169828011862569e-01,-1.197024378882061008e-01,3.234587702187741720e-01,2.342001837246000806e-01,6.073528727718225523e-02,-1.966986026899582643e-02,1.210771814238555538e-01,-1.979420358171928851e-01
-1.854334528600856680e-02,-8.711771638246625094e-02,-3.079597411440204158e-01,-9.108077726287229503e-02,2.797974222754127105e-01,1.107288816719757540e-01,1.735413926582302924e-01,-4.288510157002062978e-02,9.276912708911183580e-02,-1.039299056183023290e-01
-4.185805671384538323e-02,-8.653521405762230889e-02,-1.781613948489873256e-01,-2.525761650062409713e-01,2.079017506168028828e-01,2.623634428523636264e-01,1.413766557570502735e-01,-1.596919224084477479e-02,2.226850838691498032e-03,-2.899763372093454999e-02
-9.773374837125685388e-02,-1.484990216432241772e-01,-1.012900883939148594e-01,-3.356210500146953463e-02,2.166849424064529739e-01,3.840260087775132503e-01,-2.484583380121932472e-01,-2.928511467169876530e-03,5.168812654569609338e-02,-8.460686624121029412e-03
-4.713065895018004464e-02,-1.095732979779305144e-01,0.000000000000000000e+00,-1.970199825364786288e-04,6.612255232730747390e-02,1.870590487952287495e-01,-7.749169866867734735e-02,-0.000000000000000000e+00,-5.648931337618501129e-03,-0.000000000000000000e+00
-0.000000000000000000e+00,-1.018924703589317408e-02,-8.720888937185535331e-03,-0.000000000000000000e+00,-1.272025792614897913e-02,3.298512078495774956e-03,7.585520006109721346e-03,-0.000000000000000000e+00,2.476383298624067197e-02,-0.000000000000000000e+00
-0.000000000000000000e+00,-3.075022057446384193e-03,-8.405986638931698188e-03,-0.000000000000000000e+00,-1.980280563099668083e-03,-4.034360382947289186e-03,2.049979797587949890e-02,-0.000000000000000000e+00,3.139205002007297487e-03,-0.000000000000000000e+00
0.000000000000000000e+00,0.000000000000000000e+00,0.000000000000000000e+00,0.000000000000000000e+00,0.000000000000000000e+00,0.000000000000000000e+00,0.000000000000000000e+00,0.000000000000000000e+00,0.000000000000000000e+00,0.000000000000000000e+00
0.000000000000000000e+00,0.000000000000000000e+00,0.000000000000000000e+00,0.000000000000000000e+00,0.000000000000000000e+00,0.000000000000000000e+00,0.000000000000000000e+00,0.000000000000000000e+00,0.000000000000000000e+00,0.000000000000000000e+00
-0.000000000000000000e+00,0.000000000000000000e+00,0.000000000000000000e+00,1.872043076518618582e-03,-0.000000000000000000e+00,-2.075664333136299864e-03,0.000000000000000000e+00,-0.000000000000000000e+00,-0.000000000000000000e+00,-0.000000000000000000e+00
-3.801098768915502600e-03,1.087785784765942128e-02,5.933884423546894119e-03,1.001130702013987711e-01,-0.000000000000000000e+00,-4.395518235823412528e-02,-4.749654458782874566e-02,-4.305307079967225954e-04,-1.121318780686513319e-02,-0.000000000000000000e+00
-2.784652493992990918e-02,2.638578933914541985e-02,4.278507885827068785e-02,2.020464811327799814e-01,3.856535044394191793e-03,-2.182296439987848058e-01,3.448424135867168838e-02,-1.467701412636161426e-02,-3.871488893048821711e-02,-1.005126625401759483e-02
-1.196333853947011278e-01,1.750119739395221419e-01,2.006078908059059918e-02,2.583973859598311940e-01,2.028419281746086933e-02,-2.024530874379245338e-01,-1.408958849815901138e-01,1.488489596833287854e-01,-1.284692875731252015e-01,-3.111695150270216842e-02
-2.273393274817976997e-02,1.378718522258107482e-01,-2.707516937009745578e-02,3.262519235254225936e-01,-7.908324842220117168e-02,-2.144128600660249739e-01,-8.405480984805775713e-02,1.841113448931809837e-01,-1.410824164545722847e-01,-7.021353623066670102e-02
-5.464558379161582602e-02,1.438898410138633559e-02,1.214763914455389143e-01,2.530084816978079298e-01,-1.541373345308406180e-03,-1.349663040904835742e-01,-1.232795201134925522e-01,5.530539754031459782e-03,3.020855380918542610e-02,-1.108264007009749641e-01
3.606712791344918179e-02,-1.402431487776357732e-01,1.766852116654433480e-01,8.381040239478151910e-02,-3.014893278285050993e-02,-9.374988943248167839e-02,4.011956292014141716e-03,1.329945501262118912e-01,-1.382700074276585304e-02,-1.558091846822718396e-01
2.518769591184612591e-02,-8.722237907489735487e-02,5.426073592458646039e-02,5.986324962836635927e-02,2.406211151684091182e-03,-8.651773241067789444e-02,1.695332401987549240e-02,1.610374435677612848e-01,1.031491435344987356e-01,-2.563988514702007504e-01
1.747197194160626799e-01,-2.103829437550681081e-01,1.372214893113129219e-01,9.891487686976956073e-02,4.605779301632570107e-04,-3.906287182054885704e-02,1.990715046830163482e-01,-6.063578622166661963e-02,-1.252373131275993368e-01,-1.699413664810938696e-01
7.858953237916059542e-02,-3.250137024109364114e-01,3.028231823884836582e-01,9.595937690594968927e-02,-4.638869357513272090e-02,-1.212342977303939029e-01,-2.412874258709762354e-01,-1.637330952438059428e-01,1.557640291703598634e-01,2.648334353032861799e-01
-6.438351581809997892e-02,-2.699928883575158367e-01,1.797256168686895694e-01,1.099749296630858214e-01,6.691900828197264173e-02,-2.276019587468317562e-01,-1.556201175472533282e-01,-3.109131175193393520e-02,2.902119470465566731e-01,1.026428863032413513e-01
2.239952653459900411e-01,1.776522335765330293e-02,2.308783554669328331e-01,1.478335455965721357e-01,-1.805814732231280639e-01,-2.215976216611542371e-01,-2.771829170274159870e-01,-2.307989517006930891e-02,6.796474488499777700e-02,8.702455362314249349e-03
2.600839148238446308e-01,-1.216189913146150658e-01,4.212874311274734246e-02,1.074530396592950493e-01,1.535513691279906112e-01,-2.237471168961655543e-01,-4.583858844571649105e-02,-1.593823968253709200e-01,3.645350637239000435e-01,-3.772872969290739231e-01
1.035394982537435060e-01,6.713080381891758930e-02,5.832790222185017109e-02,6.459427311428381224e-02,1.604553924737582016e-01,-3.886378237454231610e-01,-1.163732781369493374e-01,-2.032897152561044807e-01,4.054800484600359911e-01,-1.565609472786596568e-01
4.621333741632955433e-02,2.228457699852567919e-02,2.736702386643937168e-01,6.430869799588330438e-02,1.719542914249428400e-01,-1.696733903488148176e-01,-1.745711156187077229e-01,-2.451866266984181197e-01,4.235394791268662917e-01,-4.180464043338971147e-01
1.950514557004553728e-01,-1.791837135276478088e-01,6.555656468863517439e-02,-1.725610000825429369e-01,-9.035352522106876796e-03,5.345489456067499534e-02,-5.790111878687941548e-03,-2.545228177095052446e-01,5.758298814194005022e-01,-2.655418788469695035e-01
2.058355551450188059e-01,-8.861830709900214709e-02,9.927039907723042567e-02,-6.528912961637475809e-02,1.739106928555542719e-01,5.599594576080393904e-02,-2.209952592512482578e-02,-2.553061980399649045e-01,1.973990239714970563e-01,-3.028087346499221955e-01
8.653863514397740209e-02,-8.661352975571403809e-03,-1.065493067262337917e-01,1.481614135100463026e-01,1.589360168047728450e-01,6.755566263633513979e-02,1.399556589912772930e-01,-4.129041893035963473e-01,7.853229204964026766e-02,-1.605149852830225210e-01
-6.025981398836683517e-02,7.548077537265354686e-02,-6.132287202098450976e-03,-2.093854986780311137e-02,3.729449518695526072e-02,4.166712177298539377e-01,-2.705689780957409515e-02,-3.918123202641664582e-01,1.369312246781925479e-01,-1.570063492380945891e-01
2.919150413481836574e-03,1.549347856534611934e-01,1.359840436470956607e-02,-1.716004127226496423e-01,5.939466056919641412e-02,1.860865662259663933e-01,2.112118474212578909e-02,-2.550237314781176323e-01,1.916443251305100792e-01,-2.132767215887605983e-01
6.988574229484863405e-03,1.198023725910537657e-01,-7.483887620360055171e-02,-2.490906227335040746e-02,1.940253696636057290e-01,2.932296160375974514e-01,-5.726447348992983605e-02,-1.335495709955482058e-01,-1.076230020490379080e-02,-3.072963918417945806e-01
-1.185098481755291894e-01,1.065813006550936914e-01,-1.262476939147777755e-01,-1.651914340405102044e-01,3.354792055852994226e-01,2.192325927781452743e-01,1.516901805811595727e-01,-8.193585789655125073e-02,-1.196804441123840018e-01,-1.959623490770429077e-01
-1.264340836647429023e-01,-1.030197283678221378e-03,-1.616981040130269220e-01,-9.937405541138809306e-02,1.445560455379047982e-01,3.672794515948448746e-01,-2.295539796483276121e-02,-1.967595939775723668e-02,1.035858818827931072e-02,-7.791177513890079620e-02
-1.099853502680357420e-01,-1.242204062899657097e-01,-4.629599220671784532e-02,-1.705402732062910251e-02,2.482732267245745661e-05,2.573512008816360441e-01,-4.875285525049886937e-02,-3.104043983828945301e-03,1.239599546002227853e-01,-1.943667359771734590e-02
-3.155793456204358111e-02,-2.228926036077531758e-02,-3.837771439172574933e-02,-0.000000000000000000e+00,-3.582114829025567077e-02,4.220622562738617078e-02,5.945117698197463496e-02,-0.000000000000000000e+00,3.730845987801602315e-02,-3.697791024431674859e-04
-9.857369536099244364e-03,-4.607615036132348650e-03,-1.368260626870578846e-02,-0.000000000000000000e+00,-0.000000000000000000e+00,3.101555786027050069e-03,3.183411467533744238e-02,-0.000000000000000000e+00,-2.832654867951326792e-04,-0.000000000000000000e+00
0.000000000000000000e+00,0.000000000000000000e+00,0.000000000000000000e+00,0.000000000000000000e+00,0.000000000000000000e+00,0.000000000000000000e+00,0.000000000000000000e+00,0.000000000000000000e+00,0.000000000000000000e+00,0.000000000000000000e+00
0.000000000000000000e+00,0.000000000000000000e+00,0.000000000000000000e+00,0.000000000000000000e+00,0.000000000000000000e+00,0.000000000000000000e+00,0.000000000000000000e+00,0.000000000000000000e+00,0.000000000000000000e+00,0.000000000000000000e+00
-0.000000000000000000e+00,-2.621820314943138636e-02,-8.491222342763936684e-03,2.126794811138526045e-02,-0.000000000000000000e+00,-3.187308274459826202e-03,-0.000000000000000000e+00,2.759830884090229766e-02,-0.000000000000000000e+00,-0.000000000000000000e+00
-1.921046350689714936e-03,8.041252270162503948e-03,-1.980196926098366089e-02,1.776179116394825674e-01,-5.141872480204918300e-02,-1.343313980304944033e-01,-3.498176957100863904e-02,1.295310535135610064e-01,-3.688138177782311622e-02,-2.558078378982448636e-02
-3.815567528944382308e-02,3.227958855795661636e-02,1.481972457510221386e-01,1.535200422688322575e-01,-1.583429254052813595e-02,-2.721660079528515075e-01,2.568495193826153891e-02,8.307956495282112219e-02,-5.641441916014700020e-02,-6.034501432378208685e-02
-3.150191376053100220e-03,8.057437942564849498e-04,5.404552372790247944e-02,1.205506772987915004e-01,7.572168215950833559e-02,-3.278292440605511116e-02,-1.940648759452526240e-01,2.631065734732003225e-01,-9.290621271060375830e-02,-1.876689472457969132e-01
4.684429220233542884e-02,-4.648993972971632305e-02,7.096184179864840902e-02,2.817089847403830838e-01,-2.520323545443974370e-02,-1.262940685022229392e-01,-2.966212322731698880e-01,4.004824490850657503e-01,-1.186852499708431624e-01,-1.819357033320219419e-01
2.395424868313229122e-02,-1.011351188010670837e-01,2.316366052854096913e-01,9.442517549921773667e-02,-2.620828467729928966e-03,-1.579833588282723578e-01,-6.473731197373046309e-02,2.279223226430924232e-01,-1.020912918029657779e-01,-1.448416687763884603e-01
-5.612226534813680862e-02,-8.555631531141211221e-02,3.104993746815122233e-02,1.987649386328008416e-01,-7.662478909568701257e-02,-2.409816475232900990e-02,-2.919119709034097288e-02,2.313669341229906418e-01,-4.571776949008488078e-02,-1.362886963176434818e-01
-2.426323691121451964e-01,-1.651075494887490613e-01,2.403431428630370958e-01,3.691371397617925765e-01,1.489182000658830773e-01,-2.070643709459513149e-01,-1.485132964135593148e-01,1.557054488928750202e-01,-4.134451016980589255e-02,-1.041631084346449354e-01
-8.327639285096102850e-02,-2.962604629813994084e-01,2.326166808940016706e-01,5.526274309841724408e-01,1.324686233946138986e-03,-1.656659818408703078e-01,-2.465878341922500550e-01,2.070261362402080474e-01,5.481106404979835950e-02,-2.512218248586625124e-01
4.586643521522062138e-03,-1.561712002615198713e-01,-9.818406073297433756e-02,2.146622387716115021e-01,-6.181623555363285893e-02,-1.470235447274742813e-01,-1.525256283722001838e-01,3.805597621688394105e-01,7.312469212431615961e-02,-5.123626111784024273e-02
-1.946907711546579656e-01,-1.945646239536097388e-01,-1.689424537545677341e-01,2.163876505630417113e-01,-1.188606766610460636e-01,-1.473717957703822856e-01,-1.485533195719136723e-01,3.335468360357061735e-01,4.773014197135956316e-01,-4.430157467673093152e-02
2.316365038956512690e-01,-3.605107684792062117e-01,-1.350474950744417202e-01,3.529637824742082874e-01,-1.343469670544817085e-01,-3.987739256653881070e-01,-1.693092535217762540e-01,4.400766884298075443e-02,3.112965543382273381e-01,2.578371120439416631e-01
6.361585193116824077e-02,-3.502929775568851545e-01,-2.527615880402168599e-02,-6.010174279112134865e-02,-2.508587728629471658e-01,-1.675196805830319879e-01,-1.193774925292864220e-01,6.830889256100715345e-02,5.095774839901574538e-01,3.362118611422867387e-01
2.856932541346011989e-02,-2.975959773431468558e-01,-6.380157091093008326e-02,5.323667712035878158e-02,-3.023107285476021588e-01,-4.495113647937248325e-01,-4.649468263078634922e-02,1.626074360503082239e-01,5.828323111648141541e-01,3.322122595265009082e-01
1.941928437331262580e-01,-3.175560548292966634e-01,-7.228872167644136149e-02,1.151865550208168720e-01,-8.221197482495246067e-02,-4.235635502153847209e-01,-2.753262117985208479e-01,5.220305177605702451e-02,5.791630599387677103e-01,2.296284905434227419e-01
1.961777214406496342e-02,-3.631953132917757898e-01,-5.374664314699809098e-02,-8.308621835311184867e-02,-3.144611989372902289e-02,-1.149153665079744868e-01,-1.785488704960045137e-01,1.356439120849624869e-01,5.199460396028140474e-01,1.547620661939774767e-01
1.037476435196790225e-01,-9.257655957392581236e-02,-2.842769327664186885e-01,9.155050051595005345e-02,-2.508768814586855717e-02,5.170677387849381690e-02,-3.909917197701067715e-01,2.319341323893662349e-02,3.392971294240667013e-01,1.788489484080197089e-01
1.713202813111678506e-03,-1.757824094104940282e-01,-8.884287166197576968e-02,-1.980113908509145149e-01,5.406474618297633233e-02,2.613302297055095647e-01,-2.167782614830037757e-01,5.039821719834770841e-02,3.927467488723227484e-01,-7.996583322404905714e-02
6.597375569405963813e-02,2.030094607938058050e-03,-1.959823679144793995e-01,1.397242330803325633e-02,1.356622869075747861e-01,2.966115671348590888e-01,-2.528838960272804526e-01,-3.817588159555581478e-02,1.314013814494680854e-01,-1.636578607824692166e-01
2.007096130747035023e-01,-4.212044708395981489e-03,-8.390030279168790572e-02,-1.013760403775434554e-01,3.435568412407118827e-03,1.265504770079831920e-01,-8.439641324547295098e-02,4.928768563724904295e-02,6.246774133748715652e-02,-1.702743729794607974e-01
1.813312160331410627e-01,-5.874596815881374251e-02,-1.501815250356818010e-01,-1.616739507155988964e-01,2.350104998318152949e-01,2.989703846992494696e-01,-7.749731109897711745e-02,3.279625096935297884e-03,-1.882107752561460248e-02,-2.437712683073790798e-01
-5.667247068355085737e-02,4.633697421811413912e-03,-4.301353785176402211e-01,3.077460262657499834e-02,3.821297755182088696e-01,1.401074493079642047e-01,6.227142972939479076e-02,-1.761313364825285999e-01,2.416345071463688876e-01,-2.017368233629998620e-01
-2.632988795046198871e-01,-2.954795829230956114e-02,-3.237703775632380099e-01,-1.382527459688743243e-01,1.119886252028732682e-01,6.823217625274161646e-01,6.470682069494371191e-02,-6.719586701340274359e-02,1.383676500464460224e-01,-1.695503559483497735e-01
-2.838650527158467218e-01,-7.874620147304849105e-02,-3.182927835652401422e-02,-4.627582558010719799e-02,-6.861446366523171747e-02,3.535045064882034183e-01,1.115977349998444751e-02,-2.449477738749189157e-02,2.587504700905839394e-01,-7.794474001057603851e-02
-1.241691316558541786e-01,-9.120259824697411408e-03,-9.536423160737602517e-03,-2.270415126695070687e-03,-5.883555400495975307e-03,1.416876719913441052e-01,2.815298060980244224e-02,-6.841340240830794985e-03,3.017899408624707611e-02,-3.098893849464208483e-02
-2.981525675275390613e-02,-9.375908957669759755e-04,-1.227330179381291072e-03,-0.000000000000000000e+00,-0.000000000000000000e+00,2.158841337210529523e-02,4.795799277279561706e-02,-0.000000000000000000e+00,-2.945193423833000756e-02,-0.000000000000000000e+00
-0.000000000000000000e+00,-0.000000000000000000e+00,-0.000000000000000000e+00,-0.000000000000000000e+00,-0.000000000000000000e+00,-0.000000000000000000e+00,-0.000000000000000000e+00,0.000000000000000000e+00,-0.000000000000000000e+00,-0.000000000000000000e+00
-0.000000000000000000e+00,-0.000000000000000000e+00,-0.000000000000000000e+00,2.047913378885700755e-02,-0.000000000000000000e+00,-0.000000000000000000e+00,-0.000000000000000000e+00,0.000000000000000000e+00,-1.985052920606550364e-03,-8.536553254219036990e-03
-2.010502132183368800e-03,-3.980095511689581145e-02,5.540565499925965282e-02,-1.876127486138803868e-02,-0.000000000000000000e+00,-2.129059048502720056e-02,-7.214726793294901422e-03,6.235318762025355427e-02,-4.438768402556042374e-03,-8.640495049730309920e-03
-7.753843963682536394e-03,-1.987870476063268235e-02,2.996056232155759266e-02,1.078871490583263315e-01,-2.792873945881468173e-02,-1.576358091591837651e-01,-5.863392207208430185e-02,2.288069102666348553e-01,-1.885424584581204058e-02,-6.510160247949101087e-02
-4.032179834651137412e-02,4.091137897821910466e-03,2.593916296094043172e-01,2.079914121626761925e-01,6.122651649377017224e-03,-4.642045983694474409e-01,2.267249738878430315e-02,1.275134994239245090e-01,4.797659405542092220e-02,-1.798445618128326484e-01
8.949602866023208952e-03,-1.560771928051750412e-01,6.352502680934563615e-04,3.255486138551900166e-01,1.998462454370371066e-01,-2.638231131669695542e-02,-8.439216290509034268e-02,3.426780684013881750e-02,9.196628579350173832e-03,-3.132716467845090280e-01
1.066777837537050133e-01,-2.728267489678373736e-01,1.648745326817247225e-01,2.319696855096211041e-01,1.492251087721904457e-01,-1.179873657146478794e-01,-2.437973304791233586e-01,2.458986179456481291e-01,-1.082936827250965683e-01,-1.556106286817986462e-01
-9.355166079798520051e-03,-1.126843935296711063e-01,4.401895960952101339e-02,1.878134252570220486e-01,6.668689329786997577e-02,-1.692948856001582070e-01,5.246126614579587483e-02,2.517583205283044911e-01,-5.503014583556223305e-02,-2.562216189599056393e-01
-1.300224596299535129e-01,-2.914325396774858357e-01,1.533221735159720767e-01,2.219413506432391658e-01,1.740278010264291117e-02,3.933089350009444374e-02,-1.575191300825976859e-01,6.176790104169181672e-02,2.514934068052649963e-01,-1.710069045681721356e-01
-2.329072131329361622e-03,-1.901948818130092811e-01,3.091257770368263311e-02,3.700609092434825054e-01,6.303290042454047027e-04,-2.269851409228760275e-01,-6.882136941852129430e-02,2.584359453645525551e-01,2.741135848434514757e-02,-1.986805822867634963e-01
-3.556579946417335377e-03,-1.689145270516520803e-01,3.116124058709495923e-02,1.055130372113368548e-01,-5.623399146658020903e-02,-1.257084103660114360e-01,-1.292146194043405361e-01,2.218630163250591703e-01,1.930386633785469153e-01,-6.465588335685190646e-02
1.309779725680816631e-01,-2.563479668955244151e-01,1.085336834243323528e-01,5.825138861677378599e-02,7.054280227343873166e-02,-3.180001188095186726e-01,-3.658950626404472439e-02,1.551550757187046825e-01,2.546606811804375675e-02,5.235569339683313062e-02
-1.103712497943851352e-02,-3.715938605503942005e-02,-9.716862177063628758e-02,1.599134453427579483e-01,-1.930591757116812412e-01,-3.138708798210931850e-01,-1.714621783905097008e-01,6.340986083561178654e-02,5.932187098989774587e-02,5.456212912446933849e-01
1.014291256431710531e-01,-2.641037355914008233e-01,1.679956600975119063e-01,-1.034779485357135848e-01,-2.728572159993860602e-01,-5.115577570725410306e-01,-2.107022412734747829e-01,-6.980734780337960466e-02,2.992892034131868773e-01,8.684696647299813277e-01
5.379542133077504923e-02,-2.115849670663750015e-01,4.732000134406343095e-02,1.999981918471522013e-01,-3.337595477564317403e-01,-1.997148460512261914e-01,-6.742090818649716655e-02,-2.651518644143484038e-01,-8.148084041275210562e-03,7.900768898990629951e-01
-3.730210229978010716e-02,-4.467351956305262162e-01,-9.454151383564389499e-02,1.995050693564916766e-01,-3.687631903110511478e-01,-4.578769621503078757e-01,-2.030395206634705019e-01,1.742269839592472044e-02,5.169989021943873775e-01,8.788914991365439633e-01
2.754029072446821658e-02,-2.200823442344556624e-01,-4.273660194015910241e-02,-5.142368272157978037e-03,-4.091110914727163483e-01,-1.018333811070784578e-01,-3.496539689537749296e-01,-1.693998715463844104e-02,2.332007308013510638e-01,8.913909276635798573e-01
2.240462731686849174e-01,-3.291393682018257660e-01,-2.590997052509128040e-01,-4.171101302709449149e-02,-3.831762774379397080e-02,-9.662551024554606738e-02,-1.575030267709600085e-01,2.521067218133019386e-02,2.441444843812976551e-01,4.336756315275334672e-01
3.586016940106871997e-01,-2.383688384831846585e-01,-7.219885739009754277e-02,-2.404475437010746286e-01,-3.217238062673250659e-02,-1.173599167358957834e-01,-3.413052609404591542e-01,1.631737862288533125e-01,4.216532642485309457e-01,1.035124722279398141e-01
9.206706994483683515e-02,-1.188239365759989064e-01,-1.006659270534810691e-01,-6.626794641431033028e-02,1.024702487750556446e-01,2.478883645258190410e-02,-2.755242770987668122e-01,-6.761879251037596072e-02,3.603345307089202421e-01,4.892172811607495980e-02
1.790729539377730606e-02,9.269003512370817266e-03,-2.462771324896899927e-01,-1.214650031301217487e-01,1.049622571166914514e-01,1.830927106902898172e-01,-2.312531412880910464e-01,1.212168850315511054e-01,1.594976801202606653e-01,-1.978864537280030245e-03
-9.892857961042731199e-03,-1.023076314724680885e-01,-4.862226713257240818e-02,-4.343174103646949558e-01,9.159600356537002386e-02,3.290092815442621221e-01,-9.613600253025057774e-02,9.788288411124351773e-02,1.875388149635356105e-01,-1.015869421400927494e-02
-1.356084413341952233e-01,-1.186723736527520584e-01,1.190343210976604615e-01,-3.034338722243766218e-01,8.213757742449098731e-02,4.917282272807350085e-01,-1.646592441918653671e-01,1.123592819798253373e-01,7.614967808278294559e-02,-1.589496405362241516e-01
1.140478585829256680e-01,-1.171701289625890763e-01,-4.514020968063839900e-01,-2.711006569856856951e-01,2.344740503965954681e-01,4.969406404639774011e-01,-1.106406612562086805e-01,-3.642033113109722359e-02,2.686353283231371902e-01,-1.218974625271207063e-01
-1.357393206735827904e-02,-2.988053490129814471e-01,-3.500858147080493921e-01,-1.678935551174393914e-01,7.617121889516750843e-02,6.425528332288402700e-01,1.100662432857494599e-01,-5.521337855470237477e-02,1.952897439412501768e-01,-1.325712566136024451e-01
-2.392172010870437238e-01,-1.472150700559973768e-01,-3.310689337449792408e-02,-5.978058821102848197e-02,-5.201828422393940665e-02,6.497519393873180116e-01,-1.120603262913253406e-01,-2.737306359433861261e-02,1.427636384574955120e-01,-1.053499745712907082e-01
-9.692511331115045980e-02,-5.795995580823199399e-03,-1.373589226105670878e-02,-1.793076555477618982e-03,7.783891432110787156e-02,4.980312065265738580e-02,6.557058931831304983e-03,-5.373660283875066404e-03,3.846233805277989720e-02,-4.271238537012263942e-02
-3.226843272571426006e-03,-2.839122669465966951e-03,-9.487155693079997627e-04,-0.000000000000000000e+00,-0.000000000000000000e+00,6.329898674846969574e-03,2.535469122396579594e-02,-0.000000000000000000e+00,-1.446745449192898825e-02,-0.000000000000000000e+00
1.797227599004477122e-02,-0.000000000000000000e+00,-0.000000000000000000e+00,-0.000000000000000000e+00,-0.000000000000000000e+00,-0.000000000000000000e+00,-0.000000000000000000e+00,-1.265070893400207890e-02,-0.000000000000000000e+00,-9.959389138150455834e-04
-0.000000000000000000e+00,-0.000000000000000000e+00,2.603086199832846566e-04,-8.342672052493917828e-03,-4.973522432108105559e-03,-0.000000000000000000e+00,-0.000000000000000000e+00,4.467168735429334625e-02,-4.163439782231581274e-03,-1.941595493551014420e-02
0.000000000000000000e+00,-2.211592697588399964e-02,1.914469961832420894e-02,-2.981752721143112253e-02,2.241607780219790833e-02,-1.488630482568638162e-02,-5.672750741336566628e-03,8.776460962566792756e-02,-6.235552142273715487e-03,-4.277237491658368584e-02
7.212891902264715119e-03,-5.229787230879870408e-03,-3.569660338437882969e-04,1.819501417279628316e-02,-1.021214537349304959e-02,-1.582503914849096582e-01,-4.603996856187943243e-02,3.684833927657482633e-01,3.472163533514326800e-02,-2.074309378132353221e-01
-6.739301315928980518e-02,-2.749393691917448659e-02,3.659351953110409061e-01,2.991380577885896508e-01,-9.184673599396335486e-03,-5.240125057539440911e-01,-2.348903206709329269e-02,1.846704433029539849e-01,5.415058502965034576e-02,-2.463076989985959198e-01
-2.386012060562266862e-02,-1.228956213581824664e-01,7.303159896654502770e-02,2.254669939674617540e-01,1.061524523128329484e-01,-2.428089128246622985e-01,-4.627030306603359400e-02,1.300048309118771173e-01,3.109991659274358861e-02,-1.298999667771164046e-01
-5.760220065978832044e-02,-2.454874358622487762e-01,1.127013139054800911e-01,7.957896406531847489e-02,7.109756513370139863e-02,-1.656514430288153206e-01,-7.144838627345020954e-02,1.547314512149814414e-01,1.447461332595835204e-01,-2.265643500436547927e-02
-7.095494334447696727e-02,-1.117286842155924970e-01,2.607388695458892625e-01,2.204359412507566340e-01,7.584382145890851412e-02,-4.058445317110281336e-01,-9.126572018202838699e-02,3.619762211936832230e-01,1.277970497379184167e-01,-3.669943944958333759e-01
1.177607872321996124e-01,-2.544156798062078284e-01,8.842389774855080251e-03,-6.940734517692492833e-02,-3.447791709227380130e-04,-1.690762472115015791e-01,-1.137304954190792861e-01,3.836249324011726247e-01,9.191128317857744090e-02,5.333040318797947939e-03
-0.000000000000000000e+00,-2.980975109650667587e-01,-1.282029513877320018e-02,-2.100563967994048542e-02,1.321683757312356600e-01,-1.033330153051542355e-01,-3.683592167586006993e-02,2.538654899024950784e-01,2.431118466146532098e-01,-1.472507230924123833e-01
-7.854619379192250006e-02,-9.072541094641380088e-02,1.414858546811253170e-01,-5.162452711761979923e-02,-2.956865750162839673e-02,-1.978951679227123339e-01,-1.231547032469783309e-01,2.424102303867715913e-02,3.933086705930931015e-01,1.728807970852731801e-02
-1.009188790817910492e-01,-2.758922831905481488e-01,-8.239656115849099127e-02,-4.179541008110009004e-02,3.636059336729682151e-02,-1.182395143121178945e-02,-1.281600291981496165e-01,1.550991367612893079e-01,3.323171993543678759e-01,1.191874390165035963e-01
1.792255658494420339e-02,-2.405350877755040584e-01,-5.829565249180916620e-02,-1.074506200125845135e-01,-1.449168900370478019e-01,3.955854699494113641e-02,-1.777892769468658318e-01,4.558975345728912693e-02,4.149865713856784044e-01,2.125630292211741490e-01
-6.987088064580618263e-02,-1.714027038096382627e-01,-3.514589780807508140e-02,-1.332966549414228621e-03,-3.796485727443651426e-01,-1.659625488736067855e-01,-1.105652934623899686e-01,-7.706254660834785386e-02,4.071078695892200727e-01,6.152430566007154322e-01
1.358797935680421953e-01,-1.661265678054430484e-01,1.224284951610752625e-01,1.032057633879425035e-01,-4.526176787710644023e-01,-1.236407430208738001e-01,-3.021246242177387242e-01,7.497081320017949524e-02,3.605543529249519152e-02,5.673379515575543985e-01
1.087373048776048429e-01,-1.600494932875605181e-01,2.874683705127769121e-02,2.724560173266205587e-01,-2.939930352424827698e-01,-2.283834306212134679e-01,-2.146161927922717871e-01,1.122211514031361407e-01,6.175385888433159581e-02,3.079539569457637738e-01
3.165185813815176719e-01,-3.825035735072089271e-01,-2.662288526034327363e-02,2.639612385625004221e-01,-3.943914447274955992e-01,-2.189380083399234678e-01,-2.765540143352083202e-01,8.553763245157287518e-03,2.736545611963715485e-01,4.355898097973648908e-01
2.241431073348268410e-01,-4.777357713108112969e-02,-4.900079025426573587e-02,1.970379955915113335e-01,-2.512590323414806148e-01,-1.601242067416953629e-01,-3.559935812164983782e-01,9.068220155544222394e-02,2.346462803832203847e-01,1.176413759926473040e-01
2.112533076217367467e-01,-2.982730267807872648e-01,-2.335672825015682741e-01,1.640434618401852007e-01,-1.155427794133299241e-01,-9.432414320526257001e-02,-4.660506715336725225e-01,1.587728136550486391e-01,3.207714994208539783e-01,3.529168208968975207e-01
3.080349566758986551e-02,-2.669170969400282423e-01,6.499711293229480658e-02,5.400033836473769853e-03,-3.665673411180145336e-02,-1.584633171931987099e-03,-2.357913056562557230e-01,-6.518371854693680301e-02,4.215622368308450385e-01,7.777999447995508076e-02
7.809436893692457693e-02,-2.626171741346453037e-01,1.555220832268355835e-02,-3.829901943960194177e-02,5.413873934092466172e-02,2.986396478607174498e-01,-2.963522267339763205e-01,1.065285245311671652e-01,2.138234546929583535e-01,-1.762264701850158044e-01
1.819543264858247689e-01,-1.997934254023286393e-01,-1.097193197008569376e-01,-4.462559255509097184e-02,7.484920257482920170e-02,1.493695652783299799e-01,-1.869703804228353972e-01,-3.642808156063738478e-02,1.080978843485681379e-01,6.248372011362775952e-02
1.421837885281673763e-01,-1.305455802131654519e-01,-1.160139682749920520e-01,8.074797567552345623e-02,-1.564012429582216923e-01,2.041931988367896578e-01,-1.098822222489336115e-01,1.576429695370394901e-01,4.712939830490316812e-02,-1.190357173411199648e-01
1.587834140934434868e-01,-3.154497263745619229e-01,1.420161642015469773e-02,-4.189328277501947473e-01,1.280252628634147849e-01,5.419813998224815021e-01,-2.482281008839088698e-01,6.301956031671922254e-02,1.550001422183785171e-01,-7.946614897653037080e-02
7.983300072000637515e-02,-3.881020466226668408e-01,-3.748475138458058353e-01,-2.514839567844874835e-01,1.618414861194317766e-01,7.949166884230139951e-01,-2.915794067280068069e-01,-1.564656644424307630e-01,5.027570811965459407e-01,-7.110371578340166088e-02
-2.898312554335466529e-01,-1.802860469928251608e-01,-1.468860044124884467e-01,-7.450970937003706385e-02,1.399117685909228304e-01,7.820285315367192513e-01,-2.360954220588398211e-01,-9.599792016451071108e-02,2.078708208558628090e-01,-9.471799669726096993e-02
-1.458411310871654543e-01,-1.044409419077047679e-02,-1.678457124799651382e-02,-4.601571504258611042e-03,-3.492678453942413275e-02,2.460929414888259337e-01,-1.067632826689627196e-01,-1.480077402218281032e-02,1.519054507572180912e-01,-4.747285507498542195e-02
-1.382995869700728159e-02,-0.000000000000000000e+00,-1.375679008137708917e-03,-0.000000000000000000e+00,-3.200119514043053316e-03,3.119762567979518161e-02,-1.070419368357751477e-02,-3.402311728286038558e-03,1.612073808828409435e-02,-1.207897553995332558e-03
-0.000000000000000000e+00,-0.000000000000000000e+00,-0.000000000000000000e+00,-0.000000000000000000e+00,-0.000000000000000000e+00,-0.000000000000000000e+00,-0.000000000000000000e+00,1.130533482409308219e-03,-0.000000000000000000e+00,-0.000000000000000000e+00
-0.000000000000000000e+00,-5.682697795604737916e-03,-0.000000000000000000e+00,-1.321503375553600068e-03,-3.550951802090626230e-03,-0.000000000000000000e+00,-0.000000000000000000e+00,5.418428342827958516e-02,-5.033923422787009438e-03,-2.499032515115176198e-02
8.103284398274348058e-03,-1.341596275569381137e-02,-5.393847001076917946e-02,2.038563380494201951e-02,1.353152244773067094e-02,-4.459276239455433645e-03,-1.064820868844600261e-02,1.196978099294085246e-01,-1.545241118348274385e-02,-5.744980602811703557e-02
3.210649789908113366e-02,-8.106819140334606266e-03,-9.235780225185799769e-04,1.307222655269257572e-01,-1.278120189033254694e-01,-1.761800765359996801e-01,-5.914885514581319503e-02,3.296338317791500105e-01,2.931921980190461963e-02,-1.482327176924745638e-01
-6.468162141663132136e-02,-6.527636045142819199e-02,2.421356723624778218e-01,3.414757221801494325e-01,-1.687666493324633810e-01,-2.375760255160679624e-01,-1.391714757614232259e-02,1.788751595264991001e-01,-1.191054639557031711e-02,-1.896662407011535101e-01
-5.548986772226727898e-02,-2.497061766444475528e-01,4.092824378856159129e-01,1.443164654320084062e-01,-4.679245039151539061e-03,-2.457261107511643505e-01,-9.906964558123976250e-02,1.454502158544087875e-01,3.694610235368840645e-02,-7.596342105325504246e-02
-1.233938994499019920e-01,-2.119949954404134751e-01,-2.154104093316494828e-01,1.635333092012248302e-01,-3.517538440188566762e-02,-3.239915418833198141e-02,-1.153317967099466712e-01,2.036589757349187013e-01,2.376472114217222098e-01,1.338454580281983886e-01
-8.528637907139723084e-02,-4.390839016578567539e-02,-3.803882980586688334e-02,1.196421521274957100e-01,-9.304271729462122026e-03,-1.316058349837806174e-01,-2.013275575459214269e-03,2.436577152836653382e-01,3.489060449274889592e-02,-7.771214735224045433e-02
-1.301098031582473835e-01,-1.539427060260319946e-01,-1.017969760143664498e-01,1.055258004702326335e-01,3.188237584411481723e-02,5.330933561577165351e-03,-9.122743352739649814e-02,1.109917002011841375e-01,1.969675670627155373e-01,2.086754332021016969e-02
1.419852285902309559e-02,-2.170628893260008463e-01,-6.245331120528294783e-02,9.831828822079725916e-02,-3.517389499533154357e-02,-1.170459700771858680e-01,-8.108658564063256358e-02,4.337457352514997172e-02,2.609374538633505991e-01,9.639166801807402818e-02
2.234824787042058447e-01,-1.139118262981002050e-01,2.599452787721467234e-02,-9.599173231763169500e-02,-1.810919289672933696e-01,-4.177614734633140758e-02,-2.424335509915181708e-01,-4.366114353265518333e-02,1.564392360697330897e-01,3.175569510921179561e-01
-7.175913287104655758e-02,-2.202812204161450904e-01,-2.666212732794546736e-01,-3.971599079726140236e-01,8.044473417989349631e-03,2.669339488297125529e-01,-1.735574306460599125e-01,1.612503934296008190e-01,3.813011836093599949e-01,3.156110300415716496e-01
4.471242707869019228e-02,-3.592738599824814583e-01,-1.754639124541001738e-01,-5.740512882024473296e-02,-1.334915702316008812e-01,-2.225935380447510020e-02,-9.782343050381318850e-02,2.814805943826307888e-01,1.333425659899714621e-01,3.884129693803901051e-01
2.079461503574110970e-01,-2.130163502704324197e-01,-3.323409093078018295e-02,7.627133749751505154e-02,-5.102790279274249663e-02,-2.521023962748836778e-01,-1.952996535596830674e-01,3.507465126737106809e-02,1.844121598250527128e-01,2.398585163309061297e-01
-1.554983500303052657e-01,-1.614742561239538299e-01,-1.626720214634738357e-02,2.226776545051350198e-01,-4.672001612969259310e-01,-3.195004501717248480e-01,6.103242584181236413e-02,4.420391356832857888e-01,1.974712193995097620e-01,1.944315680454933026e-01
-5.187971576958294584e-01,1.608099597720791252e-01,1.785357082463402134e-01,4.229743182878522578e-01,-2.095198769856719545e-01,-3.844832540268627863e-01,-2.222267133886241530e-01,1.356370025256949108e-01,1.775793758226061891e-01,2.547061673063909515e-01
-7.932608924012499174e-02,-4.108288072801329766e-02,8.328219755168841942e-02,3.098444030523690440e-01,-8.442740812310867149e-02,-4.419009000504075524e-01,-2.359294681674992400e-01,7.849312977514724676e-02,2.818675580384537582e-01,1.280503111444456221e-01
-6.564559010977372849e-03,-2.290457326998485976e-01,3.656465074432012352e-02,2.408047368097031848e-01,-1.411189873577282095e-01,-3.922847746083945042e-01,-4.208286540671502540e-01,3.787954102269611156e-01,3.505603026490302643e-01,1.783326835232980079e-01
1.393347886695514570e-01,-3.325504043870469162e-01,2.027078208857384378e-02,4.881245941244911901e-02,3.585809952186246041e-02,-1.194071218422803893e-01,-4.239070476033384716e-01,5.418802864871416491e-02,3.528082900545279621e-01,2.164279271908419455e-01
2.330369540865532274e-01,-3.560756101801877960e-01,-5.846413371785519342e-02,1.270973535378722985e-01,-1.303978676877858532e-02,-1.653805155023326812e-01,-4.269219311879618450e-01,2.735585878811427202e-02,4.426114857218559351e-01,1.891801399489163593e-01
8.901887840921762773e-02,-2.528309061307992822e-01,-1.420227479878089123e-02,1.010534085513099534e-01,-2.263944694777106012e-02,-1.587408732255011501e-01,-2.050997765339871437e-01,2.940683196060386861e-02,3.290544823317655965e-01,1.043996787478885524e-01
-2.824917594327121077e-03,-2.079970067792497046e-01,-2.538168628979708963e-02,-3.233541091017187730e-02,-3.089673453026129529e-02,2.136488898688664317e-01,-1.214403122153971948e-01,8.290033853241290940e-02,2.916837898147119912e-01,-1.622109961414019697e-01
2.032828244481348079e-02,-1.671119163082189774e-01,-1.232771606802445241e-01,1.434078879623669756e-01,-1.056699931178456814e-01,1.333070052907375236e-01,-2.213739807466209020e-01,1.089213675937181075e-01,2.040841904501695392e-01,6.486987956474818233e-03
1.395656007981097568e-01,-3.299496206736374226e-01,1.588884861589317079e-03,-1.649778365514479594e-01,1.469202321815879786e-01,3.402333399872227160e-01,-1.924463735300920297e-01,-2.757439981956222655e-02,1.973581434248474209e-01,-1.051584313511859381e-01
2.523555419927202559e-01,-2.391722192617607157e-01,-2.775546504977022266e-01,-3.205531440769447404e-01,-2.075238732417226950e-01,9.167489878520764801e-01,-2.762861845798464944e-01,-5.516207604803181896e-02,2.826323654071110636e-01,-6.458977435236949727e-02
-2.337198190900014738e-01,-1.191113790918979093e-01,-1.198400892925959860e-01,-6.683606664980801249e-02,-1.810848709881795471e-01,9.072537160360676367e-01,-3.070838296714898941e-01,-4.060941966901429612e-02,3.042233365235654241e-01,-1.266914732801893706e-01
-1.207302721682458058e-01,-6.867142806709422911e-03,-2.188398007677625282e-02,-7.098051115972407211e-03,-4.555110306303748746e-02,1.732898979725388255e-01,-1.297105931313585481e-01,1.578139195569397066e-02,2.119768205232158975e-01,-5.750993324493639675e-02
-1.417334923093714876e-03,-0.000000000000000000e+00,-0.000000000000000000e+00,-0.000000000000000000e+00,-4.798617469502588530e-03,1.093276775123413862e-02,-5.735762451916033393e-03,4.444505681831437821e-02,-3.028374053617823025e-02,-1.636385692057131837e-03
-0.000000000000000000e+00,-0.000000000000000000e+00,-0.000000000000000000e+00,-0.000000000000000000e+00,-0.000000000000000000e+00,-0.000000000000000000e+00,-0.000000000000000000e+00,1.745556683813270652e-03,-0.000000000000000000e+00,-0.000000000000000000e+00
-0.000000000000000000e+00,-0.000000000000000000e+00,-0.000000000000000000e+00,-0.000000000000000000e+00,-2.030240649159745052e-03,-0.000000000000000000e+00,-0.000000000000000000e+00,3.578205642755964005e-02,-9.947599846368137145e-04,-2.451011972790704402e-02
5.045832289260709924e-02,-5.641724070594552644e-03,-3.876772966031777345e-02,-3.255625335113216095e-03,-4.221102863613837575e-02,-8.052878459329500943e-03,-4.000953213608252068e-02,1.831906456725652665e-01,-8.699494288065906522e-03,-7.145830916090380180e-02
3.541067120370085947e-02,-6.032954804482921346e-02,6.586086636102958525e-02,2.478352624553143146e-01,-1.240716055503446047e-01,-1.570729341137722945e-01,-7.835242754667472165e-02,2.653467270710003212e-01,-4.214507501635160469e-02,-1.467756401702303426e-01
-2.546692356669381235e-02,-4.610206610474914396e-02,-5.899569990515236145e-02,1.546611123867321080e-01,-4.760199964416297197e-02,-3.809288753807858058e-02,-5.299930042469720715e-02,1.816044194512156928e-01,1.491773783154200506e-01,-2.060253414840165775e-01
9.153562187629350755e-02,-2.065038763333710559e-01,3.600763410402478271e-01,-1.152698524633407190e-01,-1.513129135104802903e-01,-1.217130835864873167e-01,-7.881907572975284382e-02,1.820478169940957791e-01,-8.487762288940209343e-02,1.302385388937470634e-01
-4.462193919223157029e-02,-2.589326940616580308e-01,3.816388212324053342e-01,1.306600623759729407e-01,-8.505398938153604926e-02,-9.621052079222031095e-02,-1.013063659003763245e-01,9.503022654668003000e-02,0.000000000000000000e+00,-1.643255096509359595e-02
-8.350394804192984299e-02,-2.517311855042929647e-01,1.754691334612440033e-03,2.701008845678430290e-02,-3.097346551822905553e-02,1.053759669577335328e-01,9.092644470889089947e-02,5.504248813686019731e-02,8.602327295285959463e-02,-4.888244084785376559e-03
-1.020490188452699704e-01,-1.420215693541045376e-01,1.189241186758777241e-01,1.901391488236573585e-02,-8.274233098544237636e-03,1.772736453978376869e-02,3.982897685521495645e-02,-2.006473822089761549e-01,1.104551783399584514e-01,1.429630409721851514e-01
1.202415073110374988e-01,-2.202770156262587598e-01,-8.788187773645814160e-02,-3.624987698935110414e-01,2.072600837328813367e-02,2.702004030882680929e-01,-1.868693544265712103e-01,3.223594955851648985e-02,3.009303842845642007e-01,1.081860040890679497e-01
-5.443261040783429344e-02,-9.469541296770132843e-02,-1.032113683659279940e-01,-2.328375429239099292e-01,-2.822374832310449097e-02,1.109105522990588982e-01,-1.219277855265905736e-01,-1.824171700485311409e-01,4.080919670129511401e-01,3.089712199189503239e-01
1.600578019403262331e-01,-2.730531487099922827e-02,-1.351309598620129004e-01,-1.227228320332575395e-01,-6.323461953222146888e-03,-1.448854788257300172e-02,-2.124729023639864434e-01,-3.383626711882535276e-01,4.514003326982399811e-01,2.525467854005242763e-01
1.751719842757272841e-02,-1.141949922071938267e-01,-1.665418168844830793e-01,-1.518995825555773671e-01,1.200844101156993138e-01,1.966585893759950354e-01,-2.034322762980159960e-01,-2.661079300208997189e-01,4.750994924166938027e-01,9.270984510220066366e-02
-5.742623656783398672e-02,1.161325196831760470e-02,-2.638025052847750018e-01,1.483302682394940231e-01,-2.629388795401678691e-01,1.060749606555230484e-01,-2.796603043507454520e-02,1.526266728657598715e-01,3.448741381982574628e-01,-1.513947131951643710e-01
-5.026036195116020261e-02,1.422589804617342413e-01,-5.255101999286542272e-04,1.721633049843512842e-01,-3.514503732175410788e-01,-2.763082340070378146e-02,-1.838431243165672135e-01,1.749790006821552030e-02,2.347082361783552340e-01,4.662766295859575166e-02
-3.014095006659520681e-01,3.657970086111625996e-01,8.141547883725447701e-03,1.048891408445069978e-01,-9.998213904058651791e-02,-7.861578618239239979e-02,-1.549620622226596522e-01,9.285246904501924525e-02,9.128817887217789695e-02,-2.711740590774741264e-02
-1.089986227239262556e-01,-8.615982641528968644e-02,-4.115246315106607829e-03,1.920933833267951252e-01,-2.634346381617119204e-01,-2.874430476560767000e-01,-1.205094905363911784e-01,4.107840587131271759e-01,1.044748483831484526e-01,1.657467123399080366e-01
5.864146792324465701e-02,-1.001581958308245812e-01,2.676165807317658629e-01,1.020958877857600505e-01,-5.382817198224808773e-03,-4.686594610364248625e-01,-3.070041843132100268e-01,2.094691238515944687e-01,2.646971064254943218e-01,-2.461698099971834641e-02
1.896070391051361131e-02,-3.580884459771465078e-01,3.165256177356211287e-02,4.425852571998139910e-03,-4.968487766054277034e-03,-2.858172262113020667e-01,-2.386949261059616856e-01,2.044748768162834573e-01,4.907202672126758092e-01,1.294829668452281146e-01
-1.201953083087887453e-01,-1.877991785026487115e-01,-1.126498212335500654e-01,-4.113073726696566540e-02,6.869655198474772760e-03,-3.315000788501055173e-01,-2.450007874852127843e-01,1.593364171446930433e-01,5.650719864004049020e-01,3.113422779032462007e-01
1.300001363189508046e-03,-3.419048139682254739e-01,2.525748862604739603e-02,1.467068625752462191e-03,-1.516387209447078027e-02,-2.346771387007336729e-01,-2.026258290140882379e-01,2.049275485362288540e-01,4.385745906688735540e-01,1.180348543263520650e-01
1.476086805780485456e-01,-1.175762983222941593e-01,-9.814573300567440428e-02,-8.732915355023609938e-02,-4.302250969056595035e-03,-6.385247546462752798e-03,-2.543921968000219525e-01,1.397584891080139169e-01,3.109945700373117350e-01,-2.020917178730166630e-02
2.071671978809748460e-01,-1.971928004023229264e-01,-1.140916089792373828e-01,4.590888614233149673e-02,-7.209119295720999021e-02,2.457906385868003068e-03,-2.446931265437765624e-01,1.313493488299163070e-01,3.016530293610387714e-01,-6.028958021643285314e-02
3.004061907355333738e-01,-2.754491536244922933e-01,-4.093741821796033353e-02,1.841242690170787413e-02,-3.388266296046835713e-01,3.701137205786905748e-01,-7.230687404017661912e-02,-1.782092878188159535e-01,2.279092991708195071e-01,-3.770778777870075447e-03
1.664467631425806671e-01,-2.193725686764063654e-01,-2.611876661567014146e-01,-2.296372989913459117e-01,-1.800503332962839209e-01,1.130454373897167519e+00,-1.287051170625241325e-01,-1.620816566774227196e-01,5.142847350235955212e-02,-1.559236589688562380e-01
-2.372413586992821177e-01,-5.905872200856520510e-02,-1.171129314342185396e-01,-3.843810338663546794e-02,-8.245206279240276104e-02,1.074386316446003464e+00,-3.615101042360446826e-01,-2.778821756652432445e-02,-5.162984904732335206e-02,-7.739564258540973518e-02
-1.314186788145533247e-01,-2.470894661893312597e-02,-1.966242046314624001e-02,-2.002193837753784081e-03,-4.340458904273297724e-02,2.886200804549836074e-01,-1.011021380159021904e-01,1.246028140868706002e-02,7.764919660837620030e-02,-4.465756965890952529e-02
-0.000000000000000000e+00,0.000000000000000000e+00,-0.000000000000000000e+00,-0.000000000000000000e+00,-1.705662654043227930e-04,1.956447450916007271e-03,-3.583015953048811469e-03,9.279261390447247904e-03,-9.491009242649864894e-05,-4.831804316511696500e-03
-0.000000000000000000e+00,-0.000000000000000000e+00,-0.000000000000000000e+00,-0.000000000000000000e+00,-0.000000000000000000e+00,-0.000000000000000000e+00,-0.000000000000000000e+00,0.000000000000000000e+00,-0.000000000000000000e+00,-0.000000000000000000e+00
1.016508440159740595e-02,0.000000000000000000e+00,-0.000000000000000000e+00,-0.000000000000000000e+00,-1.666013276967218126e-02,-7.165389990319124755e-03,-0.000000000000000000e+00,7.948099830968184676e-02,-5.281622134860039291e-04,-5.753761257093670256e-02
-0.000000000000000000e+00,-0.000000000000000000e+00,-7.561489876442290502e-03,-2.442971183401436560e-04,-8.525389414276002276e-02,-1.724494071538022755e-02,-0.000000000000000000e+00,3.081524655417916536e-01,-4.428279422613439278e-03,-1.804524578948478730e-01
1.528919031727885361e-02,-4.039146788206304794e-02,8.067252997146754506e-03,2.707877268042928054e-01,-8.453693923831591406e-02,-1.523330775251592051e-01,-6.609076221493639935e-02,2.774213692566422917e-01,-6.526566165991284918e-02,-1.562346742496029117e-01
-9.964308727173507019e-02,-1.078356715381776840e-02,-8.194214212202892422e-02,1.554349498617573488e-01,-2.243982127264901871e-01,2.297170560319630392e-02,-2.863614456817942418e-03,3.071850942325116685e-01,3.410903959182911421e-02,-9.418558258115031223e-02
-9.996192980159744612e-02,-8.511624323605397613e-02,9.809373839599531963e-02,-1.967484211294389385e-01,1.047569773104943536e-02,-6.287519005626557300e-02,6.154727046152601994e-02,1.708031907894477092e-02,5.130104970519125396e-02,2.040774288973260520e-01
6.635909677957534461e-03,-2.023982075956691495e-01,6.857324516807176973e-02,-5.820769005128671736e-03,5.908734666203084573e-02,-7.089376759637254499e-02,9.244961227078921258e-05,9.243587754869563022e-02,3.378876995707277148e-02,1.466322007822669186e-02
-5.638539779381059741e-02,-2.528417637767039206e-01,-7.664777237463026027e-03,-3.439077192778259850e-01,-8.393742211736826553e-02,2.057050107412611729e-03,2.002609349802194905e-01,1.904831819023075981e-02,3.571569341935817432e-01,1.656714984422635040e-01
9.944970459951435471e-02,-2.300668064129391954e-01,-2.125519976266526112e-01,-3.168630854639146316e-02,1.504034302947594992e-01,-9.341615912485735918e-02,-4.207183602720394877e-02,-1.299112367754331754e-01,9.593439581338936151e-02,3.979956239316407296e-01
-1.394325120714745847e-01,-1.745956304750522214e-01,-3.771221947221556903e-01,-1.932511789591077611e-01,2.347489492169484437e-01,-1.050179575122676401e-01,1.596438656265008749e-01,-1.082742073849193715e-01,3.292375626164013025e-01,3.787976449480451868e-01
-1.029933032036927792e-01,-1.143426983818871534e-01,-5.462035457382147241e-01,-2.269438995012589833e-01,2.732818806130467015e-01,3.662931096701174671e-02,-3.227970831042305255e-02,-8.101164440740139805e-02,3.398297185512552665e-01,4.583603950474186561e-01
7.812613302957226299e-04,-1.056996511079020956e-01,-2.927114401946090405e-01,-1.417978528812111894e-01,1.475306911885804484e-01,2.644624194670077699e-01,-3.372430553106807727e-01,-1.469699974122546382e-01,2.728571885765797012e-01,3.437956454145327800e-01
-4.573508789369847283e-01,-2.803918726670363015e-01,-3.916410469966967733e-01,-2.206347684321557090e-01,4.103635951329551168e-01,3.710748336531913272e-01,1.148009260238876811e-01,-2.517904030245851632e-01,4.100903047422909120e-01,2.955797950389541517e-01
-2.323449433077579562e-01,2.453975123444570791e-02,-6.308073923017480933e-01,3.826030710667117224e-02,-3.651940754125364563e-01,3.855697499954457985e-01,1.394485117822458486e-01,-3.931261994917354535e-02,3.693763600221561250e-01,3.049919132205761718e-01
-3.091271348876842295e-01,3.078627549716901335e-01,-3.103884978234898728e-01,8.577152457134851193e-02,-4.618897057440781162e-01,5.154937000019792215e-02,-9.726636200345488426e-02,1.496597855872936755e-01,4.383406941366710385e-01,1.401326301697500831e-01
-4.706062275253546923e-01,2.953903523963207212e-01,-1.533497319984137852e-01,2.006530440836298002e-01,-1.507695829172264745e-02,-1.793359727638354356e-02,-3.501711043496381626e-01,-3.195150762220716565e-04,2.158558005206355490e-01,2.958067671639424412e-01
-4.036673005556972171e-01,-1.894725969549179989e-01,-1.305191140207591638e-01,1.544884085014238892e-02,2.873543581739571584e-01,-6.722491846357936396e-02,-1.324068940608877087e-01,2.954355180354624744e-01,2.569322579140644880e-01,6.804975941885725577e-02
5.996525574975293538e-02,-2.704156803594978675e-01,-2.963066283139013102e-01,4.083779185054320360e-02,1.391204876585205308e-01,-1.876925250392507405e-01,-4.211139388215047741e-01,2.594242393783939837e-01,4.188757338470083247e-01,2.526108443877216891e-01
-2.631439711321889030e-01,-1.481346324423763183e-01,3.864034604714645937e-02,-3.736444271409457979e-02,-6.696822661121622222e-02,-2.293847010605418735e-01,-2.966147028976141020e-01,4.675135556298105066e-01,3.268870267882187930e-01,2.138561875428046655e-01
-1.003564823163020370e-01,-1.785729453565363112e-01,2.385182206216018563e-01,-2.760016271284002065e-02,-1.231360042444628045e-01,-2.646185260062335898e-01,-2.313156971312527524e-02,-4.416550083714157471e-02,2.829688061205102301e-01,2.470103583912370282e-01
6.479827104037534646e-02,-1.622305920023214276e-01,-1.718322676898413337e-01,1.052035457426354209e-01,-1.095090171293318648e-01,-4.547073670989741911e-01,-1.644513205977163328e-01,2.374438322758165854e-01,1.775427653865604694e-01,4.777491817218414982e-01
3.680452516816118957e-01,-1.639118910766219073e-01,-2.665466566054940437e-02,-9.348937056396060263e-02,-1.465545123318067466e-01,-3.336365555718671660e-01,3.912662071652238741e-03,2.312889956934706392e-01,1.349259163497300851e-01,3.083595680542883591e-02
2.992522977516270388e-01,-1.858667998536472632e-01,1.208125796166364951e-02,9.821466303882556148e-02,-1.541432909643739024e-01,-4.335739392227918043e-01,-1.224810621652838299e-01,1.863914096407567611e-01,1.901162178146780513e-01,1.072265275788528982e-01
2.138144547082621583e-01,-1.444596344877866478e-01,-8.919452706211715431e-02,-9.764645418220448125e-02,-3.587370173968971176e-01,2.000891854861221175e-01,1.920755941118328369e-01,-1.611925200542847214e-01,2.817485162754401751e-01,-3.069898200188869719e-02
1.366284414354871080e-01,-1.527180028579183113e-01,-3.058932028561138841e-02,-1.841645066157901744e-01,-2.845561373034610764e-01,7.145576959526295235e-01,-1.519687851030464797e-02,-2.032484270522075531e-01,1.715610460541222571e-01,-1.415399850701716811e-01
-1.525538121965526461e-01,-5.543792373001363294e-02,6.624181653535535230e-02,-2.264339266975232828e-02,-1.056232129250609525e-01,8.571006513622732026e-01,-3.356122274666866190e-01,-7.054501046029386380e-02,-6.981909424966771527e-02,-9.480434872024966209e-02
-1.175307891653666476e-01,-2.802193344219840870e-02,-1.135599108675073438e-02,-5.531901627979428316e-04,-1.814404434876766906e-02,2.462343720710036266e-01,-2.225116967103676624e-01,-2.004842285245712202e-03,2.019512368970194371e-01,-3.173154969084059779e-02
-0.000000000000000000e+00,0.000000000000000000e+00,-0.000000000000000000e+00,-0.000000000000000000e+00,-0.000000000000000000e+00,1.247657622915103503e-03,-0.000000000000000000e+00,2.815994608230165935e-03,-3.703684624452987639e-03,-0.000000000000000000e+00
-0.000000000000000000e+00,-0.000000000000000000e+00,-0.000000000000000000e+00,-0.000000000000000000e+00,-0.000000000000000000e+00,-0.000000000000000000e+00,-0.000000000000000000e+00,0.000000000000000000e+00,-0.000000000000000000e+00,-0.000000000000000000e+00
0.000000000000000000e+00,-0.000000000000000000e+00,-0.000000000000000000e+00,-1.799619796212761870e-03,-2.703396886993867515e-02,-1.234686222203004030e-02,-0.000000000000000000e+00,8.985241690124536051e-02,-0.000000000000000000e+00,-3.768172701428584154e-02
-0.000000000000000000e+00,-0.000000000000000000e+00,-0.000000000000000000e+00,-7.707503422269856332e-03,-1.094996773635939086e-01,-1.665876152393247142e-02,-0.000000000000000000e+00,3.243634728888389884e-01,-2.517621336659918094e-03,-1.710865422135361691e-01
1.068481695236889878e-02,-3.190616860050837257e-03,-7.588643631129639300e-02,7.249162769275234453e-02,-2.228009278544874905e-01,-1.824565212401917449e-02,-5.037168689770450680e-02,4.843512978431784854e-01,-3.238329319627893804e-02,-1.512615498627595811e-01
-3.283506637880301282e-02,4.899111509753286547e-02,-6.988174879343811430e-02,-7.021654267633761076e-03,-2.966319407116653206e-01,1.606871446031919379e-02,-7.071971331617361856e-02,3.535592697660274730e-01,-8.877182152096910195e-02,1.523977249285453084e-01
-5.580103120491614055e-02,-5.448716347222749140e-02,-2.032047210055027975e-01,-1.343967765819352178e-01,-7.696065328715906428e-02,4.710914239695192587e-03,3.729615443802977715e-02,4.324284839508561740e-02,2.006120923522179966e-01,2.390023994248783590e-01
1.900951463618462678e-01,-4.144491363089663344e-02,-3.709030043705102142e-01,-2.442246891753247218e-01,2.348963344660767727e-02,2.149839384522306968e-02,1.532110271083155228e-01,-3.553748849153752498e-02,1.102845525209194752e-02,2.872585220243732973e-01
-1.241034268730105243e-02,-6.433963079599448742e-02,-5.300031523646910880e-01,-7.974247759534495994e-02,1.141561711378251964e-01,-1.207861650662761660e-01,2.307055010944756013e-01,4.033952036965453292e-02,1.841289469681168245e-01,2.342561571026284262e-01
-7.265409836396834187e-03,-1.457525373238816868e-01,-2.999977834397613008e-01,-1.096237260984366246e-01,3.026454098614376198e-01,-2.474181272037319079e-01,1.574575760143567538e-01,1.841121465868711948e-01,-2.218651466669539774e-02,1.922608847204448912e-01
2.896052537136220920e-02,-9.441638072191667341e-02,-3.122766075003476915e-01,-7.791554270534668813e-02,1.133371735543263342e-01,-3.283794427656965692e-02,1.829050263395591569e-02,-2.865568982683999733e-01,1.541459077245273257e-01,4.895323839608028971e-01
8.975037151738932129e-02,-2.351695131034248487e-01,-2.633123853965938510e-01,1.341905159403267156e-01,2.590903772512868630e-01,1.970884870341331196e-01,-5.775150522758653454e-02,-4.004094895235006946e-01,-5.054863032685518592e-02,3.267301697856170861e-01
-5.587208616068514710e-02,-2.337431477425419291e-01,-4.250266109675661652e-01,-2.277268623330576391e-01,2.320750034691776431e-01,1.473795331330786385e-01,2.204538942057040762e-01,-1.974944371654183684e-01,1.762943220696371605e-01,3.635701141904704170e-01
1.082134152273308940e-02,-1.991017291237223708e-01,-3.177808436561885830e-01,5.263192516092204259e-02,2.757388813306745345e-01,2.243303087936001083e-01,9.989627558867802959e-02,-5.132873299139421031e-01,3.328512689423360760e-01,2.626098243811021346e-02
2.295439363859800089e-02,-1.946137791030010458e-02,-1.067555665529344028e-01,-6.456042775690415403e-02,1.084976919798441575e-01,2.588391256808395546e-01,9.276922553602041932e-02,-7.156160601467553839e-01,3.671431961044381853e-01,4.791150700384544381e-02
-3.212434039495175031e-01,4.415225045883253707e-01,-9.162010380373140916e-02,4.767513424918000675e-01,-4.133762180813834175e-01,1.215518533856017047e-01,-1.339615625922827846e-01,-2.667096390061440281e-01,-7.418766113454110245e-02,2.661598842181129299e-01
-4.135468153765988752e-01,2.461414446109010945e-01,-3.289649294370198818e-01,2.886882732586139033e-01,-4.351564660784505018e-02,3.349469821974440098e-01,-2.210372521502838861e-01,1.518062597032207028e-01,-9.957334251393981650e-02,8.290288803973330789e-02
-4.017031745363605078e-01,-4.719061331153334704e-02,-9.647975169143548080e-02,9.494637629996704326e-03,1.826366006086209970e-01,-3.332323411952330117e-02,-4.673576190226671340e-02,3.484767511646884586e-01,1.740564750933857041e-01,-8.530123709535333831e-02
-1.091628224346901793e-01,-8.098090451508035970e-02,-2.162521596946594127e-02,-1.093951072800264240e-01,-9.812830122609580291e-03,-2.955549959779250613e-01,-7.619196679793752147e-02,3.338574766151088946e-01,4.381675541447186406e-01,-5.692207642891126962e-02
-1.511827770586454400e-01,-3.399083284169903546e-02,-2.169350928564311998e-01,5.374054875972508749e-02,-9.094507864557915822e-02,-1.393452994590412275e-01,-1.925721164080478331e-01,3.063095876381120020e-01,1.935706468604569408e-01,2.767087574439214825e-01
1.436221749655882361e-02,-1.381832384649593348e-01,1.224297003163437592e-01,-1.843908870005820100e-01,1.810000330588605044e-01,-4.053006179601153502e-01,-2.617706962227488998e-01,-3.110334798034943352e-02,3.898850585573807037e-01,3.124695514794173512e-01
9.107636942924154932e-02,-1.053227872083626893e-01,-2.186876414463150287e-01,-5.942293140578239902e-02,1.126204586895790533e-01,-1.143466540367250595e-01,-1.591057132889130976e-01,4.115422973750274688e-02,2.339355728442665538e-01,1.781703204859976519e-01
5.956591086414200070e-02,-2.239960059831298811e-02,4.853496278965438102e-03,-4.454542516221409731e-01,1.997870785006219396e-01,-4.256687394263448665e-01,6.091268446410358361e-02,2.753780685735545200e-02,3.154984463383027071e-01,2.149043013275146186e-01
2.304212139011497795e-01,-3.973566835924113860e-02,-5.328643042121890966e-02,-2.342821384607159385e-01,5.237674450747913796e-02,-5.942887340203978352e-01,2.539937748975288345e-01,1.263654041534705841e-01,1.272917383524853618e-01,1.259427165707384388e-01
3.199453882450564168e-01,-4.578012729692636229e-02,-2.248138275675351516e-01,-2.024966781381933867e-01,-8.322833679666047368e-02,-7.459269000217297885e-01,5.053180376628522152e-01,-6.979265966158618162e-02,4.031966356382467032e-01,1.490606591239568013e-01
4.985488074223550781e-01,-5.473417433592053100e-02,1.756034403136935984e-01,-8.680774657243693626e-02,-4.240668572011396104e-02,-7.504557348503871905e-01,2.029698708807337881e-01,-1.786739076276113725e-01,4.578324151808759734e-01,-2.163537182282820881e-01
4.591402953335022019e-02,-4.420187938768076197e-02,2.212024728954352648e-01,-1.199245971857090072e-03,-1.030036327576927396e-01,3.254666076468626379e-02,-1.427189442152043686e-01,6.118345165257205176e-02,6.055226486208899889e-02,-1.296884664508169416e-01
-5.401567860643012586e-02,-2.779631318782358959e-02,2.538557184132473332e-01,-0.000000000000000000e+00,-7.036564989118472557e-02,1.536058102741536813e-01,-3.177184495785776996e-01,5.559652574224020066e-02,4.451279443646463663e-02,-3.455646424615232970e-02
-0.000000000000000000e+00,-6.485643039886390768e-04,1.114145260014430538e-02,-0.000000000000000000e+00,-6.136534279859645787e-03,-0.000000000000000000e+00,-1.261987214766903051e-02,2.388635104254740668e-02,-7.079498662443664200e-03,-0.000000000000000000e+00
-0.000000000000000000e+00,0.000000000000000000e+00,-0.000000000000000000e+00,-0.000000000000000000e+00,-0.000000000000000000e+00,-0.000000000000000000e+00,-0.000000000000000000e+00,-0.000000000000000000e+00,-0.000000000000000000e+00,-0.000000000000000000e+00
0.000000000000000000e+00,-0.000000000000000000e+00,-0.000000000000000000e+00,-2.505108079118921298e-03,-2.334639110713557578e-02,-0.000000000000000000e+00,-0.000000000000000000e+00,5.607836963900865446e-02,-0.000000000000000000e+00,-2.135197998536082775e-02
0.000000000000000000e+00,-0.000000000000000000e+00,-0.000000000000000000e+00,-6.559022638357286591e-03,-8.672119943533646014e-02,-2.841527913980749099e-03,-0.000000000000000000e+00,2.238002422842987060e-01,-0.000000000000000000e+00,-1.148784588891499647e-01
-2.026200184109747116e-02,0.000000000000000000e+00,-5.752990719926218133e-02,8.517691230661207646e-02,-2.180928212641103092e-01,-4.998345482301766625e-03,-4.777911946784638153e-02,3.905867428560993448e-01,-5.313287261098542658e-02,-6.100570939305495488e-02
1.089338523429651401e-01,3.268419836935058248e-02,-3.872532289512817805e-01,-7.357448857698691003e-02,-1.380107523052332141e-01,3.151997265710381607e-02,-1.097709726800837199e-01,3.024024751324179694e-01,-1.460726941958888914e-01,3.795419885509923041e-01
-1.499926423078215554e-02,-2.154658159500094303e-02,-4.110452197070090241e-01,-1.269894836081567890e-01,-1.903177342226368418e-02,2.271906717664869402e-01,6.407050836171031272e-02,4.763731626767055832e-02,5.212014715572696466e-02,1.999547691570888186e-01
2.463253067787204154e-01,-2.333162912136025127e-02,-4.529919136627794662e-01,-6.232818446186003114e-02,1.438669049148886825e-01,-2.058841702701537657e-01,3.096997888137793531e-01,8.384419158199525601e-02,-8.973679101233945909e-02,5.006651008726162311e-02
2.185424271244459649e-01,-1.183005282747009307e-01,-3.185563077525725983e-01,-3.565584559763189387e-02,6.717186361834778796e-02,5.647926430991064700e-02,8.175962126102929994e-02,-2.260873751877534865e-01,-4.927413815966749655e-02,3.239219259682616370e-01
1.125005476456180514e-01,-4.404975041479765319e-02,-9.759934682608270573e-02,2.716878342777991062e-02,2.289869291645393323e-01,-1.222816813357889693e-01,1.800671577807415671e-02,-3.592139890071249231e-01,-1.325123328899895370e-01,3.705168167264525358e-01
1.218273293363586612e-01,-1.487962168017489262e-01,-1.158825198595301864e-01,8.244196242914951511e-02,2.975703417353474656e-01,4.117881671754335116e-02,-1.099632451427411672e-01,-2.549611198435715043e-01,3.644898558815912529e-03,7.865384933747252005e-02
1.118480103407684112e-01,-4.040603689804106446e-01,-1.693476791807093373e-01,-3.684137378672964341e-02,3.353227086576330285e-01,-8.678287088987119563e-03,4.323422791095694190e-02,-1.196174374041929916e-01,-6.884949848046875709e-02,3.182485900264138134e-01
-1.454915064938883673e-01,-4.292214035610196210e-01,-1.156962290142271449e-01,-8.385255958299868417e-02,1.165381893123224044e-01,2.658286742522356083e-01,-9.245068633989068224e-03,-8.042641627622915124e-02,2.510818836765423279e-01,2.314008189767094992e-01
1.266174082974395008e-02,-1.113200940406761374e-01,-4.647887483511246864e-02,6.584919332187548491e-02,7.873930195460111803e-02,2.898186883674515046e-01,-1.095613450001384492e-01,-5.710343865512871320e-01,4.268244565172942262e-01,-3.583846799380721593e-02
-4.073341961284623336e-01,-5.454260893493190904e-02,4.992916389933935856e-02,3.594543213689899153e-01,-1.204924673243829292e-01,3.386545921115639568e-01,1.277424318974484246e-02,-6.544033046928303676e-01,3.058814315051049393e-01,1.635897470345138438e-01
-5.054908553089377810e-01,2.666661376783137638e-01,3.954078516150668840e-03,2.432587937415125190e-01,-8.727194697685579372e-02,4.160699548573520978e-02,-4.414804750312917997e-02,-2.292679151740956989e-01,-9.638000223279222234e-02,4.069443774713722428e-01
-5.307626389098281106e-01,2.218526215690611314e-01,-2.732187201027126422e-01,1.932966380000662385e-02,4.699087896572338996e-02,-1.349544030376235160e-01,1.530809221389466124e-01,-8.444869296908030787e-02,3.624962145878249942e-01,2.145128451476675524e-01
-3.681208493416670002e-01,-5.428105830009703758e-02,-5.715566432772724303e-02,1.057212710742791301e-01,8.250064781903837519e-02,-3.369464985419777792e-01,-7.983467231281847487e-02,2.424747172214516411e-01,3.889685941928776036e-01,7.593541618981655694e-02
-1.750763364666272359e-01,4.456698252475378708e-02,-5.628520054827738234e-02,1.890475363217885008e-01,1.329929012639376462e-01,-1.613953026285566417e-01,-1.683680213991335384e-01,-2.983170384848381554e-02,1.932690630613608240e-01,3.015644058737101604e-02
-5.549303235975487636e-02,-5.224037853431439532e-02,-1.651489995588391602e-01,2.043987092181218101e-01,2.048627511578581528e-01,-3.104141759222711627e-01,-1.197257324888863494e-01,1.207384121255221932e-01,2.124042868676838669e-01,-3.486616082616094542e-02
-7.629273916095219432e-02,-2.089884471966446944e-01,-1.088516540323271053e-01,-8.278206502333136652e-02,2.301756709815586111e-01,-7.108644519853683785e-02,1.806194650344702946e-02,-1.686117472047903576e-01,2.495754392477215478e-01,2.247798915648909768e-01
-2.145993227186349661e-01,-1.144738777911136762e-01,-2.157024027641107344e-01,-1.537242177021132250e-01,3.826071737346209978e-01,-8.995311684118528772e-02,-7.660150028036954994e-02,1.979955917529463150e-01,2.622450106596517228e-01,2.756931510329428334e-02
-1.620620164342477521e-02,-6.013195840410166110e-02,-3.061499138287272076e-02,-2.042553330253991384e-01,2.893456760386200477e-01,-2.608338103698356614e-01,1.985348812592498124e-01,2.276807875391154423e-01,-1.948230384148358363e-01,5.603515410287394222e-02
1.590609183685149364e-01,-1.023522609044459214e-01,6.347447978146532332e-02,-4.505199339122814006e-01,1.604527951550720755e-01,-2.268753968744684768e-01,2.550267832927274880e-01,2.058847276717002892e-02,8.844019936654079483e-02,2.219298853725529611e-02
2.851960493871156799e-01,-8.917052440048199580e-02,5.271310090533996157e-02,-1.948629955415268067e-01,-2.593166956026085254e-02,-4.859382287656170418e-01,5.549243755216237695e-01,-1.298168870480497228e-01,2.866295225049810269e-01,-2.480164855440156468e-01
3.497718677030303147e-01,-7.316783611052363190e-02,4.678080194477719500e-01,-1.174548186564863123e-01,-2.120666774315588532e-01,-5.907224680997023025e-01,3.385718254219283185e-01,-7.228358275075354167e-02,2.432888352234268137e-01,-3.282418786123730836e-01
1.065223877951797793e-01,-5.066348001468991974e-02,4.541481530977407588e-01,-1.114860767926495987e-02,-4.180255988078104140e-02,-1.973308171012046475e-01,-1.703252313590702116e-01,2.625690333619236372e-02,4.008389677896329051e-02,-1.503893331894756158e-01
