-8.063004627622802659e-06,3.101953576993407628e-05,1.530841626254102764e-05,-8.111173303510055906e-06,7.430721226802808917e-06,7.203617565642034400e-05,-9.968995476404099803e-06,3.432854489620951389e-05,-1.079702798771624999e-04,-2.600994052720830482e-05
0.000000000000000000e+00,0.000000000000000000e+00,0.000000000000000000e+00,0.000000000000000000e+00,0.000000000000000000e+00,0.000000000000000000e+00,0.000000000000000000e+00,0.000000000000000000e+00,0.000000000000000000e+00,0.000000000000000000e+00
0.000000000000000000e+00,0.000000000000000000e+00,0.000000000000000000e+00,0.000000000000000000e+00,0.000000000000000000e+00,0.000000000000000000e+00,0.000000000000000000e+00,0.000000000000000000e+00,0.000000000000000000e+00,0.000000000000000000e+00
0.000000000000000000e+00,0.000000000000000000e+00,0.000000000000000000e+00,0.000000000000000000e+00,0.000000000000000000e+00,0.000000000000000000e+00,0.000000000000000000e+00,0.000000000000000000e+00,0.000000000000000000e+00,0.000000000000000000e+00
0.000000000000000000e+00,0.000000000000000000e+00,0.000000000000000000e+00,0.000000000000000000e+00,0.000000000000000000e+00,0.000000000000000000e+00,0.000000000000000000e+00,0.000000000000000000e+00,0.000000000000000000e+00,0.000000000000000000e+00
0.000000000000000000e+00,0.000000000000000000e+00,0.000000000000000000e+00,0.000000000000000000e+00,0.000000000000000000e+00,0.000000000000000000e+00,0.000000000000000000e+00,0.000000000000000000e+00,0.000000000000000000e+00,0.000000000000000000e+00
0.000000000000000000e+00,0.000000000000000000e+00,0.000000000000000000e+00,0.000000000000000000e+00,0.000000000000000000e+00,0.000000000000000000e+00,0.000000000000000000e+00,0.000000000000000000e+00,0.000000000000000000e+00,0.000000000000000000e+00
0.000000000000000000e+00,0.000000000000000000e+00,0.000000000000000000e+00,0.000000000000000000e+00,0.000000000000000000e+00,0.000000000000000000e+00,0.000000000000000000e+00,0.000000000000000000e+00,0.000000000000000000e+00,0.000000000000000000e+00
0.000000000000000000e+00,0.000000000000000000e+00,0.000000000000000000e+00,0.000000000000000000e+00,0.000000000000000000e+00,0.000000000000000000e+00,0.000000000000000000e+00,0.000000000000000000e+00,0.000000000000000000e+00,0.000000000000000000e+00
0.000000000000000000e+00,0.000000000000000000e+00,0.000000000000000000e+00,0.000000000000000000e+00,0.000000000000000000e+00,0.000000000000000000e+00,0.000000000000000000e+00,0.000000000000000000e+00,0.000000000000000000e+00,0.000000000000000000e+00
0.000000000000000000e+00,0.000000000000000000e+00,0.000000000000000000e+00,0.000000000000000000e+00,0.000000000000000000e+00,0.000000000000000000e+00,0.000000000000000000e+00,0.000000000000000000e+00,0.000000000000000000e+00,0.000000000000000000e+00
0.000000000000000000e+00,0.000000000000000000e+00,0.000000000000000000e+00,0.000000000000000000e+00,0.000000000000000000e+00,0.000000000000000000e+00,0.000000000000000000e+00,0.000000000000000000e+00,0.000000000000000000e+00,0.000000000000000000e+00
0.000000000000000000e+00,0.000000000000000000e+00,0.000000000000000000e+00,0.000000000000000000e+00,0.000000000000000000e+00,0.000000000000000000e+00,0.000000000000000000e+00,0.000000000000000000e+00,0.000000000000000000e+00,0.000000000000000000e+00
-2.981286570319472427e-09,-2.760851766231726773e-10,3.849259513887309575e-08,-4.032315129968079108e-09,-1.719779910826251195e-08,-3.449086364679669518e-10,-8.424862764340199398e-09,-8.385438179457016421e-10,-1.634039663820529504e-09,-2.762754271125525629e-09
-6.439578991890070700e-08,-5.963439815060566514e-09,8.314400549996610017e-07,-8.709800680731039624e-08,-3.714724607384707531e-07,-7.450026547708063576e-09,-1.819770357097483454e-07,-1.811254646762719236e-08,-3.529525673852346227e-08,-5.967549225631105282e-08
-6.439578991890070700e-08,-5.963439815060566514e-09,8.314400549996610017e-07,-8.709800680731039624e-08,-3.714724607384707531e-07,-7.450026547708063576e-09,-1.819770357097483454e-07,-1.811254646762719236e-08,-3.529525673852346227e-08,-5.967549225631105282e-08
-2.683157913287519394e-09,-2.484766589608574206e-10,3.464333562498576699e-08,-3.629083616971260030e-09,-1.547801919743625712e-08,-3.104177728211702462e-10,-7.582376487906222968e-09,-7.546894361511312918e-10,-1.470635697438473390e-09,-2.486478844012960120e-09
0.000000000000000000e+00,0.000000000000000000e+00,0.000000000000000000e+00,0.000000000000000000e+00,0.000000000000000000e+00,0.000000000000000000e+00,0.000000000000000000e+00,0.000000000000000000e+00,0.000000000000000000e+00,0.000000000000000000e+00
0.000000000000000000e+00,0.000000000000000000e+00,0.000000000000000000e+00,0.000000000000000000e+00,0.000000000000000000e+00,0.000000000000000000e+00,0.000000000000000000e+00,0.000000000000000000e+00,0.000000000000000000e+00,0.000000000000000000e+00
0.000000000000000000e+00,0.000000000000000000e+00,0.000000000000000000e+00,0.000000000000000000e+00,0.000000000000000000e+00,0.000000000000000000e+00,0.000000000000000000e+00,0.000000000000000000e+00,0.000000000000000000e+00,0.000000000000000000e+00
0.000000000000000000e+00,0.000000000000000000e+00,0.000000000000000000e+00,0.000000000000000000e+00,0.000000000000000000e+00,0.000000000000000000e+00,0.000000000000000000e+00,0.000000000000000000e+00,0.000000000000000000e+00,0.000000000000000000e+00
0.000000000000000000e+00,0.000000000000000000e+00,0.000000000000000000e+00,0.000000000000000000e+00,0.000000000000000000e+00,0.000000000000000000e+00,0.000000000000000000e+00,0.000000000000000000e+00,0.000000000000000000e+00,0.000000000000000000e+00
0.000000000000000000e+00,0.000000000000000000e+00,0.000000000000000000e+00,0.000000000000000000e+00,0.000000000000000000e+00,0.000000000000000000e+00,0.000000000000000000e+00,0.000000000000000000e+00,0.000000000000000000e+00,0.000000000000000000e+00
0.000000000000000000e+00,0.000000000000000000e+00,0.000000000000000000e+00,0.000000000000000000e+00,0.000000000000000000e+00,0.000000000000000000e+00,0.000000000000000000e+00,0.000000000000000000e+00,0.000000000000000000e+00,0.000000000000000000e+00
0.000000000000000000e+00,0.000000000000000000e+00,0.000000000000000000e+00,0.000000000000000000e+00,0.000000000000000000e+00,0.000000000000000000e+00,0.000000000000000000e+00,0.000000000000000000e+00,0.000000000000000000e+00,0.000000000000000000e+00
0.000000000000000000e+00,0.000000000000000000e+00,0.000000000000000000e+00,0.000000000000000000e+00,0.000000000000000000e+00,0.000000000000000000e+00,0.000000000000000000e+00,0.000000000000000000e+00,0.000000000000000000e+00,0.000000000000000000e+00
0.000000000000000000e+00,0.000000000000000000e+00,0.000000000000000000e+00,0.000000000000000000e+00,0.000000000000000000e+00,0.000000000000000000e+00,0.000000000000000000e+00,0.000000000000000000e+00,0.000000000000000000e+00,0.000000000000000000e+00
0.000000000000000000e+00,0.000000000000000000e+00,0.000000000000000000e+00,0.000000000000000000e+00,0.000000000000000000e+00,0.000000000000000000e+00,0.000000000000000000e+00,0.000000000000000000e+00,0.000000000000000000e+00,0.000000000000000000e+00
0.000000000000000000e+00,0.000000000000000000e+00,0.000000000000000000e+00,0.000000000000000000e+00,0.000000000000000000e+00,0.000000000000000000e+00,0.000000000000000000e+00,0.000000000000000000e+00,0.000000000000000000e+00,0.000000000000000000e+00
0.000000000000000000e+00,0.000000000000000000e+00,0.000000000000000000e+00,0.000000000000000000e+00,0.000000000000000000e+00,0.000000000000000000e+00,0.000000000000000000e+00,0.000000000000000000e+00,0.000000000000000000e+00,0.000000000000000000e+00
0.000000000000000000e+00,0.000000000000000000e+00,0.000000000000000000e+00,0.000000000000000000e+00,0.000000000000000000e+00,0.000000000000000000e+00,0.000000000000000000e+00,0.000000000000000000e+00,0.000000000000000000e+00,0.000000000000000000e+00
0.000000000000000000e+00,0.000000000000000000e+00,0.000000000000000000e+00,0.000000000000000000e+00,0.000000000000000000e+00,0.000000000000000000e+00,0.000000000000000000e+00,0.000000000000000000e+00,0.000000000000000000e+00,0.000000000000000000e+00
0.000000000000000000e+00,0.000000000000000000e+00,0.000000000000000000e+00,0.000000000000000000e+00,0.000000000000000000e+00,0.000000000000000000e+00,0.000000000000000000e+00,0.000000000000000000e+00,0.000000000000000000e+00,0.000000000000000000e+00
-7.158991091418152567e-10,-6.530683444756100601e-10,-4.733860359475512297e-08,-3.593997941593282128e-10,-2.119037599952833424e-07,-1.426709188635393359e-09,2.718405420848678689e-07,-5.023113747176907215e-10,-1.835176219861623416e-09,-7.105614463837864353e-09
-2.676616073920213521e-09,-2.028102773840524508e-09,-1.508164981615563132e-07,-1.258759508147927505e-09,-1.846514120010341424e-06,-4.343812243531998935e-09,2.039749151083873866e-06,-4.045917780776982391e-09,-5.641077889440508303e-09,-2.242424664231893602e-08
-3.535497706085875202e-08,-6.282809072459078852e-09,-9.258959438101379918e-07,-2.306822206797841391e-08,-6.946301740258066049e-05,-3.688698626005812031e-08,7.076057816457989884e-05,-1.274069226566127729e-07,-1.603637949147007614e-08,-1.266285215795362083e-07
-8.966406300617528540e-08,-1.564491913615365631e-07,-2.768872617163933441e-06,-6.624661658201569498e-08,-1.950367521936403220e-04,-9.457215791435561079e-08,1.995228494990052839e-04,-7.465376457901442494e-07,-1.166597645739721613e-07,-4.470952489727850408e-07
-2.032594921046575829e-07,-6.577894273089119755e-06,-1.882663552211018648e-05,-3.124298105661853545e-07,-1.039177444493355522e-04,-6.276771048443296909e-08,1.358684508744362098e-04,-3.513474861902249416e-06,-1.615372507814713909e-06,-8.388722470289733361e-07
-7.890365363748251660e-07,-7.277372571922733669e-06,-5.438617203411029585e-05,-4.424367792877375675e-07,-5.646686122092450859e-05,-1.954915579333553940e-07,1.261421876543040825e-04,-3.512297559120870712e-06,-1.861834476666085137e-06,-1.210684917964049842e-06
-9.180822101880222095e-06,-6.750497867744256499e-06,-4.364975703131169008e-05,-4.474174149595558299e-07,-9.770256654426272345e-05,-8.122122907284064466e-07,1.668109665896167339e-04,-1.630279213397676213e-06,-1.895691102503441474e-06,-4.741723022828951899e-06
4.785593778629982931e-05,-6.310303979614330650e-06,-3.269451279612622268e-05,-8.080381194721973967e-07,-1.611479012530648203e-04,-1.045367088618110668e-06,1.966714524607252870e-04,-2.120962967396702674e-05,-2.079397613458787847e-06,-1.923223972270337971e-05
1.042262266983265347e-04,-6.888608381960761742e-06,-3.160419645595539652e-05,-1.222861231155086066e-06,-3.121680369011074242e-04,-1.067533210381497421e-06,3.230272832845008197e-04,-4.179140039754010872e-05,-2.941836391883916065e-06,-2.956903701284387451e-05
4.365703019070253020e-05,-5.187680580947845719e-06,-2.640386469992564661e-05,-1.016529363443374343e-06,-1.927502256028486272e-04,-2.239202968482287702e-06,2.167585537145278428e-04,-1.575761592606911797e-05,-2.786023944040880055e-06,-1.427444081947285955e-05
-2.815661047924341897e-06,5.838670990300507329e-05,2.449008847583004334e-05,-2.446062531063655942e-05,-1.397124767368314150e-04,-5.035858030014783204e-06,1.055921453028263181e-04,-7.464080580250642023e-07,-5.723339151511278557e-06,-9.974575346717603247e-06
5.415189517322232247e-05,6.943581273682985068e-05,1.642400103765029199e-04,-2.994253861291431862e-05,-3.610525437672717141e-04,-4.383870014019820079e-06,1.640271210383944969e-04,-2.224229397685526676e-06,-6.852551710090781388e-06,-4.739910582296808249e-05
1.570130987644056259e-04,-2.973578863147165258e-08,1.960741876084968734e-04,-8.383095409492409065e-06,-3.700086578955295163e-04,-3.212737131787128530e-06,1.182005340394586782e-04,-3.393356343570678405e-06,-1.121413992595527932e-05,-7.504609791739530141e-05
7.583894840623152075e-05,-6.483003744210724479e-06,-4.943984674714851110e-05,-1.428171212264677162e-06,-1.256220021121434249e-04,-4.769929061743271543e-06,1.591297650997297879e-04,-1.514795798927778576e-06,-5.390842280048720669e-06,-4.032012254947444767e-05
-3.023228102818418689e-06,-7.966607403348371259e-07,-4.098927552642814661e-05,-4.220203747258388874e-07,-5.525436060416939868e-05,-8.004682727179413768e-06,1.166016376290488621e-04,-2.777872602631718808e-07,-2.268935991491862506e-06,-5.564686301637782375e-06
-2.022358193200341260e-06,-1.099039967317301254e-07,-2.736929377612059221e-05,-7.065458169172665901e-07,-1.024570747685578528e-04,-7.538834377171373623e-06,1.479721326210976285e-04,-4.089485429228580373e-07,-1.938959079303371084e-06,-5.420214070172052516e-06
-1.171430813110120410e-06,-6.484638292140034209e-08,-1.569915125371687751e-05,-1.476912106137861677e-06,-7.873925934437481212e-05,-6.308270412994146529e-06,1.100245710236441701e-04,-2.091486873927831190e-07,-1.871280945391051393e-06,-4.484271077605017424e-06
-6.472064941256303094e-07,-1.906558369934741879e-08,-3.585550148815219690e-06,-3.488234684682336754e-07,-5.296704305916367982e-05,-1.559952324320821513e-06,6.132972127978143426e-05,-2.312944811687602016e-08,-6.185531597510398824e-07,-1.560397593320648955e-06
-1.982943363921076349e-07,-1.122271263499084338e-08,-1.022052860661703642e-06,-1.977449676137807871e-08,-6.850921887940520532e-05,-7.048639318067739137e-08,7.164296888137770478e-05,-2.936843523653300922e-08,-2.861999268025793923e-07,-1.496350840302555039e-06
-6.041484440331119609e-09,-4.019411974592100374e-09,-4.572797284450729279e-07,-4.482633988170463064e-09,-2.163500444767634998e-05,-2.447123057889593782e-08,2.274162235902449575e-05,-3.632451386063569714e-08,-8.707470273997564057e-08,-4.869242053205267722e-07
0.000000000000000000e+00,0.000000000000000000e+00,0.000000000000000000e+00,0.000000000000000000e+00,0.000000000000000000e+00,0.000000000000000000e+00,0.000000000000000000e+00,0.000000000000000000e+00,0.000000000000000000e+00,0.000000000000000000e+00
0.000000000000000000e+00,0.000000000000000000e+00,0.000000000000000000e+00,0.000000000000000000e+00,0.000000000000000000e+00,0.000000000000000000e+00,0.000000000000000000e+00,0.000000000000000000e+00,0.000000000000000000e+00,0.000000000000000000e+00
0.000000000000000000e+00,0.000000000000000000e+00,0.000000000000000000e+00,0.000000000000000000e+00,0.000000000000000000e+00,0.000000000000000000e+00,0.000000000000000000e+00,0.000000000000000000e+00,0.000000000000000000e+00,0.000000000000000000e+00
0.000000000000000000e+00,0.000000000000000000e+00,0.000000000000000000e+00,0.000000000000000000e+00,0.000000000000000000e+00,0.000000000000000000e+00,0.000000000000000000e+00,0.000000000000000000e+00,0.000000000000000000e+00,0.000000000000000000e+00
0.000000000000000000e+00,0.000000000000000000e+00,0.000000000000000000e+00,0.000000000000000000e+00,0.000000000000000000e+00,0.000000000000000000e+00,0.000000000000000000e+00,0.000000000000000000e+00,0.000000000000000000e+00,0.000000000000000000e+00
0.000000000000000000e+00,0.000000000000000000e+00,0.000000000000000000e+00,0.000000000000000000e+00,0.000000000000000000e+00,0.000000000000000000e+00,0.000000000000000000e+00,0.000000000000000000e+00,0.000000000000000000e+00,0.000000000000000000e+00
-2.972681989555788801e-09,-9.851591447372400340e-10,-5.666300080146324229e-09,-1.579224453466774976e-09,-2.519040811312929718e-08,-6.283481628281839907e-09,5.571372339187557725e-08,-9.078356984391523852e-10,-4.209782929253923555e-09,-7.918849354865155838e-09
-1.178142687759367254e-07,-8.876954346781275237e-14,-1.038228121847163152e-08,-8.985638543663603728e-10,-3.084132729972839256e-09,-4.327630274802312065e-08,1.759478096071295562e-07,-1.539738023805870891e-10,-2.284180137000942454e-10,-1.097796947348818342e-10
-3.116758179421624126e-08,-6.419245798937497299e-09,-1.861355639921785506e-06,-8.416287066650605157e-09,-2.159923506875736558e-06,-6.826700073786085437e-08,4.219285040089639311e-06,-8.031582842829719452e-09,-4.539820417412401318e-08,-3.030599087748788815e-08
-1.586374119782314332e-06,-2.466665200976540053e-07,6.078616187523020905e-07,-8.783567133429181383e-07,-4.912137669469694281e-06,-6.473058069816044570e-08,7.304059477164226500e-06,-1.571059425919719762e-08,-1.714801485056976799e-07,-3.646474976089417522e-08
-8.937464729014113940e-06,-1.377857525035066475e-06,1.321632431308062059e-06,-4.688621692548757715e-06,-1.155492415611020549e-04,-1.523693562147208673e-07,1.311289447359690024e-04,-2.755715237704359078e-07,-1.135877510400466746e-06,-3.335732691911768069e-07
-3.747906995802245875e-06,-4.206814544316092718e-06,-1.915606688945770518e-05,-8.440930210102717192e-06,-2.570725050758867212e-04,-2.630347551704740149e-06,3.060275949246099038e-04,-5.424823559829595656e-06,-3.787664690244646610e-06,-1.560535407265068728e-06
-2.617471430993345869e-05,-7.552347172575011138e-05,3.064377561695481541e-05,-2.268157128591448445e-05,-3.113302883593675957e-04,-6.361218641002663430e-06,4.353478088483216449e-04,-9.143236523749168038e-06,-1.235148523286006967e-05,-2.425598386697958520e-06
-6.533769334391178573e-05,-1.517771664399121664e-04,2.136504159894321532e-04,-4.524123365765607213e-05,-2.522349078738026634e-04,-3.317997351989275339e-05,4.244455290953795079e-04,-3.915849905839775667e-05,-4.503032917549608632e-05,-6.136142015741902656e-06
-6.004452228803250780e-05,-6.987356787908769384e-05,1.965959246700023006e-05,3.171843861177107933e-05,-5.412376305963939723e-04,-1.099896781651201909e-04,8.540741430941800822e-04,-3.081659433666941570e-05,-6.983985666125158622e-05,-2.365032424639730888e-05
-8.426579693923898662e-05,-4.216398807895871593e-05,6.481629312626437469e-05,1.782187174281011190e-04,-5.259085435230255847e-04,-2.113355640756296792e-04,7.927799355501089201e-04,-5.246255332250489398e-05,-8.478523237605549998e-05,-3.489326778906208336e-05
-7.434796144472476272e-05,4.871398775077503816e-05,8.193819741107612046e-05,1.932253591297178742e-04,-8.432866328713027300e-04,-1.761625480979973793e-04,1.001191637019952212e-03,-6.023924011312334424e-05,-1.018975523633657438e-04,-6.913524642100384954e-05
-1.267994884025581731e-04,3.272208841142402341e-04,1.267027393751162206e-04,-3.185807470807717329e-05,-7.767291814230987490e-04,-1.737484196261762453e-04,9.367086199460149514e-04,-4.095158189765677674e-05,-1.433177448478078727e-04,-9.722775252999641597e-05
-2.405557612216018828e-04,4.321279831782621973e-04,7.857201081661426608e-05,-9.890660281899755070e-05,-4.245227566277303441e-04,-2.317359561636662588e-04,7.760522645527634334e-04,-6.112263951751719152e-05,-1.370334226442408677e-04,-9.287511955388803744e-05
-3.215784935536284035e-04,7.493707195272121882e-04,1.997139463731589196e-04,-1.998751091839154825e-04,-5.516682145244837391e-04,-1.111899175832153783e-04,5.599212284363066627e-04,-7.533112733799357118e-05,-1.664641907302529184e-04,-8.289884142318823686e-05
-2.914704029138318010e-04,4.474621754481875871e-04,2.390909814790426950e-04,-8.497039954180608779e-05,-5.927755003672937435e-04,8.791567015147393345e-05,4.869995537766800609e-04,-2.381885947888119431e-05,-1.770913696818108142e-04,-9.134184887176016135e-05
-2.577132135932944362e-04,1.984751330320948713e-06,3.781120180086749424e-05,-4.904314711775782713e-05,-3.024367492337575575e-04,1.824215423712835938e-04,5.770496808974663909e-04,-1.370633735914388978e-05,-1.083194472340775756e-04,-6.804828186190749466e-05
-1.652931233234910722e-04,3.541309948816677704e-05,-1.198730797121045342e-04,-9.061450122010916914e-05,-3.064919977012189943e-04,1.196577134609168883e-04,5.736622073349130838e-04,-5.685515304459315114e-06,6.883046757664953148e-06,-4.765784978027671234e-05
-1.105325938429539418e-04,1.553782406084928621e-04,-3.067222379316187925e-04,-5.279019956409663328e-05,-2.019795806547521164e-04,5.319534768346252727e-05,5.678175704386493076e-04,-3.291048848094973651e-06,-6.440480901867078306e-05,-3.667068887041797679e-05
-8.791854722585038884e-05,-6.069395736222532135e-06,-8.844730749894689397e-05,-1.940764510180732609e-05,-1.501300905107421312e-04,-1.403020806083764727e-04,5.497353437492926830e-04,-2.151558252459883029e-06,-3.701060627801818609e-05,-1.829811253686669675e-05
-3.457136886161869013e-05,-2.986841256389531480e-05,-6.545107692313684015e-05,-2.605706004506340524e-05,-1.532023173248106215e-04,-1.650156927579565682e-04,5.234726715348664294e-04,-1.341740002126897238e-06,-2.800388226510797216e-05,-1.996112079115184835e-05
-8.470632225763336093e-06,-1.113514026669493767e-05,-6.108569463999284036e-05,-1.701939226325743665e-05,-1.459392732933787178e-04,-1.000366658871154287e-04,3.678687800628296879e-04,-6.162313175023230618e-07,-1.408613077594053951e-05,-9.479619393183605602e-06
-3.287779173345664657e-06,-3.540919339580674765e-06,-1.451021008992121871e-05,-3.142178152867604105e-06,-6.468586306923144742e-05,-8.646105139145699207e-05,1.834974527534264602e-04,-1.697172182104774240e-07,-6.341696981640836060e-06,-1.358037337171657981e-06
-1.201689504562526554e-06,-1.493365758959621469e-06,9.421078082138161283e-05,-6.921284876380042826e-07,-1.942717800665783390e-05,-4.650422906432039591e-05,-2.084353323939812960e-05,-9.535561934829923785e-08,-3.773092490972403563e-06,-1.802086495246583947e-07
-7.078350612087099453e-08,-8.128459427107848121e-07,6.629400852810645643e-05,-3.453351846159672105e-08,-3.139844245704833774e-06,-1.016878001995194263e-05,-5.061323368311541128e-05,-7.069044645742304163e-09,-1.418668530503790049e-06,-2.825003689147613377e-08
0.000000000000000000e+00,0.000000000000000000e+00,0.000000000000000000e+00,0.000000000000000000e+00,0.000000000000000000e+00,0.000000000000000000e+00,0.000000000000000000e+00,0.000000000000000000e+00,0.000000000000000000e+00,0.000000000000000000e+00
0.000000000000000000e+00,0.000000000000000000e+00,0.000000000000000000e+00,0.000000000000000000e+00,0.000000000000000000e+00,0.000000000000000000e+00,0.000000000000000000e+00,0.000000000000000000e+00,0.000000000000000000e+00,0.000000000000000000e+00
0.000000000000000000e+00,0.000000000000000000e+00,0.000000000000000000e+00,0.000000000000000000e+00,0.000000000000000000e+00,0.000000000000000000e+00,0.000000000000000000e+00,0.000000000000000000e+00,0.000000000000000000e+00,0.000000000000000000e+00
0.000000000000000000e+00,0.000000000000000000e+00,0.000000000000000000e+00,0.000000000000000000e+00,0.000000000000000000e+00,0.000000000000000000e+00,0.000000000000000000e+00,0.000000000000000000e+00,0.000000000000000000e+00,0.000000000000000000e+00
-6.869631533667174528e-09,9.651609961637615992e-07,-5.404306653232705142e-08,-1.155857481657762055e-07,-5.655381389773827309e-08,-1.805264424828650480e-08,-3.426431619040965856e-07,-2.218457893806854046e-09,-3.506354598822590492e-07,-1.855901210580299940e-08
-1.434846868462189015e-06,2.275671719425292421e-07,-4.032874807518725254e-07,-1.420196209107459931e-07,-5.965887170963227834e-06,1.273888762992189926e-06,7.619801829575355649e-06,-1.147693564674855746e-08,-4.492215183782723106e-07,-7.145181693970235565e-07
-2.262972403896549781e-05,-2.867536728086114560e-07,-1.005339810877718288e-05,-6.201545769724389511e-06,-1.350390104066776601e-06,2.477320267486898169e-05,1.957439538040199836e-05,-1.187408417356580745e-06,-2.568334818518932965e-06,-7.004312505294872179e-08
-1.530259620905541080e-04,-6.171469357367909425e-06,-6.318916933238632311e-05,3.140188719788377151e-04,-2.109810877921490776e-05,-1.241560696743195858e-04,7.178782199474943000e-05,-1.831283829366711311e-06,-1.495700790657260930e-05,-1.377623003804022796e-06
-1.706454738411256012e-04,-1.070418695597793019e-05,-4.924412010841362368e-05,2.439370767346130543e-04,-2.050793700461463870e-04,-7.182291504641905293e-05,2.925132905604420222e-04,-3.175448445854519018e-06,-2.309602096316076299e-05,-2.682831887958476766e-06
-2.151766942664452517e-04,-3.843044432581329422e-05,3.362404495674212738e-05,3.201173476640673736e-04,-2.028081722416554954e-04,-8.798378789370333837e-05,2.947563914652190408e-04,-4.099198823570966249e-05,-5.772049191408693436e-05,-5.386205208613797801e-06
-8.849006572006910452e-05,-1.511399301993278062e-04,3.805545814426799893e-04,3.391702942417176543e-04,-4.902266008398422541e-04,-1.519344635120263131e-04,3.044445092564580357e-04,-9.498324911029300331e-05,-3.512470465382380052e-05,-1.227037090547273681e-05
-1.582342838272370663e-04,-2.934231941486513786e-04,9.519681412251498236e-04,1.458311444738283206e-04,-7.683807598753274138e-04,-1.443654881170465694e-04,5.416090327488006038e-04,-1.496566792342954820e-04,-8.709836351881086324e-05,-3.824954972641065221e-05
-3.260095315475729000e-05,-4.320412173452808577e-04,8.623022936191705474e-04,2.303304262851707356e-04,-8.671076819787781279e-04,-8.543223610899892051e-05,7.385609952206490317e-04,-2.254950872381658643e-04,-9.871746972518078637e-05,-8.979906957382768179e-05
7.444788935751928398e-05,-3.800093780826001126e-04,1.002419085483092229e-03,7.451962872833862604e-04,-9.225371427445860830e-04,-4.754299592483732023e-04,5.914030810427883681e-04,-2.851507691513429504e-04,-2.146078440877268660e-04,-1.357312498521569949e-04
-5.755887113182504822e-05,2.467735109991054263e-05,9.248747908642017184e-04,1.120978944408948736e-03,-1.277341875351656591e-03,-3.812292760830273352e-04,3.742547644764372575e-04,-1.890853468857073294e-04,-3.191794746187377589e-04,-2.203910067785427721e-04
1.790442715505133602e-04,2.041306529951770674e-04,1.092306464934750775e-03,6.346296570556397669e-04,-1.521515341830708247e-03,-5.710577863732431382e-04,7.114034757741608374e-04,-2.056728875504414318e-04,-2.213557423520899940e-04,-3.019127642037553361e-04
7.683413819872114692e-05,1.796253370617087463e-04,7.691790938958679037e-04,9.696611881246540096e-04,-1.003409627793121553e-03,-5.433467164435403429e-04,5.799737061993625632e-04,-2.463700130399518098e-04,-3.807279125608375265e-04,-4.014191936428653331e-04
7.868357180744883501e-05,4.776313828329899268e-04,4.080956701451020374e-04,9.615208635977281560e-04,-1.007869088802965194e-03,5.893554120623815419e-05,4.531249099845067541e-04,-2.290338626604858114e-04,-7.522867518702560643e-04,-4.488022362403078507e-04
2.431360428921506444e-05,3.682881369819414503e-04,3.153508788154077013e-04,8.318667391474546214e-04,-9.067032414616184094e-04,2.239612988736521513e-04,3.694173372490454528e-04,-1.687386002037968564e-04,-6.363609813741283230e-04,-4.213951723171735237e-04
3.287161811921168947e-05,-2.870940640976361066e-04,2.989690030573380775e-04,6.121084349930028690e-04,-7.440859240172112855e-04,4.598726141581415566e-04,3.475120319394010642e-04,-1.437177500346967240e-04,-2.967938808886912572e-04,-2.796420832288606289e-04
-4.228840859530602603e-04,-2.794904355621442632e-04,-2.332120209683053282e-04,5.590314921714773823e-04,-6.323952200702871946e-04,6.226509751680649879e-04,5.510516540134943958e-04,-1.416623999339579126e-04,5.405676757172430541e-05,-7.714672643700504196e-05
-4.407745477065997514e-04,-2.403467257485478189e-05,-4.214025597127294808e-04,3.478370017420933237e-04,-1.889058943163285473e-04,6.280174220933051063e-04,6.858234902173256185e-04,-3.463097006486250227e-05,-3.959330924302410923e-04,-1.559961772471086345e-04
-3.353640600491613320e-04,-3.211328345666527792e-04,-3.918553990167722954e-04,5.064935638075042683e-04,-1.111759777598688672e-05,5.499600959513591082e-04,3.798938760061892081e-04,-3.303374194850073231e-05,-1.913860674268427146e-04,-1.524578349811365270e-04
-3.797706754034416480e-04,-4.326339329982833168e-04,-1.563861295606878109e-04,-1.023794381422905728e-04,5.234231458068214974e-05,3.777370483373324603e-04,6.342982606593238143e-04,-2.963143704410092639e-05,1.087824957940329069e-04,-7.235850622256495242e-05
-1.865043846861968665e-04,-2.648587069105903173e-04,-1.928644821281528328e-04,-2.926400194992508910e-04,5.582226521258706203e-05,2.233165344955056228e-04,5.708917564334989748e-04,-1.364799522307709245e-05,1.193094423875843346e-04,-1.882441008190959328e-05
-2.908833485624248271e-05,-1.170906093451646229e-04,-2.401216199159952327e-04,-1.595628234741147992e-04,-4.060615580086135190e-05,-3.053771410042799620e-05,4.724317574894449658e-04,-1.246134942179660277e-06,1.506918910179148028e-04,-4.870256072373061773e-06
-1.918485470497006609e-05,-6.647869286595803069e-05,-2.337626313048085213e-05,-5.421249920430507230e-05,-6.781604671896311913e-05,5.997033092605008896e-05,1.949559869519393838e-04,-6.150852424169494101e-07,-2.134651230625627072e-05,-1.896363704639384949e-06
-2.605497563487904985e-05,-3.748836185275704520e-05,5.193729983847385434e-05,-9.238902994354741660e-07,-2.038769343186770907e-06,1.732105045702128448e-04,-1.518163155453675973e-04,-4.561919007765934963e-08,-6.601654198078762118e-06,-1.782183449047316325e-07
-7.116558193341789696e-06,-6.296252827845448075e-05,-7.885994789364287711e-07,-4.201540711488825023e-08,-2.092583563491495813e-06,2.570988680483577259e-05,6.175822147724985701e-05,-4.698831408536138750e-09,-1.444299321290481921e-05,-1.813131643345040011e-08
0.000000000000000000e+00,0.000000000000000000e+00,0.000000000000000000e+00,0.000000000000000000e+00,0.000000000000000000e+00,0.000000000000000000e+00,0.000000000000000000e+00,0.000000000000000000e+00,0.000000000000000000e+00,0.000000000000000000e+00
0.000000000000000000e+00,0.000000000000000000e+00,0.000000000000000000e+00,0.000000000000000000e+00,0.000000000000000000e+00,0.000000000000000000e+00,0.000000000000000000e+00,0.000000000000000000e+00,0.000000000000000000e+00,0.000000000000000000e+00
0.000000000000000000e+00,0.000000000000000000e+00,0.000000000000000000e+00,0.000000000000000000e+00,0.000000000000000000e+00,0.000000000000000000e+00,0.000000000000000000e+00,0.000000000000000000e+00,0.000000000000000000e+00,0.000000000000000000e+00
-4.834178866135361307e-08,3.298874196935011162e-06,-1.089858010074716856e-06,1.725022394073926415e-06,-2.825406026174911420e-08,-2.348687817096426885e-06,-1.604074399059040750e-06,-1.476961766821550081e-09,1.059418358721922415e-07,-9.145389961020285328e-09
-8.686885117273418750e-07,3.348992408197566968e-07,-8.983008193484133305e-06,3.887213698355387068e-05,-6.811422970446830860e-06,-1.102401287730926512e-05,-8.716789036393472805e-06,-3.039679140685646750e-08,-1.748624839211848103e-06,-1.024093004393905788e-06
-3.063255886516046931e-05,9.996161392519879843e-06,-4.187065897340367363e-05,1.106722492012576656e-04,4.883385701147210327e-06,-8.583258723681451484e-05,6.537304435455626819e-05,-1.060321140987415469e-05,-1.951046710771456972e-05,-2.475357056513533755e-06
-2.422094660564178350e-04,8.451293202680155504e-05,-3.851334593936367115e-05,6.512200251132322293e-04,2.568430925971547233e-05,-4.457230689799991500e-04,7.313230495013093332e-05,-2.061961339422822286e-05,-7.323497936179677609e-05,-1.424909761807409264e-05
-1.966161574371188051e-04,2.739612981774407208e-05,2.861545593802310443e-04,7.493044542341563722e-04,-1.909657743224721068e-04,-4.899397561946147381e-04,7.183642864485333048e-05,-4.481135717197238605e-05,-1.924244826129781856e-04,-1.993404433782907189e-05
-1.138374250823122059e-04,-6.050292327855113773e-05,1.832040945656540436e-04,7.729130474529265346e-04,-9.371207035911248418e-05,-2.674732410846620591e-04,-2.399087697861967687e-05,-1.651348248775356292e-04,-1.810763016126098459e-04,-5.038947874517778669e-05
-1.659805543005826538e-04,-1.928738736570855135e-04,6.359178862648391358e-04,9.486922035071397455e-04,-4.941341559372759186e-04,-6.743858497076745577e-04,1.936073933620904776e-04,-2.697273802507625055e-04,1.272191554213367463e-04,-1.083348247020263520e-04
1.812739739698609432e-05,-3.894660446358350547e-04,1.219219261729366597e-03,6.670158024159663235e-04,-6.493015319831127495e-04,-2.691822531793611282e-04,-9.781515968624487085e-07,-4.880796970729152731e-04,1.572185675069516541e-04,-2.645733505811822921e-04
3.001338063721500029e-05,-2.943881517475899451e-04,7.261994957689681595e-04,9.278514679305421235e-04,-7.676221725751315164e-04,1.999605230090099916e-04,1.992564140954072199e-04,-6.204603448579534787e-04,-1.788769707298125319e-05,-3.829229151874892728e-04
3.889298797779602163e-04,-4.488721436470138881e-04,8.454410826272531826e-04,1.022426622690248647e-03,-7.402290896642921758e-04,4.734913377751230677e-04,-4.541229339922494808e-04,-6.519486998340141577e-04,2.029188521548477888e-05,-4.554079409485008775e-04
-3.131979483714198917e-05,3.161739216082381262e-05,1.082897177394364805e-03,1.177747444309974918e-03,-8.885420936784146125e-04,-2.677861858032834787e-05,-6.386939479699459956e-04,-5.653000153187889062e-04,4.779446415403099742e-04,-6.195721850208548483e-04
1.351421815166760267e-04,6.193683728600624019e-04,7.438366962025568657e-04,1.378952087915242056e-03,-6.000873490379286758e-04,-6.955696417719001027e-04,-4.668855832640469777e-04,-6.152756251491699321e-04,2.661775051375504233e-04,-7.656586444090383988e-04
-8.529757291521217221e-05,3.785079147837257523e-04,1.035976163379923607e-03,8.624677740282842920e-04,-8.765134496382275724e-04,-1.031685360410000387e-04,-5.216588763529163807e-04,-6.360315199200739086e-04,6.915549151646299903e-04,-7.458368124891330943e-04
2.561503180510494378e-04,2.898319746166071968e-04,5.712665872894247352e-04,9.622472897216546037e-04,-8.664814940851516987e-04,5.933694597458900703e-04,-5.788733334621348975e-04,-7.297942744266028335e-04,4.635983666035092842e-04,-9.613148940542450309e-04
2.899969297566047815e-05,1.978666226998092434e-04,1.057940789251323637e-04,9.361456135295817289e-04,-3.816370759544059511e-04,4.200776897714583583e-04,1.211856430727307126e-04,-7.915885499852956661e-04,4.889465930726364425e-04,-1.125790308107308541e-03
1.472818008323261818e-04,3.096888430120748896e-06,3.604256407352117333e-04,3.932405732023269620e-04,-5.990879114430885293e-04,6.886853765261904048e-04,2.858370795113968099e-04,-6.915570290157487671e-04,2.574269611633083388e-04,-8.453493799420432270e-04
-9.248797727579820673e-05,1.155382085525693831e-04,1.953724463657568013e-04,6.223304748575128349e-04,-5.749652747206129930e-04,9.783732472063160109e-04,-1.313486224529968234e-04,-5.509306635591575303e-04,1.332635019514737953e-04,-6.951453409250616050e-04
-2.960996231148832307e-04,4.823564064252610414e-04,-4.473056226226894091e-04,3.922878358485921697e-04,3.961640093424972724e-04,2.210164801083138494e-04,2.018930595508875228e-04,-2.925020385253966171e-04,-2.273889162621664053e-05,-6.350716153863676964e-04
-5.316334632639223377e-04,2.359078917435684626e-04,-3.209198298204336895e-04,-2.644830729551077568e-04,8.840031491210087944e-04,-2.393659762315169940e-04,6.823710626689489991e-04,-2.067322742398686056e-04,2.282106225991996384e-04,-4.673581096218797364e-04
-5.649588047191836035e-04,2.209489672227537118e-04,-7.719104496924347660e-04,-5.143233123174004726e-04,7.196448611449847172e-04,5.876432287905117074e-04,8.358558743642704797e-04,-1.283632747277725855e-04,7.503186602885676183e-05,-4.595689560945842968e-04
-2.929171601492292876e-04,1.305221530524553207e-05,-9.116026803636180552e-04,-4.741539494241880297e-04,5.479641202954940119e-04,7.931389315198593849e-04,9.017785742000127306e-04,-1.240562956549396236e-04,-2.207944286361139758e-04,-2.324093270925220575e-04
-2.609613105471948768e-04,-2.055291439763419877e-05,-5.465575925063894704e-04,-6.028429189066912162e-04,3.886621196488790342e-04,8.839703864780693639e-04,5.398617337654641746e-04,-4.360357227089599737e-05,-2.644544991433017364e-04,-7.352143212030518525e-05
-2.416442101388287884e-04,-2.341054224981802088e-04,-2.565318220735987023e-04,-1.107134129223143242e-04,3.420877528532966102e-04,7.871443037059807583e-04,-2.673810141954365677e-04,-2.014274461378147960e-05,3.836410565668891073e-05,-3.707753577382561188e-05
-7.892507620805419761e-05,-1.759979366697038785e-04,-1.476394586625337079e-05,-1.284437336808324741e-05,1.167499362311450763e-04,3.179176219853592391e-04,-6.297878369531246774e-05,-1.429236503623572711e-06,-8.129459354985711628e-05,-6.433612355616162830e-06
-3.831906990812661885e-06,-1.932486879697300976e-05,-1.470679128662731800e-05,-3.804394114670505441e-07,-1.589241449263804719e-05,2.912619330162892373e-05,5.575213416157833541e-06,-1.839209013323391286e-07,2.162675047943752197e-05,-2.007815317373876579e-06
-4.464754683229744929e-07,-7.895454732772810575e-06,-1.357280125338758458e-05,-1.233297189125939485e-07,-6.842799368337880787e-06,-8.456453819754797550e-06,4.240623431916809317e-05,-3.536312794678272469e-08,-4.719520522512472713e-06,-3.140363072203503494e-07
0.000000000000000000e+00,0.000000000000000000e+00,0.000000000000000000e+00,0.000000000000000000e+00,0.000000000000000000e+00,0.000000000000000000e+00,0.000000000000000000e+00,0.000000000000000000e+00,0.000000000000000000e+00,0.000000000000000000e+00
0.000000000000000000e+00,0.000000000000000000e+00,0.000000000000000000e+00,0.000000000000000000e+00,0.000000000000000000e+00,0.000000000000000000e+00,0.000000000000000000e+00,0.000000000000000000e+00,0.000000000000000000e+00,0.000000000000000000e+00
-5.507153876796590178e-07,3.523937983365114482e-06,-9.837153077482332704e-07,5.477000110827701125e-06,-5.124269827635595452e-07,-6.409273179775176597e-06,1.647684623183354399e-06,-9.157223200790398688e-07,-1.142094637780329914e-06,-1.346749015501706548e-07
-8.361807269307348588e-06,1.644379178465799537e-05,2.000048166549808678e-05,1.995287788362620893e-04,-3.702271603928036100e-06,-8.542032898556415168e-05,-9.923127247748554701e-05,-5.887820664867237413e-06,-3.068098400855520495e-05,-2.688567276710221732e-06
-1.120037694103691891e-04,4.047294876928361822e-05,6.297497386570526556e-05,5.661069722596939009e-04,-8.141696677119512990e-06,-4.403598596380104368e-04,1.531554825755184724e-05,2.202663259954273841e-05,-1.249105224354794754e-04,-2.148122759079898307e-05
-3.472262540189461895e-04,3.558653704866640479e-04,-8.364706508292850157e-05,9.856859701627273141e-04,4.546974220606394358e-05,-6.781823923751849077e-04,-3.383786431652234636e-04,3.985024787395314845e-04,-2.680319186768296050e-04,-7.005728827587242192e-05
-2.399498198351224948e-04,2.717250659916151177e-04,-5.233726599936639715e-05,1.265375826970201742e-03,-8.110276281689128813e-05,-8.527890193635136781e-04,-2.482452817038085201e-04,4.894550604267871316e-04,-3.597284832737926430e-04,-1.924033203961094990e-04
-3.301906602531678482e-04,-2.396235503194995204e-06,5.958488856869554760e-04,1.036888094788229698e-03,-6.214400443279688262e-05,-5.974389631119836602e-04,-3.911726144680094212e-04,2.501124549416189704e-04,-1.797673413116061228e-04,-3.197396163360469059e-04
-1.696604247935823071e-04,-4.295664713456130799e-04,7.031962953953954350e-04,5.570018561410067237e-04,-2.277194323279181545e-04,-5.940806552445527123e-05,1.767188316761836211e-04,1.956639002989121084e-04,-2.894986068034808473e-04,-4.567278827164467374e-04
-6.056680852388022113e-05,-4.861516241635309606e-04,5.862387991375515904e-04,4.400022614846210039e-04,-1.859335294830917809e-04,-8.502449870944164042e-05,1.759833631491151344e-04,1.659617689931582193e-04,5.770063323857095437e-05,-6.082103651230735732e-04
3.163606208595047715e-04,-7.795163872730099478e-04,7.127430811947698232e-04,7.957833469851549038e-04,-2.777587751179568724e-04,-5.466916085126238492e-05,2.044164208552454718e-04,-2.291807459951229048e-04,-2.912046464123098409e-04,-3.969737542450092315e-04
2.088769954943393164e-04,-9.825418208086035641e-04,1.224530323904188993e-03,1.337850328408980586e-04,-4.208919225239313839e-04,2.927895700399878198e-04,-9.139372665176313977e-04,-6.366737589200252741e-04,4.692300443347085441e-04,6.248328021560677764e-04
-4.150422296321422416e-05,-5.442295725174629319e-04,7.972647634035483861e-04,1.231036780163606700e-04,-4.172534686590239402e-04,-1.045523956737271789e-04,-3.560540502801573873e-04,-6.593841933066402813e-04,5.980759093482116351e-04,6.045335526321071566e-04
5.850767639310452874e-04,3.230722779864473779e-04,5.764752492136651250e-04,4.987865302968662925e-04,-8.262699318495684555e-04,-1.286843568019191224e-04,-9.836207398942300225e-04,-7.012829738225861672e-04,6.387823990390160880e-05,5.925689410363829549e-04
7.082248731049467678e-04,1.553258566574254311e-05,6.236998270615297423e-04,2.266409414140090159e-04,-3.351073678790870720e-04,-2.468865800020856737e-04,-2.853253233954983247e-04,-9.733959358931234705e-04,6.284365874939608267e-04,-3.618196075703932336e-04
2.437057767336445104e-04,4.606876239427341109e-04,6.092212577054996947e-04,4.047244252627825315e-04,-2.133834256880484366e-05,-6.801371283836418627e-04,-1.803119078654172856e-04,-1.011584724200306328e-03,2.642038741639861701e-04,-8.917085479047973324e-05
-5.357447764608410160e-05,2.880680522911382711e-05,1.219642708676311159e-03,8.882549499271573303e-04,-8.348518535418712218e-05,1.631854989693154543e-04,-3.610212185336322149e-04,-1.087507285137804787e-03,2.503157640981758768e-04,-9.646175602283687655e-04
5.632008517300872040e-04,-5.411504897263137628e-04,9.765710989996683519e-04,-4.349516967758159221e-05,-8.191411057854578771e-04,7.583300581899196646e-04,1.873000828479938994e-04,-9.741257546859335937e-04,6.025985362480087591e-04,-7.100881081403910599e-04
6.141912075352094378e-04,-5.312931521491796183e-05,5.364365284825211438e-04,8.224895659634818418e-05,-2.061375268519191693e-04,2.057534933301536717e-04,4.280285536930121776e-04,-8.906717540459609768e-04,1.132754661320562823e-04,-8.299956096565014275e-04
2.213444625411747143e-04,2.477541838442550185e-04,1.042157480795894895e-04,5.749872975899317576e-04,2.145930622389164778e-04,-1.839998857631934353e-04,6.723759835809049951e-04,-1.152727159278646137e-03,1.129939601788531378e-05,-7.098430888508161767e-04
-1.679375525454171372e-04,5.719646607396062588e-04,3.284155225564526639e-05,-2.323091129404715786e-04,-8.150724533724250972e-05,7.898109218442556090e-04,4.164144844655691033e-04,-9.989632691631172064e-04,2.319041465940570779e-04,-5.622185859128851207e-04
-1.507653388243787346e-04,7.151866354271514681e-04,8.676887741826195459e-05,-7.404976799354583139e-04,6.538703709871026908e-05,4.232478744467470222e-04,5.917672060026253188e-04,-5.879068168042184649e-04,1.738965424930479506e-04,-5.770843373224885785e-04
-2.444816655902208925e-06,5.627866309939506817e-04,-4.923027254000114520e-04,-5.694563513644229939e-04,7.379832098533224347e-04,7.633605613884750229e-04,3.744766153292284857e-04,-3.059252925785180223e-04,-3.555624478442424526e-04,-7.129153837218794127e-04
-3.831150743471009655e-04,4.294160439296863959e-04,-5.464157467138970603e-04,-5.738845517586308462e-04,1.015614362480107315e-03,9.906683484927117887e-04,4.749746992780116040e-04,-2.095764747633138410e-04,-7.179729375746840038e-04,-4.797086690228882181e-04
-4.513867583736860247e-04,3.946880309674247775e-05,-4.571648435792820329e-04,-2.018899944949156897e-04,3.546344368704361957e-04,1.138901091097970419e-03,1.043983493302528610e-04,-6.230939110120274995e-05,-2.711571755359086229e-04,-1.934945173104053425e-04
-2.215803756592364410e-04,-1.766289549299844422e-04,-1.073728879829861476e-04,-5.264360977483272945e-05,3.942168362757252721e-05,5.534798490477203185e-04,-2.838873853742537837e-05,-2.157216817655495701e-05,6.629521947827033042e-05,-5.101001709254330397e-05
-7.821381218894454888e-05,-4.639618346821762935e-05,-5.461759745674391812e-05,-8.492923103793878332e-06,-5.060598085146207062e-05,1.406629622268675505e-04,1.211003405489356793e-04,-8.567494079587740006e-06,-7.945731597284593921e-06,-6.923580029768378693e-06
-3.134408619139307652e-05,-1.042518644079474781e-05,-1.994039335041481356e-05,-1.026479316861987285e-06,-6.941340749313126105e-07,2.129909998326850475e-05,6.367512459854045878e-05,-4.140453682391576063e-08,-2.140516372095744470e-05,-9.737694963150033097e-08
0.000000000000000000e+00,0.000000000000000000e+00,0.000000000000000000e+00,0.000000000000000000e+00,0.000000000000000000e+00,0.000000000000000000e+00,0.000000000000000000e+00,0.000000000000000000e+00,0.000000000000000000e+00,0.000000000000000000e+00
0.000000000000000000e+00,0.000000000000000000e+00,0.000000000000000000e+00,0.000000000000000000e+00,0.000000000000000000e+00,0.000000000000000000e+00,0.000000000000000000e+00,0.000000000000000000e+00,0.000000000000000000e+00,0.000000000000000000e+00
-8.154446589928266510e-06,-2.377056885691588529e-05,-2.707963219431263604e-05,1.721249354559989387e-05,-5.912601468450087655e-06,-1.088913143846344600e-05,-9.849790703025565532e-07,8.263476192723458408e-05,-1.390169133361668576e-05,-9.154204520844911810e-06
-9.511880824609831789e-06,1.471341033026489475e-05,-4.864410609071643965e-06,3.560648345376559516e-04,-6.571067150099989826e-05,-2.160322462674106061e-04,-1.296136396233373077e-04,2.062221981792536525e-04,-9.851650500857452616e-05,-5.275108921317006496e-05
-1.345847205835888486e-04,7.693798106055795883e-05,1.908488114920616440e-04,6.781880082023501819e-04,-2.036654142433663299e-05,-5.907697074564137582e-04,-8.029450959385141088e-05,1.876121174403935971e-04,-1.679459961498517531e-04,-1.396254429873207544e-04
-1.711062143805970940e-04,3.113064216511499584e-06,2.503031469535282904e-04,5.969651340638421413e-04,1.896844114925177625e-04,-3.099418605164276923e-04,-5.363202973738195401e-04,5.632070799473236399e-04,-1.957915209404270359e-04,-3.901129434624517941e-04
-9.300291396832668206e-05,-8.698432819284671166e-05,3.764140319145678221e-04,7.032108168372471586e-04,3.718333780537901680e-06,-3.235385502350324009e-04,-6.798828681911134363e-04,9.878494965617498971e-04,-3.586727530620873361e-04,-5.291112654446967914e-04
-1.674198210788049943e-04,-2.485208267548889545e-04,7.196299165664760958e-04,1.944715727768040023e-04,1.021344317456701753e-04,9.227345697748563975e-05,-3.205714244541775526e-04,7.177896275557811394e-04,-4.632350387977425175e-04,-6.265518945366062862e-04
-1.959595455747351002e-04,-4.742447255059747090e-04,2.623834543943949797e-04,2.492770530071379640e-04,-8.875959517870693266e-05,4.460286028762374365e-04,-6.554126905789331686e-05,6.065449765048378048e-04,-1.499983336332413235e-04,-5.897306178320564640e-04
-6.175644142916923403e-04,-8.034197204390159395e-04,7.017634807753892227e-04,7.059064126629303708e-04,-1.115031676903783403e-04,3.781249139854332090e-04,-2.604077437979358291e-04,5.077710790945235341e-04,-5.970969096844531623e-05,-4.409611493308066401e-04
-6.951136584618629126e-05,-1.109103328076912164e-03,7.102776430185318022e-04,1.128779164263276485e-03,-5.619719963525822296e-04,4.068598625266612342e-04,-7.092225135509765046e-04,6.230271932221648950e-04,-1.575335355616079851e-04,-2.616011236423659088e-04
1.670177344504275758e-04,-7.026581825989820437e-04,8.853687224168677657e-05,3.120828684986161079e-04,-1.038970352817237403e-03,2.711094543802432385e-04,-7.142969173977101053e-04,8.776628641644129616e-04,1.946439322357520129e-04,5.448717268427923826e-04
-2.616176741985507329e-04,-7.316481377726636107e-04,-7.238102294350788970e-05,1.248879022096038047e-04,-1.177502382664576651e-03,5.734952329182139421e-04,-5.468829748335964948e-04,6.178760992225992713e-04,9.137552789309859834e-04,5.600176791314921470e-04
5.874241342057889706e-04,-7.198533847336778665e-04,-1.172785426960088162e-04,9.237829926076176817e-04,-1.272877426901388104e-03,1.807447335475573485e-04,-6.070955518910875048e-04,-2.625185070887753173e-04,3.092324975539828200e-04,9.784390553959885790e-04
3.578230123354698912e-04,-6.404194747372845675e-04,3.599706076350403039e-04,1.648236114825668694e-04,-1.307187329268379942e-03,5.561270654063117788e-04,-3.671366527321390672e-04,-1.597143980226599521e-04,9.977457972219891304e-05,9.359389781788773986e-04
1.958176678271162925e-04,-7.127058302827623572e-04,5.117709616150099925e-04,3.770189603484480232e-04,-1.355935378200056728e-03,-2.788681788033670647e-04,-3.406820630455799619e-04,2.689916156714540312e-04,4.735190821663203963e-04,8.610731627034197075e-04
6.020934319585103528e-04,-8.478474084042497520e-04,1.973597149339369270e-04,7.503977727263737513e-04,-1.060410448486373818e-03,-1.320834909154479299e-04,-7.586727601473758744e-04,-6.553630515931913687e-05,3.405178901568496857e-04,9.741816033370888014e-04
3.998046023278081502e-04,-1.198681386472938990e-03,1.886704431392149061e-04,4.162396315090871536e-04,-8.633872646315268349e-04,2.349985152419166120e-04,-2.665987611521286279e-04,2.520833655564028348e-05,2.337192917608164509e-04,8.300265917221081452e-04
7.129370006492679332e-04,-2.208771426280780963e-04,-2.840473228400548192e-04,7.019409452245078951e-04,-1.038780088292140091e-03,1.527628909224692339e-04,-5.153290315567436806e-04,-1.384954401184407236e-04,-3.387738776367630721e-04,9.686620662759696469e-04
4.581333813898479253e-04,-1.719768040861972380e-04,-1.186963843974751982e-04,-5.618212306151808689e-05,-4.255104339451031416e-04,2.390034437790126173e-04,-5.492674674133770849e-04,-2.150437041990173705e-04,6.990109856784475174e-04,1.405291062553788402e-04
1.492386714349476767e-04,4.402635945670158838e-04,-2.408837789112824553e-04,4.752878836041308000e-04,-3.627822567518991168e-04,1.197066229879150079e-04,-3.260004427725465012e-04,-5.129773715764804863e-04,1.698588254071030444e-04,8.828825201109926398e-05
6.120323279349394957e-04,2.333123611577889557e-04,1.239749515243693229e-05,-1.717365188044031891e-04,-2.964464232669773085e-04,-1.723024217110874284e-04,1.295213111913204697e-04,2.096783691730440437e-05,-3.348441076284759096e-05,-3.342615578084744089e-04
7.639125147043534115e-04,-7.493392440150145367e-05,-4.656090373988154563e-04,-4.378146885023287372e-04,7.921362442426218209e-04,2.796409386322505370e-04,9.052329839163681215e-05,-1.667918657973900155e-05,-7.258405626281085206e-05,-8.585921028256665284e-04
-2.977602440508858391e-05,1.191788205082955875e-04,-1.127221509642356177e-03,-1.747789054776521941e-04,1.236549100477846294e-03,7.837573819907194895e-04,1.234742250184306367e-04,-3.911727711898557508e-04,4.066434078534207305e-04,-9.466537251337576097e-04
-7.298441896072037447e-04,-1.354037851813421494e-04,-7.602251148251223988e-04,-2.225067493768608580e-04,2.413889673604815544e-04,2.129651939418278610e-03,9.594655749448996354e-05,-1.818575279494569967e-04,7.919568066142536529e-05,-5.163457779946917584e-04
-6.343953791648378193e-04,-1.649399016301453962e-04,-1.493567006495159831e-04,-1.226599351015436211e-04,-2.165149537134383360e-04,1.108147647043078703e-03,2.690858751657559212e-05,-8.998238019477992173e-05,4.648675815073429764e-04,-2.220745656127353339e-04
-3.036020719364846397e-04,-3.611744429933559007e-05,-2.717261049821820528e-05,-1.224846695068102327e-05,-8.274663332787976077e-05,4.655564891583353101e-04,8.684082160343230370e-05,-3.232375663491003572e-05,9.698122249586211256e-06,-6.788444936384501925e-05
-9.247162683098723813e-05,-1.676392607095229928e-05,-1.071206360697617902e-05,-3.567307267486855187e-07,-4.134248758957050880e-06,8.482006430845429100e-05,8.949543617019258403e-05,-1.021557460699061527e-06,-4.652656701096374961e-05,-2.328780012362830338e-06
-9.656143500175392060e-10,-6.899028304783459941e-10,-1.839629990236122368e-09,-3.006164355529074926e-08,-2.677403585744081659e-09,-1.085537331892359134e-09,-8.669765190420211901e-10,5.849197700228221236e-08,-1.988664234206160951e-09,-1.831660460537484511e-08
-7.417052062484906307e-07,-3.027167130600870759e-06,-1.753311193058343902e-06,6.866565856435934416e-05,-1.935843961818427239e-06,-3.147251848492957242e-06,-3.920835922355987545e-08,-8.884649382939419903e-06,-2.013110962453009992e-05,-2.900541185744727688e-05
-7.094517789623609852e-06,-2.244294375701635631e-05,6.149810559658822236e-05,-6.366989377020883354e-05,-7.951005996313909483e-06,-3.140465052475869406e-05,-1.175202071087679710e-05,1.435104213496027912e-04,-3.993891031736312536e-05,-2.075458408002943031e-05
-1.933312902824831054e-05,-2.151892055217532305e-05,1.491902234098963496e-04,2.880606351590719069e-04,-6.978756452200253833e-06,-2.647173236522349835e-04,-2.385697498525056351e-04,3.914890508135508685e-04,-8.504793109631066236e-05,-1.925740987488412876e-04
-1.315034465016904567e-04,4.820142817803366636e-05,5.189248116514936626e-04,7.899799975902982441e-04,6.002000560455047915e-05,-9.145037063787816349e-04,-1.155724751223883158e-04,1.571670776782376974e-04,6.080823869214849604e-05,-4.735219313919015061e-04
-6.243445309126804206e-05,-2.914500531584148001e-04,3.702080942359526629e-04,8.279614088130480805e-04,4.886701302871643803e-04,-3.682802879447127963e-04,-4.010777489523397713e-04,3.585754297043731325e-04,-1.292639628080480090e-04,-7.929085570857543090e-04
8.343045058959956000e-05,-5.918543142788417226e-04,8.981610432492254581e-04,3.833210596294125169e-04,2.673256925482814239e-04,-1.127922020247208593e-04,-7.217230956362089824e-04,8.162037139709008926e-04,-4.274142583700788964e-04,-5.946580896775678594e-04
-1.631661345752684664e-05,-3.607791037427121031e-04,1.002703777429380175e-04,2.627833075387927663e-04,1.393467098858453656e-05,-2.323038057719775649e-05,-1.922230103941657722e-04,9.869426453114292768e-04,1.110023710418547442e-04,-8.823842644519968139e-04
-3.605101804325894720e-04,-8.091760411690283568e-04,1.599090500776679136e-04,1.328326581081797054e-04,-2.201694004317215122e-04,6.720724459547324642e-04,-3.990463446575503439e-04,2.261954662062022766e-04,7.679244713402355203e-04,-1.700321249961304448e-04
9.084346569016180453e-05,-8.768304293772456650e-04,-1.552216938827663322e-04,2.391335385567919789e-04,-3.971230523881297356e-04,3.796980099443498504e-04,-3.285087419584867079e-04,8.894847588126536184e-04,1.380948322088620809e-04,2.042931239381136753e-05
2.254732834927510173e-04,-8.203157068992652070e-04,-1.253019579080170390e-04,-1.904119985989567840e-04,-7.403341087367768967e-04,8.965670957516250770e-04,-5.358686267065685847e-04,7.454114237412343439e-04,-2.900072033686113359e-05,5.737813162008377444e-04
3.979080676764425064e-04,-7.476870617125749635e-04,1.529451998287767965e-04,5.992557345070440890e-05,-7.160539595238413733e-04,3.626653223935330647e-04,-1.311378037769813352e-04,7.006166864109858190e-04,-5.250351116722673300e-04,4.458530869252204007e-04
7.314312395211470001e-05,-1.707061023550158628e-04,-1.439297191485367790e-04,6.711481111212614899e-04,-1.462746556674528317e-03,1.877721928234135445e-04,-4.736844188782740129e-04,7.326169199902573224e-04,-2.216159307025316835e-04,8.080023798718405197e-04
1.475886792184102046e-04,-5.407024242414158700e-04,5.384011972401273180e-04,1.950965964689645963e-04,-9.423013507242968163e-04,-4.236941069511695589e-04,-6.688751805011451538e-04,1.805754920965259476e-04,6.431172779451200877e-05,1.449599369599488801e-03
2.594953631277204876e-04,-2.443607924579820458e-04,2.458175390339079037e-04,7.278467668378468943e-04,-1.112445229862084979e-03,4.878258837048356526e-04,-3.839792827110785644e-04,-3.460612289026118640e-04,-8.159124436974518439e-04,1.181773424926903888e-03
2.266463024323141077e-04,-1.047101491761044580e-03,-3.443801092930621555e-04,8.872100750309705160e-04,-1.445098250967180760e-03,-4.903838024427309124e-04,-3.823498137772918986e-04,2.512016825734591759e-04,5.936832751533895622e-04,1.750572133051178951e-03
3.015419472059820572e-04,-6.091980637819756090e-04,1.652111499249031546e-05,1.454547188487813428e-05,-1.506511709292696066e-03,5.561164512712632501e-04,-9.721344184500950360e-04,4.848193043722292379e-04,1.168933149711761418e-05,1.702610570300801393e-03
8.478001239157009501e-04,-9.399363135535239054e-04,-4.148489135259797391e-04,4.288254868019274646e-04,-6.089190586751464223e-04,2.834252522918048701e-04,-7.020261250088962639e-04,6.934245701247498126e-04,-3.956119903493938864e-04,8.078669679787545176e-04
9.239282405995326687e-04,-4.505623871741702745e-04,-1.457186797665596949e-04,-7.926945618774018751e-05,-1.075096956827797760e-03,-3.208742700875603807e-05,-1.065573088329010987e-03,1.119713410732629593e-03,2.423984635005401193e-04,5.622678804613284948e-04
3.843205228819621816e-04,-5.531413128555581733e-05,-1.378394679703393792e-04,3.209634000021583593e-04,-5.840513147558413273e-04,2.842464414088505947e-04,-1.204396486704508882e-03,3.620424886535993829e-04,1.507913239038754280e-04,4.792372238658019600e-04
1.261285278773717608e-05,3.556905310541030136e-04,-4.823396085107357011e-04,3.721080037033730665e-04,-5.352439386237590373e-04,2.826372502218470651e-04,-7.926712070026828991e-04,5.227127140476400726e-04,4.911913534108819195e-05,2.153742669813856771e-04
8.966200719265931987e-05,-1.245904238849193234e-04,3.463567831510688181e-04,-5.701991696478656002e-04,-4.433870825376011048e-04,2.387070741006919758e-04,-3.511996292547018487e-04,2.057585610747896877e-04,4.832731242157948691e-04,1.256187555900862153e-04
2.233211012719135019e-04,-2.627124863747790084e-04,3.494389215980209717e-04,-3.337331154796817096e-04,3.092074300608751183e-05,1.356887831052557101e-04,-4.626882482934257493e-04,3.844489080689302875e-04,1.285547417016828081e-04,-1.932393486040059026e-04
4.158467353710770635e-04,-5.084243021834790278e-04,-1.046785113112737222e-03,-8.083313112578195637e-04,7.878529709537931882e-04,1.309396354395646290e-03,-4.344535296550354974e-04,5.227621835818354365e-05,8.418227978475022492e-04,-6.092008207171322300e-04
-3.451893787371770146e-04,-7.082976606883130714e-04,-8.036369014513225929e-04,-4.703096184148246924e-04,2.666434632891063528e-04,2.382417344249321278e-03,1.872939511795167667e-04,-2.175904198899764486e-04,3.755832236102564763e-04,-6.669140031465938846e-04
-6.688834642560397524e-04,-3.520430349356314451e-04,-1.181721599545550736e-04,-1.802130165544192707e-04,-3.084414193208581976e-05,2.033789379585336943e-03,-2.199254348017486073e-04,-1.423341616603062180e-04,7.722257624082275878e-05,-3.985965417313724652e-04
-3.077852057369092069e-04,-4.073162161974915784e-05,-3.125842169409530363e-05,-1.624104429231026326e-05,1.129996092034321869e-04,3.605825959973600506e-04,-5.277308634073105766e-06,-2.275396037166607674e-05,7.676584782131390112e-05,-1.263004906733033734e-04
-9.435838108690086318e-06,-2.662058663928803953e-05,-7.539030478906893577e-06,-3.656205473751688256e-07,-5.690965036969674878e-06,1.369658887503816631e-05,5.800852762586071769e-05,-6.672324034292848290e-07,-1.890460747501243564e-05,-2.481235811227216641e-06
2.349648458007310299e-05,-2.978347604121706801e-09,-1.881928153762467813e-07,-1.246658623272704377e-07,-1.069266960679926769e-06,-1.296283393799995107e-08,-1.653124600176545151e-08,-1.015626927707119048e-05,-6.071230857103186733e-08,-1.186490492850356086e-05
-6.358896263792081586e-07,-2.448904776354914778e-06,3.911701266672612241e-06,2.142006162083528991e-06,-3.164915195878195090e-05,-3.457306120162763403e-06,-9.097640968254356424e-08,1.632570246320596424e-04,-2.860360643279503663e-05,-1.024248967366597480e-04
-1.716491012311035162e-06,-8.872863390817877828e-06,2.258846693122061166e-05,-9.197163634506291049e-05,4.342669888441844382e-05,-2.745197061178110851e-05,-1.018305600756915462e-05,2.752113444285362340e-04,-4.027408597074538907e-05,-1.607564069058874470e-04
-2.605422342559821457e-05,-7.321116052089215736e-06,1.183053589223503096e-04,5.274949074393671801e-05,6.015449872498702190e-06,-2.911145426284283337e-04,-1.361533569271235677e-04,7.588728661027277934e-04,8.701734219018994487e-06,-4.840016608272935104e-04
-2.123910802403891282e-04,-5.047930720141335784e-05,9.925161717452253909e-04,6.840096326176393340e-04,7.471814180048824716e-05,-1.160928488109886150e-03,-1.354789425946856197e-04,4.912759969506693726e-04,6.789172020927042707e-05,-7.511338451769232049e-04
-1.620626402984298991e-04,-2.897364761760370423e-04,5.307681724707478997e-04,7.904807446486674695e-04,4.572801872791349754e-04,-9.507492954797668212e-04,-3.486662428054033047e-04,6.307947767965055427e-04,-3.027077446894132641e-05,-6.278384519664750169e-04
-2.142796309324204848e-05,-6.408233888471552130e-04,3.952651277652448401e-04,1.805199639131786023e-04,2.369738356496362626e-04,-5.859951355672279785e-04,-4.787565757205524439e-04,6.842949000686175155e-04,5.668177837933012627e-04,-3.368685479618013551e-04
-1.971441413109324464e-04,-5.059430666530411770e-04,2.036191624741004610e-04,3.341085594518049848e-04,1.114120531504223600e-04,-5.589562910708700903e-04,-4.277933230515433495e-04,1.270284412380575214e-03,7.269132280560779667e-04,-9.565005934265891118e-04
1.575791407885902080e-04,-7.987936426662596264e-04,-1.615718479358761652e-04,-2.369200405323270895e-04,-3.912418180466451976e-04,5.685466731539136473e-04,-4.144948136295627098e-04,8.314412018401495580e-04,6.018885507545911518e-05,3.852662919525603200e-04
1.142578483232506632e-04,-9.896709404156464000e-04,-4.147198661092443806e-05,-3.504678326262205515e-04,-9.670132848433205539e-05,5.273964965023403978e-04,-3.703827012681270561e-04,6.529904702161058467e-04,5.731755548857241610e-04,-1.912558052217374569e-05
7.605895836547973087e-05,-5.305150566587202082e-04,7.861990349960759281e-04,5.979073383815747202e-05,-4.718694837669960038e-04,1.842453221141612265e-04,-6.296233025635526075e-04,1.380071632957754156e-04,4.362869472849041402e-04,-4.858031690528736391e-05
-3.122148281125115637e-04,-7.010920876964395762e-04,4.364205177621010147e-04,1.262460919691812098e-04,-5.482848313392637164e-04,7.094574075621514885e-04,-4.321364123008031560e-04,1.140565857053426344e-03,2.917285892691399356e-04,-7.106903041669815737e-04
1.250503385855114384e-04,-2.361789065104132035e-04,8.304115214599608525e-05,1.766881710172561151e-04,-9.375844440371473160e-04,2.643873788808029672e-04,-4.136894054554632739e-04,1.015723533078116648e-03,4.975925062727933708e-04,-5.750303239774501481e-04
2.182279469853573551e-04,9.007608432902780636e-05,-1.694524162322875180e-04,1.324737841624231500e-04,-1.066264113963602805e-03,-3.518448271810631486e-04,-5.365703877129098399e-04,4.744888673227511231e-04,7.585999523589279309e-04,4.502651099313738857e-04
6.611481072416651667e-04,1.663347622548188589e-04,1.656973817431332211e-04,3.182035778840752033e-04,-1.251235532073003342e-03,-2.265315439108349946e-04,-9.271868506585007616e-04,7.732992192858475881e-04,-4.355663881582413585e-04,7.558372663910365970e-04
7.880790694172743523e-04,-3.014967978323243979e-05,4.145938638694092846e-06,4.631669227339768363e-04,-1.211781530037383441e-03,-4.497509978223365387e-04,-1.058215789397280553e-03,1.187935481427397936e-03,-5.413870488071089067e-04,8.479576336299971982e-04
1.454022479405343241e-03,-6.621848186837968765e-04,-6.332638328575301324e-05,2.181666197565600618e-04,-1.326216138249181054e-03,-2.377766333728071452e-04,-1.264609946038350828e-03,1.068312887482422485e-03,2.378155008984684810e-04,5.757964320870995537e-04
1.212629357064270519e-03,1.382312263542418535e-04,7.822476897747677603e-05,3.728575366418565877e-04,-7.863098073588397317e-04,-1.278538996288045406e-04,-1.477818834835368253e-03,1.060096876359938349e-03,-7.853140519257720146e-05,-3.915258183822028148e-04
6.485141293443877309e-04,-4.214686862600395558e-05,-5.221398108476853510e-04,6.506670946677238108e-04,-7.210370201902891124e-04,9.773708768338705685e-05,-1.903915940376651279e-03,1.250897108488325691e-03,8.816337414706089718e-05,4.532608457097436435e-04
4.727772659731974088e-05,-5.332511174720403358e-04,5.716122185572012964e-04,6.403062005843188943e-04,-4.463349260026872349e-04,1.435216370084955366e-04,-1.435279066049391025e-03,6.016418417227085503e-04,2.791557223053992552e-04,1.313497627486734181e-04
3.164013684227138406e-04,-4.724097478694809938e-04,2.287341462386421293e-05,7.550921775109297428e-04,-4.107301904295297223e-04,7.493639006416488941e-04,-1.312379822882273192e-03,4.671582400418553861e-04,4.181209857560647082e-05,-1.571814386353380649e-04
2.011768387847747233e-04,-6.182977879735046620e-04,-3.702116975671023851e-05,7.255116423464597411e-04,-1.770446167690144495e-04,3.965820187318835899e-04,-8.537476409433088134e-04,9.259145190979731145e-05,1.826814626432527225e-04,8.756780102636945850e-05
6.969927255439068662e-04,-5.925705379324729257e-04,-9.316762520389993329e-05,7.193939991611866510e-04,-2.541926862394894770e-04,-4.168362482548937657e-05,-7.573546026187374762e-04,4.638227730117787384e-04,1.479409978164118223e-04,-2.891814187131918940e-04
6.652193009455020139e-04,-1.080619494375170903e-03,4.282397411428456261e-05,-1.207599819780981769e-03,5.319460364760125780e-04,1.544597921292345999e-03,-9.378588361290372821e-04,5.092211756676145242e-05,7.502399326576673346e-04,-3.596711327673903359e-04
5.075861775117119151e-05,-9.678441399122514202e-04,-8.161269238970142578e-04,-8.481797458624536256e-04,5.561697426386653193e-04,2.653995700204270572e-03,-7.290642450246033338e-04,-5.130892824181033278e-04,1.130720208337797090e-03,-5.173399318174805046e-04
-7.506015121703005742e-04,-4.231586169298999912e-04,-2.969232074528792460e-04,-2.242224087422749939e-04,3.035154063372071239e-04,2.343716840219686390e-03,-5.213644823000770099e-04,-2.253514520872930752e-04,1.715913009892112474e-04,-3.772018678633794371e-04
-3.155401756035467365e-04,-4.751722707399758452e-05,-3.438203245795234535e-05,-1.781547810614843313e-05,-3.809055736305923262e-05,6.678687107793843071e-04,-2.333289458114283217e-04,-3.736146889754097009e-05,1.918208193764506307e-04,-1.356536448421623710e-04
-2.874320728679509532e-05,-1.189161090655194886e-05,-2.585831832645348621e-06,-2.799869950559171574e-07,-1.116549895414507418e-05,5.732188242794422140e-05,-1.186345847634178768e-05,-1.006321509295852002e-05,3.152462708313103238e-05,-1.225369996658160180e-05
-3.829103877321307375e-09,-1.558385161357126590e-08,-5.503488414030231294e-09,-1.278878353798412021e-07,-7.525539092609728536e-07,-2.686340152352421029e-08,-2.516728842607781238e-09,1.984325261677315334e-06,-5.324912623117793259e-08,-9.963378165342705367e-07
-6.012446588345006300e-07,-1.016422105451733676e-05,-3.791236569247856453e-06,8.077696444276103929e-06,-4.045642727300943384e-05,-4.359876616220239844e-06,-3.729790933984466152e-07,2.326137665452270909e-04,-3.525712039423841354e-05,-1.456883573300374855e-04
1.734077055221240957e-05,-6.139128230842661761e-06,-1.158862070240918881e-04,7.784300316054629427e-06,1.946609078433900322e-05,-1.604842549232301526e-05,-2.032376550946905154e-05,4.405451879519580111e-04,-4.875204139531161371e-05,-2.779867819525258196e-04
-3.389299253376206080e-05,-2.037661702174758840e-05,3.624090983811166950e-05,3.145536775307245804e-04,-2.963561867523248198e-04,-3.479663717677030569e-04,-1.603912766880770890e-04,1.020918184466853250e-03,-1.316844126763853142e-05,-4.995608858044375258e-04
-3.000651684376530069e-04,-1.406517630962912809e-04,7.074058184303529291e-04,9.399043276564421042e-04,-2.930379444251165685e-04,-7.639495440926184940e-04,-2.165567120767687974e-04,7.882742003842305254e-04,1.270900902493113857e-05,-7.340322233675101657e-04
-2.321637940612132330e-04,-5.433415003562118949e-04,9.986286130986038890e-04,5.713526004079178423e-04,7.485723133960662883e-05,-8.951278639064999499e-04,-4.444483055474920496e-04,7.922991061580473031e-04,2.247124122947869200e-04,-5.467684994275464044e-04
-1.292570608755556536e-04,-5.898790808372187224e-04,-7.911087709834168681e-04,2.466365854938070302e-04,-2.738599407646104679e-04,-1.453003137359381973e-04,-4.325551597807023897e-04,8.476634825856798781e-04,8.910438376143368314e-04,3.766164212836185321e-04
-2.597202761942928192e-04,-4.279932471651535174e-04,-5.852719773024296851e-04,2.312861829328376412e-04,-1.220891353003456642e-04,1.007159364568512868e-04,-1.335328825991169823e-04,5.880491153816247126e-04,5.883149916826733083e-04,2.024129210734965936e-05
-2.645747925597142060e-04,-5.933300260033555961e-04,-3.488565320070322680e-04,3.254808161966834352e-04,-2.529723814762674752e-04,6.979622858977682382e-04,-3.311320716613256774e-04,1.598084103951333214e-04,4.250549157254590702e-04,1.825593754926506699e-04
1.104541842059750684e-06,-7.765866755807588782e-04,2.149434245876523277e-04,1.751113916439831246e-04,-1.932749499247236587e-04,3.654452158547007536e-04,-5.946558495051447544e-04,1.291142465139746224e-04,5.820155391560215491e-04,9.678311541223747719e-05
5.059745734518755755e-04,-4.219802779838675551e-04,8.466761764859282845e-04,-4.086008939624906876e-04,-7.434053230672514872e-04,2.932774123558002126e-04,-8.922083507020444650e-04,1.178793179602386377e-04,1.872956039491599446e-04,5.150917615126501033e-04
-3.143118422047429640e-04,-2.038865851631919014e-04,4.037584106212762855e-04,-1.508038760591877414e-03,-3.458435133124103476e-04,1.369607830008503016e-03,-5.215027000247752023e-04,5.965995742714821047e-04,1.435906873629695473e-04,3.800268990327632167e-04
2.419415233064625822e-04,-3.106889648075564290e-04,1.496329286124074213e-04,-8.728997311554455470e-04,-5.019793436909492351e-04,7.451558292722278761e-04,-7.173595841370293156e-04,1.143878618915418564e-03,-7.712978903749698775e-05,1.994485127219610711e-04
8.669116892425631372e-04,2.426568912987316540e-04,2.564418932181558998e-04,-4.178838824892454947e-04,-4.424021209440749018e-04,-2.854287677989061109e-04,-8.859545942257615820e-04,4.088936380753379176e-04,1.348299336469083031e-05,2.432822602585070124e-04
2.240939948422507853e-04,5.505491110561896387e-04,6.520811789694339923e-04,4.941381276322885045e-04,-2.032649157915204004e-03,-9.034749223099764696e-04,-5.014381168732789506e-04,1.694586245780702093e-03,-7.222170805884345129e-04,5.443306194060304687e-04
-3.343028078634531345e-04,1.503238344702991251e-03,4.329593554047682369e-04,1.011006386024340155e-03,-1.141740166889863720e-03,-1.123869558078899929e-03,-1.430242636130860633e-03,1.366726090650331174e-03,-1.341082521167648268e-03,1.057307513348305656e-03
6.836442091165872894e-04,4.535934343806901823e-04,3.779613108448691677e-04,6.085423173957599588e-04,-3.734263896046720365e-04,-1.004610656053071859e-03,-1.564169510507078470e-03,1.010982174004190293e-03,-3.849468623048899244e-04,1.924299727276160765e-04
9.320810349102691969e-04,1.954832323940442873e-04,-5.296658842320474099e-05,4.677057993875523637e-04,-7.261754855415545457e-05,-6.473409583424568703e-04,-2.019590162975108596e-03,1.409881364934326229e-03,-1.549136104797435381e-04,-5.772256285152915192e-05
1.013319026759137379e-03,-4.175123056951602219e-05,-1.063371619014731665e-04,2.613670724221854699e-04,-1.409886119666379405e-04,-9.401643289324422982e-05,-1.847518817810753179e-03,1.025259869233487641e-03,-2.184028976151929492e-04,1.490691843420053296e-04
8.538184128361940529e-04,-7.591932904296686165e-04,-2.224351510921100358e-04,8.891187076136106582e-04,-1.489119763269071866e-05,-3.662248825752677608e-04,-1.620330014747795554e-03,1.109457364336226878e-03,2.876253728549350353e-04,-1.569453211634320262e-04
3.125460485551931496e-04,-7.941073526621414110e-04,-2.133553661193392790e-04,9.545782425004822403e-04,-1.586593277479630601e-04,8.690279781707865294e-05,-1.182666420864066439e-03,5.645582337632272518e-04,2.449288723940190008e-04,1.852742723635109783e-04
-1.268015964816364709e-04,-8.900447031334657224e-04,-1.051436179257332523e-04,8.501642206386699190e-04,-1.195445620007064593e-05,7.343176552518744168e-04,-9.786786628579199985e-04,4.104525011465795362e-04,5.002732572011132440e-04,-3.825845976394114784e-04
9.630645157855799031e-05,-9.521519586380600315e-04,-8.711438015522277804e-05,8.742305080290430248e-04,-2.097625341206500542e-04,5.462159233185952603e-04,-1.062198097610472314e-03,3.435262927831732793e-04,6.984987665127900683e-04,-2.475509716977551092e-04
6.344104775407914893e-04,-1.118252945759221507e-03,-7.972047496675847161e-05,-4.450500408771922590e-04,2.916867799022793530e-04,1.296487681521961291e-03,-8.756319276141359817e-04,-1.603239226953824233e-04,1.040445430286791742e-03,-5.840510573391338028e-04
4.764799098452266422e-04,-7.291480425266839895e-04,-7.977255364215380447e-04,-8.795535904872978789e-04,-3.733284673277654348e-04,3.372049367012534739e-03,-7.537666583398880361e-04,-3.617086787708575276e-04,5.302567869359096648e-04,-4.835550899196502722e-04
-8.270486207164835703e-04,-2.911469089596423025e-04,-2.882093612306885818e-04,-1.750958999059127306e-04,-4.304103279495811681e-04,3.017601622929610636e-03,-6.473268089329895381e-04,-1.732839417719939275e-04,1.907517121776568171e-04,-3.758314656399780462e-04
-3.047169714898549393e-04,-2.023343422132659012e-05,-4.840959911300187477e-05,-1.205079539832396842e-05,-8.636309204008625910e-05,7.394202132325824886e-04,-3.072508329282316636e-04,1.485248541575135277e-05,2.286360070231422108e-04,-2.038839804806499303e-04
-7.669681761300612663e-06,-1.988880095864683029e-06,-1.823173558939374761e-06,-1.203465517596814074e-06,-1.774329866312130267e-05,3.375038058004925317e-05,-1.571708223976954160e-05,1.502443556321908036e-04,-1.275081308755925894e-04,-1.034102350005545936e-05
-3.964206625354731508e-09,-1.764897502271892586e-08,-5.081371714960320238e-09,-1.278040171969300048e-07,-8.734111413903286046e-07,-3.104206173502436481e-08,-2.319599858033539735e-09,2.274528584527596836e-06,-6.128429622913602740e-08,-1.151972914755111814e-06
-4.660180194422710541e-07,3.060363716787355713e-06,-3.237405417459682426e-06,6.333680611557939008e-06,-3.722838821708346997e-05,-3.315005215276280538e-06,-1.712612167124479916e-07,1.931905476615010408e-04,-1.672333836197309958e-05,-1.414431755418993429e-04
9.670327561724934571e-05,-3.361228860679047868e-06,-6.397903744747772761e-05,-2.376194021546890151e-05,-8.556833621396144789e-05,-2.471374552294789930e-05,-7.277634390129884563e-05,4.998933304812083235e-04,-3.744940545825083632e-05,-2.849865684783737347e-04
2.189592804114618205e-05,-1.059692892997361594e-04,1.083742001789990850e-04,6.398708822940571070e-04,-2.712582284375968794e-04,-3.547944406548381581e-04,-2.247984340114902513e-04,8.561251546399278227e-04,-1.638110400342026858e-04,-5.056347327162637791e-04
-1.513540236596774087e-04,-1.324680919724560517e-04,-6.286252588859166167e-05,4.586424638173368503e-04,-2.220915419120847304e-04,-7.720001107371092422e-05,-2.639318534248980973e-04,8.849204885419162088e-04,1.855745197471109188e-04,-6.192294241749462559e-04
3.359093948422095044e-05,-4.972432491340190476e-04,4.855023917289338106e-04,-1.368854487607686456e-04,-3.661405187901571427e-04,-3.235724316121737880e-04,-2.377416058142851841e-04,8.400521197960783169e-04,5.146485387331311407e-05,1.509729492288559491e-04
-3.919248456016571468e-05,-6.706260547898835805e-04,3.587107417683234540e-04,-6.709587679300338891e-05,-3.183136606297336160e-04,-4.233660597723885616e-05,-2.644015497506688075e-04,3.454609228662004809e-05,5.307946044273271049e-04,4.779147940184244885e-04
-1.947835309987637801e-04,-6.663800490535975009e-04,-2.810435929151191008e-04,-3.316710413621689691e-04,-2.803173089186590246e-04,6.513512605214627927e-04,1.275477163811678915e-04,-4.829779205810643315e-06,6.125602742214589658e-04,3.675660513300334827e-04
-4.758633780522396675e-05,-4.653977961717734100e-04,9.915021010192768820e-05,-6.409690342462268618e-04,-1.006024513650889511e-04,7.480684204691350489e-04,6.884041913643791676e-05,-3.400623792674701022e-04,4.360929434004247405e-04,2.424660057478563390e-04
2.763201360021007324e-04,-5.439622695037992081e-04,-1.831871755073411021e-04,-1.708974876782163839e-03,1.647862416343553375e-04,1.091323598349932915e-03,-4.911112680726261847e-04,2.238031166748150036e-04,9.460670598934550844e-04,2.249354373112745682e-04
-2.807160596387964788e-04,-2.147846155240494092e-04,-1.313234339398222563e-04,-1.589589047204567054e-03,2.446890953713953798e-04,7.970741889184136198e-04,-5.850888808003309251e-05,1.363362829514746730e-04,8.305261221677492749e-04,2.662963549782363260e-04
4.131008954853845872e-04,1.549553588238973220e-04,-4.081633747637199096e-04,-1.354509894950435209e-03,1.571699809438729771e-04,6.701870684348580805e-04,-4.398951444504952280e-04,-2.437688640850932463e-04,7.952396604271544725e-04,2.556843141345739850e-04
3.711107436286066792e-04,4.579264612442588713e-04,-6.564109834164336393e-04,-1.384989631905183659e-03,7.289637415163444274e-04,1.288172836404992546e-03,-8.817720991799269260e-04,-4.266106880055752100e-04,5.425073572067313317e-04,-3.889773749381362155e-05
4.692879373609997276e-04,6.475027185604255659e-04,-8.930882945306277496e-04,2.444936957078092110e-04,-8.538917383769706370e-04,9.124301070668240383e-04,-3.328500259225844319e-04,9.027381291819064259e-04,-1.600687111650422466e-04,-9.365538178827369220e-04
1.589218515677055029e-04,1.755246548820100063e-03,-1.819207547728258296e-04,6.165909395515988250e-04,-2.365552577564704762e-03,4.338275924957225881e-04,-1.122838634197344081e-03,1.167145856815919504e-03,-1.683263142159247916e-04,-2.930945085002501361e-04
-3.906338982596661781e-04,2.516202320389561604e-03,-2.316512015219485512e-04,4.912204929910347169e-04,-5.023879304646419394e-04,-3.132942908695408955e-04,-1.593507866855149594e-03,1.683159815342397158e-03,-9.089875421867671520e-04,-7.501198985652863518e-04
8.692526641018790844e-05,7.767806234699010590e-04,-7.560674102332919945e-05,6.429129580231614932e-04,-4.320764370555314971e-05,-8.495467462593146116e-04,-1.513057615904196945e-03,1.900749392623798679e-03,-9.434379293446866965e-04,1.748843571003461683e-05
8.094290058402600976e-04,4.700687616866332263e-04,7.144078750319266024e-04,5.323182200230741363e-04,4.688123219431557655e-04,-1.792259254734712747e-03,-1.521005989127076439e-03,1.013832345653896449e-03,-4.602445471649238909e-04,-2.353587391522289174e-04
9.275372878241426458e-04,-5.620034473869894810e-04,3.150461853976996665e-04,5.226094854305126779e-04,-3.997475329333806735e-05,-9.555083936647500902e-04,-1.293445740455122618e-03,1.015371034064480558e-03,1.004811193458406940e-04,-3.011277726247474907e-05
3.362292798426095978e-04,-5.188990349024964407e-04,-2.097995688842301031e-04,1.891345440166590139e-04,9.636700396486118890e-05,-8.510689080310237077e-04,-9.398880087697481086e-04,1.146677868120278164e-03,4.359959012959501476e-04,3.152509233471349629e-04
3.533320569686933645e-04,-1.062011753181270465e-03,1.058075401057470446e-04,7.613743730703975915e-04,-1.778059988585675363e-04,-4.192832739741939214e-04,-8.924597817178008029e-04,1.041133997255874093e-03,1.633616132965775821e-04,1.265512270345455436e-04
6.300717885893035095e-04,-7.970946788495715356e-04,-3.400926249383722736e-04,3.727813999595664773e-04,-2.247594519933639276e-04,4.388830080989497529e-05,-1.082064816515366373e-03,1.049591816887472271e-03,4.032753556076773961e-04,-5.559708955723908960e-05
5.211539561098360541e-04,-7.206152773853645400e-04,-7.594365808273918230e-05,4.784409561670378060e-04,-3.520528742702881057e-04,3.599755918049924168e-05,-8.903304027621972323e-04,7.712728907093896382e-04,6.012338923658104312e-04,-3.691570420319831487e-04
9.188162564093479978e-04,-7.159357523185150025e-04,-2.883337857392792429e-04,-1.099111124876091781e-04,-9.066780423199285489e-04,1.406865191022125833e-03,-3.776246234510115349e-04,-3.547504675376124969e-04,7.407501409518718995e-04,-3.131978045293918678e-04
5.827305790960168527e-04,-5.304883360650722215e-04,-6.997571750336642818e-04,-6.062113167399162507e-04,-6.928093474851695042e-04,3.533256348018077708e-03,-3.664964894520850993e-04,-4.940233502621073055e-04,-1.842114750254606869e-04,-5.419894370506287513e-04
-7.211008290756508151e-04,-1.000674622272226187e-04,-2.716160136014077837e-04,-8.968902166335009736e-05,-3.962133707636421418e-04,3.442092159400510047e-03,-8.495981700532620733e-04,-1.421773490502495916e-04,-5.701259752128519809e-04,-3.015039677528729041e-04
-3.493369633629477412e-04,-2.381362676063881852e-05,-4.000165382411506647e-05,-1.027827719734035022e-05,-1.163011243430180292e-04,1.010793072976913206e-03,-2.556040620555008621e-04,3.165747893049890256e-05,-9.447432884125159605e-05,-1.526405155226020940e-04
-1.116120404332788129e-06,4.853829900813304574e-06,-1.126781926942827960e-06,-6.346938839369025916e-07,-6.399662504288094795e-06,1.181899611302790087e-05,-1.012222751915217691e-05,3.834632081739596627e-05,-2.755487255719088957e-05,-8.064788035393474929e-06
-3.895836134999423527e-08,-1.110050598941081691e-08,-3.485366607539036767e-08,-4.771927190841363285e-07,-1.333628386534548391e-07,-9.423437353144306761e-08,-1.062523633197221157e-08,2.618673035434528041e-06,-1.848852694248871588e-07,-1.633460064993840153e-06
1.439135649702425143e-05,2.218161790659827112e-06,-1.633792467761155476e-06,2.599776198782601615e-06,-4.504473111135678969e-05,-1.870217490624034780e-05,-5.346810733222790911e-07,2.192853468288512547e-04,-1.548790377825381376e-05,-1.570913579783836346e-04
-2.188273312458874637e-06,6.934338648972319549e-07,-1.497761095816382857e-05,-1.686956368512903245e-06,-1.329348634464193421e-04,-4.078480930041090822e-05,-1.806149651602295656e-06,6.853115114098083530e-04,-2.604549515462175089e-05,-4.655807870825148841e-04
8.269624524972254411e-05,-6.919503164928909639e-05,-4.328007843133872704e-05,5.735610883324050767e-04,-2.397020020271936288e-04,-2.966737152095307701e-04,-2.498621554294531630e-04,9.704396449427039753e-04,-2.045227806222437166e-04,-5.234612151557814508e-04
-1.549107434037192723e-04,-2.050441337410162718e-05,-3.948861093901528062e-04,2.602015190182176705e-04,-6.692529239378542391e-04,2.013264337059621385e-04,-1.764680623154552778e-04,1.273084949400742115e-03,-1.123954053884227009e-05,-3.073511091647958878e-04
-3.503163631050444974e-04,-2.404448917862100129e-04,-5.131296951034541111e-05,-6.582567511209197692e-04,-1.802777164823084416e-04,-2.916786682638365555e-05,9.435561994692711414e-05,3.428025029110245265e-04,2.835789966118739606e-04,7.890394393613862000e-04
2.601995505548227941e-05,-5.646479458488348454e-04,-7.129930251251451103e-04,-7.128689890016288219e-04,1.875956398253103097e-04,3.252802518392367503e-04,6.293173681651219298e-05,1.563915696794583110e-04,4.664392922503369111e-04,7.658515145092736291e-04
1.826025199373096077e-05,-6.837752651218634466e-04,-1.023075101259827372e-03,-1.710256933302352995e-03,-2.138051744777738056e-05,5.666115391247925114e-04,4.446572642190240962e-04,3.740315064328444830e-04,1.343804840657464089e-03,6.911224147039605852e-04
2.889917123665335986e-04,-7.111331994301778531e-04,-1.322218485755694353e-03,-1.524969140313997768e-03,6.402542661847274033e-04,6.920457341995996277e-04,1.357678462988860487e-04,1.262279382499485964e-04,5.404105084366809522e-04,1.134622819763485236e-03
-4.216232690958701917e-04,-4.746643105729482937e-04,-1.755384897033968831e-03,-1.819864063874709588e-03,8.753376517835760161e-04,3.738791344817380584e-04,8.045688884478124697e-04,5.940040896902345959e-04,1.229176128817255484e-03,5.945706473568835877e-04
-3.456517779316627603e-04,-2.590032131948724549e-04,-2.370780586676728748e-03,-1.554267082044436584e-03,1.060644448568954677e-03,6.471750654976668026e-04,4.008518057386761119e-04,8.625815212019121011e-04,6.164719482223577837e-04,9.419778706181281382e-04
-1.050011676174712467e-04,-3.220329367343896369e-04,-1.699508506750557280e-03,-6.121087781910909817e-04,7.729517670704021170e-04,7.840429523163719048e-04,-3.509087207332742047e-04,7.142305253580051973e-04,2.172065257359291092e-04,6.011283395460683809e-04
-5.923110867538237305e-04,-2.264888102414415168e-04,-1.774137087834040238e-03,-5.724480031504288434e-04,1.760302429268146901e-03,9.623684676529118505e-04,1.612951914516779905e-04,-3.648012381265356265e-04,6.546979840561219450e-04,-8.477846322586171855e-06
-2.689139604148527881e-05,1.076839223270604053e-03,-2.850858977437527569e-03,1.400423131447747305e-04,-1.778934053546064962e-03,1.226587576085423192e-03,3.870998805589541099e-04,2.951746922199371763e-04,9.679278131325196955e-04,5.630129286128629246e-04
-8.382621811631401449e-04,2.381191557229964811e-03,-2.119293043695824261e-03,8.257216380014657494e-04,-2.653024663713612636e-03,3.652882257294093565e-04,-7.305408137388810829e-04,1.291694131520850332e-03,1.167550433465332693e-03,3.096747163644350737e-04
-1.499171166338530070e-03,2.413061841244310089e-03,-1.381399039024839301e-03,7.801329680574980996e-04,1.742881892648729346e-04,-9.034045822898239284e-05,-1.961534179789784643e-03,1.577759230600979043e-03,-2.619523271258972002e-04,2.491549413403703109e-04
-1.457728075835075564e-03,7.414817830998890772e-04,-7.036998872794528312e-04,-6.999858734710716498e-05,1.271041344050036605e-03,-4.824146244447149773e-04,-1.018493094096036174e-03,1.503661697922750728e-03,-5.351547358758127924e-04,7.513041798055336909e-04
1.393152167093857305e-05,-1.079027421799113169e-04,-1.110023866154020381e-03,8.232320587979272694e-04,5.344425828118214714e-04,-6.867481656721821821e-04,-1.321457784533993599e-03,1.241228378642375736e-03,-6.207299736403195040e-04,1.234027990257363910e-03
-2.390914462422494020e-04,-1.936329384902184866e-04,-1.854790914706001955e-04,5.367474096215884552e-04,-1.556039220580364305e-04,-7.066905172418998628e-04,-9.907996624962855849e-04,1.602270985245778231e-03,-5.107709886991464426e-04,8.430501718310707757e-04
3.620939048607369208e-04,-6.055455732008090597e-04,6.920940911843673259e-04,5.076624018037822822e-04,-2.426618371931894206e-04,-1.336566922949798588e-03,-2.696990504099616129e-04,7.800278846112543426e-04,-1.021533437583006972e-04,2.147484450519189134e-04
6.618768608108191540e-04,-6.298218638008910852e-04,-2.612723787825584347e-04,8.196332732577777920e-04,-5.327769706538268424e-04,-2.195232780545737939e-03,-4.586944879442703799e-04,1.099755188117796517e-03,-5.755200163137518416e-05,1.554085161172271681e-03
9.607535775644375281e-04,-5.288195521787203163e-04,-1.336503034996477728e-04,-2.986955075537725828e-04,-2.698345704372591067e-04,-1.773845152550918101e-03,-5.474868312953385513e-05,1.086045061926608048e-03,3.352685710372840843e-04,6.775265588215230363e-04
1.024286542949272901e-03,-3.944550202971480127e-04,3.034525956517921733e-05,-1.089985016145594756e-04,-5.863091928219942928e-04,-1.805999184642804491e-03,-1.715534842764229338e-04,8.662328765151732510e-04,8.314122589984054195e-04,3.150384456249053725e-04
1.057646482967688605e-03,-2.897304734926481719e-04,-4.848080140967390593e-04,-3.789152469709002329e-04,-8.885030225928057870e-04,-1.704560068759416926e-04,6.014880299934632912e-04,-3.719735350928224252e-04,9.556570883698052360e-04,-3.040530220909946194e-05
6.775376932058108700e-04,-3.120902989005468393e-04,-3.182277489665005549e-04,-4.915598492870558575e-04,-7.068592294207998519e-04,1.445208957582169501e-03,9.951128421178842510e-05,-5.293349307264391809e-04,5.120146519182505913e-04,-3.762005296166751511e-04
-2.960796153743309013e-04,-7.987637746255455882e-05,1.404254988509203816e-04,-5.466957851396215265e-05,-3.229967810483895204e-04,2.097878604462295390e-03,-7.533748898575653606e-04,-1.903979652458898358e-04,-2.918383854988514212e-04,-2.490705103116746437e-04
-2.245165757669404893e-04,-1.405311757327830144e-05,-2.919856809906513922e-05,-4.538266495283673383e-06,-4.232835905305026370e-05,5.690665012278942753e-04,-4.010042390758930325e-04,-1.147661291583116960e-05,2.516408791024147477e-04,-9.359164135096564093e-05
-5.763482881029678988e-07,1.705036227668955280e-06,-1.396323239906644528e-07,-2.192604453850004484e-07,-1.326665335645454643e-06,7.856085831107228445e-06,-1.925158976072907996e-06,4.884808234331798287e-06,-7.186002461346516764e-06,-3.072862462564464277e-06
-1.150828412251750149e-08,-3.577534893576156786e-09,-2.670401855133460022e-08,-2.267725919222565276e-07,-1.821024806393160031e-08,-6.422654067571089431e-08,-4.894603211523118333e-09,2.721245127169812527e-06,-8.866196848204771403e-08,-2.276689337246910862e-06
6.877616784632101427e-07,-3.543839239504892511e-07,-1.021053969411945420e-06,-1.615810979081584654e-05,-7.556343618316016910e-05,-2.820254103763612542e-05,-1.049926622799093113e-06,2.319494012492589010e-04,-8.995367568377744057e-06,-1.012923438315708184e-04
-2.656389718961826943e-06,-9.440924599234898836e-06,-2.986490512965908100e-06,-4.401087347425526694e-05,-1.914036840146736884e-04,-3.821231985407859985e-05,-1.885265988653628907e-06,7.889664987046594857e-04,-2.291912914728950362e-05,-4.754514213945468053e-04
7.846899708604776859e-05,3.428936792688946590e-07,-2.141056859855422121e-04,8.969189343172613560e-05,-5.767957940845021021e-04,-3.316935626251591460e-05,-2.169543220576885926e-04,1.497894567200976990e-03,-9.940768460827911638e-05,-5.259655083994936023e-04
-1.308982330955085586e-04,9.080006548171127851e-05,-4.792728686477435666e-04,-2.005799372831192735e-04,-9.190057204039178088e-04,2.452728348324209585e-04,-3.290160130682246798e-04,1.568597518655931054e-03,-2.386410274340461585e-04,3.927433809624979611e-04
-7.564230864917848626e-05,-2.014469091228180244e-04,-1.277664482935451581e-03,-7.726651589619420958e-04,-2.664104368065943864e-04,3.311157964053746349e-04,1.336433146175745813e-04,5.968402453508353089e-04,4.484306514956065822e-04,1.083799288606589672e-03
3.138913975768512226e-04,-1.551857361111028306e-04,-2.434123353929350947e-03,-1.133580029007692433e-03,3.791322984558378583e-04,6.387272987498672505e-04,7.047937033077241245e-04,2.890912990237531877e-04,3.324498500709091868e-04,1.064803271863194734e-03
6.852415584211717515e-05,-3.127763446401519358e-04,-2.748307364579512160e-03,-1.298592661766746975e-03,8.151284913471475721e-04,5.254119783493999083e-04,6.381887525267042902e-04,7.172441558558727151e-04,7.875605513644369374e-04,8.076182857007272549e-04
1.005918430416741352e-04,-6.028001914861925862e-04,-2.117355595690438835e-03,-1.329428929995696892e-03,1.530964052391089623e-03,-3.060923880961431362e-05,6.212350546656702490e-04,1.236981189588997991e-03,1.216188568300415426e-04,4.688029594644768780e-04
-8.979924619965101034e-05,-4.589417523245910074e-04,-1.923065720571387992e-03,-8.258147898771404927e-04,7.673179918044305747e-04,1.234873091633580057e-04,7.255363333844909533e-04,3.625309323357042051e-04,1.877347895862440188e-04,1.131014152698544412e-03
3.884004429285458455e-04,-8.479154160098660705e-04,-1.911395358297004023e-03,2.639889808008785639e-05,1.312014728437340631e-03,7.628342395573561516e-04,3.690535108281832390e-04,-1.384504091598787255e-04,-4.640909474679408655e-04,5.031503111031823379e-04
2.316608264556750966e-04,-1.232502962052712571e-03,-1.561479725580494941e-03,-5.395674571256806442e-04,1.656341602881251408e-03,6.591287794165440368e-04,8.323078062902140774e-04,-8.813024446202919046e-05,-3.638401641999118455e-04,4.060815383771447626e-04
4.425731791736473063e-04,-5.346980144538608605e-04,-1.762578265347447461e-03,4.020404402990631525e-04,1.916987604499737364e-03,8.683136456372761783e-04,7.207499407009367639e-04,-1.719876506458910140e-03,4.456237774961199750e-04,-7.791358015465608142e-04
-1.852505552784784206e-04,1.371127378394609462e-03,-1.745410052468242181e-03,4.466833366587150849e-04,-2.780271773392037869e-04,1.320456743826630515e-03,4.597368449100964539e-04,-2.233353074109921312e-03,1.114817111807868888e-03,-2.707805564020808009e-04
-1.631485268970989371e-03,3.037804760949716285e-03,-1.509400142973234531e-03,1.736273903452413775e-03,-1.602671462924313856e-03,-7.797130333261372264e-05,-9.586596549819632494e-04,-4.737916348969923382e-04,7.199618844787065031e-04,7.599389191992639465e-04
-2.032421475475955450e-03,1.979451159140526838e-03,-1.743102288268799736e-03,5.123166046104683184e-04,7.335373627277955340e-04,-1.701917611562713776e-04,-9.014272844253045985e-04,1.184440902179766586e-03,-7.777701776222787039e-05,5.151737984300124897e-04
-1.764956457421470526e-03,8.851846094168542341e-04,-1.013828543280255673e-03,2.108966635106488167e-04,1.073464646867801830e-03,-1.146554657325292437e-03,-4.444164156762249354e-04,1.664948079557274476e-03,-3.753243174947832445e-04,9.105863918454401140e-04
-3.314180715089510404e-04,2.467451167933529667e-04,-9.848266910281499101e-04,1.620293757870883806e-04,2.004443579474249630e-04,-1.077052532537616653e-03,-1.728546679350900046e-04,1.179067766418653591e-03,-1.401884409924071355e-04,9.180537870556973630e-04
-5.893645619358352734e-06,-9.880778502991735123e-05,-6.887011286069870441e-04,2.928631353386388736e-04,-1.448761623729284674e-05,-6.514030117162094343e-04,-5.660693365293249053e-04,9.296441442410746832e-04,-2.751289829830303401e-04,1.077984227142413098e-03
3.265349713610988299e-04,-6.371313393853803497e-04,4.785870265148429374e-04,-2.087866568755830372e-04,3.958328691452952727e-04,-1.364825341344034484e-03,-9.137872282013843276e-04,1.424717676285679408e-04,3.148509874218805168e-04,1.466252943734700984e-03
3.638640194515165537e-04,-3.801067853647487754e-04,-4.250799172547856629e-04,-1.947164893404439764e-04,1.288917582412889935e-04,-1.027633336456635141e-03,-4.740316318673991444e-04,1.636188765928298225e-04,3.084311106993852208e-04,1.536762395298988748e-03
9.819111870680021729e-05,-9.703190896780883106e-05,1.351391758327307759e-04,-1.581465082838829543e-03,3.805398489520915107e-04,-1.858864191290166218e-03,1.787689922831810446e-04,2.544584373452622684e-04,1.077037223743179889e-03,1.413226386233562993e-03
1.098269681176810512e-03,-8.201216020133909239e-05,-5.257539282858306965e-04,-9.017163536186895579e-04,-8.884324176922587179e-05,-2.716324201167010562e-03,9.225083592056591928e-04,3.198416901173522782e-04,9.917969026774428598e-04,9.822332518648311823e-04
1.363585165515038364e-03,-8.316343921515593400e-05,-7.991373868055372557e-04,-6.979692390649496923e-04,-2.931825849718926072e-04,-2.591722003358157798e-03,1.580155608597723837e-03,-3.903916067727208504e-04,1.647586211884265271e-03,2.642392741913896881e-04
1.411791950014226272e-03,-9.925722912681268556e-05,5.405884290259767137e-05,-3.111166008821855959e-04,1.598258854279744449e-05,-2.018173742983602002e-03,6.628316078288008653e-04,-4.538157619480080967e-04,1.236785037419923725e-03,-4.990866917677367742e-04
2.345188996918489549e-04,-7.169353110071892464e-05,4.126893673366756094e-04,-3.609797953143834907e-06,-1.016376764171821837e-04,4.002827225062960978e-05,-3.635430378341480040e-04,2.060867592302405039e-05,1.538623899540018133e-04,-3.212235618509882442e-04
-9.013323672599693123e-05,-4.286668437647003126e-05,3.885654276114438167e-04,-1.029719111385768281e-06,-1.617635523513334163e-04,3.186330783909178043e-04,-4.523269291705054760e-04,6.681226316956159251e-05,7.276596382084390795e-05,-9.865661125707562106e-05
-4.828949537346223169e-08,-4.237209033087783856e-06,4.295037202166972998e-05,-2.427996571906725197e-07,-2.736976846144854284e-05,-3.148878024422857213e-07,-2.535388508251855308e-05,3.000145568423950407e-05,-1.298227268535344070e-05,-2.402715488494612345e-06
-6.763190017811290207e-10,1.997461282413630791e-07,-3.020817044419464841e-08,-4.692188583208259864e-08,-1.658398143221503873e-09,-4.954097307891567382e-09,-4.754070136800812090e-09,-2.759145422816505771e-08,-4.865293883662177981e-08,-3.432879431060399371e-08
3.888411795096197977e-06,-1.686504146689387489e-07,-1.815827496831404604e-06,-2.300837891504331438e-05,-6.169004210705475487e-05,-5.957275522949430390e-06,-1.941001405974832052e-06,1.708477813317569292e-04,-1.521380728378796445e-06,-7.863363653595098729e-05
-2.134816618516581110e-07,-3.132403043514587754e-06,-2.764213351312036330e-06,-3.469562065249159194e-05,-1.453383117823558838e-04,-1.262235592301818404e-05,-9.371208613271628393e-07,4.751105055731445976e-04,-7.780580579791660341e-06,-2.676264177174825947e-04
-1.440191017016299070e-05,5.354735657108276876e-06,-1.916172125917301274e-04,8.316421376326941996e-05,-4.818785439436075327e-04,1.762467598954858093e-05,-1.945682873524110423e-04,1.090243259702436277e-03,-1.274596927290627929e-04,-1.864612383253883845e-04
1.030173295436106275e-04,2.011874104724990997e-05,-1.081101845900447889e-03,-3.929082537963852475e-04,-5.097143422435278758e-04,2.899231398273345345e-04,-3.907442300290450720e-04,1.466552632769449775e-03,-3.714983510994578292e-04,8.663551798812173113e-04
1.360774335390554771e-04,-1.263748163530831756e-04,-2.059398983578600989e-03,-8.608355027303877085e-04,3.442004314946257469e-04,7.653467461962968916e-04,2.049524855817884818e-04,5.981113180310112685e-04,-8.532727933962622343e-05,1.083248167158919716e-03
8.580746627295662236e-04,-1.705622977565520240e-04,-2.872691745821057824e-03,-8.609081561950336506e-04,1.234013819608730878e-03,6.559110935555939042e-06,1.144961652586545678e-03,2.317403787053563542e-04,-1.217947449747844096e-04,5.506073201816757100e-04
7.638558559548145385e-04,-4.177274420952012748e-04,-2.405946785373222138e-03,-9.839839453107544938e-04,1.349624634591420000e-03,7.053632541168903744e-04,5.312128501222389710e-04,-2.821240358166725830e-05,-6.292827511517749730e-05,5.487422566906564273e-04
3.665793778887762753e-04,-2.546373892824333775e-04,-1.407820194114403319e-03,-6.529588421683497380e-04,1.167849218193897729e-03,4.765772393148050615e-04,2.633509393940109073e-04,-4.432019411781536427e-04,-2.926596943275771678e-04,7.769212862794277596e-04
5.510448312675012223e-04,-7.676336827657101675e-04,-8.688581786580068132e-04,-4.797001567981600185e-04,1.145818180630606663e-03,6.576628025031160899e-04,1.262396309088358037e-04,-3.894659119121271626e-04,4.708982602144362378e-05,-2.219734119750635916e-05
5.230780140558794616e-04,-1.738090526421003871e-03,-4.035702276946162136e-04,-8.581729623280736014e-04,1.507929940915868090e-03,4.850513777955433995e-04,8.240735846991164171e-04,-1.422046459179244213e-04,-4.717631586526200562e-04,2.736686035478305516e-04
1.720953868392709955e-04,-2.052807904785401358e-03,-3.202928683517648582e-04,-7.356182176616852825e-04,1.766299693643766594e-03,1.133234360761078887e-03,7.630202903559869711e-04,-1.001572732209991693e-03,-4.155090657962137149e-05,3.171928979883621583e-04
4.415103684444798881e-04,-4.873072941281981173e-04,-3.600438754700162466e-04,3.252879779083350971e-04,1.293744780954682099e-03,1.072867229260345218e-03,4.544650482771620328e-04,-2.855634538329175198e-03,8.652863728753067444e-04,-7.501760697929214100e-04
-1.126257872288382450e-03,1.313122226728868436e-03,-3.026499648152444232e-05,1.114020888906077722e-03,-4.438116167113274153e-04,7.163099308012616309e-04,-4.582757428049238923e-05,-2.929751002816869971e-03,1.186692553485849209e-03,2.457674626565330730e-04
-2.226407346730443961e-03,2.780912220096955385e-03,-1.044170299281547352e-04,4.777910614118383221e-04,-1.770866137601921565e-04,-2.298529831846815987e-04,-6.644595008965582285e-04,-7.760360861795516894e-04,1.129620361432526909e-04,8.065942430275473011e-04
-2.441383642893809464e-03,1.874400367374286832e-03,-9.719840992622627530e-04,-5.556233248093844562e-04,1.019643737948914631e-03,-1.300885285408603324e-03,-9.434387217892585049e-06,4.718617229937815570e-04,1.157836376407204429e-03,7.555685348677637679e-04
-1.915257944408761551e-03,8.189988778526405494e-04,-4.433123424299425966e-04,1.286650159758954135e-04,6.471473012616330879e-04,-1.620589137606153005e-03,-2.045154792809245211e-04,7.745901926783261161e-04,4.656584797569905156e-04,1.348615036200297157e-03
-5.362351654658255350e-04,1.495561199271454333e-04,-6.505850779337512147e-04,1.494675484593331496e-04,1.115934019201833766e-03,-7.022667882646771659e-04,-4.372961145564730270e-04,3.462388609123211018e-05,-2.874410377791753379e-04,1.164242610320360451e-03
4.048716799387494216e-05,-7.733070111738824448e-04,-5.000761031429549119e-04,7.939656273541755450e-04,5.501747956042621129e-04,-6.212938126781547814e-04,-4.894661636999689779e-04,2.880489525250268484e-04,-1.177523400910321930e-04,8.292188873086528238e-04
-1.578087482480822049e-04,-7.758246671430692404e-04,-3.005208448594779802e-04,-6.349869895418378289e-04,5.368964003094273477e-04,-1.652403685354715730e-04,-2.065024948624110478e-05,-3.811389326494120681e-04,1.700743483802614185e-04,1.729200051773902621e-03
-7.295783271578047940e-04,-3.890724408272509143e-04,-2.629685375735593233e-04,-1.136771577576729895e-03,9.149098275873856568e-04,-1.453196629138322625e-04,-2.753845011468167444e-04,1.338876624039882831e-04,5.646451922033875496e-04,1.325652365001230492e-03
-2.929563961587944407e-04,-2.296119632725014041e-04,-2.459933750891714344e-04,-1.120004880098646920e-03,7.274683793789596658e-04,-7.692637820586088011e-04,5.474247188575567281e-04,2.132957196721409286e-04,-1.331235115559402057e-04,1.302765090325008323e-03
7.806976166616276958e-04,-2.377255152200184686e-04,-3.716270049714701464e-04,-1.341306352345482010e-03,3.440572407831872146e-04,-1.097123535459894285e-03,1.206518396712934595e-03,-5.309778978677575690e-05,5.431559172969805879e-04,2.264510263289153569e-04
1.325644651561128790e-03,-2.102974475391982149e-04,-2.533526372425879444e-04,-6.716707014537820746e-04,-4.433449467044121691e-06,-1.833609232405326687e-03,1.987751457989498163e-03,-4.050317248730170576e-04,8.312235215461607173e-04,-7.662244381158290173e-04
1.223392455053008959e-03,-1.729311268164955659e-04,7.710712857343278177e-04,-3.389348773010315624e-04,-4.834851130457763768e-04,-1.687054357353675845e-03,1.054479789397137811e-03,-8.476378447238288791e-05,4.881274990819200891e-04,-7.699017702770307716e-04
3.339781118026040872e-04,-1.040458198892267935e-04,9.205445388829921853e-04,-2.590224922126483468e-05,-8.734149550318868083e-05,-4.215137509260703363e-04,-3.521679219414255643e-04,2.815698520391034501e-05,8.109422063251065383e-05,-3.728026190408416309e-04
