-1.711801914086806035e-05,5.778588342000435515e-05,3.230542636476114066e-05,-1.280243618156247253e-05,1.387004582539699744e-05,1.423130002031949956e-04,-2.129557878619447347e-05,6.522282877521377409e-05,-2.082252200888805305e-04,-5.205593039106605138e-05
0.000000000000000000e+00,0.000000000000000000e+00,0.000000000000000000e+00,0.000000000000000000e+00,0.000000000000000000e+00,0.000000000000000000e+00,0.000000000000000000e+00,0.000000000000000000e+00,0.000000000000000000e+00,0.000000000000000000e+00
0.000000000000000000e+00,0.000000000000000000e+00,0.000000000000000000e+00,0.000000000000000000e+00,0.000000000000000000e+00,0.000000000000000000e+00,0.000000000000000000e+00,0.000000000000000000e+00,0.000000000000000000e+00,0.000000000000000000e+00
0.000000000000000000e+00,0.000000000000000000e+00,0.000000000000000000e+00,0.000000000000000000e+00,0.000000000000000000e+00,0.000000000000000000e+00,0.000000000000000000e+00,0.000000000000000000e+00,0.000000000000000000e+00,0.000000000000000000e+00
0.000000000000000000e+00,0.000000000000000000e+00,0.000000000000000000e+00,0.000000000000000000e+00,0.000000000000000000e+00,0.000000000000000000e+00,0.000000000000000000e+00,0.000000000000000000e+00,0.000000000000000000e+00,0.000000000000000000e+00
0.000000000000000000e+00,0.000000000000000000e+00,0.000000000000000000e+00,0.000000000000000000e+00,0.000000000000000000e+00,0.000000000000000000e+00,0.000000000000000000e+00,0.000000000000000000e+00,0.000000000000000000e+00,0.000000000000000000e+00
0.000000000000000000e+00,0.000000000000000000e+00,0.000000000000000000e+00,0.000000000000000000e+00,0.000000000000000000e+00,0.000000000000000000e+00,0.000000000000000000e+00,0.000000000000000000e+00,0.000000000000000000e+00,0.000000000000000000e+00
0.000000000000000000e+00,0.000000000000000000e+00,0.000000000000000000e+00,0.000000000000000000e+00,0.000000000000000000e+00,0.000000000000000000e+00,0.000000000000000000e+00,0.000000000000000000e+00,0.000000000000000000e+00,0.000000000000000000e+00
0.000000000000000000e+00,0.000000000000000000e+00,0.000000000000000000e+00,0.000000000000000000e+00,0.000000000000000000e+00,0.000000000000000000e+00,0.000000000000000000e+00,0.000000000000000000e+00,0.000000000000000000e+00,0.000000000000000000e+00
0.000000000000000000e+00,0.000000000000000000e+00,0.000000000000000000e+00,0.000000000000000000e+00,0.000000000000000000e+00,0.000000000000000000e+00,0.000000000000000000e+00,0.000000000000000000e+00,0.000000000000000000e+00,0.000000000000000000e+00
0.000000000000000000e+00,0.000000000000000000e+00,0.000000000000000000e+00,0.000000000000000000e+00,0.000000000000000000e+00,0.000000000000000000e+00,0.000000000000000000e+00,0.000000000000000000e+00,0.000000000000000000e+00,0.000000000000000000e+00
0.000000000000000000e+00,0.000000000000000000e+00,0.000000000000000000e+00,0.000000000000000000e+00,0.000000000000000000e+00,0.000000000000000000e+00,0.000000000000000000e+00,0.000000000000000000e+00,0.000000000000000000e+00,0.000000000000000000e+00
0.000000000000000000e+00,0.000000000000000000e+00,0.000000000000000000e+00,0.000000000000000000e+00,0.000000000000000000e+00,0.000000000000000000e+00,0.000000000000000000e+00,0.000000000000000000e+00,0.000000000000000000e+00,0.000000000000000000e+00
-3.971914429824053176e-09,-1.083888105898719331e-09,7.195366003359819162e-08,-6.095014773549915472e-09,-3.276735539196245373e-08,-9.720093392056687905e-10,-1.537465422703141140e-08,-1.969219811286043476e-09,-3.329344566656936621e-09,-6.390259388182995822e-09
-8.579335168419917009e-08,-2.341198308741223117e-08,1.554199056725722421e-06,-1.316523191086784157e-07,-7.077748764663875078e-07,-2.099540172684233619e-08,-3.320925313038809320e-07,-4.253514792377857978e-08,-7.191384263978959510e-08,-1.380296027847526112e-07
-8.579335168419917009e-08,-2.341198308741223117e-08,1.554199056725722421e-06,-1.316523191086784157e-07,-7.077748764663875078e-07,-2.099540172684233619e-08,-3.320925313038809320e-07,-4.253514792377857978e-08,-7.191384263978959510e-08,-1.380296027847526112e-07
-3.574722986841629743e-09,-9.754992953088455159e-10,6.475829403023818717e-08,-5.485513296194916894e-09,-2.949061985276610976e-08,-8.748084052850995127e-10,-1.383718880432825967e-08,-1.772297830157445374e-09,-2.996410109991242090e-09,-5.751233449364690201e-09
0.000000000000000000e+00,0.000000000000000000e+00,0.000000000000000000e+00,0.000000000000000000e+00,0.000000000000000000e+00,0.000000000000000000e+00,0.000000000000000000e+00,0.000000000000000000e+00,0.000000000000000000e+00,0.000000000000000000e+00
0.000000000000000000e+00,0.000000000000000000e+00,0.000000000000000000e+00,0.000000000000000000e+00,0.000000000000000000e+00,0.000000000000000000e+00,0.000000000000000000e+00,0.000000000000000000e+00,0.000000000000000000e+00,0.000000000000000000e+00
0.000000000000000000e+00,0.000000000000000000e+00,0.000000000000000000e+00,0.000000000000000000e+00,0.000000000000000000e+00,0.000000000000000000e+00,0.000000000000000000e+00,0.000000000000000000e+00,0.000000000000000000e+00,0.000000000000000000e+00
0.000000000000000000e+00,0.000000000000000000e+00,0.000000000000000000e+00,0.000000000000000000e+00,0.000000000000000000e+00,0.000000000000000000e+00,0.000000000000000000e+00,0.000000000000000000e+00,0.000000000000000000e+00,0.000000000000000000e+00
0.000000000000000000e+00,0.000000000000000000e+00,0.000000000000000000e+00,0.000000000000000000e+00,0.000000000000000000e+00,0.000000000000000000e+00,0.000000000000000000e+00,0.000000000000000000e+00,0.000000000000000000e+00,0.000000000000000000e+00
0.000000000000000000e+00,0.000000000000000000e+00,0.000000000000000000e+00,0.000000000000000000e+00,0.000000000000000000e+00,0.000000000000000000e+00,0.000000000000000000e+00,0.000000000000000000e+00,0.000000000000000000e+00,0.000000000000000000e+00
0.000000000000000000e+00,0.000000000000000000e+00,0.000000000000000000e+00,0.000000000000000000e+00,0.000000000000000000e+00,0.000000000000000000e+00,0.000000000000000000e+00,0.000000000000000000e+00,0.000000000000000000e+00,0.000000000000000000e+00
0.000000000000000000e+00,0.000000000000000000e+00,0.000000000000000000e+00,0.000000000000000000e+00,0.000000000000000000e+00,0.000000000000000000e+00,0.000000000000000000e+00,0.000000000000000000e+00,0.000000000000000000e+00,0.000000000000000000e+00
0.000000000000000000e+00,0.000000000000000000e+00,0.000000000000000000e+00,0.000000000000000000e+00,0.000000000000000000e+00,0.000000000000000000e+00,0.000000000000000000e+00,0.000000000000000000e+00,0.000000000000000000e+00,0.000000000000000000e+00
0.000000000000000000e+00,0.000000000000000000e+00,0.000000000000000000e+00,0.000000000000000000e+00,0.000000000000000000e+00,0.000000000000000000e+00,0.000000000000000000e+00,0.000000000000000000e+00,0.000000000000000000e+00,0.000000000000000000e+00
0.000000000000000000e+00,0.000000000000000000e+00,0.000000000000000000e+00,0.000000000000000000e+00,0.000000000000000000e+00,0.000000000000000000e+00,0.000000000000000000e+00,0.000000000000000000e+00,0.000000000000000000e+00,0.000000000000000000e+00
0.000000000000000000e+00,0.000000000000000000e+00,0.000000000000000000e+00,0.000000000000000000e+00,0.000000000000000000e+00,0.000000000000000000e+00,0.000000000000000000e+00,0.000000000000000000e+00,0.000000000000000000e+00,0.000000000000000000e+00
0.000000000000000000e+00,0.000000000000000000e+00,0.000000000000000000e+00,0.000000000000000000e+00,0.000000000000000000e+00,0.000000000000000000e+00,0.000000000000000000e+00,0.000000000000000000e+00,0.000000000000000000e+00,0.000000000000000000e+00
0.000000000000000000e+00,0.000000000000000000e+00,0.000000000000000000e+00,0.000000000000000000e+00,0.000000000000000000e+00,0.000000000000000000e+00,0.000000000000000000e+00,0.000000000000000000e+00,0.000000000000000000e+00,0.000000000000000000e+00
0.000000000000000000e+00,0.000000000000000000e+00,0.000000000000000000e+00,0.000000000000000000e+00,0.000000000000000000e+00,0.000000000000000000e+00,0.000000000000000000e+00,0.000000000000000000e+00,0.000000000000000000e+00,0.000000000000000000e+00
0.000000000000000000e+00,0.000000000000000000e+00,0.000000000000000000e+00,0.000000000000000000e+00,0.000000000000000000e+00,0.000000000000000000e+00,0.000000000000000000e+00,0.000000000000000000e+00,0.000000000000000000e+00,0.000000000000000000e+00
-2.736404860757142733e-09,-1.419819230676401765e-09,-6.800508978946518454e-08,-1.303402045222001191e-09,-3.259584673908527519e-07,-2.946912838919957250e-09,4.205434188727969268e-07,-1.438831636310158993e-09,-3.786505978900857568e-09,-1.294798510169117879e-08
-9.864207173990226844e-09,-4.607434673135770152e-09,-2.191286804990170004e-07,-4.524198931565317445e-09,-3.789434591973142068e-06,-9.256784770746897263e-09,4.099695071397772089e-06,-9.273708285252415748e-09,-1.193209151564421542e-08,-4.167337357528419930e-08
-1.117090603423158493e-07,-2.487551223775923049e-08,-1.458185407402198108e-06,-5.639106457802578416e-08,-1.503445467865645758e-04,-7.085026031130614721e-08,1.526233016607484697e-04,-2.472154483598824528e-07,-4.756571618521964177e-08,-2.619624047669674589e-07
-2.810641537149487806e-07,-3.094451039343324300e-07,-4.171063882065978601e-06,-1.585253503604936464e-07,-4.224947184208366932e-04,-1.879923855863412470e-07,4.298831629284978321e-04,-1.213812365260458599e-06,-1.956679423228675225e-07,-8.708733244149907724e-07
-5.679386447382502991e-07,-1.173899234556353890e-05,-3.011654056905806377e-05,-5.324933737312610983e-07,-2.024889022642068057e-04,-1.717940268540122850e-07,2.541068232630054927e-04,-5.095861917824006797e-06,-1.822025971406658361e-06,-1.572274149623637853e-06
-1.211599080526573087e-06,-1.373529602301171456e-05,-1.130214750583874179e-04,-7.153693090633694076e-07,-9.228004737827529805e-05,-2.829775788350894773e-07,2.311061414895944474e-04,-5.396914625429240675e-06,-2.349966197783622831e-06,-2.112496238282284538e-06
-1.034804194521250095e-05,-1.366014993078949860e-05,-8.958785261447100386e-05,-7.633154966328934383e-07,-1.503460035115385129e-04,-7.949920710602425139e-07,2.789516546854855041e-04,-2.616817785860694438e-06,-3.218783219060997176e-06,-7.615698110858981950e-06
1.051496265001170086e-04,-1.356300363305601126e-05,-4.883866197267845070e-05,-1.314966952265662020e-06,-2.627885318746305660e-04,-1.320417538044653013e-06,3.042443380094769171e-04,-4.459770712141607511e-05,-3.455766283168168860e-06,-3.351490913433520844e-05
2.209482975209135856e-04,-1.407900245111277048e-05,-4.470623934412234314e-05,-1.967502312071740440e-06,-5.294154792238774717e-04,-1.741943841157756184e-06,5.102828219993489362e-04,-8.383316830409235114e-05,-4.412709115946579056e-06,-5.107507492788276095e-05
9.168206005211778633e-05,-1.043997208767349544e-05,-4.278594179395267750e-05,-1.619508918933834204e-06,-3.397292269195448266e-04,-3.114586995199786006e-06,3.693275425512511823e-04,-3.342324259260703542e-05,-4.138046924535353184e-06,-2.575907637092159899e-05
-4.758859175543917240e-06,1.230275733262606525e-04,7.167570538379565220e-05,-5.471416255471630175e-05,-3.165166322531071043e-04,-7.674770759410757723e-06,2.212363971197669013e-04,-1.515555924827733021e-06,-7.895348575520764485e-06,-2.286434658669599511e-05
1.255069209006475959e-04,1.466256824166089524e-04,3.474501800624668515e-04,-6.720710795968724653e-05,-7.926326271679987783e-04,-7.029318858841341933e-06,3.759523809828757080e-04,-4.235004884977402792e-06,-1.305323594743646832e-05,-1.113778695436583917e-04
3.684852779534059444e-04,4.256933477151449547e-06,3.598814362706833085e-04,-1.666752945502826284e-05,-7.919614357034745903e-04,-4.566243534657992299e-06,2.540694526327704535e-04,-6.208022587126128698e-06,-2.093916901644087518e-05,-1.463507000372823530e-04
1.806002843430454729e-04,-1.116583236285768457e-05,-1.364216294893239620e-04,-2.015962183982445125e-06,-2.461516939031807463e-04,-6.692980216255329120e-06,3.008346154789175468e-04,-2.762545295078521122e-06,-7.068980980456714694e-06,-6.915527539082804581e-05
-4.028389837533549151e-06,-1.531261366020905084e-06,-7.144392900239963907e-05,-6.747950853231120921e-07,-8.707995690189218065e-05,-1.162718156099189534e-05,1.858536674856460307e-04,-3.487668572256549236e-07,-2.892757140495555804e-06,-6.226629733763415538e-06
-2.633952908079857801e-06,-3.699257035953850251e-07,-4.351687718284914509e-05,-1.352244145120097299e-06,-2.409682251262231249e-04,-1.023302340266634566e-05,3.101166929333442593e-04,-5.752082050985618396e-07,-2.967459532848905017e-06,-7.499776726862018894e-06
-1.690704058992534436e-06,-2.055641552780994256e-07,-2.533395856212046276e-05,-3.083556179002602477e-06,-1.868277467004957114e-04,-9.322181456104739801e-06,2.362993547883617299e-04,-3.373098871152645690e-07,-3.187532538042282671e-06,-6.310801251209992367e-06
-6.829913279275625395e-07,-5.836558157395198354e-08,-5.161658657982871109e-06,-7.490113514124162512e-07,-1.017614658748309717e-04,-2.444846797792273650e-06,1.134592803586219643e-04,-3.885291744645694544e-08,-9.324158314611176412e-07,-1.629672018194359726e-06
-1.811648013127741030e-07,-3.621714001873814651e-08,-1.717746724096252762e-06,-4.636184775150241686e-08,-1.311306797980902694e-04,-1.140801297222820981e-07,1.352212276626160931e-04,-6.097723610165210617e-08,-3.361842154342496784e-07,-1.597815770088737506e-06
-2.179065947093047647e-08,-1.384027860961740530e-08,-7.312412107649390141e-07,-1.712354244707187219e-08,-4.271322653945620288e-05,-4.425913846884087290e-08,4.440152698975069690e-05,-6.845381116235320187e-08,-1.308014171600242553e-07,-6.607903922107978824e-07
0.000000000000000000e+00,0.000000000000000000e+00,0.000000000000000000e+00,0.000000000000000000e+00,0.000000000000000000e+00,0.000000000000000000e+00,0.000000000000000000e+00,0.000000000000000000e+00,0.000000000000000000e+00,0.000000000000000000e+00
0.000000000000000000e+00,0.000000000000000000e+00,0.000000000000000000e+00,0.000000000000000000e+00,0.000000000000000000e+00,0.000000000000000000e+00,0.000000000000000000e+00,0.000000000000000000e+00,0.000000000000000000e+00,0.000000000000000000e+00
0.000000000000000000e+00,0.000000000000000000e+00,0.000000000000000000e+00,0.000000000000000000e+00,0.000000000000000000e+00,0.000000000000000000e+00,0.000000000000000000e+00,0.000000000000000000e+00,0.000000000000000000e+00,0.000000000000000000e+00
0.000000000000000000e+00,0.000000000000000000e+00,0.000000000000000000e+00,0.000000000000000000e+00,0.000000000000000000e+00,0.000000000000000000e+00,0.000000000000000000e+00,0.000000000000000000e+00,0.000000000000000000e+00,0.000000000000000000e+00
0.000000000000000000e+00,0.000000000000000000e+00,0.000000000000000000e+00,0.000000000000000000e+00,0.000000000000000000e+00,0.000000000000000000e+00,0.000000000000000000e+00,0.000000000000000000e+00,0.000000000000000000e+00,0.000000000000000000e+00
0.000000000000000000e+00,0.000000000000000000e+00,0.000000000000000000e+00,0.000000000000000000e+00,0.000000000000000000e+00,0.000000000000000000e+00,0.000000000000000000e+00,0.000000000000000000e+00,0.000000000000000000e+00,0.000000000000000000e+00
-1.069158303687181086e-08,-3.829457780289115924e-09,-1.378874670747172287e-08,-6.243150915778156033e-09,-4.274454385908116359e-08,-1.440204645418206928e-08,1.308525022140538092e-07,-3.615009942432509519e-09,-1.108482908513956773e-08,-2.445313443280853129e-08
-6.074961843696043699e-08,-3.686916908293781552e-15,-8.782027139913798058e-09,-3.105567102575870273e-10,-1.507758299669754601e-09,-2.822269225281364427e-08,9.970194910901653040e-08,-4.040648884155288971e-11,-7.388744718507147341e-11,-1.499864645763630087e-11
-6.769059835486215503e-08,-1.991849576343461268e-08,-3.232905904615649619e-06,-2.791953225286263237e-08,-2.908527639806971859e-06,-1.158738399345908166e-07,6.579617768339178827e-06,-3.013339364003757549e-08,-8.865116219471986092e-08,-8.799720177603637109e-08
-2.397817939973670410e-06,-6.688735063168448426e-07,2.687330935291032229e-06,-2.623748518267751770e-06,-1.097505007092123102e-05,-1.128768992994600445e-07,1.455866685851495696e-05,-3.635254116043446304e-08,-3.420992315206013676e-07,-8.917908634600430497e-08
-1.232243318247417439e-05,-3.647561832908701665e-06,1.200526488754693792e-05,-1.383063600480350470e-05,-2.584585206658332403e-04,-3.617344571743044700e-07,2.802022860380168519e-04,-5.586133485098982361e-07,-2.176151936148385928e-06,-8.518994977115119375e-07
-1.675559222540989819e-07,-8.532825085407051114e-06,-3.027015238534128721e-05,-1.807190801328880931e-05,-5.273313905237383709e-04,-4.735836291591228229e-06,6.096799214389187795e-04,-1.085584996575414158e-05,-6.428073241501952722e-06,-3.286330010042681147e-06
-4.247662677821303510e-05,-1.687717958425242744e-04,8.215334167126557791e-05,-3.464017969380069252e-05,-6.241449582624378038e-04,-9.971015417906456792e-06,8.398484188343109018e-04,-1.683619415595656016e-05,-1.971528409584422117e-05,-5.445706258894697876e-06
-1.097292843551470059e-04,-3.425997632194740746e-04,4.833502707124745306e-04,-7.048827521478899418e-05,-4.447074662146928512e-04,-6.019303899718058429e-05,7.286270662263077784e-04,-9.061420436212585139e-05,-8.126461792250016863e-05,-1.238068665287428811e-05
-1.051586294512897953e-04,-1.419336355990411837e-04,6.748766358768093856e-05,9.845494509957821783e-05,-9.442646649994147984e-04,-2.320608520157946112e-04,1.484848622031783487e-03,-5.884408630180916526e-05,-1.286429589829272946e-04,-3.988640336876417552e-05
-1.770655291968239618e-04,-8.160400620810956082e-05,1.065019519662846259e-04,4.203312295684685893e-04,-7.930119007522624247e-04,-4.472142039451646616e-04,1.267159481920198099e-03,-8.160309845782110394e-05,-1.561859599469960348e-04,-5.730796494776912119e-05
-1.431416055920687648e-04,5.828686994501481271e-05,1.412149589760428828e-04,4.759902224863998832e-04,-1.419125533554033885e-03,-3.485766985968455920e-04,1.639325281715716147e-03,-1.126873716146491958e-04,-1.745656833131109076e-04,-1.167204404524590041e-04
-2.330627774318759819e-04,6.727951004257315447e-04,2.762837268791304510e-04,-3.470346270645328787e-05,-1.334420052345955919e-03,-3.150455988477057615e-04,1.469061678800913720e-03,-8.252481477916290568e-05,-2.456148755958243173e-04,-1.727689243987940663e-04
-4.436416838937084725e-04,8.833744514606052577e-04,1.853750717220043864e-04,-2.514970297193276877e-04,-7.109760188785523580e-04,-4.392085145873900198e-04,1.327541976631524791e-03,-1.289048327127824607e-04,-2.349717669533322474e-04,-1.870916530690381534e-04
-6.121595371599338614e-04,1.530658390559848413e-03,5.375958028461803569e-04,-5.139020799008380078e-04,-9.958449734830910824e-04,-1.489977776982345564e-04,8.200632450597999251e-04,-1.583318796866388530e-04,-2.868235221551093130e-04,-1.722576683819857315e-04
-5.712421589258267259e-04,9.407732415701439881e-04,4.699948390462046393e-04,-2.164233065131742826e-04,-1.066120426859513059e-03,2.900091119136186525e-04,6.741133401133236284e-04,-4.620569582723234265e-05,-3.094189619346905369e-04,-1.654799825828563123e-04
-4.983003530350338470e-04,1.527482158672126636e-05,-1.176767785357858536e-05,-1.212117997082670981e-04,-4.861976988858024819e-04,4.752881203151982140e-04,9.486500308315870588e-04,-2.684898320767117758e-05,-1.726865645716843989e-04,-1.221998954714681625e-04
-3.168862663521810350e-04,9.274090077744858590e-05,-2.679329544942381193e-04,-1.777795440611202725e-04,-5.628957414466824764e-04,3.034304714908174039e-04,9.801987645799651455e-04,-1.340217327528232447e-05,4.906268191654713373e-05,-8.653613913526931830e-05
-2.000638771018541442e-04,3.739582513727168853e-04,-6.187823759414742527e-04,-1.047590681107961146e-04,-4.117112906517304285e-04,1.508691334254114343e-04,9.969683375041994873e-04,-8.362533786863785918e-06,-1.115753042145808282e-04,-6.654127249502491553e-05
-1.524588871080031680e-04,1.505413092555272950e-05,-1.258852797674098732e-04,-3.431041939919380869e-05,-3.295841250449684195e-04,-2.084708461795484560e-04,9.342321238886806822e-04,-4.925130890197440524e-06,-6.276583129934115842e-05,-3.088573512556952802e-05
-5.570351567699638272e-05,-4.798335584585917198e-05,-8.225986255785664206e-05,-4.076568033462920238e-05,-3.208918259093741635e-04,-2.948508522097850922e-04,9.201628376655707816e-04,-2.830991910823209895e-06,-4.552781120413352894e-05,-2.934894201611644953e-05
-1.256338238415840481e-05,-1.720273380041939678e-05,-9.302062370651385879e-05,-2.567269209394078920e-05,-2.924497593293170529e-04,-2.002089672092198112e-04,6.771345063683754245e-04,-1.339300579214711117e-06,-2.113275308664760814e-05,-1.354429417894477708e-05
-4.781607903539393615e-06,-5.551446452219119228e-06,-2.552568514563707724e-05,-5.003861882917610346e-06,-1.310723994438812187e-04,-1.729675666654957762e-04,3.581281767361844818e-04,-4.698896492576333608e-07,-1.039374065761052325e-05,-2.361978935625914076e-06
-2.181647056917199481e-06,-2.458640721502784642e-06,1.746281362329133466e-04,-1.327651600305830762e-06,-4.236644022668836909e-05,-8.765279076975312524e-05,-3.147491877994501900e-05,-2.512875317931346652e-07,-6.370141853345935346e-06,-5.446176926618986049e-07
-1.392672780966457461e-07,-1.273302780793083592e-06,1.239260520520077023e-04,-8.286571908852223088e-08,-6.014112210194971501e-06,-1.840578251657736447e-05,-9.560039464839487533e-05,-2.796789570904077725e-08,-2.283792065437458600e-06,-9.856693771526003980e-08
0.000000000000000000e+00,0.000000000000000000e+00,0.000000000000000000e+00,0.000000000000000000e+00,0.000000000000000000e+00,0.000000000000000000e+00,0.000000000000000000e+00,0.000000000000000000e+00,0.000000000000000000e+00,0.000000000000000000e+00
0.000000000000000000e+00,0.000000000000000000e+00,0.000000000000000000e+00,0.000000000000000000e+00,0.000000000000000000e+00,0.000000000000000000e+00,0.000000000000000000e+00,0.000000000000000000e+00,0.000000000000000000e+00,0.000000000000000000e+00
0.000000000000000000e+00,0.000000000000000000e+00,0.000000000000000000e+00,0.000000000000000000e+00,0.000000000000000000e+00,0.000000000000000000e+00,0.000000000000000000e+00,0.000000000000000000e+00,0.000000000000000000e+00,0.000000000000000000e+00
0.000000000000000000e+00,0.000000000000000000e+00,0.000000000000000000e+00,0.000000000000000000e+00,0.000000000000000000e+00,0.000000000000000000e+00,0.000000000000000000e+00,0.000000000000000000e+00,0.000000000000000000e+00,0.000000000000000000e+00
-2.477463398710313685e-08,1.053717736153508768e-06,1.013535728615405882e-07,-2.545598703031157456e-07,-9.794686825904055011e-08,-3.557106507821879320e-08,-2.109379666141816197e-07,-8.624758427192355171e-09,-4.663829944709179522e-07,-5.627315187528194822e-08
-1.246434457256675540e-06,2.422187982247775982e-07,-5.564753750567573704e-07,-1.938375438650670479e-07,-1.313281340150811101e-05,2.456468796432140962e-06,1.437455173878390065e-05,-1.557209958445117242e-08,-6.709777083266103335e-07,-1.257128747843139338e-06
-3.457949395811634185e-05,-7.421722528762745340e-07,-1.844852883792876734e-05,-1.007214438141538542e-05,-1.471684012312307243e-06,4.132641405387078339e-05,3.005986430165558652e-05,-1.498248700190420373e-06,-4.449159825373571981e-06,-1.248463873134222076e-07
-2.967656955595707646e-04,-1.370919891043935391e-05,-1.546077513617395824e-04,6.949843610232280759e-04,-4.793888763693542407e-05,-2.782199529954608799e-04,1.312491122365249004e-04,-2.460461062133919706e-06,-3.038188871924350743e-05,-2.149637014230000724e-06
-3.361175303138991656e-04,-2.097211820057446227e-05,-1.016291445825380117e-04,5.175259804991287366e-04,-4.729595279239304380e-04,-1.475046125638379676e-04,6.179959077367527158e-04,-5.450527291822605103e-06,-4.591368194929478289e-05,-4.974745409985333803e-06
-4.454724504343154229e-04,-7.329499598507511462e-05,6.828405344249844516e-05,5.974851129373959019e-04,-3.768227320778578257e-04,-1.369987658626573826e-04,5.686628440769456519e-04,-8.204724768416299711e-05,-1.088791596696923972e-04,-1.091665874307966680e-05
-1.676105506235390087e-04,-3.064988462756431959e-04,7.077418039253036185e-04,6.372297804041305398e-04,-8.948688515457228765e-04,-2.621214770444820754e-04,5.201527269972316915e-04,-1.812736920385286932e-04,-2.829145782674505208e-05,-2.445943597200843096e-05
-2.465550461961354316e-04,-6.646444400744378703e-04,1.738714436359359815e-03,3.328017799187250620e-04,-1.453832945184227281e-03,-1.861299281456407404e-04,9.361947676087490266e-04,-2.998025784022469425e-04,-8.335066568335508454e-05,-7.339538020079167818e-05
3.162557028054289798e-05,-8.486618007580212092e-04,1.542646002053079659e-03,4.417877930070234545e-04,-1.617087528320905812e-03,-9.583332020216231320e-05,1.185303768457822513e-03,-4.307198571713483667e-04,-5.196208270920680812e-05,-1.570985446368228840e-04
1.372200227491881305e-04,-6.344555589248462076e-04,1.767376925889664390e-03,1.364963023161097026e-03,-1.513587189668054748e-03,-8.986285049383403289e-04,7.836267994670687671e-04,-5.215458129055036479e-04,-2.461178855653756571e-04,-2.388518192648906224e-04
-1.115131297589389600e-04,2.108263215940040620e-04,1.354363185057809926e-03,2.066573047272346128e-03,-2.068380962980122164e-03,-5.819568714641317701e-04,3.841820801130851675e-04,-3.525504527912948325e-04,-4.848897323164989034e-04,-4.166534847262575152e-04
4.468014754200603416e-04,3.831638905230762369e-04,1.779260468702116788e-03,9.635869543798607304e-04,-2.652763073253494239e-03,-9.050062597331688663e-04,1.124441329395457203e-03,-3.942260832563685043e-04,-1.785691553932905516e-04,-5.666895467842646703e-04
2.883783752790755519e-04,3.271947568397000675e-04,1.171173877145054252e-03,1.426849601563254287e-03,-1.600988599696359866e-03,-7.847055135955642059e-04,7.949651420161734684e-04,-4.762866956687012744e-04,-4.079427867668450921e-04,-7.386381571157905499e-04
2.377613828276607015e-04,8.269430775485214378e-04,5.930578042558794748e-04,1.409314809020470677e-03,-1.527315082475758871e-03,3.858950161931609928e-04,4.013839753093779669e-04,-4.535542996861740986e-04,-1.090164393493662587e-03,-7.833222894994781339e-04
1.300807913427766004e-04,7.231690651984378632e-04,3.465798931870139508e-04,1.322068554577974500e-03,-1.427744404283070668e-03,5.092816900761793506e-04,2.924323311043248064e-04,-3.362177502865804058e-04,-8.118123999018975927e-04,-7.478377710151495146e-04
2.552957560397618839e-04,-4.538659649614753275e-04,5.120575532139114280e-04,7.926064057401598474e-04,-1.183457236921272920e-03,7.321702061479613095e-04,2.977897877894957650e-04,-2.918950621144844777e-04,-1.515393801735530799e-04,-5.091620647604953214e-04
-6.892828493675952914e-04,-3.488619565160576636e-04,-3.962354819080736034e-04,8.435049226092513871e-04,-1.113112833341210793e-03,1.047012745390096160e-03,6.296359848015946814e-04,-2.986469966301509246e-04,4.136120127886714314e-04,-8.762554782653192941e-05
-6.648677880421965773e-04,1.790676135005651675e-04,-7.377992920871810764e-04,5.354888764030103646e-04,-3.308167665536139316e-04,1.064097292996011527e-03,9.309423981043356625e-04,-7.487374482370173789e-05,-6.224230449736119523e-04,-2.788155445236168090e-04
-5.110003416060712907e-04,-4.843263184731516429e-04,-5.710698157304077045e-04,9.801416557568343787e-04,-2.189448819188380711e-05,8.247539163938247654e-04,3.797638763755136382e-04,-6.589735400899828627e-05,-2.559348373880831703e-04,-2.745362931275755185e-04
-6.721065125245475474e-04,-8.198956069155627921e-04,-1.297330856939243545e-04,-1.535387207702630739e-04,1.052820617105700707e-04,6.378466998570676621e-04,8.686212524461689802e-04,-5.875763815990632072e-05,3.453676369802972999e-04,-1.230860869299017606e-04
-3.554496949975295022e-04,-4.895448151905237681e-04,-2.582869260322189376e-04,-5.443120286700521473e-04,1.567107466729620755e-04,4.007594104267883563e-04,8.676772966671940325e-04,-2.693941510809982464e-05,2.836771763920543118e-04,-3.429175016057528074e-05
-3.584405087348787445e-05,-1.911694615350341615e-04,-3.954936276689897164e-04,-2.886075181174201933e-04,-9.897568870790685958e-05,-9.037303144712829125e-05,7.888289463228891811e-04,-2.594338845449576364e-06,3.235012684437678300e-04,-9.272497571240029157e-06
-3.559817717734876799e-05,-1.112003928015198729e-04,-2.826674479593392487e-05,-9.946082666403368059e-05,-1.415801634445302453e-04,1.685179862931183027e-04,3.093381234437999803e-04,-1.435695742501980190e-06,-5.658391610107694564e-05,-3.730193009973066614e-06
-4.636938699750657356e-05,-8.671006348142647018e-05,9.857014725154983413e-05,-1.708354014357981611e-06,-2.902073154700599531e-06,4.197333492630333585e-04,-3.645675832045932284e-04,-1.434400337227942374e-07,-1.544840162578951564e-05,-4.541940024846720716e-07
-1.266779180364396536e-05,-1.517762400265863668e-04,-1.298883018441020605e-06,-1.198988391785133108e-07,-3.514774493751997875e-06,6.148685933384976602e-05,1.351028109825328730e-04,-1.730694135724180188e-08,-2.714824039676019170e-05,-4.653479666292358037e-08
0.000000000000000000e+00,0.000000000000000000e+00,0.000000000000000000e+00,0.000000000000000000e+00,0.000000000000000000e+00,0.000000000000000000e+00,0.000000000000000000e+00,0.000000000000000000e+00,0.000000000000000000e+00,0.000000000000000000e+00
0.000000000000000000e+00,0.000000000000000000e+00,0.000000000000000000e+00,0.000000000000000000e+00,0.000000000000000000e+00,0.000000000000000000e+00,0.000000000000000000e+00,0.000000000000000000e+00,0.000000000000000000e+00,0.000000000000000000e+00
0.000000000000000000e+00,0.000000000000000000e+00,0.000000000000000000e+00,0.000000000000000000e+00,0.000000000000000000e+00,0.000000000000000000e+00,0.000000000000000000e+00,0.000000000000000000e+00,0.000000000000000000e+00,0.000000000000000000e+00
-2.424617901536332975e-08,3.610048775631721156e-06,-7.394452554466822028e-07,1.131523471242612049e-06,-6.192284879010450727e-08,-3.423181897841445895e-06,-1.711988565106454256e-06,-5.078016645561513828e-09,1.242201958434138745e-06,-1.791144246285742442e-08
-1.236807483729832278e-06,9.203202469673803585e-08,-1.594737641126010017e-05,7.410826275725375606e-05,-1.483158989990980264e-05,-2.284882517076883415e-05,-1.485943666763961798e-05,-6.055214363520149612e-08,-2.615132763151735056e-06,-1.800574241855568301e-06
-5.093792534595098395e-05,1.303288944166369045e-05,-4.890082236420604552e-05,2.042494067899407238e-04,-1.850293221491500277e-05,-1.608281738957732278e-04,1.265491121866026429e-04,-2.301967117754480393e-05,-3.718576453762167158e-05,-4.456118882195003167e-06
-4.567274045565693219e-04,1.448741411859762629e-04,-1.139627049167428203e-04,1.337226688980780150e-03,5.762331364998261418e-05,-9.327637930323559026e-04,1.595985328749826367e-04,-3.903701188357021747e-05,-1.335930817822911102e-04,-2.323868052018799517e-05
-3.491360127579500234e-04,3.503900623178641643e-05,5.777716098919348422e-04,1.308368467614721975e-03,-3.948505086281233183e-04,-9.002684510437498422e-04,2.074815825858345017e-04,-8.799419431009645348e-05,-3.613448816478157227e-04,-3.506661793654877876e-05
-1.301045856264800894e-04,-1.346700934708137812e-04,2.822593724557292180e-04,1.123713814800578279e-03,-1.520665916207470389e-04,-2.569497592046814582e-04,-6.927913136816876954e-05,-3.313198750820623177e-04,-2.448838361499463667e-04,-8.669931473340614396e-05
-2.352303569808736903e-04,-2.963587184611189782e-04,9.551803077889911521e-04,1.532363935697154868e-03,-9.128405794685440526e-04,-1.018760113669286505e-03,2.675023507530682200e-04,-5.049772460638266361e-04,3.994428614161462201e-04,-1.863224410117170226e-04
1.350088878013555626e-04,-6.546901469918664680e-04,1.876005725206241230e-03,8.823252955492489127e-04,-1.019604783448987235e-03,-2.036378063125383051e-04,-1.485180113912310472e-04,-9.180510628509146002e-04,5.184151266390381665e-04,-4.672532242003546725e-04
9.406067433734279176e-05,-3.962818016338872642e-04,7.708261440948656600e-04,1.285418634423209040e-03,-1.153606405148880319e-03,7.078588104207411604e-04,3.197368211854437984e-04,-1.124443672325687888e-03,1.425552667699840528e-04,-6.461244721231315874e-04
9.777814313556478648e-04,-7.265214871158007584e-04,8.878338428918078730e-04,1.418274535403126532e-03,-1.074893316402408556e-03,1.097672176789714652e-03,-9.161103357077572023e-04,-1.089895576099989558e-03,1.551888150780758124e-04,-7.293300861924185844e-04
-1.027893173512932117e-05,-2.340608862060351356e-06,1.395098004384769238e-03,1.699302501433825859e-03,-1.327762289111595684e-03,2.551080684623851049e-04,-1.222109966089638062e-03,-8.557442192555936864e-04,9.938674483301566942e-04,-9.251400075571152752e-04
2.419594214115761588e-04,9.819416796217931512e-04,7.023412345473303321e-04,2.028919481796847332e-03,-5.479927891527543952e-04,-9.300952273437036819e-04,-8.011448621749446639e-04,-9.638380768117685987e-04,4.707234293843084224e-04,-1.182814291278690751e-03
-2.127616077985552241e-04,2.455431218549337263e-04,1.564897779766028863e-03,9.764092609648720219e-04,-1.032901666166842524e-03,5.990217317620356467e-05,-8.862438790820737280e-04,-9.791539087444130207e-04,1.224460918910756646e-03,-9.601521928809136387e-04
4.295962929574443528e-04,2.146297664010489686e-04,8.695784100877188569e-04,1.314080783301556886e-03,-1.136562563804120610e-03,1.127100942579113739e-03,-1.139790833047411769e-03,-1.193490180005622346e-03,7.734776381692525307e-04,-1.258620256638975053e-03
3.501322911914960201e-05,3.112097757301063522e-04,-9.584916384865945553e-07,1.520896231625016139e-03,-2.280568542022186156e-04,4.682010904985569569e-04,8.186214821276215526e-05,-1.417185001740950542e-03,8.968219323154381873e-04,-1.667804059919366288e-03
3.962280259813151777e-04,8.933806061300028666e-05,5.225724824935412249e-04,5.397569591100866669e-04,-7.846888035681527391e-04,8.651703278037400566e-04,1.310185406810401127e-04,-1.267743142535588795e-03,6.868757094249849969e-04,-1.178528160003972395e-03
2.827572978379121803e-05,2.992830222113495274e-04,4.166953757653673023e-04,8.486773649057392441e-04,-8.619186743603515603e-04,1.596112391432098765e-03,-8.162750512656738759e-04,-1.010458115385718661e-03,4.714245660218658435e-04,-9.718166091084670275e-04
-4.252021720131123170e-04,6.988665323503905763e-04,-5.744422588812916073e-04,7.248529035573732411e-04,7.954532768626999773e-04,4.412871517620592507e-04,-2.716713410328996416e-04,-4.972151602440057433e-04,1.172800198783912934e-04,-1.009208952239613270e-03
-8.273947485594382442e-04,5.949459284931983728e-05,-2.551553158494203138e-04,-3.849248908664566976e-04,1.766720491196650681e-03,-5.797345113101650413e-04,6.233717480838911170e-04,-3.443581065678918388e-04,6.876532680459109719e-04,-7.456725270223957345e-04
-8.964319765540455787e-04,1.040054871548676789e-04,-1.144172480718990163e-03,-7.360700701222967681e-04,1.431325958039000781e-03,8.032001090708760366e-04,1.030847830864844040e-03,-2.206678578066831006e-04,4.431947324061389368e-04,-8.152317323337184354e-04
-5.021987718296291045e-04,-1.178267027561382823e-04,-1.588033163808484985e-03,-7.249891839692214693e-04,1.090928351263679942e-03,1.370125870458494379e-03,1.329081377058622575e-03,-2.157185094379833316e-04,-2.428544727254176242e-04,-3.985147942539214619e-04
-5.642776016061592766e-04,-1.432741313868356398e-04,-9.110854378488720227e-04,-1.059927667500585409e-03,6.983588286951016326e-04,1.637057346261192601e-03,7.505680819710927425e-04,-6.874950105997999447e-05,-2.180017439510280352e-04,-1.206681735739272216e-04
-4.503369978966986157e-04,-4.996512553045234437e-04,-4.574970213981117582e-04,-1.877803620465080564e-04,6.496677041343808332e-04,1.487157023330639739e-03,-6.921009204116609134e-04,-3.497823543046418924e-05,2.486287990543126040e-04,-6.310873403136694538e-05
-1.276956962671392569e-04,-3.933154569948368135e-04,-3.061730827421790861e-05,-2.321815009557863936e-05,2.643672512401049448e-04,6.876187776714984615e-04,-1.982140601678048712e-04,-2.674749776565373873e-06,-1.659106769591402631e-04,-1.033993037631821160e-05
-6.657122076246448687e-06,-4.025718071508772145e-05,-3.151838454696551773e-05,-7.002258031603412058e-07,-2.591422834976445086e-05,8.585198789194233774e-05,-6.586327989583370795e-06,-3.714250863917578732e-07,2.915839389177984732e-05,-3.005487216522238230e-06
-7.811009312159742527e-07,-1.534919246363924879e-05,-2.965488539989298079e-05,-2.084525733420309579e-07,-1.129318571688540608e-05,-1.750501316458995846e-05,9.021712070012976193e-05,-6.377023421676223922e-08,-1.493282137003200070e-05,-4.286988463156818904e-07
0.000000000000000000e+00,0.000000000000000000e+00,0.000000000000000000e+00,0.000000000000000000e+00,0.000000000000000000e+00,0.000000000000000000e+00,0.000000000000000000e+00,0.000000000000000000e+00,0.000000000000000000e+00,0.000000000000000000e+00
0.000000000000000000e+00,0.000000000000000000e+00,0.000000000000000000e+00,0.000000000000000000e+00,0.000000000000000000e+00,0.000000000000000000e+00,0.000000000000000000e+00,0.000000000000000000e+00,0.000000000000000000e+00,0.000000000000000000e+00
-7.689784774177965944e-07,5.688326420846418788e-06,-1.999135721491458610e-06,8.560543360000211953e-06,-1.044637757068055265e-06,-1.022280438519800147e-05,3.180297121920476529e-06,-1.428201877447910463e-06,-1.714220877800521374e-06,-2.511878063433599427e-07
-1.168475670045741428e-05,2.587315559172839608e-05,4.209023738992520033e-05,3.810072896088443858e-04,-3.777703076048294424e-06,-1.716142065975645231e-04,-1.892251278898198874e-04,-1.218890379300620704e-05,-5.587650618683884175e-05,-4.603478346762898926e-06
-2.025811115543662395e-04,8.075486549305365617e-05,1.520007943414202042e-04,1.114842739614457789e-03,-5.331923402233060982e-05,-8.585195377112040923e-04,3.460249740057378456e-05,1.949268127468414702e-05,-2.523501462632342525e-04,-3.492354857305529875e-05
-6.591223771345813181e-04,7.776232741691428653e-04,-1.993166181593616709e-04,1.736262561461095200e-03,3.829254170436787087e-05,-1.278230943654263011e-03,-6.212646037022545890e-04,8.102874342696852377e-04,-4.895790813762171487e-04,-1.149521875776298813e-04
-3.614092083998424491e-04,6.324134841963607043e-04,-2.386685700018875266e-04,2.044993953375362754e-03,-2.884264790349125871e-04,-1.518807572516359897e-03,-4.070564259425008750e-04,1.025759292606437563e-03,-5.630000506167278469e-04,-3.257984236659178592e-04
-5.855063121751396486e-04,9.921205139491224992e-05,9.850654407395384275e-04,1.553016999418579307e-03,-2.554711829413097322e-04,-9.790328662778607655e-04,-7.888108775404610107e-04,5.459936949783921519e-04,-5.819376469610318208e-05,-5.162731829005392592e-04
-2.518819845257159128e-04,-5.986518979576659722e-04,8.117008379331900085e-04,5.892770116002061772e-04,-4.436516547931863993e-04,1.543206384516228411e-04,3.652169727268833837e-04,4.370998868046516140e-04,-3.507900086790734315e-04,-7.126398015609132844e-04
-5.474802309817324757e-05,-6.059931920475901618e-04,4.871094646339475288e-04,2.819159091964837122e-04,-1.718806450851058441e-04,-2.890613423120252587e-04,3.442344809310323144e-04,4.941014936146421533e-04,3.430863539414813631e-04,-8.287644997746952159e-04
6.387377518934219886e-04,-1.290803135992974349e-03,6.817900833190464758e-04,1.121704489319677936e-03,-2.514766266637940336e-04,-2.813175736588661275e-04,5.602852981681099871e-04,-2.129703678020247737e-04,-4.346228102527447410e-04,-5.313271083298469954e-04
3.447414108813154333e-04,-1.698694052385507766e-03,1.726668069112363615e-03,6.371504419645101927e-05,-5.138897186117603877e-04,3.499303881571103818e-04,-1.474493124394272991e-03,-8.897551054767757458e-04,8.270964819431717149e-04,1.264680606577895132e-03
-1.440404745573935544e-04,-1.154643549474312090e-03,9.536734462558034029e-04,6.400253863088304772e-05,-3.273153139694818755e-04,-1.011055193770233246e-04,-3.277042460419572127e-04,-8.734490806660516297e-04,7.952669278039695968e-04,1.115315271395553570e-03
8.094545153137866836e-04,5.545029925281903978e-04,4.350057180766933487e-04,7.740365345222997677e-04,-1.149085061837407150e-03,-6.847979678058833226e-05,-1.521766841773301805e-03,-7.118280561111357731e-04,-2.926267287390563361e-04,1.170786724800515228e-03
1.020396879622187392e-03,-3.056909102067520466e-04,7.460433874096562747e-04,2.337088833145847854e-04,-4.128240118011796116e-04,-1.955216018384257892e-04,-2.270436915752914876e-04,-1.164304416956784974e-03,8.750346347517071535e-04,-5.697991527196999070e-04
1.848864200124977953e-05,6.885671989739042568e-04,4.287816554976822160e-04,3.825175271717763084e-04,2.035986120183732478e-04,-1.123488915269448083e-03,-6.740504041187151752e-05,-1.168262332191118786e-03,1.978746073009890482e-04,4.393280449084592271e-04
-5.250163792521226561e-04,4.024497645095868035e-05,1.763679686486253461e-03,1.436412562054450266e-03,-1.213024318951166740e-04,2.054850411600238640e-04,-6.392509900170393299e-04,-1.232243497878030740e-03,1.862302297909335796e-04,-1.114239196900313703e-03
6.466445832582382947e-04,-9.429370720130216595e-04,1.171784931693571185e-03,-3.593262992687341380e-05,-1.470661468523768237e-03,1.250941585753234967e-03,3.706987634141700218e-04,-1.278580327659068362e-03,7.941741627161685857e-04,-5.061325287126546696e-04
8.856727088815925320e-04,-2.020604794152782823e-04,5.947233275013030047e-04,1.212356322612726347e-04,-3.278310381025327383e-04,2.594434695418696216e-04,6.357549851511310130e-04,-1.303101059462806292e-03,9.112157747156637139e-05,-7.549591238281267141e-04
4.043203940123117146e-04,2.131355377799052275e-05,2.723400807567760880e-04,1.216503982378732904e-03,3.836642761639278039e-04,-4.766860781845099555e-04,9.208983750588078682e-04,-1.986826188858094224e-03,-5.722431818449758207e-05,-6.983040769214412906e-04
-2.367057599568770819e-04,6.415974810438152855e-04,2.987241990609770608e-04,-2.444299180405871811e-04,-4.115681995804460424e-04,1.358074207036744216e-03,4.437692850240334001e-04,-1.719643379846089344e-03,3.464241387502970206e-04,-4.762420534918566538e-04
-3.617895334961534516e-04,9.649469552305380612e-04,4.632967863907591285e-04,-9.243274852648212343e-04,-1.928870841724716304e-04,4.686628587829285656e-04,8.005219059064184583e-04,-9.620015296794673680e-04,3.615172483645791215e-04,-6.179401220623126053e-04
4.318105341177520487e-05,8.042696547198749206e-04,-6.475757987166607960e-04,-6.850847931333780682e-04,1.194901847698081601e-03,9.923996969427213450e-04,2.611461957829484164e-04,-4.312618660247475775e-04,-4.591183929487094913e-04,-1.072857597731912771e-03
-7.626925468877515917e-04,6.538390965122665207e-04,-7.061340688143852599e-04,-7.482982483022017134e-04,1.707212620305819783e-03,1.439947422543135479e-03,7.095257564489891892e-04,-3.448105628232393219e-04,-1.177019835115552951e-03,-7.715696338670799707e-04
-8.489607868726521634e-04,4.338648598128216812e-06,-8.138731649343859242e-04,-2.941882958834545338e-04,5.803379919989654990e-04,1.912432626228714218e-03,1.345101889367913538e-04,-1.105079553238852023e-04,-2.579650363245000765e-04,-3.061242164237258493e-04
-3.757222913292474474e-04,-3.392470206304070909e-04,-2.141953315256034970e-04,-9.200741797799847363e-05,1.084890371722642606e-04,9.563360955732076729e-04,-4.848487967484147929e-05,-3.948338501596459349e-05,1.254793205329243766e-04,-8.116412712433204106e-05
-1.294209596056718247e-04,-8.673611178697182773e-05,-1.144316055492142225e-04,-1.503373292113818330e-05,-8.848376673279078296e-05,2.247528518058134579e-04,2.585293807681977515e-04,-1.576467272556146518e-05,-2.249870068718343250e-05,-1.091268256548070041e-05
-6.299495151949287741e-05,-2.101519089872822620e-05,-4.367532250334221240e-05,-1.794839836482658257e-06,-1.117865119590454934e-06,4.136419452502607743e-05,1.350290984642685830e-04,-1.035193961939867139e-07,-4.550662382500058207e-05,-1.849798904639079055e-07
0.000000000000000000e+00,0.000000000000000000e+00,0.000000000000000000e+00,0.000000000000000000e+00,0.000000000000000000e+00,0.000000000000000000e+00,0.000000000000000000e+00,0.000000000000000000e+00,0.000000000000000000e+00,0.000000000000000000e+00
0.000000000000000000e+00,0.000000000000000000e+00,0.000000000000000000e+00,0.000000000000000000e+00,0.000000000000000000e+00,0.000000000000000000e+00,0.000000000000000000e+00,0.000000000000000000e+00,0.000000000000000000e+00,0.000000000000000000e+00
-1.931918769301594431e-05,-4.616484204001189548e-05,-6.103202729630238587e-05,-8.795009986396327226e-07,-1.005710625459353531e-05,-1.633587138289685405e-05,-6.520451874410063043e-07,1.959073542767877495e-04,-2.621105681728097610e-05,-1.525571660660582739e-05
-1.430543801595154391e-05,1.528576755328077085e-05,-4.428075738123986017e-06,5.755570048949878222e-04,-1.059435657200856842e-04,-3.659696486264243866e-04,-2.454523262597309904e-04,4.006894505365989393e-04,-1.709582182732984144e-04,-8.447495035125259974e-05
-2.448992391036749843e-04,1.639961246217728011e-04,3.690369794486979228e-04,1.043647466907801245e-03,-6.839247634459616476e-05,-1.002035824900481551e-03,-1.204061721508462707e-04,3.428281935856901668e-04,-2.541865245181535154e-04,-2.295885275462060989e-04
-2.914930912441055151e-04,4.228521920537386313e-05,4.040605791616938948e-04,5.439960256133572879e-04,3.103827052806147234e-04,-3.278766530317657100e-04,-1.003296128955606051e-03,1.203953806431704628e-03,-2.278315269822665616e-04,-6.541809354790056484e-04
-8.387815523586101630e-05,-7.360661317310568722e-05,4.610651346182043650e-04,6.712273505688204356e-04,-2.020890839380205654e-04,-3.196134291278495787e-04,-1.178193974412774115e-03,1.935326634008323939e-03,-4.266344057979653886e-04,-7.836034575097805066e-04
-2.414061402137361286e-04,-3.287452245981792721e-04,1.058036455107327738e-03,-4.533700092359251802e-05,2.966590900025059432e-05,4.374549909725157872e-04,-5.982058950248579209e-04,1.347127962341914537e-03,-7.928117296132632889e-04,-8.657793270483773182e-04
-2.167800336769594091e-04,-5.530942865436426145e-04,5.081866943044940818e-05,1.721995089666755773e-04,-1.543872946816106536e-04,7.784826920354871206e-04,-4.449531302922144025e-05,9.888442059303140415e-04,-3.601287018807353677e-04,-6.614594465507587021e-04
-1.237738644906211495e-03,-1.124242732733609588e-03,8.611770718213887597e-04,9.023894349065941052e-04,-9.907540488708986147e-05,6.406470083895059349e-04,-2.963885438290304419e-04,8.663543235274279988e-04,-1.280857219898156750e-04,-3.850367902991565249e-04
-1.016565689162375694e-04,-1.742884599787808061e-03,1.113537405253490218e-03,1.793129195954394281e-03,-8.744660187345046831e-04,5.021223834787143063e-04,-1.072776800417202681e-03,9.852568856061128585e-04,-2.110016181858404298e-04,-3.912602642511266680e-04
2.832287373339559418e-04,-1.014940078700310791e-03,4.312653958367776067e-05,4.892587486949634586e-04,-1.648682291211403137e-03,1.434545495182605926e-04,-1.019747402282136306e-03,1.488963786661558642e-03,1.918131476013908686e-04,1.043524262800042028e-03
-7.354285603942631051e-04,-1.301082974211501030e-03,-1.953137592391158235e-04,-8.412945798399666761e-05,-1.656901739941792203e-03,1.020723300385133940e-03,-8.770625180327394936e-04,1.316132021185452503e-03,1.653517877833090904e-03,8.595458103997366539e-04
9.247119265955971697e-04,-1.243343976435747414e-03,-5.590009627887936039e-04,1.541487924336500592e-03,-1.771530119431749756e-03,1.817144498998231816e-04,-8.041970985192195684e-04,-2.683209331757082077e-04,5.783481901443316081e-04,1.420130599374970579e-03
4.534425545571947884e-04,-1.174454987927091819e-03,3.339417728804935795e-04,5.060176452120917321e-06,-1.772713873766231874e-03,1.111254663219073298e-03,-4.086197466882721791e-04,1.551953716420969057e-04,1.082641744681635954e-04,1.188629895162463109e-03
5.844007526178617923e-05,-1.115105800381692479e-03,7.382050763687137860e-04,3.856345345676178067e-04,-1.810446836261706428e-03,-5.110021152692659045e-04,-3.670153010299454866e-04,1.105075626427866244e-03,4.263016872819346752e-04,1.089913053034697807e-03
9.540563759108729603e-04,-1.170784971624200602e-03,-2.754334414002273672e-05,9.716586117082367169e-04,-1.356844904833329635e-03,-1.937254171798287743e-04,-1.194137306008523705e-03,1.992092415913723107e-04,3.939962921462005960e-04,1.424115422429214324e-03
2.709033603305493251e-04,-1.975684138641781336e-03,1.831601249942838862e-04,4.163939006058593479e-04,-1.097669583083197078e-03,5.109031340315688813e-04,-3.699339793467528608e-04,4.118599067857103640e-04,3.674373175285880846e-04,1.282629956795160869e-03
8.525216872774597342e-04,-2.677941263557243501e-04,-5.532923040572284385e-04,1.027879775471048258e-03,-1.596255536681203367e-03,1.177863762541780961e-04,-7.425590399715676715e-04,2.872974280776634834e-04,-7.865926183530888051e-04,1.661008358338461827e-03
5.969921449022310214e-04,-4.928545834951774491e-04,-2.591273864626402650e-04,-1.723825163633508717e-04,-6.018467942401189421e-04,4.541293425840906006e-04,-1.024563007942362299e-03,-4.142329864921831084e-05,1.286208458609871923e-03,2.548676410566827109e-04
1.234477609371321515e-04,6.288281988485912430e-04,-4.354819050726857835e-04,1.023024551727653563e-03,-6.338570479464598851e-04,4.743403446195442206e-05,-5.958086420705440561e-04,-8.986619368072706806e-04,2.761449331004721917e-04,4.649300528211545774e-04
9.934862277600866372e-04,1.664578804112911076e-04,1.237282235996702245e-04,-1.004677433092209763e-04,-8.695431292099151934e-04,-4.930051734638984376e-04,2.518670141038226217e-04,2.391889489363158248e-04,-1.539755941458029122e-04,-1.577366546823520134e-04
1.418427179208138879e-03,-3.622233357775508965e-04,-6.253649970513727773e-04,-4.739616044998043367e-04,9.361479135906613678e-04,1.299380344289454954e-04,1.770630716215234723e-04,1.296041697997969049e-04,-1.457890335179032250e-04,-1.183841397802427213e-03
-3.997963741905620185e-05,1.574108052033033921e-04,-1.878561180593576931e-03,1.589917858590228310e-04,1.917886039013070709e-03,7.425923344394300693e-04,3.163725455860943005e-04,-6.453665385750142038e-04,8.276158929512590200e-04,-1.556962046464528682e-03
-1.314600185260591777e-03,-2.084910876293365059e-04,-1.368449337192283091e-03,-1.952012360992749405e-04,2.514087784760595510e-04,3.490390764413792580e-03,2.831304927832912588e-04,-3.050845039139353271e-04,2.180376020265941848e-04,-8.511412876043213550e-04
-1.152021812492481966e-03,-2.835725678172590879e-04,-2.409891669945806185e-04,-2.127249091128027706e-04,-5.376312748687916846e-04,1.693230569426594197e-03,1.423538864647619850e-04,-1.613032069800114285e-04,1.106249623579620787e-03,-3.535911412050492773e-04
-5.926007978654749533e-04,-6.133168313992266797e-05,-4.433357017448050295e-05,-1.955129829499866313e-05,-2.266706361798901228e-04,8.133092055755275366e-04,2.543695126327076626e-04,-5.684313690017697658e-05,3.850746787635900997e-05,-1.048550635296507222e-04
-1.881258465900871829e-04,-2.823017842338152366e-05,-1.831920260053494280e-05,-7.628339904289058037e-07,-7.170454079178287063e-06,1.622594269918371443e-04,2.207520197046499160e-04,-1.934015033973734502e-06,-1.340847921161866341e-04,-4.384123862717253562e-06
-3.824599704315940696e-09,-2.742577808594178238e-09,-4.875597744005948294e-09,-5.106585905429345553e-08,-1.029794228665367617e-08,-4.244455392012736793e-09,-3.449333674621297331e-09,1.453861282510740024e-07,-7.063906962599111876e-09,-5.782185562397802060e-08
-1.140022454629901578e-06,-6.880447524538973242e-06,-2.897727732120971578e-06,1.557679060207541771e-04,-4.325916029339334073e-06,-5.182142700013440931e-06,-1.298678311662926095e-07,-2.629440220775993534e-05,-4.295262370239597520e-05,-6.596475583878982517e-05
-1.024397271771426955e-05,-4.987182811402097771e-05,8.944156763051035750e-05,-1.839505676950453498e-04,-1.351434995949044648e-05,-4.529434750521410877e-05,-1.710238062883006642e-05,3.419607046072523039e-04,-7.731347416878284781e-05,-3.411135144866455591e-05
-2.948982832144429064e-05,-3.984155873323023538e-05,3.536555070397471852e-04,3.380190708990660816e-04,1.201599421583535205e-05,-4.394885751376180635e-04,-4.429542152850489715e-04,7.264555735633584661e-04,-1.298980412636629327e-04,-3.484739269770029384e-04
-2.322989474122441741e-04,1.530359458765977101e-04,9.284547838401932714e-04,1.103835881103361989e-03,9.860738938882256360e-05,-1.507975576734020291e-03,-1.478659132985880506e-04,1.462822849179689852e-04,2.878444296413383389e-04,-8.299202773234302206e-04
-7.987602522160566635e-05,-5.388128770164744754e-04,4.980825619136449063e-04,9.845246558435809085e-04,1.013089995666992000e-03,-3.396868304041807617e-04,-6.696085708310734125e-04,5.099826907221901347e-04,-9.763161507074563834e-05,-1.280063985602333159e-03
2.285174457521874070e-04,-1.082329729692631769e-03,1.435772168579522827e-03,2.434851773775106734e-04,4.954526217084405468e-04,1.486814094090039401e-04,-1.372144270429542963e-03,1.360580340871176243e-03,-7.744413822830296208e-04,-6.835737812926456335e-04
1.529015337169432724e-04,-4.658988582894279368e-04,-2.473006732663690817e-04,4.118010797391718049e-04,-6.059089345354033951e-05,2.182752667804135153e-05,-3.434468505805750673e-04,1.600365954429722182e-03,1.785190071436151837e-04,-1.248177826117580647e-03
-6.127696048352352688e-04,-1.237855211322225289e-03,1.130376477555079188e-04,3.748527990344979722e-04,-4.091692965287219586e-04,1.049368910074034971e-03,-6.548318821807964365e-04,-1.078388988917065725e-04,1.261582143930687055e-03,2.236233929639443402e-04
2.606017658019591800e-04,-1.248306603373770026e-03,-4.491160096061521377e-04,3.964175540450149272e-04,-4.647754504394395535e-04,3.658507789937059961e-04,-3.981184334753156318e-04,1.212921759958039908e-03,1.406495143099518465e-04,1.838751237860020214e-04
5.635422851957467855e-04,-1.072051252605028555e-03,-2.318778688734752190e-04,-6.174027712476512150e-04,-1.012018076498646122e-03,1.343526406737843544e-03,-7.054192838121065099e-04,7.774546247685219791e-04,-6.847391104623159889e-05,1.022719847381008953e-03
7.741583347455494729e-04,-8.454768220966950342e-04,2.337910780136542372e-05,-1.579946174373915576e-04,-5.825972239133920790e-04,3.645659159443536920e-04,1.946188816756254652e-04,6.683529192797888884e-04,-9.948512747637409948e-04,5.558447787645328948e-04
-2.121968328332099067e-05,1.823704756090102007e-05,-3.772044373071292722e-04,1.101396921443549646e-03,-1.947132324430223861e-03,2.124675269738230418e-04,-6.322449507065210084e-04,1.041982125249764661e-03,-3.739668982290512414e-04,9.776846727281957809e-04
1.397763330485908334e-04,-1.011993468364702584e-03,1.152155129957825510e-03,-4.972343672161019104e-06,-1.049167767218638601e-03,-8.343696409844303082e-04,-9.116652803261389090e-04,3.105711031762050929e-04,1.510838770374159075e-04,2.058582057346027873e-03
3.654951478586158909e-04,-1.449148554120047682e-04,3.848776402623644969e-04,9.153136092286412321e-04,-1.103108914992381989e-03,9.592079109999191713e-04,-3.339633899372089878e-04,-5.926707180652207845e-04,-1.363893754196288241e-03,9.136573242535506699e-04
1.424265393987140030e-04,-1.653033930558359902e-03,-6.295199435157782441e-04,1.234651401765591953e-03,-1.574858602544727381e-03,-9.031511399316232954e-04,-2.516109568748840005e-04,4.332212166901058185e-04,1.199422517745209237e-03,2.002452897825746526e-03
8.938407745927834088e-05,-6.110790634206166808e-04,1.810151037235873913e-04,-2.526707395608000567e-04,-1.723751969215631509e-03,1.050956625547621757e-03,-1.350727126805889274e-03,5.951265238655472625e-04,-1.251706911372095893e-05,2.034263637520635805e-03
1.110975333838841493e-03,-1.471382962489578301e-03,-5.777732141305263113e-04,7.167431430259315304e-04,-2.467333597624221208e-04,3.290802185297092347e-04,-9.454428769541982835e-04,8.807819192304071473e-04,-6.024366667029703139e-04,8.061884654148252774e-04
1.253402053275217819e-03,-6.193084358246334900e-04,-7.800672692864989535e-05,-3.788287056661539818e-04,-1.518702809440660795e-03,-2.241938087102935556e-04,-1.443044907043699795e-03,1.885740197843829759e-03,5.737014093095377893e-04,5.492417331855058062e-04
3.225537579788459756e-04,-1.329579580819046996e-04,-2.404773903942134926e-04,3.404916244156649019e-04,-7.137206506354239460e-04,3.184137815267977880e-04,-1.538087409845552292e-03,5.695466494927113339e-04,2.523819923214572995e-04,8.218556032216128761e-04
-2.363094936011767000e-04,7.413599014300383894e-04,-9.262736369862684463e-04,4.948464580832586746e-04,-7.161900869481748009e-04,3.629344681044278649e-04,-1.036521465702347662e-03,9.771363651801554060e-04,-8.662708604712367286e-05,4.256445764872116792e-04
-1.766439685936706109e-04,-1.132117210557908921e-04,6.939917509710770210e-04,-1.144323458610152716e-03,-9.022232817659459276e-04,3.746777861344374044e-04,-3.468654038103975213e-04,4.226052380422070905e-04,8.741037244043200474e-04,3.178893342839160508e-04
1.265913132995924407e-04,-3.736574191517652208e-04,7.675331710250886614e-04,-3.969378259091752904e-04,-4.231307928920790564e-04,-1.262475489803886405e-04,-4.994095047168704317e-04,7.170665428329341291e-04,6.275383224433751903e-05,1.454382322483252390e-04
7.358478961593532992e-04,-9.385708493490047639e-04,-1.732962299026662807e-03,-1.112443910227415211e-03,1.007603679303894313e-03,1.577608256047002703e-03,-6.256044495810039177e-04,2.475633660661113035e-04,1.376469028733028933e-03,-5.355107181252952327e-04
-5.468582079350198981e-04,-1.187512382468998689e-03,-1.345026549741880741e-03,-6.234903076732473213e-04,3.499755361623162957e-04,3.534046459612505062e-03,5.573262393472408352e-04,-3.069442156602355675e-04,5.371465806704639251e-04,-9.686631523131439010e-04
-1.202948053140027226e-03,-6.182363758365966343e-04,-1.054056280889824874e-04,-3.117788071919566899e-04,-3.624615999441974958e-05,3.235761973029441067e-03,-3.374591455992782623e-04,-2.608908153784644042e-04,3.143562420786035383e-04,-6.771532298783241666e-04
-6.212653806627233162e-04,-6.987422885229543337e-05,-5.142190325297556268e-05,-2.978889616019451432e-05,2.417629916805525293e-04,5.040237245770393549e-04,7.926443173702103079e-05,-4.436273997618142410e-05,2.036722966241700345e-04,-2.120102957144134035e-04
-1.627718162796815542e-05,-4.541769594300321355e-05,-1.293507725895744658e-05,-6.806662808501244836e-07,-1.112190552851846878e-05,-8.269947138584321346e-06,1.415633116223844043e-04,-1.443826466254975893e-06,-4.092311881227237238e-05,-4.493892565975503601e-06
3.920958970796896317e-05,-1.115941028808064100e-08,-1.033431869248425195e-07,-2.087772934379756120e-07,-1.486105779967950234e-06,-1.967255988309086048e-08,-1.646627304143195918e-08,-1.715129586086802012e-05,-6.639983097126634756e-08,-2.014636951258628008e-05
-1.079002095444242142e-06,-5.609510714607475027e-06,3.393377392043767177e-06,3.244387785015061584e-07,-6.199051326539463077e-05,-5.515843016830046508e-06,-3.030800077581058271e-07,3.510937986230457000e-04,-6.126224597662526883e-05,-2.190514197169310243e-04
-6.201635522901658048e-06,-2.322793792035221695e-05,3.650319271341082782e-05,-2.175126246067845073e-04,1.300462294028741734e-04,-3.915354287147183187e-05,-1.581265847630874432e-05,5.170192977236368320e-04,-7.102553261935993080e-05,-3.106347878227429227e-04
-5.549164400063987863e-05,-1.441576048764973656e-05,2.423396883474026491e-04,-6.306388634715544999e-05,6.849635484419389390e-05,-4.975314947258558263e-04,-2.396347184025365319e-04,1.333710418155695070e-03,8.031545349981747102e-05,-8.547244108832754940e-04
-3.516935442959280805e-04,-6.135064417947087444e-05,1.844036509538866031e-03,8.681525373697941347e-04,2.361748495991780573e-04,-1.956415064969437359e-03,-1.664833281944124138e-04,6.210028041378025171e-04,2.701591828842243794e-04,-1.303583301890611553e-03
-2.551264604023412478e-04,-4.836163478955898582e-04,6.427834790146993950e-04,1.063805084367482751e-03,1.027898925985256317e-03,-1.457329470772076533e-03,-4.858966908643532314e-04,8.674711261796633731e-04,-8.232161311883578526e-05,-8.376680324939113874e-04
8.073641439486805074e-05,-1.098923727893370708e-03,4.290513515924132331e-04,-1.309139375297001697e-05,5.161822936176938643e-04,-7.594996755227864313e-04,-8.420479949999284345e-04,1.003159072350733689e-03,8.422595746031630521e-04,-1.578259143898046786e-04
-2.912593093836776778e-04,-6.471216851091686831e-04,2.006546652102892303e-04,5.608016837623490273e-04,3.244434817181373817e-04,-1.040145125221580199e-03,-6.944641494713856781e-04,1.978310053660288937e-03,1.135985717527528008e-03,-1.527205332692783057e-03
4.861004405167652616e-04,-1.136890774303957533e-03,-3.422813641452894409e-04,-6.048690128821087491e-04,-5.331252906484720486e-04,7.179810888664375605e-04,-6.524163049846780924e-04,1.308546635395442265e-03,-1.425004246620197631e-04,8.994550068478860414e-04
3.327200953919866810e-04,-1.287852796944185261e-03,-1.992769233777284398e-04,-7.622705712448616397e-04,5.159014958321247744e-06,6.488749711945460304e-04,-4.267894377911004731e-04,1.044258091502537050e-03,7.059837751642280331e-04,-6.080621885374912900e-05
4.742385147114103427e-05,-3.042435786894061756e-04,1.077988762720813150e-03,1.831956846905145550e-04,-5.688276849180401917e-04,5.143238774334771550e-07,-7.674144407456455009e-04,-2.555252828425156209e-04,6.918980605252170353e-04,-1.050096960895019813e-04
-8.091796022887415979e-04,-8.412974265240491176e-04,4.765119939855171505e-04,2.977220447987473330e-04,-3.972695314564679797e-04,8.036181595602845569e-04,-5.176322839064881288e-04,1.693732882885562712e-03,5.447420160675274861e-04,-1.250948253121898215e-03
1.539061280823393173e-04,-1.598002543089992687e-04,-6.273123172444431317e-05,2.993393763674966589e-04,-1.123252126534209907e-03,2.229128944164598372e-04,-3.456366993681986841e-04,1.405669821287583963e-03,6.707959896268968865e-04,-1.061203897844921170e-03
3.131324656587038536e-04,2.510202323175529638e-04,-4.953682858441080857e-04,2.086315742812738501e-04,-1.478727457596519697e-03,-4.046070197385515836e-04,-5.612060613463692484e-04,3.553085774370548034e-04,1.181057389260304659e-03,6.307585855706588371e-04
1.052065916719269320e-03,3.487650876829658268e-04,4.223425693750520327e-05,1.677219804671740457e-04,-1.345472084192811694e-03,-2.805511347084398962e-05,-1.439589525907779581e-03,9.489535550130721690e-04,-4.541078132846908754e-04,7.074837400361423537e-04
1.164836574493974784e-03,-2.010166687057638726e-04,-1.771282993915242968e-04,3.975604711367139877e-04,-1.028202726426969771e-03,-5.209529770531031194e-04,-1.498696294319339832e-03,1.700978512345657128e-03,-8.078431199683990763e-04,9.704645278887478891e-04
2.194295097869502185e-03,-1.227433749933094570e-03,-1.042464628920936650e-04,2.741545269304563313e-04,-1.771671315893098841e-03,-1.662677146407424424e-04,-1.762179368914815148e-03,1.273324046433496745e-03,4.912836576777700106e-04,7.987412833626086070e-04
1.675727354638540225e-03,3.542831122608286129e-04,3.364071727423848424e-04,3.686245995788940883e-04,-9.424089103288452304e-04,-1.496663958487754571e-04,-1.892743259621253431e-03,1.076751230681230551e-03,-3.225504790008663626e-05,-7.947198562029241442e-04
6.761151991963510648e-04,3.565543919034243602e-05,-9.628752456198583004e-04,9.372032189293036733e-04,-9.435982259848502184e-04,3.456786247480153986e-04,-2.727925868313474909e-03,1.611951137848817136e-03,1.955017682230945377e-04,8.322939517822647727e-04
-2.765191366514346068e-04,-9.682694410091606226e-04,1.398181698598844431e-03,8.229430993215099176e-04,-5.800259923592823849e-04,1.061027231886008094e-04,-1.707572738247786336e-03,6.110625577439761109e-04,3.605854476735381774e-04,2.335117817411923899e-04
5.623591314634409505e-04,-7.495528474045714358e-04,4.494968978449068821e-05,8.650349356664398205e-04,-5.893228653624389126e-04,1.290465918221378027e-03,-1.804119947026266296e-03,6.195093811710908598e-04,1.149330924762784716e-04,-3.542564889898442261e-04
2.977770205145732676e-04,-8.075223462620805025e-04,-1.569219220134041807e-04,1.111270004792688088e-03,-2.769596795306128933e-04,4.465275628750960905e-04,-1.100359335833560369e-03,-5.340868153857773797e-05,2.364170701597911135e-04,3.031803068360901265e-04
1.108517550096851587e-03,-7.227428187668847627e-04,-3.058724021318660565e-05,1.463237791435907089e-03,-5.400353610265312774e-04,-5.174385148799448336e-04,-1.067052639927251788e-03,7.160706165713088406e-04,-2.359251995771891410e-04,-1.740441837130790809e-04
9.828832300679949709e-04,-1.813956363943011610e-03,4.937263640709327935e-04,-1.987181979872437287e-03,9.253039777184338165e-04,2.017234004830237900e-03,-1.501270329438052003e-03,1.765585336861624278e-04,8.521127450227657324e-04,-1.454101821430340050e-04
1.495121947841749829e-04,-1.665969515805462145e-03,-1.318504970701874640e-03,-1.430625322023499485e-03,1.128011193156564906e-03,3.749332082265860108e-03,-1.205135154518251466e-03,-8.342566716029708443e-04,2.064275242258635425e-03,-6.366390778131889852e-04
-1.456522880519691039e-03,-7.321295197830863469e-04,-4.731001450585759979e-04,-3.770651789062417049e-04,8.574760529305298874e-04,3.584442594863104705e-03,-9.242044327304249282e-04,-3.843977092690565992e-04,5.019058624488032102e-04,-5.964046439753625415e-04
-6.170434429507760552e-04,-7.731132423505845833e-05,-5.451952465860375051e-05,-2.903860692066144528e-05,2.118029527177202627e-05,9.324150755052802199e-04,-3.921757317770769007e-04,-6.973347000150690244e-05,5.107668135822493764e-04,-2.245400838156199328e-04
-4.955446652821246485e-05,-2.061987333364586629e-05,-3.987480793507756905e-06,-4.892010423454595100e-07,-2.100898651813925598e-05,6.050374137529749706e-05,-2.015547502357115358e-05,-1.665865205760361294e-05,9.182079774648044495e-05,-1.985040382475296235e-05
-3.095058989115198513e-09,-1.309002760165551493e-08,-5.094057969851634341e-09,-7.612986997786563846e-08,-4.930281278066482661e-07,-9.983504373984361853e-09,-2.450828828842241891e-09,1.337297521033655052e-06,-2.825456280149540373e-08,-7.061714826841977509e-07
-1.346108226563959511e-06,-2.694370722647086033e-05,-6.592459309685834611e-06,1.200849057708352286e-05,-7.902042691534516951e-05,-6.994398683288098660e-06,-8.499161784826447028e-07,4.937322215376140815e-04,-7.417068738563510936e-05,-3.098230081892249920e-04
3.484654898467726874e-05,-1.604048731241808839e-05,-2.643540753369699628e-04,3.378812284145409295e-05,9.664052834290615124e-05,-2.417692789725673188e-05,-3.936529789843356192e-05,7.992601473868540113e-04,-7.935085588152189582e-05,-5.412477032292918730e-04
-8.164955137212021963e-05,-4.602359715500085896e-05,1.212179501906850672e-05,6.118185599152096586e-04,-5.675016287963820282e-04,-6.066319547847187892e-04,-2.728597462324317750e-04,1.753105450064221813e-03,2.358562165846911943e-05,-8.259649483163166361e-04
-5.298221606603326908e-04,-2.409614230968384202e-04,1.264437327252419157e-03,1.475071758192417377e-03,-5.213826674589795013e-04,-1.169442233487596365e-03,-2.748307204324991894e-04,1.013395691763895349e-03,6.732247998879273417e-05,-1.083788052061275672e-03
-3.997261943899194049e-04,-9.653381575264053781e-04,1.819643907678437965e-03,7.028714800907100114e-04,2.607113992441280510e-04,-1.343154038694778550e-03,-6.572428556387800366e-04,1.222807590956923171e-03,2.004653891233818311e-04,-8.410385208437033515e-04
-5.935454629540770210e-05,-9.913119745523935739e-04,-1.958187691181794646e-03,2.535115255094816259e-04,-4.225023491932074996e-04,4.468564653193783306e-05,-6.980777033289243616e-04,1.598706480041128244e-03,1.378900042704102368e-03,8.536305697650881617e-04
-3.619080878340502866e-04,-5.364738689133646387e-04,-1.180198495822424492e-03,3.238492999873561593e-04,-9.611530729003817943e-05,1.248767490698814012e-04,-1.971487283817611460e-04,9.543988139457973375e-04,8.298621275116343935e-04,1.388574977269710093e-04
-3.345375257657355128e-04,-6.527261523100780271e-04,-5.412837822697128074e-04,7.851415788061687348e-04,-3.443528635845216818e-04,8.195123519108177572e-04,-6.786022764988157516e-04,1.863908480719571250e-04,5.392015438510176090e-04,2.212562777889033139e-04
-5.198862935161103859e-05,-9.710293897085023286e-04,2.757786164885152541e-04,7.906433604992847740e-04,-2.693232066658205479e-04,3.756084044094574049e-04,-1.014734411736199380e-03,3.145721222835188105e-04,4.883812869011691345e-04,6.209184688018965881e-05
1.015147685312929983e-03,-4.251368766186420459e-04,1.360366710876167616e-03,-2.933253517051212316e-04,-1.310005158625828338e-03,2.410390150108139291e-04,-1.609949382682121510e-03,1.267715862081444989e-05,-2.655527313769953313e-05,1.035741472948688638e-03
-6.174531791601554735e-04,-1.938753571767986455e-04,5.937532174744187142e-04,-2.193519292560809891e-03,-2.224823461928399678e-04,1.894861572746487678e-03,-7.912803032122278949e-04,8.038519664089613858e-04,-5.597337643907084742e-05,7.821170981120378419e-04
2.980773018696033692e-04,-5.227401530889376306e-04,1.435692773922206779e-04,-9.079497242512147908e-04,-7.953458311565171288e-04,8.941830480450030892e-04,-1.065372788187166336e-03,1.957942092189370997e-03,-3.478899159194489979e-04,3.455266931070879164e-04
1.346694438869413960e-03,4.732044180123395503e-04,1.397851447697141109e-04,-5.150420578185383206e-04,-3.825068909404338554e-04,-7.025370658014974288e-04,-1.287779846918149073e-03,1.887156597939059779e-04,1.226633040737478851e-04,6.168028959594842918e-04
1.127482592352659562e-04,4.360736713820099748e-04,9.128621020380105981e-04,6.044196565142966222e-04,-2.555416109039916877e-03,-1.329267617316714969e-03,-7.275930093477619423e-04,2.610809178447131163e-03,-7.202103392366176289e-04,6.555742073242942563e-04
-8.530998052213095099e-04,2.070602238249521186e-03,2.258614673004340776e-04,1.356008999614922864e-03,-9.232165930432320675e-04,-1.415656052090285806e-03,-2.189094488436636558e-03,1.801669603562112282e-03,-1.864479604206174725e-03,1.791404234270650318e-03
1.091279863834007267e-03,5.509931054790300799e-04,4.189995564289383844e-04,6.308449170407434518e-04,-4.254888827351228616e-04,-1.170538988814585814e-03,-2.070595352992824368e-03,9.527113481906138940e-04,-3.035400767716104828e-04,3.253345103408117507e-04
1.141641312767087933e-03,3.825369738575281459e-04,-3.874115479040803360e-04,5.962946140487205421e-04,-3.949535986175077746e-05,-6.734286406914982313e-04,-2.750782214661934288e-03,1.793585508337376634e-03,-3.060529978498397608e-05,-3.233534610646612688e-05
1.399152999653533206e-03,8.988564112931838788e-05,-2.819802115155747293e-04,1.506431736858057017e-04,-2.336023748043617452e-04,1.514021074391747696e-04,-2.462904366267016417e-03,1.297293370279085315e-03,-5.025404447665343622e-04,3.926501051665834798e-04
1.464818356163355428e-03,-1.121737374418422519e-03,-5.437631746431452733e-04,1.448361959711074289e-03,1.516635937434415260e-04,-6.508526269237518936e-04,-2.235870634679204636e-03,1.501132450585608829e-03,2.900025480234956488e-04,-3.037550975624479831e-04
5.458725449565917688e-04,-1.063605631323462060e-03,-4.159674793927495610e-04,1.327311276895154881e-03,-1.577068936721107303e-04,7.754264310054964420e-05,-1.585965848232308338e-03,6.521166379859826218e-04,2.389379800827757529e-04,3.814647695995790843e-04
-5.182343342544998505e-04,-1.223561833369397975e-03,-4.320434064415666923e-05,1.140968609209793956e-03,1.947896285861762551e-04,1.148760804942569602e-03,-1.311378799915221280e-03,3.684084052096365971e-04,7.716574454978761396e-04,-5.282055852627673019e-04
-3.131383749841173481e-04,-1.438728375861027860e-03,4.011828599712689825e-05,1.677623445388777990e-03,-3.287976807397884082e-04,5.695568365584149136e-04,-1.531709106706220487e-03,4.356546093116112029e-04,8.419871888905732004e-04,4.743317214463629188e-05
8.552934061504786174e-04,-1.849360581146922448e-03,1.974233712563424920e-04,-5.349167462812021720e-04,7.465988812782766012e-04,1.239558579804071270e-03,-1.336985137901436534e-03,-1.672775345610501199e-04,1.569718014427849001e-03,-7.200522530264075486e-04
8.742188553482409773e-04,-1.213232360560573221e-03,-1.342128025448008008e-03,-1.559370508473949604e-03,-3.712094002537510442e-04,4.784541981753528961e-03,-1.100397146728755585e-03,-5.373164300611505675e-04,1.104882016975963126e-03,-6.399889825515365236e-04
-1.599932887850905950e-03,-4.635412105619946379e-04,-4.743932499574337485e-04,-2.882132775760034150e-04,-6.570199978050060520e-04,4.662474829027170482e-03,-1.063055991001845505e-03,-2.802494614468389032e-04,7.267970525444636268e-04,-5.628658053716054099e-04
-5.949302658755251799e-04,-2.953398792536041144e-05,-7.728066203386137157e-05,-1.622264148618218858e-05,-8.540782112975895909e-05,1.181600172907933512e-03,-5.629567002625337048e-04,6.810342998064208310e-05,4.956158862003425241e-04,-3.789874103757031004e-04
-1.039159686841223297e-05,-3.138473651125806337e-06,-2.906278829316398347e-06,-1.839190207492558609e-06,-3.581821158544380837e-05,4.110259532896496547e-05,-2.707158328989624384e-05,3.490473882421917667e-04,-2.936576934837719375e-04,-1.532695565569606259e-05
-1.194834894496654070e-09,-1.325046098525340545e-08,-2.390883295530019095e-09,-5.258875259260933230e-08,-5.661601850814470534e-07,-9.383704597120756330e-09,-4.178092963886673902e-10,1.463534944968250103e-06,-2.870344613222603081e-08,-7.894448680931795901e-07
-1.144419853851611077e-06,3.462709794972600138e-06,-5.266627645285422064e-06,1.771404656956762302e-05,-7.343009083081419028e-05,-4.967836593106340933e-06,-5.287260230194777045e-07,3.983614739730753228e-04,-3.502985887628604317e-05,-2.991706705152521778e-04
2.111182971826711791e-04,-8.718980437110067646e-06,-1.398595668905604444e-04,-5.437264375796410512e-05,-1.013231074852894868e-04,-4.128855691747155936e-05,-1.493984602943556857e-04,8.804725374676918622e-04,-6.276604700929949037e-05,-5.338634718583141212e-04
7.489814609443215206e-05,-2.225251892049545210e-04,2.188241917004466180e-04,1.274228220326007084e-03,-3.995427978410679153e-04,-7.056477623915117939e-04,-4.218837025518342126e-04,1.303686283989562633e-03,-3.042591544329670402e-04,-8.177782356881116215e-04
-1.696795335234497571e-04,-2.356662514311522010e-04,-2.244453707823541573e-04,6.576597718310903595e-04,-3.471737783668526253e-04,1.114254412929410027e-04,-3.908094820795994843e-04,1.154456772446340934e-03,3.062479727347822058e-04,-8.620155421217489062e-04
1.941464190271233235e-04,-9.026603599479700920e-04,7.951141493267242484e-04,-2.601386387546335863e-04,-5.957170556467164578e-04,-4.640576479341327579e-04,-2.395088363313593481e-04,1.226637472653436395e-03,-1.398160956795098787e-04,3.860005932870312151e-04
1.546645584735943234e-04,-1.144600378837878994e-03,7.612150456740580506e-04,4.654305746117854748e-05,-4.223183034728283328e-04,-2.484501451477348090e-04,-4.507032395301848013e-04,2.249688620749021710e-05,6.688194573877197886e-04,6.123330617845820691e-04
-2.016288462505080924e-04,-1.046893463493068924e-03,-1.311508703470977942e-04,-1.817760721669487703e-04,-5.094424955068780746e-04,9.141862781269438848e-04,1.510700537470846387e-04,-1.775594253118005744e-04,6.692474254779047374e-04,5.139474157243711103e-04
7.135151380906380606e-05,-5.391326867892678185e-04,5.178071298767207174e-04,-5.468090437934496496e-04,-2.218201517595573546e-04,8.921622681142330185e-04,-7.778136773143211672e-06,-5.014097046747491857e-04,2.678368139379495123e-04,6.779199805220013193e-05
5.662724044497340547e-04,-5.840477205913856881e-04,-3.431421422016672188e-05,-2.544345619254696506e-03,6.905264840894834871e-05,1.514564379520898143e-03,-9.479791027261069702e-04,4.785876021529058698e-04,1.197173228017988115e-03,2.850363942418839979e-04
-5.973706623655054967e-04,-1.638486346023432434e-04,1.417164258622654108e-04,-1.754649269276106890e-03,3.786973759391430391e-04,1.040792330918145336e-03,-1.604444876684279488e-04,8.994691165581551805e-05,9.649010196455695644e-04,6.025898989144247485e-05
6.984898269445344960e-04,4.407295633856144748e-04,-4.732927534917206721e-04,-1.249932078296572607e-03,1.024488016720864135e-04,4.949158214770056283e-04,-7.353421611313474627e-04,-5.377662053395222555e-04,1.145736786035921311e-03,1.140123987440002669e-04
5.910406537585800738e-04,9.302589541482748177e-04,-8.143599466918144186e-04,-1.818808104753849792e-03,9.353172899196894553e-04,1.845715880397934619e-03,-1.514549319606088140e-03,-9.664770848695127675e-04,8.690789683156549972e-04,-5.721729061886219128e-05
8.675580866341902090e-04,7.587392535668602452e-04,-1.042706474629305491e-03,6.783729651588169115e-04,-1.323316379699853969e-03,1.197956871348564720e-03,-4.356857151847898083e-04,1.318032267030391520e-03,-4.515770034406778538e-04,-1.567373870784191442e-03
4.737253432215511508e-04,2.262582819577681724e-03,4.131935983657848444e-05,5.954196955819221655e-04,-3.093883730897360827e-03,7.456040601196619330e-04,-1.878653290763703139e-03,1.400467892279716117e-03,-2.448838529515188291e-05,-5.220937636608766717e-04
-4.384750732650278529e-04,3.557217551825379333e-03,-1.800605318648517555e-04,2.046004453069699680e-04,-3.320345938736960823e-04,-4.580720335491865014e-04,-2.146259047552143400e-03,2.090080049327642901e-03,-1.134254971556220579e-03,-1.162741794798864648e-03
4.401994799859651497e-04,9.182310672851038509e-04,-3.035754562187154676e-04,6.694895327529815955e-04,-3.385243389902544190e-04,-1.049770738934403466e-03,-1.890965872180592599e-03,2.469768628008423266e-03,-1.141068144073758206e-03,2.262158423652524636e-04
1.248159641028131388e-03,9.451046747347479965e-04,1.361363711585372640e-03,4.242630310941711562e-04,6.867058950468255202e-04,-2.675986553003281178e-03,-1.828523159823988980e-03,9.217154891179898512e-04,-5.448263593609342301e-04,-5.379763704190374711e-04
1.285674248760795271e-03,-7.660786796899807368e-04,3.900784374374082646e-04,6.178370096288941316e-04,-3.707255834811677182e-05,-9.977990847073383174e-04,-1.570171487074329634e-03,1.065276109155424483e-03,2.119005391238606810e-04,-1.996445342866088398e-04
1.724932446074815850e-04,-5.248062120074915892e-04,-5.035258720071895478e-04,-2.590507581643603213e-04,2.035491199911235356e-04,-1.084627323837971963e-03,-1.188845048751444294e-03,1.588753017144457986e-03,7.624232636130780097e-04,8.336365694123148377e-04
2.813568939194180016e-04,-1.526841143633937562e-03,2.586113601054956150e-04,9.544054024358721369e-04,-7.629355075743257631e-05,-3.318930711298471721e-04,-1.308585761319113134e-03,1.413217812068733037e-03,2.612762186245252863e-04,7.474583968627589083e-05
9.298887691918851246e-04,-1.041967657286058894e-03,-5.352750317756914400e-04,2.555074192209016233e-04,-2.537311894434251809e-04,3.817219342111404803e-04,-1.749709351142647628e-03,1.563363247603161187e-03,5.040070237907006388e-04,-5.380516436996774795e-05
5.662716034279285287e-04,-1.029020415079203278e-03,-5.454838772111630783e-05,9.761375108907558839e-04,-6.075611210443894157e-04,-8.483112149094715966e-05,-1.380284947577661153e-03,1.345971784769801720e-03,7.906752389191725469e-04,-5.228101450943361400e-04
1.088913485688673037e-03,-1.097891708689333057e-03,-3.873805703309723307e-04,1.909502467446543917e-05,-1.359630545488524920e-03,2.035192262137212448e-03,-5.605637415578979118e-04,-4.839749183555244099e-04,1.150177038235126277e-03,-4.039363263132270663e-04
8.266514796380738028e-04,-8.483381135800815596e-04,-1.240923178134722797e-03,-1.116106293040797963e-03,-9.918875549100247217e-04,5.592711130202864325e-03,-3.180556238778075185e-04,-8.295603615986647675e-04,-3.311307312748127947e-04,-7.433607534240299630e-04
-1.294259928585735075e-03,-1.171350685533474291e-04,-4.886433704438379079e-04,-1.475917805429086853e-04,-5.932523194444772226e-04,5.695217848133992539e-03,-1.519843832700454268e-03,-2.481358665022353289e-04,-9.153443481555154949e-04,-3.710113332054682379e-04
-6.582247544450353129e-04,-2.557569353195031180e-05,-6.962791389880666401e-05,-1.441291162537890645e-05,-1.959522273467023603e-04,1.763491740370754998e-03,-4.869116104967176600e-04,9.623244454579971737e-05,-1.215570180959371448e-04,-2.874620554760269229e-04
-1.902372957300082214e-06,1.040461884640763995e-05,-1.676891034279989991e-06,-1.052825953063623102e-06,-1.392860557946312622e-05,1.564548756915500584e-05,-1.652603796414529993e-05,8.956112110241109061e-05,-6.818098062241209015e-05,-1.234351340730943691e-05
-8.604440779639328776e-08,-2.739892024519101139e-08,-6.403248959111929412e-08,-8.151529359659737333e-07,-1.841609016476392362e-07,-1.576273402554882468e-07,-3.926323394375058750e-08,4.438964234885928533e-06,-2.759813565875423483e-07,-2.789302648852840198e-06
2.361343454318864227e-05,5.199800170123788938e-06,-2.863221856656097793e-06,1.060810679114017282e-05,-6.383198306876088264e-05,-2.274702715785137082e-05,-5.386295607449753157e-07,3.683027333236823077e-04,-2.963419070817975196e-05,-2.881090224759436753e-04
-6.159895523949903459e-06,2.116703571161824723e-06,-3.036516428253170551e-05,-6.235242215974145873e-06,-1.066465912039496689e-04,-5.253436010647758472e-05,-2.913318771683635348e-06,1.066384882962864581e-03,-3.889018067061764914e-05,-8.247568337588435982e-04
2.261004931697787983e-04,-1.376488294547184316e-04,-1.122692660437660700e-04,1.152499245682661686e-03,-2.638133320764727142e-04,-5.825803124382970995e-04,-5.182203920204472543e-04,1.432073252524417245e-03,-3.687258723067684076e-04,-8.274149870363916963e-04
-9.140925907972412365e-05,-4.180898734358888948e-07,-8.500503889531204520e-04,5.465531302471915822e-04,-1.164309108735592235e-03,5.243390936621951555e-04,-2.546890740708554067e-04,1.787160899371488402e-03,-6.846840786875069151e-05,-4.287087946994044569e-04
-6.427624567433096875e-04,-4.351739784998255069e-04,2.516780169166326167e-04,-8.897607597883683619e-04,-1.193104807315728571e-04,-2.066106597339539656e-04,2.952548556891499104e-04,2.656162229929839814e-04,2.725921340697235254e-04,1.208477105828534206e-03
5.707365397197557909e-05,-1.020506654690247778e-03,-6.542887654068269433e-04,-7.595700622637163116e-04,6.505924708226090572e-04,1.540312963581633274e-04,6.825841306444124931e-05,3.130350993316280200e-04,2.774340117352756341e-04,9.139405370766960721e-04
9.225983602676077167e-05,-1.152429564873869638e-03,-1.176606779625678214e-03,-2.457716576511295280e-03,-6.811587040911950284e-05,5.727646609202778367e-04,6.360003880509897340e-04,7.265711591788049772e-04,1.969019846647324969e-03,8.582529005958023554e-04
6.258039729322620705e-04,-1.218168094970446596e-03,-1.725674342445147500e-03,-1.821557659301870167e-03,9.458834093701731869e-04,1.007409316731620007e-03,5.103804929736002576e-05,1.527445248136231827e-04,3.518164488229435127e-04,1.630704374749471436e-03
-7.674362955322163501e-04,-5.280853575494948637e-04,-2.418152136928447982e-03,-2.530751243798122670e-03,1.246954581789946502e-03,1.452644455597787800e-04,1.586387587030486587e-03,9.661227167711249064e-04,1.692774168162049144e-03,6.069215344948991446e-04
-6.409567578627926301e-04,-1.189078276220112526e-04,-3.572680548054945129e-03,-2.188239891879875752e-03,1.544052335666930851e-03,5.650616177727235505e-04,7.397908342465025437e-04,1.554607724223799154e-03,6.778533614788720798e-04,1.439419152030777015e-03
-2.803299112429018876e-04,-2.071380492438011970e-04,-2.041009742390901237e-03,-5.459826696367061976e-04,5.631853485284192421e-04,8.170725806826485173e-04,-6.558143243452970459e-04,1.457373319051923207e-03,9.973886041008237391e-05,7.929045881865437245e-04
-1.340278289668590198e-03,-2.376212378042571690e-04,-1.856714838897088708e-03,-8.759580944542937021e-04,3.083226526206275277e-03,1.016382880796940077e-03,5.499856170648695792e-05,-8.421738867247060200e-04,7.842776025426504306e-04,2.138607762965851627e-04
6.939543220094087110e-05,1.667989965976777664e-03,-3.921074939459812982e-03,-7.658391997152140225e-05,-2.914865153652428445e-03,1.413889435412942668e-03,7.052914648718953527e-04,4.143463796427290986e-04,1.102471505558144660e-03,1.539139829420340050e-03
-1.006015681972719476e-03,2.874967407315263089e-03,-2.937299240448608059e-03,9.435361099398582429e-04,-3.805033701551980337e-03,1.606966571203585553e-04,-8.739303781305149399e-04,2.203404330950441484e-03,1.765833264941942590e-03,6.738412318359408544e-04
-2.050196283763154690e-03,3.093060347281425745e-03,-1.936753312876967649e-03,1.046970150480610543e-03,5.138509056861461375e-04,-3.314291361066699351e-05,-2.937516741164758732e-03,2.190171007596213460e-03,-3.235949788640758067e-04,4.371518192352467414e-04
-2.049755314869821082e-03,8.555861809298889948e-04,-8.158153009552526974e-04,-4.901347408429842156e-04,1.813593964619792092e-03,-5.084156186303676528e-04,-1.103133067526766578e-03,1.674058772932449568e-03,-5.908961920511611498e-04,1.214911316394230636e-03
3.808548276219000180e-04,-2.889559197048107634e-04,-1.804508705623318046e-03,1.233163020503535729e-03,6.293864473264353413e-04,-7.694375528210981290e-04,-1.893311590464137172e-03,1.484440077038441013e-03,-7.699856805538323043e-04,1.798355076676883988e-03
-5.556298472294230947e-04,-2.075147768691365990e-04,-3.161116052009627997e-04,6.428537802258601358e-04,-1.732734127868016403e-04,-5.541531053270359842e-04,-1.497898628425190252e-03,2.260445898246620129e-03,-7.926033720597712440e-04,1.193885069425842894e-03
3.493021656042772640e-04,-7.595110285417442037e-04,1.344734141500159453e-03,4.846518108133345557e-04,-2.862678005454970687e-04,-1.510710471141122604e-03,2.779976436370701565e-05,8.832877813776751977e-04,-3.231069291245817219e-04,-2.101794343062075962e-04
8.917271882174941438e-04,-8.235146347520666803e-04,-4.865054710353979473e-04,1.378138445121389940e-03,-6.929337060822214059e-04,-3.326529291896934519e-03,-5.020831658091873002e-04,1.688702426283122558e-03,-3.472970289676345439e-04,2.220295238921428816e-03
1.418468250786265438e-03,-7.547543423609484603e-04,-2.124679190908862535e-04,-4.595772634570587621e-04,-3.400075016901637766e-04,-2.567162845051386508e-03,-2.436377466348039694e-05,1.814520637936046458e-03,3.143340086120189648e-04,8.110107489795997243e-04
1.530456861117948566e-03,-5.492822851634275973e-04,2.240976683225929925e-04,4.195347759469521980e-05,-9.146361523056442547e-04,-2.816109306272055694e-03,-6.304546441451377471e-04,1.746549352000630918e-03,9.915821604598014458e-04,3.758428683905976953e-04
1.344503678796476641e-03,-3.943448692484432757e-04,-8.273430768013513266e-04,-5.602520171369320800e-04,-1.369819954524926098e-03,1.061888263110393615e-04,9.684123605218073784e-04,-6.010599183809682035e-04,1.181340741212612679e-03,1.523742292506850469e-04
8.601924169054141287e-04,-5.402384850014508525e-04,-4.704056900538426461e-04,-9.496532024200998430e-04,-1.129547034742876604e-03,2.730986233318017167e-03,3.109773480009156150e-04,-9.607057405916510050e-04,6.515461174301972113e-04,-5.031519628446298395e-04
-5.060991902085068030e-04,-1.093392856225151595e-04,3.394972386350906569e-04,-9.236752357435995227e-05,-5.108513970027514116e-04,3.804255265541957656e-03,-1.486090141435091744e-03,-3.833187579052016025e-04,-6.731311331964097292e-04,-3.825550752322117625e-04
-4.420943175046781744e-04,-7.128479152704984878e-06,-6.343282086882268849e-05,-6.446581585297670927e-06,-7.669148524544018499e-05,1.015042489894336540e-03,-8.276076085995450610e-04,-2.162531556117589770e-05,5.954262874783428083e-04,-1.654421688550165772e-04
-1.228476108385000949e-06,2.124854258684137989e-06,-2.091420442890800977e-07,-2.895576164501218194e-07,-1.553297425255544224e-06,1.536150557160883648e-05,-2.677159012349830895e-06,7.291520124529660852e-06,-1.287142651758157586e-05,-5.948821230511553527e-06
-3.188249646693792343e-08,-1.414610263452620050e-08,-4.757323519868887978e-08,-4.668408965150326507e-07,-6.157340337407800362e-08,-1.198301552833981806e-07,-1.936410629590438363e-08,5.001697161086191617e-06,-1.485830346028893242e-07,-4.091903730714757243e-06
6.102067107100184722e-07,-3.898959017722490148e-07,-1.741492719396243206e-06,-3.041411021275620909e-05,-1.318174556862526225e-04,-3.639140204654981781e-05,-1.406177372179846752e-06,3.916629831469201897e-04,-1.374919182468730413e-05,-1.763634640940328353e-04
-7.130140125366863843e-06,-2.101884903315674231e-05,-4.962537897741047170e-06,-8.302221517708408298e-05,-2.591184107088925358e-04,-4.920038837349662134e-05,-3.120491094914872356e-06,1.308019063295419795e-03,-3.487512111388462837e-05,-8.455709097708821341e-04
2.230253477657189592e-04,4.769427746492165194e-06,-4.131064958309882992e-04,1.890782289304411134e-04,-9.710221097700880806e-04,-6.418338130227364206e-05,-4.686586551675448885e-04,2.539081734999272272e-03,-1.389067859059320764e-04,-9.000773114650977404e-04
-3.461998148983881993e-05,2.357064346161905533e-04,-8.388472434851533587e-04,-3.154426043677638217e-04,-1.666042016895475861e-03,4.032898211205998801e-04,-5.171826354847958987e-04,2.482853002894145570e-03,-5.056268099502116229e-04,7.559120330423031286e-04
-1.426199845105265672e-04,-3.850040281284565296e-04,-1.838437933410231326e-03,-9.772665240456298794e-04,-3.427647258191218326e-04,4.346105304587567146e-04,2.801092993294043731e-04,7.571085389740754828e-04,7.583206154588453905e-04,1.455944211692883307e-03
3.588847429808402780e-04,-2.203263974502831250e-04,-3.423593213013955815e-03,-1.502681645314560104e-03,5.705001222294212894e-04,9.306120603105685375e-04,1.130007144565112849e-03,5.595792612189860477e-04,2.287930067543232594e-04,1.368224917719546973e-03
-5.815589911607881192e-05,-5.157786185553580238e-04,-3.967496567171272664e-03,-1.624955132158909009e-03,1.150108190495924970e-03,6.854523453932840921e-04,8.527715830051626989e-04,1.318519434196808483e-03,1.091367282645630196e-03,1.068167381264801055e-03
2.538907907493642593e-04,-1.080267633698447872e-03,-2.841119377981812539e-03,-1.827306299014921226e-03,2.287247269599736697e-03,-4.886950963514403177e-04,9.289381477439461214e-04,2.337134348817656877e-03,-6.584173044106292263e-05,4.960195805769749460e-04
-2.136474309550487154e-04,-6.531940918622869364e-04,-2.355687292420605497e-03,-1.044780735017092040e-03,7.068258428727439407e-04,3.285828104545053248e-05,1.274157935176226325e-03,5.384939091302046264e-04,1.899865992134134801e-05,1.695974922109075560e-03
6.892539977450358110e-04,-1.091360052149581731e-03,-2.521338153245297666e-03,3.703501860951605791e-04,1.651784857697840159e-03,9.082532257083927646e-04,5.841404364081090057e-04,-3.460108267013932166e-04,-7.601269715317632075e-04,5.150532999734730531e-04
3.091958304957752963e-04,-1.620741170499978697e-03,-1.761665924213399537e-03,-9.039464583633598357e-04,1.984768745662226011e-03,4.917263647793892588e-04,1.184309891417132310e-03,4.071760536343266138e-04,-6.159981203691476800e-04,5.251747874570504094e-04
7.359121989082042766e-04,-6.378237123673659780e-04,-2.081211268435359356e-03,6.232837132911376102e-04,2.948506561438716742e-03,6.195431130771665140e-04,1.013174694858983219e-03,-2.566382639556022589e-03,5.324319478766641883e-04,-1.187434609092114868e-03
-9.546135485404737752e-05,2.046235791517392842e-03,-2.057190089637286282e-03,3.218168572750364372e-04,4.306073554425564158e-05,1.929842258854386032e-03,7.340737632736477536e-04,-3.394685278229920156e-03,1.184067508575967816e-03,-7.117601923194178531e-04
-2.121778410162117757e-03,3.853819507230074430e-03,-1.905257365264762925e-03,2.574215531222356825e-03,-2.171461616212202322e-03,-3.605125854617586699e-04,-1.371424571650087720e-03,-4.679774444919298170e-04,8.986177617349611242e-04,1.071759193055490467e-03
-2.589641590899696092e-03,2.219852713070022757e-03,-2.590196227217565414e-03,5.165611153572837464e-04,1.075098340264587365e-03,-1.368332077004791124e-06,-1.030588763419748024e-03,1.971319745580507078e-03,-1.748556652766672435e-04,6.038186646183122059e-04
-2.143499023341685888e-03,1.287657254408502939e-03,-1.219150319451455964e-03,1.794128177879533996e-04,1.233004889958108511e-03,-1.409232247563486700e-03,-6.851740482494323185e-04,2.278064749139053092e-03,-6.173367938468056872e-04,1.096252721159260597e-03
7.024196140563847041e-05,4.411108408944210807e-04,-1.367640999311931860e-03,6.129096617555982488e-06,-1.273128094482622733e-04,-1.416273390714214899e-03,-4.777657846231498625e-05,1.639937700880029093e-03,-7.354114339949543472e-06,8.089382924790369063e-04
1.931486844244320340e-04,8.864197661119903597e-05,-1.121025406992506857e-03,2.999212385623826614e-04,-1.119485377444791736e-04,-5.471040571404620382e-04,-7.902975029822916940e-04,1.282207249671144921e-03,-4.214689056323475810e-04,1.127925261222936619e-03
5.777701884690783626e-04,-9.338327461009446979e-04,9.265871860238073443e-04,-3.801608007127056589e-04,7.309896127738209739e-04,-1.886441705842341375e-03,-1.483457996270200110e-03,1.223016433028550030e-04,5.366768860602619826e-04,1.789567732296357822e-03
6.674097098126606812e-04,-5.431715511264933538e-04,-9.366625244538235749e-04,2.530603670442713800e-04,2.723060213293085363e-04,-1.051089745047014377e-03,-8.048789301260517821e-04,9.054437631071348531e-05,1.596986095367753571e-04,1.892783666719665683e-03
-1.704597776290756365e-04,-4.011311972145176034e-05,4.329242198733170943e-04,-2.634322297548472112e-03,6.792747029915835672e-04,-2.391832621983730998e-03,1.513771355054204534e-04,4.383427301647704823e-04,1.456167859079420196e-03,2.078641169268201448e-03
1.396536069322502254e-03,-2.606992924760238606e-05,-7.873193174582907494e-04,-1.402089500294268713e-03,-4.391228330394608730e-05,-4.003123647204287483e-03,1.327475723615543840e-03,8.085593118047284481e-04,1.090778219581239406e-03,1.639165353184389440e-03
1.772950851055939614e-03,-9.771511940782045939e-05,-1.215704746251690827e-03,-1.214060229092157016e-03,-2.229082446434646535e-04,-4.093145743400994699e-03,2.603637843967632551e-03,-8.769266506961539542e-04,2.703984820293570471e-03,6.398872181751550335e-04
2.359047924336805414e-03,-1.690462798014862142e-04,1.847939779294778930e-04,-5.853341782327881916e-04,3.922202972582271296e-04,-3.675651113713659414e-03,9.916974525481020084e-04,-8.827693285684718458e-04,2.233026321797533000e-03,-8.479850735537357949e-04
5.437064789290639707e-04,-1.158975981935738363e-04,8.005705789005550027e-04,-8.974643096331674028e-07,-1.291259099149520684e-04,9.182258658324118417e-05,-6.888726402506173754e-04,-2.581875485606162902e-05,1.202824929644033319e-04,-5.957697698524264986e-04
-1.778856519896646993e-04,-6.851452105885955394e-05,7.682096313859628845e-04,-1.735479788769439328e-06,-3.493368521297830808e-04,6.850055472850128052e-04,-8.977168940034676182e-04,1.162917103889431609e-04,1.069569514330571871e-04,-1.812744415224331837e-04
-9.790722247780738369e-08,-8.098787190226465038e-06,9.789045664181176545e-05,-3.172375455763341764e-07,-5.942340709020141619e-05,-3.421711849031854675e-07,-4.960265709744975245e-05,4.971275454574799368e-05,-2.650074188131479387e-05,-3.220301975410042689e-06
-2.652117814861692119e-09,3.239514197307682501e-07,-4.618607497563335841e-08,-7.299152966429246587e-08,-4.239130528210627704e-09,-9.866758705970504415e-09,-1.058466735533609332e-08,-4.012586940501117877e-08,-8.119425096649189568e-08,-5.611102031495997513e-08
5.658204338762151514e-06,-2.445477998713411113e-07,-2.918754006682250873e-06,-4.920541472013080975e-05,-1.301173093593330058e-04,-7.814194973488731183e-06,-2.794403399217796341e-06,3.418655290155989124e-04,-2.222855933230089358e-06,-1.522062531624059686e-04
-1.815422265460645525e-06,-7.096684177387575015e-06,-4.777120540846664426e-06,-6.778537128155191923e-05,-2.353922397781255083e-04,-1.708934924367614915e-05,-2.033518136693643144e-06,8.000901762229817825e-04,-1.253713738350267464e-05,-4.515633334157382554e-04
4.800579105781427016e-05,1.206986727581240394e-05,-3.130485927991510367e-04,1.480825761078508876e-04,-8.275095917417356166e-04,-2.478875401946157442e-05,-4.089321258542680140e-04,1.917918666925211681e-03,-2.171254546288304372e-04,-3.346723823232342662e-04
3.658979398500006243e-04,8.227349970503812092e-05,-1.877174532692120566e-03,-7.259412604726944327e-04,-9.857851617649535190e-04,4.286751463402101300e-04,-6.724732561088629960e-04,2.578275075339749728e-03,-6.913222029007059675e-04,1.497574752704331586e-03
1.564238458476463359e-04,-2.314015662992247740e-04,-3.175626787952301466e-03,-1.313142327628887126e-03,4.822386920498362875e-04,1.330275753204032685e-03,3.343341745639826683e-04,9.414592478298541454e-04,-9.260007950808479588e-05,1.568039047893148887e-03
1.374374162076731848e-03,-2.579631193873373066e-04,-4.327397034611973198e-03,-1.055903647981913315e-03,1.823317036682286195e-03,-3.348592136542470317e-04,1.938670331021952881e-03,4.107002331610704830e-04,-4.162117568047262448e-05,4.706824283739098483e-04
1.084253223122773595e-03,-7.274391026683656430e-04,-3.448974488646978833e-03,-1.154659201756993211e-03,1.797611166353944682e-03,1.093197991007761926e-03,7.635389821600518760e-04,-1.657040525940604251e-04,7.725612521273634529e-05,6.809193578091296464e-04
5.703804314063276506e-04,-3.555244158907260119e-04,-1.741821375240632137e-03,-5.558583767507406341e-04,1.426656378002071372e-03,6.481081748673133336e-04,1.057011396486664200e-04,-8.755810560041921197e-04,-3.351977687595923032e-04,1.113136868721506002e-03
9.665666948006519914e-04,-1.188732349384212387e-03,-8.215615954063441861e-04,-5.417510310837917202e-04,1.470485200901775358e-03,9.379365203869569415e-04,-1.715298237213146995e-04,-6.117452640141601622e-04,3.419698993888317120e-04,-3.816382518684009804e-04
6.410519875704947948e-04,-2.765538651779522825e-03,-1.617339744408342341e-04,-1.127764937230385598e-03,1.803242510418876258e-03,3.089881785370482132e-04,1.241706802327611440e-03,2.573399581512972735e-04,-5.705151229389405576e-04,3.732232493843681376e-04
2.116830210507110867e-04,-2.941959402483013998e-03,-3.914278956601914853e-04,-1.143376803798858837e-03,2.074014973548054998e-03,1.326108554802887980e-03,9.401819422648328940e-04,-7.290275121980151598e-04,-1.056171756377005390e-04,7.594202981112984675e-04
9.072687038486254617e-04,-4.839718663282045730e-04,-3.497005113985827583e-04,4.085550816277063379e-04,1.669017577304610870e-03,1.439558423525830579e-03,4.714277623090956876e-04,-4.022320700052224758e-03,1.101042742709400267e-03,-1.140877213546256626e-03
-1.580802662147710218e-03,1.669362398940233251e-03,1.072192130303903975e-04,1.631294873715801027e-03,-6.279041698381273781e-04,8.972231169287883190e-04,2.864395784246656339e-05,-3.981610402344990668e-03,1.571111048518580681e-03,2.854626253545653847e-04
-3.132680270056021916e-03,3.190837071453221131e-03,2.002767235200795333e-04,5.199832556506260063e-04,8.305136124121490773e-05,-3.379207969310546390e-04,-9.195855653209234273e-04,-4.146180610714898318e-04,-1.918677791229506427e-04,1.002524060637306671e-03
-3.248910161731913705e-03,2.121448648491894469e-03,-1.155302437473845105e-03,-1.084682693904559471e-03,1.631874182652814269e-03,-1.829613020286875594e-03,-3.905217584644959586e-05,8.965815494302692120e-04,1.764594257848061667e-03,9.430618508206245953e-04
-2.486601458186353183e-03,1.366632685122403041e-03,-2.397396772724846663e-04,1.444039098553887913e-04,4.617762847844866336e-04,-2.020403782237253313e-03,-5.112878319108707294e-04,9.843380922370588860e-04,5.978265367384894610e-04,1.703055240869132125e-03
-3.469463282021234053e-04,6.785231793497333019e-04,-9.931109558365984122e-04,1.111467377405295609e-05,1.411890893458490632e-03,-7.664750953517749472e-04,-7.151017260834367523e-04,-1.535129519134964494e-04,-4.304679637547599949e-04,1.304086274559916343e-03
4.387727914515809555e-04,-1.071422664402111929e-03,-6.552483713161338583e-04,1.381053475334050908e-03,4.859965182152132406e-04,-7.633106728902961172e-04,-6.887029073086697309e-04,2.582287101447369553e-04,-1.715687723554001301e-04,7.862018931270251801e-04
-6.355148246846530058e-05,-1.236233907168851100e-03,-4.022700331464550182e-04,-1.031029396434195080e-03,7.110651784589760950e-04,2.672285862854997324e-05,1.125097231673427572e-04,-9.617041248447019252e-04,3.664389377001051897e-04,2.478052246107699010e-03
-1.308854656928283827e-03,-5.472223337985119293e-04,-3.630056198402086855e-04,-1.560633349002583416e-03,1.312589265682344254e-03,1.003733628023432988e-04,-5.056669043297831430e-04,1.911098849197300116e-04,9.889021132218774567e-04,1.692408237273067143e-03
-8.434803946764657390e-04,-3.532413003900379458e-04,-4.307543809273174564e-04,-1.695499767187947336e-03,1.108969168737233401e-03,-8.473781965880432384e-04,7.989483526855765527e-04,4.748052335259056087e-04,-2.616206173153201239e-04,2.049251902136416548e-03
9.147742098395276241e-04,-4.060583453881123103e-04,-3.962918751851667466e-04,-2.234999476651717328e-03,6.415494185291342483e-04,-1.306804258379626891e-03,1.632318309694871751e-03,-1.432317243309286898e-04,9.409539582278998206e-04,3.577897836441220995e-04
1.688743027968555351e-03,-3.551308216534922028e-04,-3.722332425197954770e-05,-1.130979727870131193e-03,1.814073193112592842e-04,-2.730760411407192213e-03,3.133685449398617914e-03,-1.065802369130581162e-03,1.669764856668606943e-03,-1.353703999033672566e-03
1.991305618406358311e-03,-2.853431169460948660e-04,1.637803667982464005e-03,-6.329181823508573963e-04,-9.247129180110259805e-04,-3.030930408721194298e-03,1.641621936803158710e-03,-6.837467642972403468e-05,1.050294037005853253e-03,-1.378745957738939385e-03
7.307520681012928199e-04,-1.642675064477754044e-04,1.671254962008606078e-03,-4.210284669101305486e-05,-1.790233234604846578e-04,-8.583462464053028028e-04,-6.857403785656894339e-04,2.832837038160545886e-05,1.917653533043570612e-04,-6.926204522256068077e-04
