-6.456503518352391113e-01,1.285619090754095195e+00,2.725671840344695562e-01,-3.561940587372450784e-01,2.580531113788260833e-01,2.439163652119376025e+00,-3.773052862061739843e-01,1.507139141538835547e+00,-3.552562739535417347e+00,-8.308297435115358232e-01
0.000000000000000000e+00,0.000000000000000000e+00,0.000000000000000000e+00,0.000000000000000000e+00,0.000000000000000000e+00,0.000000000000000000e+00,0.000000000000000000e+00,0.000000000000000000e+00,0.000000000000000000e+00,0.000000000000000000e+00
0.000000000000000000e+00,0.000000000000000000e+00,0.000000000000000000e+00,0.000000000000000000e+00,0.000000000000000000e+00,0.000000000000000000e+00,0.000000000000000000e+00,0.000000000000000000e+00,0.000000000000000000e+00,0.000000000000000000e+00
0.000000000000000000e+00,0.000000000000000000e+00,0.000000000000000000e+00,0.000000000000000000e+00,0.000000000000000000e+00,0.000000000000000000e+00,0.000000000000000000e+00,0.000000000000000000e+00,0.000000000000000000e+00,0.000000000000000000e+00
0.000000000000000000e+00,0.000000000000000000e+00,0.000000000000000000e+00,0.000000000000000000e+00,0.000000000000000000e+00,0.000000000000000000e+00,0.000000000000000000e+00,0.000000000000000000e+00,0.000000000000000000e+00,0.000000000000000000e+00
0.000000000000000000e+00,0.000000000000000000e+00,0.000000000000000000e+00,0.000000000000000000e+00,0.000000000000000000e+00,0.000000000000000000e+00,0.000000000000000000e+00,0.000000000000000000e+00,0.000000000000000000e+00,0.000000000000000000e+00
0.000000000000000000e+00,0.000000000000000000e+00,0.000000000000000000e+00,0.000000000000000000e+00,0.000000000000000000e+00,0.000000000000000000e+00,0.000000000000000000e+00,0.000000000000000000e+00,0.000000000000000000e+00,0.000000000000000000e+00
0.000000000000000000e+00,0.000000000000000000e+00,0.000000000000000000e+00,0.000000000000000000e+00,0.000000000000000000e+00,0.000000000000000000e+00,0.000000000000000000e+00,0.000000000000000000e+00,0.000000000000000000e+00,0.000000000000000000e+00
0.000000000000000000e+00,0.000000000000000000e+00,0.000000000000000000e+00,0.000000000000000000e+00,0.000000000000000000e+00,0.000000000000000000e+00,0.000000000000000000e+00,0.000000000000000000e+00,0.000000000000000000e+00,0.000000000000000000e+00
0.000000000000000000e+00,0.000000000000000000e+00,0.000000000000000000e+00,0.000000000000000000e+00,0.000000000000000000e+00,0.000000000000000000e+00,0.000000000000000000e+00,0.000000000000000000e+00,0.000000000000000000e+00,0.000000000000000000e+00
0.000000000000000000e+00,0.000000000000000000e+00,0.000000000000000000e+00,0.000000000000000000e+00,0.000000000000000000e+00,0.000000000000000000e+00,0.000000000000000000e+00,0.000000000000000000e+00,0.000000000000000000e+00,0.000000000000000000e+00
0.000000000000000000e+00,0.000000000000000000e+00,0.000000000000000000e+00,0.000000000000000000e+00,0.000000000000000000e+00,0.000000000000000000e+00,0.000000000000000000e+00,0.000000000000000000e+00,0.000000000000000000e+00,0.000000000000000000e+00
0.000000000000000000e+00,0.000000000000000000e+00,0.000000000000000000e+00,0.000000000000000000e+00,0.000000000000000000e+00,0.000000000000000000e+00,0.000000000000000000e+00,0.000000000000000000e+00,0.000000000000000000e+00,0.000000000000000000e+00
-6.293369684636114223e-07,-1.775846441783430425e-07,1.020472316594884203e-05,-4.269608855497790566e-07,-3.930060851365846492e-06,-1.692258510315235734e-07,-3.399767914010556478e-06,-2.680999265401905718e-07,-4.644692374570897504e-07,-7.392168873518805761e-07
-1.359367851881397343e-05,-3.835828314252181808e-06,2.204220203844943970e-04,-9.222355127875292040e-06,-8.488931438950208228e-05,-3.655278382280921553e-06,-7.343498694262827844e-05,-5.790958413268084163e-06,-1.003253552907315707e-05,-1.596708476680062908e-05
-1.359367851881397343e-05,-3.835828314252181808e-06,2.204220203844943970e-04,-9.222355127875292040e-06,-8.488931438950208228e-05,-3.655278382280921553e-06,-7.343498694262827844e-05,-5.790958413268084163e-06,-1.003253552907315707e-05,-1.596708476680062908e-05
-5.664032716172473049e-07,-1.598261797605086165e-07,9.184250849353947326e-06,-3.842647969948007116e-07,-3.537054766229250746e-06,-1.523032659283713167e-07,-3.059791122609502990e-06,-2.412899338861717264e-07,-4.180223137113798860e-07,-6.652951986166913961e-07
0.000000000000000000e+00,0.000000000000000000e+00,0.000000000000000000e+00,0.000000000000000000e+00,0.000000000000000000e+00,0.000000000000000000e+00,0.000000000000000000e+00,0.000000000000000000e+00,0.000000000000000000e+00,0.000000000000000000e+00
0.000000000000000000e+00,0.000000000000000000e+00,0.000000000000000000e+00,0.000000000000000000e+00,0.000000000000000000e+00,0.000000000000000000e+00,0.000000000000000000e+00,0.000000000000000000e+00,0.000000000000000000e+00,0.000000000000000000e+00
0.000000000000000000e+00,0.000000000000000000e+00,0.000000000000000000e+00,0.000000000000000000e+00,0.000000000000000000e+00,0.000000000000000000e+00,0.000000000000000000e+00,0.000000000000000000e+00,0.000000000000000000e+00,0.000000000000000000e+00
0.000000000000000000e+00,0.000000000000000000e+00,0.000000000000000000e+00,0.000000000000000000e+00,0.000000000000000000e+00,0.000000000000000000e+00,0.000000000000000000e+00,0.000000000000000000e+00,0.000000000000000000e+00,0.000000000000000000e+00
0.000000000000000000e+00,0.000000000000000000e+00,0.000000000000000000e+00,0.000000000000000000e+00,0.000000000000000000e+00,0.000000000000000000e+00,0.000000000000000000e+00,0.000000000000000000e+00,0.000000000000000000e+00,0.000000000000000000e+00
0.000000000000000000e+00,0.000000000000000000e+00,0.000000000000000000e+00,0.000000000000000000e+00,0.000000000000000000e+00,0.000000000000000000e+00,0.000000000000000000e+00,0.000000000000000000e+00,0.000000000000000000e+00,0.000000000000000000e+00
0.000000000000000000e+00,0.000000000000000000e+00,0.000000000000000000e+00,0.000000000000000000e+00,0.000000000000000000e+00,0.000000000000000000e+00,0.000000000000000000e+00,0.000000000000000000e+00,0.000000000000000000e+00,0.000000000000000000e+00
0.000000000000000000e+00,0.000000000000000000e+00,0.000000000000000000e+00,0.000000000000000000e+00,0.000000000000000000e+00,0.000000000000000000e+00,0.000000000000000000e+00,0.000000000000000000e+00,0.000000000000000000e+00,0.000000000000000000e+00
0.000000000000000000e+00,0.000000000000000000e+00,0.000000000000000000e+00,0.000000000000000000e+00,0.000000000000000000e+00,0.000000000000000000e+00,0.000000000000000000e+00,0.000000000000000000e+00,0.000000000000000000e+00,0.000000000000000000e+00
0.000000000000000000e+00,0.000000000000000000e+00,0.000000000000000000e+00,0.000000000000000000e+00,0.000000000000000000e+00,0.000000000000000000e+00,0.000000000000000000e+00,0.000000000000000000e+00,0.000000000000000000e+00,0.000000000000000000e+00
0.000000000000000000e+00,0.000000000000000000e+00,0.000000000000000000e+00,0.000000000000000000e+00,0.000000000000000000e+00,0.000000000000000000e+00,0.000000000000000000e+00,0.000000000000000000e+00,0.000000000000000000e+00,0.000000000000000000e+00
0.000000000000000000e+00,0.000000000000000000e+00,0.000000000000000000e+00,0.000000000000000000e+00,0.000000000000000000e+00,0.000000000000000000e+00,0.000000000000000000e+00,0.000000000000000000e+00,0.000000000000000000e+00,0.000000000000000000e+00
0.000000000000000000e+00,0.000000000000000000e+00,0.000000000000000000e+00,0.000000000000000000e+00,0.000000000000000000e+00,0.000000000000000000e+00,0.000000000000000000e+00,0.000000000000000000e+00,0.000000000000000000e+00,0.000000000000000000e+00
0.000000000000000000e+00,0.000000000000000000e+00,0.000000000000000000e+00,0.000000000000000000e+00,0.000000000000000000e+00,0.000000000000000000e+00,0.000000000000000000e+00,0.000000000000000000e+00,0.000000000000000000e+00,0.000000000000000000e+00
0.000000000000000000e+00,0.000000000000000000e+00,0.000000000000000000e+00,0.000000000000000000e+00,0.000000000000000000e+00,0.000000000000000000e+00,0.000000000000000000e+00,0.000000000000000000e+00,0.000000000000000000e+00,0.000000000000000000e+00
0.000000000000000000e+00,0.000000000000000000e+00,0.000000000000000000e+00,0.000000000000000000e+00,0.000000000000000000e+00,0.000000000000000000e+00,0.000000000000000000e+00,0.000000000000000000e+00,0.000000000000000000e+00,0.000000000000000000e+00
-4.723826162062179652e-07,-2.604181153304814352e-07,-1.695815533505113621e-05,-2.347822644133580032e-07,-8.051231620022922600e-05,-4.222767074035915713e-07,1.030159055610716337e-04,-3.146579917825645861e-07,-1.535990232452321655e-06,-2.304926098203089027e-06
-1.640026758542477216e-06,-8.351960496457622776e-07,-5.147071365743448545e-05,-7.990070617993167081e-07,-5.323384433867822977e-04,-1.331973780125497549e-06,6.016894952166881643e-04,-1.345179879217341259e-06,-4.632426794694470773e-06,-7.296527848448318179e-06
-1.556191153541874265e-05,-3.983965309680628814e-06,-2.281576530510693755e-04,-1.159987982840344834e-05,-2.346295157730161896e-02,-1.480293529311063456e-05,2.380263765179045643e-02,-2.198965781308897562e-05,-7.007368131698912868e-06,-3.658270352639451310e-05
-3.833241769689903292e-05,-9.745174174521460599e-05,-6.041022402161213244e-04,-2.865791039352854898e-05,-7.040592479264906611e-02,-3.084993456440383359e-05,7.151594457433987917e-02,-1.304339536045754071e-04,-6.689031054147337343e-05,-1.133012729286871697e-04
-7.790084422587500816e-05,-4.135802916399616835e-03,-6.276873080002466979e-03,-1.457318936675072285e-04,-3.104354210379695750e-02,-5.119627730167846861e-05,4.364892111589557810e-02,-6.007907847644670864e-04,-1.073452711751604399e-03,-2.436305039853128168e-04
-2.638262191082180511e-04,-3.373252362327269077e-03,-2.023873655204187078e-02,-1.501422749273542928e-04,-1.692624998416413645e-02,-1.283305260170116997e-04,4.271693917794933820e-02,-2.951141649888356570e-04,-1.024221280812817733e-03,-3.170658135617029786e-04
-2.776582675472724290e-03,-1.981306605218543637e-03,-1.728322544256956014e-02,-2.210410657005421476e-04,-2.561715372681433803e-02,-4.834587260344441317e-04,5.217396536405798091e-02,-6.379835576989954446e-04,-5.763347004029379739e-04,-2.596878864145657755e-03
1.973306043380255309e-02,-6.929738688716057882e-04,-1.312444966551652714e-02,-3.225281321345036282e-04,-5.810891878240249248e-02,-5.323223878123026741e-04,7.261450551488354832e-02,-8.675781590121216247e-03,-8.465868473650892036e-04,-1.004400467446264419e-02
4.404157994124464209e-02,-7.620034662940810676e-04,-1.362107366796574785e-02,-4.465194797872200296e-04,-1.128665617608000521e-01,-3.218124391788219321e-04,1.244551429331814535e-01,-2.268345732567251388e-02,-1.078695019823120100e-03,-1.671659971490411026e-02
1.856343516737941901e-02,-7.363878329490333371e-04,-8.052462190925308363e-03,-3.428284979845821101e-04,-5.185231015871722554e-02,-1.146646202104854417e-03,5.830757216139089566e-02,-7.039707666341325082e-03,-1.081213689102221605e-03,-6.619451090645445297e-03
-1.424434821588317808e-03,1.241772953147341797e-02,8.657395572180424589e-03,-5.264257470326545556e-03,-1.206192169154740156e-03,-3.015495635622265740e-03,-4.265416888582310335e-03,-2.881996886747285143e-04,-2.553668999375329277e-03,-3.057459430329535679e-03
2.303782048394537735e-02,1.468610888347504119e-02,5.892940019384337175e-02,-6.476257749806762706e-03,-9.310398417078086242e-02,-1.848841023765896525e-03,1.759583974009545915e-02,-7.934353806292590095e-04,-1.799218275955370532e-03,-1.022743270042112892e-02
6.394101125764865834e-02,-8.603913980414493656e-04,6.758255299713875064e-02,-2.632542595566041664e-03,-1.202940324930269061e-01,-1.177399146172754653e-03,2.103448830595280872e-02,-1.819329504014499362e-03,-3.045467080391079696e-03,-2.272889034352753093e-02
2.977700651280809629e-02,-1.551588794337644284e-03,-1.428963558897697675e-02,-1.016654089560844066e-03,-4.415221336895913673e-02,-1.428104105783784212e-03,5.050990868771128989e-02,-9.527142099661086404e-04,-2.549210532718118854e-03,-1.434679451021656817e-02
-1.317304595970246938e-03,-2.245432825925625586e-04,-1.948689722732449905e-02,-1.944919585914318234e-04,-1.414005631975686315e-02,-4.123535474726969761e-03,4.298340020977768627e-02,-2.114838350926331141e-04,-1.333908127490685295e-03,-1.951179388231966474e-03
-8.283796799411699552e-04,-7.514741927188339689e-05,-1.494196624336795350e-02,-1.484582621373368148e-04,-3.682729806940223533e-02,-3.576083757700658158e-03,5.865379560427825406e-02,-2.618646466598834629e-04,-8.595859510843019760e-04,-1.135011574712768050e-03
-4.525651631041796184e-04,-6.878601097043287010e-05,-6.917193379484536976e-03,-1.827042201118233308e-04,-2.546280631716842449e-02,-1.564246077337955740e-03,3.618193287315909362e-02,-1.298340346868947452e-04,-4.758477576465606693e-04,-9.279499126481800808e-04
-1.858102281823229289e-04,-2.640156511053346521e-05,-1.788825316535148100e-03,-5.331860194855353647e-05,-2.251541528801736386e-02,-3.699421522123705862e-04,2.543633775615106521e-02,-2.101090114683238055e-05,-1.736613371317369454e-04,-3.019523658661986908e-04
-4.936258476985320607e-05,-1.080927667683487600e-05,-3.846128159664892509e-04,-1.615543694830828201e-05,-3.817375813050034178e-02,-3.246511990120158571e-05,3.915505258774544528e-02,-2.143385065309682383e-05,-1.170933791986460468e-04,-3.493619931306604642e-04
-3.858112176092581205e-06,-2.556030298162807112e-06,-1.512153696176909274e-04,-3.168273801579300607e-06,-1.845391581989031665e-02,-1.069584815369621346e-05,1.891150706694703573e-02,-2.161165520535504925e-05,-4.456355264658587667e-05,-2.199224051576466625e-04
0.000000000000000000e+00,0.000000000000000000e+00,0.000000000000000000e+00,0.000000000000000000e+00,0.000000000000000000e+00,0.000000000000000000e+00,0.000000000000000000e+00,0.000000000000000000e+00,0.000000000000000000e+00,0.000000000000000000e+00
0.000000000000000000e+00,0.000000000000000000e+00,0.000000000000000000e+00,0.000000000000000000e+00,0.000000000000000000e+00,0.000000000000000000e+00,0.000000000000000000e+00,0.000000000000000000e+00,0.000000000000000000e+00,0.000000000000000000e+00
0.000000000000000000e+00,0.000000000000000000e+00,0.000000000000000000e+00,0.000000000000000000e+00,0.000000000000000000e+00,0.000000000000000000e+00,0.000000000000000000e+00,0.000000000000000000e+00,0.000000000000000000e+00,0.000000000000000000e+00
0.000000000000000000e+00,0.000000000000000000e+00,0.000000000000000000e+00,0.000000000000000000e+00,0.000000000000000000e+00,0.000000000000000000e+00,0.000000000000000000e+00,0.000000000000000000e+00,0.000000000000000000e+00,0.000000000000000000e+00
0.000000000000000000e+00,0.000000000000000000e+00,0.000000000000000000e+00,0.000000000000000000e+00,0.000000000000000000e+00,0.000000000000000000e+00,0.000000000000000000e+00,0.000000000000000000e+00,0.000000000000000000e+00,0.000000000000000000e+00
0.000000000000000000e+00,0.000000000000000000e+00,0.000000000000000000e+00,0.000000000000000000e+00,0.000000000000000000e+00,0.000000000000000000e+00,0.000000000000000000e+00,0.000000000000000000e+00,0.000000000000000000e+00,0.000000000000000000e+00
-2.024270600945565656e-06,-5.718721665751287211e-07,-2.186093166529372834e-06,-1.375007323066255082e-06,-5.691733556736137946e-06,-1.953166481000886478e-06,2.026665309224748011e-05,-5.635214823564387522e-07,-3.053213433403000244e-06,-2.847774881634750728e-06
-1.352743151773011206e-04,-1.318009249938265552e-07,-9.042170112004790407e-06,-1.239931114291118425e-06,-3.137201596747474468e-06,-4.520993210751361735e-05,1.952599954956113005e-04,-3.852457584295821326e-07,-3.634552309992679107e-07,-4.759434733301985469e-07
-1.386911087432840925e-05,-8.421908589497270514e-06,-9.930168809030946037e-04,-1.341690103002412938e-05,-6.463116899131947151e-04,-2.050042651876756358e-05,1.829089020271356530e-03,-1.162911761513969545e-05,-8.510554111701886112e-05,-3.681744371029389292e-05
-1.040289210119371135e-03,-2.749856072861881377e-05,-2.329575937539289437e-04,-2.001829425270044711e-04,-1.317253437045373199e-03,-1.328977480759616889e-05,2.906254591608915978e-03,-8.441987869681509749e-06,-4.446854311925472461e-05,-2.187254163808551122e-05
-8.089866765147077018e-03,-1.469150658296713703e-04,-1.396833806573048687e-03,-1.108961449121590934e-03,-3.815040154408404910e-02,-5.934611300929422802e-05,4.932490910454787048e-02,-7.309935724136435158e-05,-1.884622948040632132e-04,-1.110227087376016423e-04
-1.167334251666100192e-02,-1.818338512822560314e-03,-3.832040042355448241e-03,-2.448645297843500893e-03,-9.395798293822975322e-02,-6.437107068483611215e-04,1.160144448317375621e-01,-6.059749505938601469e-04,-6.204874395047352015e-04,-4.139224268784074041e-04
-1.731343782440920506e-02,-2.953151503420266971e-02,1.645714307766050696e-02,-1.194233945629467712e-02,-9.524605733733794433e-02,-2.310333374229600351e-03,1.447791026972160833e-01,-1.362014086389855922e-03,-2.786116296343205991e-03,-7.444323656691324018e-04
-2.591388489674971776e-02,-5.679206081451738941e-02,9.064433245688878482e-02,-2.143688450786332411e-02,-9.216902758715503352e-02,-1.206082287423665758e-02,1.379819627630589907e-01,-4.213758294870795056e-03,-1.352022895979482046e-02,-2.519627284759995943e-03
-1.960782615931621828e-02,-2.497245572596471300e-02,2.351398547842267067e-02,5.908672908514139149e-03,-1.945537336182786570e-01,-5.142561839647184774e-02,3.085953958260810315e-01,-1.080689639857374332e-02,-2.545907663434073681e-02,-1.119244728007342225e-02
-2.826670835698108161e-02,-1.262898743113451475e-02,4.258960512987910313e-02,5.661558355036139939e-02,-2.048745201721726694e-01,-8.410577675140612497e-02,3.045280320551013165e-01,-2.731550587150614190e-02,-2.813314273494041742e-02,-1.840857941720162871e-02
-2.326502294345045990e-02,-3.391779624370123460e-03,7.827963069155838283e-02,3.378742624196032218e-02,-2.936604681796020633e-01,-6.269243535769757070e-02,3.689154703988138939e-01,-3.185629645168377988e-02,-3.467159980685224213e-02,-3.144492496867615228e-02
-2.610929858420881974e-02,6.971900305596752390e-02,4.715116949424763559e-02,-2.391158445257041132e-02,-2.080181283528642899e-01,-5.975273433314945426e-02,2.995108182906519589e-01,-1.650074848403393704e-02,-5.037510952863065439e-02,-3.171338710540920480e-02
-7.402929195895571746e-02,1.339272790536219226e-01,-1.145213541410476828e-02,-2.007677420689949269e-02,-8.055344506980026409e-02,-8.693415120359831993e-02,2.257522155892139892e-01,-9.589069632114404634e-03,-4.900679871299754020e-02,-2.803782844436504204e-02
-1.129481134427042233e-01,1.787329526017203685e-01,2.644185979247369589e-02,-3.222826579213584203e-02,-1.417394140796073843e-01,-3.967456305803283151e-02,2.073662889217432193e-01,-8.944990457933003902e-03,-5.333998798140993786e-02,-2.366576650411403651e-02
-1.152452065350244165e-01,8.885230609344031694e-02,9.327217117384253853e-02,-1.562639351442652452e-02,-1.440610117317134009e-01,2.553460649741253960e-02,1.553418919994559444e-01,-6.413098686856279207e-03,-5.525770963054537493e-02,-2.639755566558659935e-02
-9.522305168545540377e-02,-3.062633363046682496e-03,4.220846558900775286e-02,-2.006814915672857150e-02,-9.107442341317341372e-02,3.225458695725948871e-02,1.877211383618840601e-01,-4.480019456113168083e-03,-3.174881152937131940e-02,-1.652710230426287022e-02
-5.499942265415376508e-02,-1.383942299134387557e-02,3.561888757232100494e-02,-4.649205575439222665e-02,-1.051493221313465898e-01,1.036938776050992661e-02,1.804757154345291437e-01,-2.591397155549902444e-03,9.441164651457606763e-03,-1.283353473203168241e-02
-3.441055636533073975e-02,2.170182045972181631e-02,-5.484992863083120590e-02,-1.978858861711936187e-02,-7.238334825897241309e-02,-2.135294337656869212e-02,2.127066230948186087e-01,-1.635199033569380289e-03,-2.060676249396888038e-02,-9.381116778179576440e-03
-2.749178176857229247e-02,4.193527264372225562e-04,-3.727071996977835561e-02,-5.780744617908341668e-03,-4.791544384633069503e-02,-8.324556701409957515e-02,2.204538407127933919e-01,-1.115592110984099184e-03,-1.141994402405726791e-02,-6.633400087499443688e-03
-1.302467261468901773e-02,-3.953562336708921904e-03,-2.812335334074251084e-02,-7.547217976831390243e-03,-4.689538792632538811e-02,-7.873290321017953342e-02,2.000316627031167027e-01,-7.874508728467474392e-04,-1.083835455532476851e-02,-1.012875986946873072e-02
-4.470766009085363688e-03,-2.351985622126121032e-03,-2.076858161441069717e-02,-4.929944863460218596e-03,-5.899055774390836449e-02,-4.564188152716607688e-02,1.490588331063075200e-01,-4.188778346594475223e-04,-7.034783236369270693e-03,-4.451454655122083839e-03
-1.995063269060697812e-03,-6.339740559115511443e-04,-2.181787165319813097e-03,-4.805653546897944799e-04,-2.885611695753141290e-02,-4.681940847946821499e-02,8.436668283858296535e-02,-8.213804012657581423e-05,-2.983075465318470350e-03,-3.345540511566790810e-04
-5.075671133989218724e-04,-1.145204015499135539e-04,3.867033689348853970e-02,-1.404792118902695392e-04,-2.944892553197363955e-03,-2.107030320025296902e-02,-1.159708249723449998e-02,-4.336895490702164863e-05,-2.192324285294757705e-03,-5.979867576279499771e-05
-3.670638918621736235e-05,-4.798556905422435775e-05,2.620883750538491319e-02,-1.097811257956895708e-05,-3.039009641142814797e-04,-2.280799370986577417e-03,-2.251571265023041835e-02,-5.759531606423046543e-06,-9.841214933209510574e-04,-2.287342430621246901e-05
0.000000000000000000e+00,0.000000000000000000e+00,0.000000000000000000e+00,0.000000000000000000e+00,0.000000000000000000e+00,0.000000000000000000e+00,0.000000000000000000e+00,0.000000000000000000e+00,0.000000000000000000e+00,0.000000000000000000e+00
0.000000000000000000e+00,0.000000000000000000e+00,0.000000000000000000e+00,0.000000000000000000e+00,0.000000000000000000e+00,0.000000000000000000e+00,0.000000000000000000e+00,0.000000000000000000e+00,0.000000000000000000e+00,0.000000000000000000e+00
0.000000000000000000e+00,0.000000000000000000e+00,0.000000000000000000e+00,0.000000000000000000e+00,0.000000000000000000e+00,0.000000000000000000e+00,0.000000000000000000e+00,0.000000000000000000e+00,0.000000000000000000e+00,0.000000000000000000e+00
0.000000000000000000e+00,0.000000000000000000e+00,0.000000000000000000e+00,0.000000000000000000e+00,0.000000000000000000e+00,0.000000000000000000e+00,0.000000000000000000e+00,0.000000000000000000e+00,0.000000000000000000e+00,0.000000000000000000e+00
-5.096232799650457442e-06,6.849744052088544040e-04,-9.012312593931689499e-05,-4.813570337475542500e-05,-1.330768390019572149e-05,-1.006983647036088355e-05,-3.506018193423023109e-04,-1.908146827981286532e-06,-1.585589451030082735e-04,-7.172911451284289352e-06
-1.370813266729144220e-03,1.612733754697410723e-04,-1.858778220961869790e-04,-6.212486774913857990e-05,-5.748307705659560108e-04,6.139686535993273304e-04,1.549845418741863448e-03,-1.531047730422241225e-05,-8.164311807208451662e-05,-3.448712529420296113e-05
-8.449614959806416026e-03,-6.559533543778143106e-05,-7.556210953856393013e-03,-6.181863958871330542e-03,-1.251285917471496546e-03,1.526698215564347740e-02,9.340237290348071472e-03,-6.836626102823873709e-04,-3.616961788412695940e-04,-5.728953142444698243e-05
-3.138089597896463051e-02,-3.060265324096349965e-03,-1.101921880184737919e-02,6.369164244841736544e-02,-5.648542489743936697e-03,-4.204432521147346419e-02,3.441867779281974904e-02,-1.050916674216296554e-03,-3.204308197599862584e-03,-7.018475632949926993e-04
-4.614772480949175942e-02,-2.759278051552991468e-03,-1.114143765769290591e-02,4.186480083274230629e-02,-6.636414523598442583e-02,-2.416089944205353224e-02,1.180654741940602853e-01,-1.470320193073438968e-03,-6.327460983627501527e-03,-1.559008653325985941e-03
-7.274936387485921030e-02,-1.153435867488337291e-02,1.365887401510011354e-02,9.240034285669579406e-02,-7.363343725879489821e-02,-3.140915853103262712e-02,1.141667065623979405e-01,-1.616312207581976565e-02,-1.201977313301716248e-02,-2.716709885786623181e-03
-4.501367216761469059e-02,-5.081226824707300166e-02,9.274571760070332571e-02,1.371423014859830536e-01,-1.513387227355140197e-01,-4.604466983580353390e-02,1.264972318709288168e-01,-4.336413845531485872e-02,-1.349121456071380662e-02,-6.320564955582386527e-03
-6.445054351482860933e-02,-8.752542341244899660e-02,2.906083840347497560e-01,6.152166685729312107e-02,-2.236165865903613492e-01,-7.263044618967900989e-02,1.938426307542000793e-01,-3.431089116054656524e-02,-4.384993827316433640e-02,-1.958885250521272964e-02
-3.077718446692545920e-02,-1.664981364228758642e-01,2.389520638581883738e-01,1.492387961613566016e-01,-2.557676726639456777e-01,-4.377362845621502602e-02,2.609159167479487840e-01,-6.905103541988456828e-02,-4.732003328677560766e-02,-3.591908605087207329e-02
-3.862955633891804446e-03,-1.696887697284495677e-01,2.765176278650091635e-01,2.831757002232712095e-01,-3.204940569726666966e-01,-1.346473997169917169e-01,2.731787802885264349e-01,-9.759130066115856428e-02,-5.570840973458251327e-02,-5.087921592906797380e-02
-2.988389116076474103e-02,-6.775537726494106072e-02,2.946623993090222715e-01,3.124731363934622475e-01,-4.748003275366253217e-01,-4.877469810223952762e-02,2.081097446162767095e-01,-5.602898436085764627e-02,-5.799187941887058717e-02,-8.001012247446095960e-02
8.249252941513569859e-02,-1.954669297949570422e-02,2.835158181041546044e-01,1.286674312078340265e-01,-4.651564218366915915e-01,-1.091161212735878572e-01,2.671844080916466746e-01,-6.553714465732952965e-02,7.357851964933528367e-03,-1.098616580365980033e-01
9.435814444020038105e-02,-3.374026146199889890e-03,2.163855904088602955e-01,2.475432495920948384e-01,-2.884900895437128021e-01,-1.180628589455113148e-01,1.442181807364283641e-01,-7.787138909143907772e-02,-7.115378796980691145e-02,-1.435530134809153147e-01
2.946879148276491944e-02,1.216001575462447026e-01,1.283611405017030804e-01,2.489042280308738919e-01,-3.462096604491148866e-01,2.013161940746381259e-02,2.193549897744585253e-01,-7.511754247757693181e-02,-1.879279731975967149e-01,-1.585657506192204858e-01
4.389432198844746280e-02,1.011250598665117129e-01,1.487365125327635984e-01,1.564839817883380280e-01,-2.563088656055326764e-01,3.667054785784535503e-02,7.447657548849606624e-02,-5.382477333020479343e-02,-1.354724332429807221e-01,-1.157809273436837122e-01
4.231474152212697654e-02,-1.288833602970020642e-01,9.917372794098952560e-02,1.457020552955532178e-01,-1.814999914589258412e-01,7.935879287739305843e-02,6.693404859908286264e-02,-2.971002056118366569e-02,-2.524316875185764197e-02,-6.814682516617721897e-02
-8.307977942530515858e-02,-1.659420695026350423e-01,-7.069529113450148672e-02,1.752577061437237682e-01,-1.841889977228929887e-01,1.132495264469177143e-01,2.025588019979253362e-01,-2.458197347511820521e-02,6.802663901836958349e-02,-3.060456234648122054e-02
-1.089912611485499422e-01,-7.192596868718204028e-02,-3.858297841737184930e-02,1.454739937366267000e-01,-3.345098417880782576e-02,7.166500582038241862e-02,2.202673993679810927e-01,-1.118960209474293907e-02,-1.166955075670266934e-01,-5.657009683130886923e-02
-7.340858255453951153e-02,-1.072750090956648278e-01,-8.735081325646736061e-02,2.073008801586562477e-01,-2.216356292543871648e-02,1.946596388150148016e-01,2.728257367941847727e-02,-1.165578182974731473e-02,-6.465640121980807675e-02,-6.273294177142395289e-02
-1.343199882207143647e-01,-1.332769015361630338e-01,-4.923173504062151179e-02,-1.472439770588477789e-02,-9.801441755845864343e-04,1.710918334015697484e-01,1.742134076599188564e-01,-9.485062587340203216e-03,2.666650120707551863e-02,-2.995351300225499239e-02
-6.531326349949069521e-02,-9.701998149524258819e-02,-7.479102298480028166e-02,-9.869487006582010336e-02,6.982863941785220734e-03,8.401257186189613202e-02,1.846007619764359065e-01,-3.654532901008230531e-03,6.911160076205390135e-02,-5.234127595808861326e-03
-8.291345081062781799e-03,-4.965719681651467599e-02,-8.265644214622332175e-02,-6.093834337294149611e-02,3.521030475233009709e-03,2.593746907504610594e-03,1.311065195011820450e-01,-9.050429851743115950e-04,6.693574396554098638e-02,-1.708670447544233034e-03
5.926043588068113065e-03,-4.248512484217378121e-02,-3.387337271289772144e-03,-1.961745366168683030e-02,-1.415882410559551538e-02,5.513990195190113935e-02,2.363816156507967531e-03,-2.265050034610722768e-04,1.708024350304803221e-02,-6.347603153181194348e-04
-1.022300280855669222e-02,-1.564981945085101855e-02,2.033687161057967652e-02,-2.174697813477194906e-04,-4.277428197979853000e-04,6.958698558093769082e-02,-6.577992216700155603e-02,-2.464112555957489686e-05,2.487770014347642257e-03,-8.902905274997066913e-05
-3.494159608082642119e-03,-2.284120762797492085e-02,-5.310470972026167099e-04,-1.862469590426602269e-05,-2.432823417808895256e-04,9.053393458449804018e-03,2.224321359440543586e-02,-2.528453895475598578e-06,-4.158782529946362591e-03,-6.974698068140196326e-06
0.000000000000000000e+00,0.000000000000000000e+00,0.000000000000000000e+00,0.000000000000000000e+00,0.000000000000000000e+00,0.000000000000000000e+00,0.000000000000000000e+00,0.000000000000000000e+00,0.000000000000000000e+00,0.000000000000000000e+00
0.000000000000000000e+00,0.000000000000000000e+00,0.000000000000000000e+00,0.000000000000000000e+00,0.000000000000000000e+00,0.000000000000000000e+00,0.000000000000000000e+00,0.000000000000000000e+00,0.000000000000000000e+00,0.000000000000000000e+00
0.000000000000000000e+00,0.000000000000000000e+00,0.000000000000000000e+00,0.000000000000000000e+00,0.000000000000000000e+00,0.000000000000000000e+00,0.000000000000000000e+00,0.000000000000000000e+00,0.000000000000000000e+00,0.000000000000000000e+00
-3.314471952074639626e-05,2.344654121648355287e-03,-8.207822414593689275e-04,1.634459540703754989e-03,-1.338981531518036452e-05,-1.589483084811385170e-03,-1.364560559530077558e-03,-3.728177273079665332e-06,-1.439201844238317742e-04,-1.010488001844567629e-05
-5.591033731063363302e-04,2.112895982096161024e-05,-4.949588524882928345e-03,1.801810175379810544e-02,-7.207404087364163367e-04,-5.254965828387757158e-03,-5.830426503726566199e-03,-3.573026032744315377e-05,-5.792308401874790742e-04,-1.094449742641463458e-04
-7.295744165451771047e-03,6.561698934670206172e-03,-4.015051965523346728e-02,4.194815452597278060e-02,1.361285660006738944e-02,-3.702144170859582306e-02,3.140562741154719062e-02,-2.854798568945803635e-03,-5.432472756735998339e-03,-7.733606172948017093e-04
-6.518587933623327946e-02,4.078378610991587744e-02,2.601770037388245055e-03,1.304703232096378618e-01,1.117537798183468843e-02,-1.281424258594665300e-01,5.648429620745731156e-02,-1.418781014835966345e-02,-3.016382569605233210e-02,-3.835612506122248241e-03
-6.034331976212373161e-02,3.623651557781825544e-02,1.439598516645150816e-01,1.467496086666295052e-01,-8.468508281487166500e-02,-1.155935122924059838e-01,3.220611805798557353e-02,-2.092612810501566847e-02,-7.032961743091793727e-02,-7.274433561613475631e-03
-3.476410673596555534e-02,1.998111358477441118e-02,5.323742993449832178e-02,1.884565929423828723e-01,-1.027268796620263089e-02,-7.304750676938062681e-02,1.832798415332281827e-02,-7.228394975721082194e-02,-6.805072449366159071e-02,-2.158414489255783969e-02
-4.560556830876341672e-02,-2.280633041388238288e-02,1.539201164167464386e-01,2.222051215508910327e-01,-8.216373773553600768e-02,-2.364471261124221069e-01,9.309327789136823128e-02,-9.072397777128174412e-02,5.789680747055626908e-02,-4.936858298767591441e-02
3.353726247197384713e-02,-1.063928817307359803e-01,3.756506392377950698e-01,1.432037410833264246e-01,-1.716387628692437883e-01,-1.236749686245383201e-01,-2.758135833722249325e-03,-1.524780339216142977e-01,1.113442958482685347e-01,-1.067931556615077243e-01
1.311906846147971317e-02,-6.990966345017854411e-02,1.697923449816577945e-01,2.317039868611704134e-01,-2.208290527891134947e-01,5.500024920325299882e-02,9.127820315034768095e-02,-2.162759688715696349e-01,1.023933003546664972e-01,-1.562724679017134799e-01
1.009494363811600376e-01,-9.297669563575614027e-02,1.700830789511128260e-01,2.448659259963666401e-01,-2.019611692148210735e-01,1.335762063168048075e-01,-5.390322562532588735e-02,-2.657042561356871002e-01,1.256122698378079050e-01,-1.605415708716603218e-01
-1.205819683081943774e-02,-1.805608903026267864e-02,2.396801910865380691e-01,2.368541935602021808e-01,-1.590771942546676532e-01,2.055559280524416055e-02,-1.219186707368522110e-01,-2.193254887115512197e-01,2.102857835990768476e-01,-1.769401214869083250e-01
9.963728376220749861e-02,9.949994559611574640e-02,2.000915019656940574e-01,3.219016636741927062e-01,-1.366788366485837403e-01,-1.876533298722946053e-01,-8.331898448679611602e-02,-1.961919581725282691e-01,1.208497154652674183e-01,-2.381370012832754735e-01
1.369613046449608476e-02,2.328010018870466102e-02,2.349981774287845937e-01,1.946045025344075308e-01,-2.606089646110198998e-01,-2.034721623976662799e-02,-1.038683404192563969e-01,-1.953489745492116847e-01,3.064221773897717882e-01,-1.928275921869089526e-01
9.038472162463212500e-02,2.972210083459968927e-02,4.850501975873606347e-02,1.861764764388425253e-01,-1.740319145354368158e-01,2.045237223228930923e-01,-9.831846979981610779e-02,-2.442826056813021673e-01,1.952331227409382919e-01,-2.379121737040875706e-01
5.638081577758974339e-02,1.533895509238628052e-02,-4.614048285447181624e-02,2.126984470551946393e-01,-7.292836952677915485e-02,8.963067316451843458e-02,2.538772784139015082e-02,-2.356679558659836582e-01,2.570126909122530390e-01,-3.017125015960986367e-01
4.957352157065988973e-02,-1.059798377508703801e-02,-1.909438143513428679e-02,-1.144229754919206003e-03,-1.098347754744262023e-01,2.156578390747583007e-01,1.429967942745111742e-01,-2.115714136944642498e-01,1.779883562227075611e-01,-2.339737270086066911e-01
6.913756867565665210e-03,-7.641662173474987434e-03,-3.939533731430646529e-02,1.556312587090738220e-01,-1.181314980679066540e-01,2.757434965797936344e-01,-1.759062631641245336e-02,-1.696582535594737262e-01,1.372279290733139923e-01,-2.230990637981731806e-01
-2.590793229897815977e-02,1.279337775290928514e-01,-1.692501817700658995e-01,6.401408170354376537e-02,1.924529238644812346e-01,8.768758615527944000e-02,3.908613160310740742e-02,-1.026628922780022102e-01,4.214155062965364157e-02,-2.554950451381127752e-01
-7.645253856237628487e-02,1.572029542579618869e-02,-1.038207713664416054e-01,-1.530075696695034140e-02,2.796476062178228639e-01,-1.013419788370342051e-01,1.019460819618997899e-01,-6.411817572648188801e-02,1.564056590413666348e-01,-1.926854211876039558e-01
-1.056152276533267043e-01,2.396062038806138009e-02,-2.464746717335660198e-01,-1.237307584765345025e-01,2.528261845711346489e-01,2.105703751830060311e-01,7.373433029727673171e-02,-1.610685283723245487e-02,8.639020904118274724e-02,-1.555542087800013684e-01
-3.229218029826504827e-02,-4.570377658828268103e-02,-2.738287739994048620e-01,-9.556507896119394163e-02,2.148931623709660621e-01,1.075855867641384023e-01,1.777628408087458256e-01,-3.334058236116504287e-02,6.532481745214811786e-02,-8.483601518768660310e-02
-4.090163460995064476e-02,-4.799514588753023975e-02,-1.565785043052428660e-01,-1.964961094766238536e-01,1.627391100460603701e-01,2.218005035971734595e-01,1.213687452059520056e-01,-1.649830511045970519e-02,-2.034332754578222976e-02,-2.709533191359518936e-02
-7.580460906776170793e-02,-1.088003261297676438e-01,-8.196820374028256084e-02,-3.060092608410558759e-02,1.631070782465684765e-01,3.105655409950858759e-01,-1.834073123369290570e-01,-5.051016167179343472e-03,2.176360447595221750e-02,-9.803830191580089823e-03
-4.248098988989246899e-02,-7.785547263086353698e-02,-1.998488194144170012e-03,-2.596558390761644942e-03,4.871163611210023447e-02,1.484279193579671752e-01,-6.367960906351098627e-02,-3.921462637463224801e-04,-6.140221401141013162e-03,-1.996069636007659787e-03
-1.807161859869615451e-03,-9.159547935132269017e-03,-8.251788248690295272e-03,-1.762037833293536322e-04,-1.229787039142337703e-02,5.650180007839051763e-03,7.178223046804005185e-03,-9.774943940869656458e-05,2.029486510207584304e-02,-1.332946498865236230e-03
-2.118562314035894452e-04,-4.107559333108909590e-03,-7.982026123077339691e-03,-3.627734999049857652e-05,-3.626190140013057627e-03,-4.342178547701170364e-03,1.638924644773161188e-02,-2.088545574017554519e-05,4.221607492511017697e-03,-2.838807592078933023e-04
0.000000000000000000e+00,0.000000000000000000e+00,0.000000000000000000e+00,0.000000000000000000e+00,0.000000000000000000e+00,0.000000000000000000e+00,0.000000000000000000e+00,0.000000000000000000e+00,0.000000000000000000e+00,0.000000000000000000e+00
0.000000000000000000e+00,0.000000000000000000e+00,0.000000000000000000e+00,0.000000000000000000e+00,0.000000000000000000e+00,0.000000000000000000e+00,0.000000000000000000e+00,0.000000000000000000e+00,0.000000000000000000e+00,0.000000000000000000e+00
-2.885772773553486881e-04,1.100975411060920893e-03,2.364520571417289625e-04,3.735996587949914124e-03,-1.224942657594620815e-04,-3.786913166098785592e-03,2.877006852493919247e-05,-4.039461514728816260e-04,-4.549696343572634961e-04,-4.529362963375565729e-05
-4.362506757549455827e-03,1.024113612312662659e-02,8.948303067853368223e-03,7.764094152666448090e-02,-1.795129274409290121e-03,-3.823653745025074741e-02,-3.658577956330446440e-02,-1.902993074789486845e-03,-1.209910916899228743e-02,-1.848325428348709205e-03
-2.444877560336527339e-02,2.090326240686892281e-02,4.107660280620343413e-02,1.686274591277313606e-01,5.476195318250278235e-03,-1.754147120158873474e-01,2.371206191812155750e-02,-1.276430030985943945e-02,-3.556020605342535834e-02,-1.160758759463846254e-02
-8.309527781302830651e-02,1.193358672813120136e-01,3.312781366410038481e-02,2.317610930800645397e-01,1.950943931985628030e-02,-1.752635043512260349e-01,-1.176955516127792672e-01,1.028756298796479479e-01,-1.002098418537628183e-01,-3.034566759418408713e-02
-1.692029595400584494e-02,8.611935272184395584e-02,3.188461356662930599e-03,2.881512784706679597e-01,-5.601424388203546378e-02,-1.889927129069944867e-01,-7.905787430775476632e-02,1.411210642284191075e-01,-1.158185978863161547e-01,-6.177643184048643710e-02
-3.034066797536910318e-02,-3.611068383068717202e-03,1.188346014316851301e-01,2.214023912232219171e-01,6.307828681564793885e-03,-1.453706138186937058e-01,-8.786699605866118978e-02,1.862029406742451640e-02,1.977352132742016960e-03,-9.995312130084543778e-02
3.136441229453369728e-02,-1.265435242902949731e-01,1.711897090222002094e-01,9.148244737751014266e-02,-1.968874699999115241e-02,-9.291635616646566620e-02,3.401155182879287125e-03,1.054671759724478824e-01,-2.199177611127521928e-02,-1.417644962815435006e-01
3.233888690232958329e-02,-8.648395321619618825e-02,7.457400739360568742e-02,7.004750819692508179e-02,-1.671718855299716023e-03,-5.148352811765893183e-02,1.992198358690432103e-03,1.050674943757421986e-01,9.080045670527274460e-02,-2.351813517434109269e-01
1.510360624194345969e-01,-1.945427068535207638e-01,1.459745679602029444e-01,1.061707438000651371e-01,-2.668716407177165392e-02,-1.468031695528767243e-02,1.384232647035719688e-01,-6.539745996417849205e-02,-8.614703099539242070e-02,-1.541499600431242012e-01
6.604343585974108144e-02,-2.853651250510498283e-01,2.714892666122661891e-01,7.883369275197527060e-02,-6.984053499925242658e-02,-7.054609660924579528e-02,-1.996352138221224592e-01,-1.462747482995912507e-01,1.458031831859699645e-01,2.094921403713062014e-01
-5.312345439898689264e-02,-2.019412906099825322e-01,1.768707598742601805e-01,8.419851325708514744e-02,1.996433570972922997e-02,-1.680370740931561857e-01,-1.405421767882830963e-01,-5.356925622339086396e-02,2.371926568438240956e-01,9.898698642890348121e-02
1.866804448304099362e-01,3.260074372132794329e-02,2.127035222990123209e-01,1.205813844019466841e-01,-1.746608097682757210e-01,-1.755650905344955659e-01,-2.279035214932927100e-01,-6.063032290356520915e-02,6.770488238499601519e-02,1.848876706193720854e-02
2.327846939531083292e-01,-8.175874467068784679e-02,5.179182839994121712e-02,7.406014152381606985e-02,9.381551071389931939e-02,-1.696949001805783397e-01,-4.765975773473578314e-02,-1.716855503785695292e-01,2.981342248573268794e-01,-2.797874464835207187e-01
1.011781087005677038e-01,7.446186070855946582e-02,8.005139660186012807e-02,5.519443133268986390e-02,1.136694084254326609e-01,-3.051994891049787384e-01,-9.725634732680306371e-02,-2.231714012725862228e-01,3.358109931950710170e-01,-1.347389612598149655e-01
5.729765994411397528e-02,2.629975508219542860e-02,2.429897110575629238e-01,7.665586606610118314e-02,1.371930209649331045e-01,-1.166736822915463018e-01,-1.536282136426005418e-01,-2.520131599553472324e-01,3.188812382236561049e-01,-3.370021954490688421e-01
1.736854047882878394e-01,-1.553782913014245537e-01,8.296455063484764469e-02,-1.321685503556570829e-01,-2.756015981550732560e-02,6.617872958765015634e-02,5.070659189448460322e-03,-2.549285241267492674e-01,4.711827409783426179e-01,-2.290465595792372522e-01
1.979034414486212645e-01,-6.470503346906830711e-02,1.086305771671070008e-01,-4.233664932055245661e-02,1.185682685268223541e-01,6.513375802337963150e-02,5.277503501585734114e-03,-2.607560401806882089e-01,1.372102503098336923e-01,-2.649260760070430987e-01
8.097008169487619755e-02,1.639564859737610916e-02,-8.735123928034752017e-02,1.016778343810024604e-01,1.402033496049987782e-01,6.793732350206067860e-02,1.120932061592898737e-01,-3.607581838758759374e-01,7.665998551814003081e-02,-1.478280063015199042e-01
-6.414658508524656577e-02,8.064725043178895547e-02,2.169611831581732837e-03,-3.763544559882722740e-02,5.267697740655228472e-02,3.239910021413499597e-01,-3.307844362126356567e-03,-3.267167698083407457e-01,1.199038599233212959e-01,-1.475820568800529642e-01
1.582464723275683535e-02,1.332837593925524644e-01,1.477835532108259277e-02,-1.668012752418487066e-01,7.045372517559676806e-02,1.525970536006384659e-01,2.871243494506618699e-02,-2.140170669584434693e-01,1.580057140354794998e-01,-1.928373475028805906e-01
2.640830107269674307e-03,1.053886711090116640e-01,-1.031221421023291868e-01,-3.817796780571998394e-02,1.879399310525196876e-01,2.509541543517044282e-01,-1.345646135869475735e-02,-1.162697521200047185e-01,-2.050860797904956526e-02,-2.553886552547066646e-01
-9.428318073691109580e-02,9.344807236620690516e-02,-1.411684456481714645e-01,-1.428411861699549479e-01,2.869506780224880815e-01,2.105951744999841335e-01,1.123038989975320007e-01,-6.831358972561812903e-02,-9.110949174325848332e-02,-1.655819298622986102e-01
-9.687127316833586688e-02,1.105099550354023651e-03,-1.381646908710129906e-01,-8.463956581939742485e-02,1.251314851494177705e-01,3.335955917602114740e-01,-3.021549105270759233e-02,-1.863512320237168535e-02,-2.418716176323816580e-02,-6.711887058291897412e-02
-8.681694526141910118e-02,-9.396706835777524081e-02,-4.105050547982313364e-02,-1.671386855470622171e-02,1.542946765019684817e-04,2.206154886512745605e-01,-4.241421015601264805e-02,-4.796824542588685666e-03,8.359690089965922388e-02,-1.860726187511032442e-02
-2.645322980008743899e-02,-1.837430052580114187e-02,-3.000483261582678057e-02,-2.389129035608956141e-03,-2.889499053815912724e-02,4.095443319655236308e-02,4.143119216940809035e-02,-1.834421075160622659e-03,2.827699180315549135e-02,-2.711713578471978362e-03
-6.976948015469234578e-03,-5.112667822419321439e-03,-1.176448140659036405e-02,-1.439337384587824375e-04,-2.004438624346150885e-04,2.208587234693297919e-03,2.440635895028669608e-02,-6.178768363420423681e-06,-2.386477108907633909e-03,-2.381546233646859032e-05
0.000000000000000000e+00,0.000000000000000000e+00,0.000000000000000000e+00,0.000000000000000000e+00,0.000000000000000000e+00,0.000000000000000000e+00,0.000000000000000000e+00,0.000000000000000000e+00,0.000000000000000000e+00,0.000000000000000000e+00
0.000000000000000000e+00,0.000000000000000000e+00,0.000000000000000000e+00,0.000000000000000000e+00,0.000000000000000000e+00,0.000000000000000000e+00,0.000000000000000000e+00,0.000000000000000000e+00,0.000000000000000000e+00,0.000000000000000000e+00
-5.202512472383860175e-04,-2.034994547054649189e-02,-8.659519098725299707e-03,2.428613485143835821e-02,-8.910216638256477500e-04,-4.858591109375669757e-03,-1.389252066778202651e-03,1.594971027574921402e-02,-1.947972919776835279e-03,-1.619291550920996673e-03
-3.752960482017286825e-03,8.143090411311738538e-03,-9.351181686076263586e-03,1.446440521938451296e-01,-3.822179102337077555e-02,-1.086828138604936239e-01,-2.701130531932165874e-02,9.163530151756227315e-02,-3.372532259764290941e-02,-2.367706915379673427e-02
-3.226007672457240072e-02,2.535689698811909379e-02,1.249919276848498323e-01,1.570063062160005629e-01,-7.854963898585434756e-03,-2.377303314343706953e-01,1.503516894804713018e-02,6.459302281390456868e-02,-5.409471777277430338e-02,-5.504323282061769629e-02
-3.998521983375821418e-03,-4.502776564044129112e-03,5.041463051653212457e-02,1.491267059538148587e-01,6.756677394667209846e-02,-6.468285867296846847e-02,-1.605304534488244395e-01,2.043507889360211272e-01,-8.229263841081077557e-02,-1.554516502730159677e-01
4.082797506437976093e-02,-4.164593094978678856e-02,6.562407913913394231e-02,2.436417174849843381e-01,-4.306280845971874154e-03,-1.099951957423225407e-01,-2.382917646318165605e-01,3.215173531977797983e-01,-1.123195252356828100e-01,-1.650524274806969005e-01
2.587908085020991858e-02,-8.932282621898049446e-02,2.007112890811263706e-01,8.031344796431286182e-02,5.434750525782264642e-04,-1.221732805395588928e-01,-6.338447022968557443e-02,2.088806698681315022e-01,-9.394630073668931713e-02,-1.475010850914436622e-01
-5.580877110514032707e-02,-9.088686529374599699e-02,2.859089255936973079e-02,1.585142463618438857e-01,-7.543191376892818822e-02,1.516930387393965705e-02,-2.752914690600732905e-02,1.962820507248576596e-01,-9.495864915324872882e-03,-1.394039315308626681e-01
-1.612856542951421335e-01,-1.549250059624297793e-01,2.058632379448169514e-01,3.117611644784871183e-01,1.098854206445839532e-01,-1.529602288515144182e-01,-1.520898121150899007e-01,1.234994509527451434e-01,-3.550155630751527375e-02,-9.424701648894176498e-02
-4.443924405166114339e-02,-2.657185251869580989e-01,1.898254565411884864e-01,4.723659285345813696e-01,-1.387472333999181621e-02,-1.378300685225742617e-01,-2.126659410723314991e-01,1.857829452359626987e-01,1.521562571635808568e-02,-1.886614538545756115e-01
-6.610146448269238690e-04,-1.639763967495500852e-01,-7.284034345400025590e-02,1.746314422690530554e-01,-6.155229494199569718e-02,-1.038442903554892688e-01,-1.319860735527688400e-01,3.246283201098366655e-01,7.901585053937974779e-02,-4.341519921963808704e-02
-1.711489237645119343e-01,-1.640230816482069753e-01,-1.268895611223398723e-01,1.783992028542339958e-01,-1.163388677294141527e-01,-9.741022292050149911e-02,-1.393796361822292884e-01,2.836058043366441184e-01,3.827506553980125625e-01,-2.956536922168586171e-02
1.639042509376207324e-01,-2.919315261322892874e-01,-8.693551446285359419e-02,3.127483960740764513e-01,-1.523562550699712470e-01,-3.018643881289923558e-01,-1.729033819195770483e-01,3.975031470460942129e-02,2.733385668586817419e-01,2.162495371386953524e-01
5.958482196727284130e-02,-2.837800958758207037e-01,8.070650618704781811e-04,-2.343043597941375789e-02,-2.220425414348377868e-01,-1.108480973513636392e-01,-1.051624710912236610e-01,4.602063893291262475e-02,3.798750071542451034e-01,2.589761086163591686e-01
1.606662858783691403e-02,-2.530186472098531758e-01,-4.363528841840957906e-02,6.265966631538170961e-02,-2.756741741172072935e-01,-3.427781351474786242e-01,-4.457776508420591838e-02,1.223305838115012617e-01,4.830308552567030844e-01,2.755962760057307781e-01
1.224765954337304619e-01,-2.705330869844173036e-01,-2.206836094131977080e-02,1.154459372045688881e-01,-9.175929765650391035e-02,-3.119614847003418512e-01,-2.501555014734532234e-01,5.927958666866668669e-02,4.663127608530812651e-01,1.829628515959903223e-01
3.161924642801378776e-02,-2.865677860644755270e-01,-4.537050566402842100e-02,-4.944690761404733903e-02,-6.588435380615845216e-02,-1.037319192075684543e-01,-1.522285954179151968e-01,1.176980878618653081e-01,4.380474824584834614e-01,1.158652510258300350e-01
1.034560132338457061e-01,-8.534395842270366128e-02,-2.350304404141558834e-01,8.230263518230744590e-02,-4.916353026413558536e-02,8.197195643096788498e-02,-3.107481084012211348e-01,3.084942623999617408e-03,2.534424960793813519e-01,1.560279939517137393e-01
3.328639446075573605e-02,-1.226355526343310132e-01,-7.749522361994197472e-02,-1.560964262389298862e-01,4.328269325195155393e-02,2.110609643015962378e-01,-1.859191067081289450e-01,9.360572061413009390e-03,2.949597116553940856e-01,-4.980402652977881234e-02
6.530295053662221738e-02,2.578425621908518595e-02,-1.573496425339719340e-01,1.917945578752458524e-02,7.560752292916886330e-02,2.202022505070070080e-01,-1.878497526513495386e-01,-5.251616090427118494e-02,1.172615742988174226e-01,-1.256224541886318546e-01
1.738806984571528713e-01,3.973182446692451880e-02,-5.718388239496207531e-02,-9.300702211357370075e-02,-3.579798267315887662e-03,1.050226868347415021e-01,-7.647399626879262946e-02,2.508163352290223788e-02,3.515396105923945108e-02,-1.486261052963171181e-01
1.416203374131966286e-01,-2.209120004316566382e-02,-1.354511480923939748e-01,-1.385216725516205116e-01,2.327673362479867336e-01,2.350587645527940639e-01,-5.941561379717614361e-02,-9.900286442794259054e-03,-1.621073935877838726e-02,-2.278557779280488416e-01
-5.651082541646865881e-02,2.035137209018576115e-03,-3.634435622613201855e-01,-4.579162108265081264e-03,3.407824446173930988e-01,1.545494487334997114e-01,4.015853404129050841e-02,-1.355396273924596995e-01,2.070645063431812705e-01,-1.845168937658703823e-01
-2.107303983935892300e-01,-3.643537173832067655e-02,-2.621623924730828725e-01,-1.347982312563185958e-01,1.076981350298302775e-01,5.829181556628973970e-01,3.556591997507422415e-02,-5.918063275384344984e-02,1.264449272923634238e-01,-1.493201113450078332e-01
-2.232849320437078344e-01,-6.567246456715346292e-02,-3.410824175321693769e-02,-4.095986339427598599e-02,-4.561336128696119596e-02,3.182757275563669053e-01,6.735816889516882617e-04,-2.262892960031699305e-02,1.826809759587761928e-01,-6.936249255846194117e-02
-9.527321548367950754e-02,-9.029559372443358642e-03,-1.061869049672134468e-02,-4.394623476590106201e-03,-4.992424061032525034e-03,1.233836679354331639e-01,1.702655752864970506e-02,-8.013958697642790605e-03,1.966874015760108896e-02,-2.775649403357435124e-02
-1.939196666468645525e-02,-2.912590531405801365e-03,-3.434141007681382803e-03,-1.173262030731143625e-04,-1.109449657744523759e-03,1.400890916003140300e-02,3.474154255095520533e-02,-1.797300632549827290e-04,-2.075038401407580321e-02,-8.548635690645538113e-04
-6.018547341066486739e-07,-4.295973104671069777e-07,-8.027147660707309005e-07,-6.188805835008970112e-06,-1.268262404214082271e-06,-6.295792371193002911e-07,-5.251025742787807546e-07,2.051252846480550846e-05,-1.066703024755154490e-06,-8.999908578784899266e-06
-1.571796597107965644e-04,-1.136329499942702846e-03,-6.596797096890447652e-04,1.606223277598751650e-02,-7.627208973375559746e-04,-1.821408463703713719e-03,-1.930164672745435586e-05,-9.043307299770235539e-04,-2.870995100146049323e-03,-7.730287068753153093e-03
-4.213152151361491439e-03,-2.676731434022320069e-02,4.369222117219088986e-02,-1.006094962891401073e-02,-1.784862565202617905e-03,-2.029346594935226705e-02,-7.477092509511592058e-03,4.140805496348740761e-02,-5.626147628118309714e-03,-8.877291362994829335e-03
-9.078978029793285595e-03,-1.645539865639519470e-02,2.794109512701796472e-02,9.637654725974512115e-02,-2.230001138627341062e-02,-1.298001439659403622e-01,-4.680747858057263122e-02,1.715260387963634947e-01,-1.876801702518017881e-02,-5.263365353897175858e-02
-3.470525006578235178e-02,-1.274212001186215233e-03,2.112215896691416739e-01,1.911663817598471815e-01,7.759134643211662748e-03,-3.715324734636478166e-01,1.143125762580337636e-02,1.104110915112648528e-01,2.297799932402460818e-02,-1.474555190026786144e-01
4.214876637768035644e-03,-1.114830498358602984e-01,2.682622356243123674e-02,2.746688623189153522e-01,1.625062969919242040e-01,-4.674312414493680262e-02,-7.609803107248108711e-02,4.319104671903593873e-02,-1.312157845912377552e-02,-2.639615227176727585e-01
7.829472027992361027e-02,-2.024112929083880796e-01,1.387636307388974977e-01,1.889371484333008666e-01,1.213633487405471750e-01,-1.036893153444890942e-01,-1.864437889861025321e-01,2.092981559734573282e-01,-8.066494537993809666e-02,-1.634476615472095495e-01
-1.576481489896930724e-02,-1.002951673682458411e-01,5.873370955955601463e-02,1.403168067184651646e-01,4.563583650724789553e-02,-1.235339375678875112e-01,2.567555961586637236e-02,2.274873186017756510e-01,-3.317061223284177574e-02,-2.250846989349665761e-01
-1.050156971212048845e-01,-2.474567315177795546e-01,1.036789011822194101e-01,1.618470820915006991e-01,8.591707878833895057e-03,4.267827214555900556e-02,-1.134552918604596755e-01,8.055665507322774810e-02,2.112528705612671254e-01,-1.426777684331619334e-01
1.900334215583279751e-02,-1.793499832165674490e-01,3.944758372478397029e-02,2.658649661767251704e-01,-1.738856356607733356e-02,-1.275475013082202902e-01,-8.300896541706097309e-02,2.178762810203461187e-01,1.520138894229144597e-02,-1.500985485120530094e-01
6.872131814443343785e-04,-1.644817501663585202e-01,1.708148373288192676e-02,9.813314172269076152e-02,-7.871839141744085833e-02,-5.231647531079557101e-02,-1.243793111495360426e-01,1.970987550341913863e-01,1.401837618143660091e-01,-3.328842744144346055e-02
1.099496056792155785e-01,-2.342042637206875055e-01,1.196074806132785828e-01,4.925401796995759751e-02,2.068238587400365522e-02,-2.249188295222201706e-01,-4.060675880876402771e-02,1.519305766407387515e-01,1.429735399968072064e-02,3.400843127479736411e-02
-2.107746512713513758e-03,-5.253851219487448015e-02,-7.122838347955268157e-02,1.309451162325767082e-01,-1.919925358984923003e-01,-2.226331447270464559e-01,-1.480026694417875543e-01,6.679630306467169987e-02,4.326254844118910398e-02,4.474990245160299640e-01
1.021965823825111003e-01,-2.078846074702130897e-01,1.453173105157998801e-01,-7.874712952855400516e-02,-2.814085950478762421e-01,-3.836842296197831570e-01,-1.859169516100052377e-01,-4.146930705170757264e-02,2.406301220826497500e-01,6.909668053471794691e-01
4.465130789311130138e-02,-1.766244624405114150e-01,7.094047858877336465e-02,1.788373324159074629e-01,-2.994841357337211796e-01,-1.484509424292864976e-01,-6.728707539965936291e-02,-2.144548116542598359e-01,-4.654319213822689233e-02,6.584155008978733736e-01
-2.020352054180546766e-02,-3.733120137293647889e-01,-5.822027450990754915e-02,1.777002785318396449e-01,-3.303563610564354547e-01,-3.415304417977332307e-01,-1.761579394390353215e-01,3.125548796582041516e-02,3.807351269504538616e-01,7.100896576261687132e-01
4.487475315446433355e-02,-2.210056399910303448e-01,-4.806596270938550547e-02,1.605354369443547828e-03,-3.465873209743906003e-01,-5.246299128424642549e-02,-3.079649318763822419e-01,1.191037514237870167e-02,1.694454597678530794e-01,7.482509044012968236e-01
1.784754154028598272e-01,-2.671174502034515674e-01,-1.913728823939482571e-01,-2.456007737091748383e-02,-6.468533724417128983e-02,-4.680876326229228834e-02,-1.556459136010499289e-01,3.944656100334042320e-02,1.664715636241939078e-01,3.657968840454390858e-01
2.803122826159836767e-01,-1.981454907841811719e-01,-6.312454189132650495e-02,-1.586146077506294938e-01,-5.425571608058825379e-02,-9.236990803744586642e-02,-3.096621946725121588e-01,1.505033938417848494e-01,3.374725224180921135e-01,1.078842603408229212e-01
8.223772161383262336e-02,-8.388844210138740598e-02,-8.049215227185614607e-02,-5.167948273007995363e-02,4.607376213489404460e-02,3.207556107822485264e-02,-2.760250892683374091e-01,-1.236241964022715550e-02,2.889523840887509021e-01,5.510815709618550190e-02
1.714908677639851234e-02,5.611254103783549010e-03,-1.935371128342110447e-01,-8.459589319315917455e-02,5.460420572027105401e-02,1.736432559411783261e-01,-2.063529990828038285e-01,1.053564636595951121e-01,1.294298415061812257e-01,-1.308102597234313659e-03
-9.568593238209464544e-03,-7.427496757782645065e-02,-3.270536607902743004e-02,-3.468573013320717657e-01,3.722804762695246239e-02,2.652776470965520494e-01,-9.067830246687005880e-02,9.510155099731930350e-02,1.576566778916352052e-01,-1.179392918453466953e-03
-7.266713317221139279e-02,-9.389600944017731377e-02,7.999814143908952346e-02,-2.309159527708334880e-01,6.661183520524872892e-02,3.652573132449246640e-01,-1.244265668721684232e-01,9.097656339437908135e-02,5.394925405248000155e-02,-1.348874450807321101e-01
1.114951537358651046e-01,-1.017030910073404432e-01,-3.666122805739440160e-01,-2.370262139361457299e-01,2.075632562860137975e-01,4.362771157057505622e-01,-9.754947477060199601e-02,-4.616126831565034450e-02,2.164029297627805826e-01,-1.226861268867311811e-01
-1.571317829662872631e-02,-2.474225032033099958e-01,-2.836652110196216103e-01,-1.748244386933843764e-01,5.671494234155123604e-02,5.986107945621528259e-01,5.435140210143376421e-02,-6.431245311800751208e-02,2.027783939651829348e-01,-1.265177486393701256e-01
-1.924374720049005505e-01,-1.219444013520234876e-01,-4.074240327452163107e-02,-5.476856337978613931e-02,-5.721964638654070123e-02,5.699967653487619801e-01,-9.752558720347560828e-02,-2.839154339882583172e-02,1.186109469348402001e-01,-9.557809528352946560e-02
-7.327193104740319096e-02,-7.066166217679388864e-03,-1.364808121497047659e-02,-4.066182530340912461e-03,4.849534156350642639e-02,6.107932164655457963e-02,2.670634941830116356e-03,-7.364949941069348291e-03,3.048194587634699484e-02,-3.730993307677472892e-02
-4.693183335313881772e-03,-4.668399751089575243e-03,-3.006827393851553044e-03,-2.488507858704772590e-04,-1.675600930303202491e-03,7.866925431790315615e-03,1.877654363909070367e-02,-3.459215596041682449e-04,-1.060326434872971638e-02,-1.401420966118440900e-03
1.449569546125763046e-02,-3.470502461426970239e-06,-4.136418527834786725e-04,-2.722626981506786427e-05,-6.125217723966602888e-04,-1.097488104291922239e-05,-1.240704654274494898e-05,-1.053740335303529618e-02,-4.164864021211154009e-05,-2.836401142967928841e-03
-1.672897069464820573e-04,-9.369114793657449224e-04,2.281414668947733416e-03,-9.584046213571575934e-03,-5.115826859390128906e-03,-4.201036757892408235e-04,-3.873175677164217707e-05,3.246997944576203443e-02,-4.067097942853612445e-03,-1.442138648002147874e-02
6.132532662593314146e-05,-1.460241548675121626e-02,1.677078668877531042e-02,-2.060543539402612603e-02,1.063475106828004786e-02,-1.479719174907614433e-02,-6.406073583989872061e-03,6.847536245437493840e-02,-7.399660519291396087e-03,-3.213144880492169869e-02
4.449907291631717381e-03,-5.502665220538230373e-03,8.771175141633799285e-03,3.029334974193195404e-02,-1.878144011871609939e-02,-1.300194607835342686e-01,-3.697051202866916825e-02,2.955364167509759721e-01,1.873123648004661884e-02,-1.665080072547620860e-01
-5.907024094378902218e-02,-2.462081876346934248e-02,2.960877261345618572e-01,2.745768712463819705e-01,-1.572946859129427041e-02,-4.292331268028232172e-01,-1.992202088382118499e-02,1.662212313854249113e-01,2.125140737763387896e-02,-2.095615601588036725e-01
-3.017433892082440131e-02,-9.610070428304931522e-02,1.144414890714542249e-01,2.067994223656417219e-01,8.249881921515221650e-02,-2.321590701236227461e-01,-4.722116209000722792e-02,1.181773780261210355e-01,2.867183978281185458e-02,-1.449336730436766030e-01
-4.905466542640787159e-02,-1.945217980144905157e-01,7.753836267316045749e-02,7.274265707193688923e-02,5.459894534619885026e-02,-1.425326052391014398e-01,-7.247105903866096765e-02,1.672437394529803223e-01,1.398298188296263067e-01,-5.337339565524252399e-02
-6.525383231247754157e-02,-1.110045493869258743e-01,1.875837952564400612e-01,1.843855092430408127e-01,5.119155305982946852e-02,-3.046432784026755769e-01,-8.040777161349640934e-02,3.344380623156733012e-01,9.858548787520117485e-02,-2.948749760346087712e-01
8.299793645819507348e-02,-2.288738513435922828e-01,2.194840517403571362e-02,-5.010229718891251460e-02,-2.426563030053876125e-03,-1.139486515300088681e-01,-8.681278813368349667e-02,2.984458668534524239e-01,6.982768797889914170e-02,8.944254761669634055e-03
-4.870855773782127238e-03,-2.625806384773566871e-01,-2.723278323348488766e-02,-8.438991063860954572e-03,9.090600013532518231e-02,-6.199689134058022910e-02,-6.255999678763840555e-02,2.385767135013507068e-01,2.291132865890533055e-01,-1.309158435490254124e-01
-4.586003155030513728e-02,-1.071790289407956870e-01,1.162051851981856926e-01,-3.838684125233093880e-02,-3.686327249159458003e-02,-1.385038625197753392e-01,-1.278616176390023895e-01,5.647004166383555457e-02,3.096187797977366651e-01,1.236064773404632264e-02
-6.629300003677984776e-02,-2.277539220034258405e-01,-3.625002024467806339e-02,-5.392694000460181852e-02,3.439630690876367344e-03,2.693235854279879549e-02,-1.184505996424998625e-01,1.619058469500384012e-01,2.454208592292715374e-01,6.497578651900028091e-02
-6.989765089880722003e-03,-2.025148057675965341e-01,-5.598543646605268209e-02,-6.335945576529058987e-02,-1.558200429317822266e-01,4.079529051364158554e-02,-1.431147023306905408e-01,1.082028433749499668e-01,3.274794800428737496e-01,1.513065944198276891e-01
-5.549966911979760387e-02,-1.232049137276540612e-01,-3.895996376934419969e-02,7.985329083943970910e-03,-3.233153599214153018e-01,-1.304450536612036804e-01,-1.254816494735260801e-01,-1.249543990379695969e-02,3.239072873800211694e-01,4.775094331127723857e-01
1.081308262665608422e-01,-1.186452459791856734e-01,9.202736282088326558e-02,9.072301372342206349e-02,-3.929101544531756751e-01,-1.025870213069434295e-01,-2.466138731257665195e-01,9.887517581987281812e-02,4.889643432265161974e-03,4.661102728020685149e-01
9.112986773171187493e-02,-1.039898440284062059e-01,3.574560546877163236e-02,2.319103154854471327e-01,-2.857513779457123704e-01,-1.610537542321099358e-01,-2.349414469791220594e-01,1.197048968115060619e-01,4.455723861015412068e-02,2.626884990777598738e-01
2.699941915002877502e-01,-2.842567480611128961e-01,-6.444929114698714351e-03,1.845885564283280267e-01,-3.392222713415551927e-01,-1.672696384999305119e-01,-2.719858496625711664e-01,5.442950169850401670e-02,2.161865008089802753e-01,3.439806862437678192e-01
1.991473536686534096e-01,-4.048093646032768778e-02,-5.207466689870907800e-02,1.534123009714023211e-01,-2.088673621071957531e-01,-1.097455344760543128e-01,-3.361647101487057476e-01,1.161417967641328458e-01,1.771022269326864018e-01,1.015295317541177883e-01
1.728869657411844507e-01,-2.275309560724848856e-01,-1.810481347098725491e-01,1.405468917467841417e-01,-1.077788288574126757e-01,-7.575681186695029656e-02,-4.317433616816309105e-01,1.783953080974467753e-01,2.608805351247558413e-01,2.711483924781828980e-01
4.202895654948620580e-02,-2.009608572629523193e-01,5.875465639085243608e-02,1.637032119501930297e-02,-3.690101618266867362e-02,1.572880791976286399e-02,-2.652205200585122657e-01,-1.403229303704753121e-02,3.286398792726163420e-01,5.559206521344318280e-02
5.824835800280491610e-02,-2.358206695451999235e-01,1.557754335030700184e-03,1.828223979731671139e-02,6.587014081068320870e-02,2.632418888224502540e-01,-2.932056238168783135e-01,8.737454431550691070e-02,1.682175713941347350e-01,-1.337662041158494686e-01
1.182615687049169001e-01,-1.846282887346613610e-01,-8.044827440341667524e-02,-3.140966263390341379e-02,4.116555151901732379e-02,1.662266980499506330e-01,-1.944961397447739493e-01,-2.610359787204406725e-03,1.044284895941853114e-01,6.351041743588900501e-02
1.060050948156801981e-01,-1.328508050106572969e-01,-1.034550078533203604e-01,6.360679054907943109e-02,-1.077151139306014027e-01,1.696564358074586776e-01,-9.943084589274274465e-02,1.370668049646540099e-01,4.000814922749219849e-02,-7.289150267704362640e-02
1.680424223341167866e-01,-2.738440594721817112e-01,-3.737027258701453025e-02,-3.428449093105456758e-01,9.619684699999461741e-02,4.868902861252372150e-01,-2.218322985693161331e-01,4.785791113650864070e-02,1.568873795810348248e-01,-7.998330623783588000e-02
6.670409972694886502e-02,-3.174413339053562821e-01,-2.972547486542482797e-01,-2.143533516121498839e-01,1.160267909063201069e-01,6.984890903436865583e-01,-2.552901362419648934e-01,-1.306382694119999077e-01,4.149387704126835108e-01,-8.118091156391657459e-02
-2.252068654102682976e-01,-1.448051721522390922e-01,-1.197761663704978163e-01,-6.639181563539611752e-02,6.946533088067093076e-02,6.918171028181840931e-01,-1.925055988885200631e-01,-8.209728373302038751e-02,1.579460194695712361e-01,-8.844555097848059988e-02
-1.102467620588275660e-01,-1.106147024332981496e-02,-1.555701779309205668e-02,-6.471419798060219428e-03,-3.029208163916057364e-02,2.041395295479541683e-01,-8.656535268692000518e-02,-1.575144636253673208e-02,1.133970259667550912e-01,-4.159100493278260896e-02
-1.348881293149875246e-02,-2.212854642784453478e-03,-3.222749341769172438e-03,-1.659562409368051019e-04,-4.268128827555720504e-03,2.823807801264855907e-02,-1.079015680518419229e-02,-5.311446459923257514e-03,1.460536996330141953e-02,-3.383342726297606379e-03
-1.094054835404240540e-05,-6.643369665406731169e-05,-1.055312291863811835e-05,-1.725563970428406957e-04,-1.085206238065554050e-03,-6.891050739572415317e-05,-1.272481030303298888e-05,3.091338610844191533e-03,-4.675166281912106122e-05,-1.617261627291171743e-03
-1.278708071420274570e-04,-5.386721293038098692e-03,-1.177285790262209324e-03,-3.853578181042602649e-03,-4.224644021700286155e-03,-6.024725265353826241e-04,-9.879284124217483688e-05,3.821933352772354658e-02,-4.720686442378827993e-03,-1.802728162438192033e-02
7.329615481109993252e-03,-9.562934822127980641e-03,-4.240276242406614687e-02,1.922716812368625156e-02,2.179477879880030358e-03,-5.627551417528164554e-03,-9.993065695887558275e-03,9.851038946870724344e-02,-1.517325479474418599e-02,-4.448708179902931964e-02
2.017950596371743607e-02,-8.085767808634056197e-03,9.587697372622402611e-03,1.095862047332454015e-01,-1.012505290715162154e-01,-1.417241183982613784e-01,-4.576727916103623395e-02,2.758394142087230994e-01,1.347434268544322501e-02,-1.318394705243027543e-01
-5.689147864430862955e-02,-5.202997442106827714e-02,2.156596414794397232e-01,2.925847395602948486e-01,-1.344761575911428420e-01,-2.141531792485862895e-01,-1.942685467113297246e-02,1.763863081348496786e-01,-2.361876663089241754e-02,-1.840342779674505602e-01
-4.466845473153595314e-02,-1.984451804422855126e-01,3.301543702840489258e-01,1.285634242746133415e-01,-1.097949219177010889e-02,-2.327437115036368187e-01,-9.475934866416679814e-02,1.384472480670189132e-01,5.576586491785948119e-02,-7.133472001014810882e-02
-9.997891285942298034e-02,-1.885233151393517215e-01,-1.255306101961514986e-01,1.326055504868540735e-01,-2.561856244749180500e-02,-4.303284488780972222e-02,-1.213158610243263019e-01,1.586989371535380555e-01,2.152370259621104176e-01,9.745859295205239192e-02
-8.235280078921565494e-02,-7.311275936585281965e-02,-2.944060754389709461e-02,1.134005451976326656e-01,-2.019208809535010321e-02,-9.790570702710479911e-02,-1.557515185741148618e-02,2.269467852816156872e-01,5.024738336457879040e-02,-7.201559916499651604e-02
-1.173417993434832246e-01,-1.723492777604563597e-01,-9.947073838504993937e-02,9.091077657368640264e-02,2.883576165143399844e-02,4.660709270269254578e-02,-5.173920252249691182e-02,8.474568634077998819e-02,1.499651355867253344e-01,3.983656515616835342e-02
1.209117422153212044e-02,-2.022940430391746702e-01,-5.127898876600878869e-02,8.577973594877756625e-02,-3.500234401859994571e-02,-6.927812939637123524e-02,-8.944973991204285824e-02,5.128758124301848603e-02,2.203820506882563368e-01,7.776270303061139089e-02
1.535329086529096110e-01,-1.003329098452871992e-01,3.538780198038502661e-02,-7.550337923661090689e-02,-1.406331998671515315e-01,-1.947479458244472106e-02,-1.993335503567397748e-01,-4.150430976112209208e-02,1.321034801807711712e-01,2.557579528352912912e-01
-5.467251975584556944e-02,-1.726888818790049129e-01,-1.899479869497437967e-01,-3.218067482112420552e-01,-1.833426328964572749e-02,2.319817430833512883e-01,-1.491605973558694787e-01,1.393141267961243157e-01,2.937050143799738167e-01,2.416101131819009262e-01
3.719428150444317044e-02,-2.888632510652481833e-01,-1.251277452426590997e-01,-8.544037404848546513e-02,-1.209961222203509296e-01,2.169948402234108537e-02,-8.730620940634876981e-02,2.389240582976870364e-01,1.174843250652340826e-01,2.924315530933872531e-01
1.592638642122518877e-01,-1.485151840074291629e-01,9.326186596094934028e-03,1.599012840040237374e-02,-7.510255776303033370e-02,-1.543193552530663371e-01,-1.917160878967313076e-01,7.412540175784905483e-02,1.364022292852389295e-01,1.745453746684199059e-01
-9.591671036810667239e-02,-1.056920334122471161e-01,1.500598022515186453e-02,1.811127562177035355e-01,-4.297725825939010535e-01,-2.583982215337607413e-01,2.094951166983120144e-02,3.960277282004750488e-01,1.052690473048816244e-01,1.714145242899736965e-01
-3.933580019764218449e-01,1.759667180536854392e-01,1.639778529857313649e-01,3.590913045698549966e-01,-2.058087838334038133e-01,-3.218384166555108283e-01,-2.249375518390044348e-01,1.660293897553882236e-01,6.127657249025542791e-02,2.196009164494245602e-01
-5.154758958212378450e-02,-8.143281288806516072e-04,4.724073723348455600e-02,2.657936927699338092e-01,-7.285030947452153516e-02,-3.820009241347207540e-01,-2.369982390429928865e-01,1.343936356765716988e-01,1.941846859956835591e-01,1.025986386875625545e-01
5.316725237509230956e-02,-1.537704179156916817e-01,1.986803737625057742e-02,1.845131141286259491e-01,-1.298174335876206842e-01,-3.067295841091940423e-01,-3.981440239903264455e-01,3.522433499137527235e-01,2.536980662161937849e-01,1.249716395929170998e-01
1.436634864118229438e-01,-2.649961017858689094e-01,-1.141848822308856246e-02,3.863336373135395352e-02,3.401553035704740074e-02,-7.438176765712871397e-02,-4.020997814692350847e-01,7.413824378333581933e-02,2.917290852637746679e-01,1.707164295879858851e-01
1.739541209412618916e-01,-2.996662100066791456e-01,-3.040457527289577855e-02,1.096530402432847051e-01,-1.814017460055548231e-02,-1.267972040078274298e-01,-3.828984821253146320e-01,6.563797828766190778e-02,3.564061956925022590e-01,1.522553108485601159e-01
8.440302986516098893e-02,-2.470169499291563764e-01,-1.759857957968380751e-02,1.203412185603927043e-01,-1.810958657909218783e-02,-1.155812430589634038e-01,-2.115031529954576606e-01,4.031288818045342115e-02,2.653420968218236919e-01,9.941027871452387532e-02
1.028948103291116821e-02,-2.057784818543549332e-01,-3.504886863190263824e-02,8.681245325043475403e-03,-3.119015188583632026e-02,2.026658189059295789e-01,-1.520157586189348764e-01,9.337358836457514133e-02,2.480349828671946089e-01,-1.390118555046238324e-01
3.303462243146094296e-02,-1.764093262208461244e-01,-9.733236436601733210e-02,1.339538803178109694e-01,-7.060780683331012442e-02,1.241369401851396964e-01,-2.182701248745890221e-01,1.136718943644703383e-01,1.905755657458817198e-01,-3.275328074999839245e-02
1.530007545830701643e-01,-2.894357977294107487e-01,-2.700345699551610565e-02,-1.457134855952273156e-01,8.303027860450744313e-02,3.376339470590229985e-01,-1.942215547940184805e-01,-4.056720634406151688e-02,2.185375207411290877e-01,-9.526099952949602934e-02
1.933765709268936428e-01,-2.023161514596105437e-01,-2.243693675856338332e-01,-2.518024677962282243e-01,-1.898014942036593267e-01,8.393736425377708033e-01,-2.520729821250081715e-01,-6.595317539809492091e-02,2.302635115874342164e-01,-7.669808648386589045e-02
-1.846728907679433263e-01,-9.809443785550009398e-02,-9.810977762161793292e-02,-5.843990671036623785e-02,-1.552758080280319530e-01,8.068694869304496864e-01,-2.477973559128188730e-01,-4.847131348125063161e-02,1.960057644903844820e-01,-1.120137610433042524e-01
-8.976021128857718245e-02,-7.640827187897825112e-03,-1.974645736862689835e-02,-8.484933809596197432e-03,-3.947757774079450194e-02,1.625589368794093659e-01,-1.018097375395849713e-01,2.723731165723684410e-03,1.518836402333724189e-01,-5.024656334342816888e-02
-3.641715276072258600e-03,-1.203021871747385948e-03,-7.643513698621320516e-04,-2.444877997713019654e-04,-5.761755128094092106e-03,1.432894527416353134e-02,-6.751902938194056028e-03,2.246128482651951058e-02,-1.497699461145631135e-02,-3.446001105485477743e-03
-1.239347762966887149e-05,-7.697082084412608578e-05,-1.173868397737953572e-05,-1.963355059047333716e-04,-1.261296116140051644e-03,-8.014992853419723859e-05,-1.443498794868211963e-05,3.582951860064136247e-03,-5.372062779525821672e-05,-1.875911711290030853e-03
-1.706403821659897239e-04,6.295711074666180632e-04,-1.098809894489607020e-03,-7.562864335020668197e-04,-3.128670131970966769e-03,-7.072988923772894438e-04,-9.705368933661497803e-05,2.557776951832875165e-02,-2.249598922116852282e-03,-1.799898227983590462e-02
3.695789849421905054e-02,-5.021455749443327031e-03,-3.255752080347325966e-02,-5.667170885635623018e-04,-4.409174493328265471e-02,-8.113492177300691416e-03,-3.126839416963239637e-02,1.515643806907471247e-01,-1.015383989943940621e-02,-5.674911436383050373e-02
2.292754215101888357e-02,-4.625987918283214900e-02,5.190620111011399335e-02,1.942796607649011909e-01,-1.086096087368801227e-01,-1.215331606875264536e-01,-6.256868800309364764e-02,2.447107160015870864e-01,-4.227280475340446098e-02,-1.325799786638841293e-01
-3.069461864550919461e-02,-3.759312696078744021e-02,-1.571684262740704122e-02,1.433275732943567748e-01,-5.403537757041143585e-02,-6.565890020564112139e-02,-5.123402302658835311e-02,1.905948530704730526e-01,1.127555608638024093e-01,-1.917450981922872999e-01
5.500241606795529259e-02,-1.664693794402486160e-01,2.636648698952990810e-01,-9.868227551972304223e-02,-1.122521202602217161e-01,-1.064260643514465671e-01,-8.267304540058438567e-02,1.855214365389283859e-01,-4.251925459240148142e-02,1.048334170624436457e-01
-5.681090124634767535e-02,-2.144222905438947502e-01,3.005627621855211373e-01,9.483676447737558746e-02,-6.669227108721494102e-02,-5.345605281559685090e-02,-1.050626850282938424e-01,8.181599539368089591e-02,3.682610203821484653e-03,1.554606846094746045e-02
-8.698611018121389649e-02,-2.235402529086640833e-01,6.212535237324665928e-03,2.271925575424483743e-02,-2.675999860363297359e-02,9.713957010971870087e-02,7.206328169255502014e-02,6.643988268922793039e-02,9.830311159402960186e-02,-2.559127538359048243e-02
-9.742980994880315326e-02,-1.521873865128673398e-01,9.594757021332089852e-02,-8.644620175247320557e-03,-1.851820854872669730e-03,4.550067295726950567e-02,4.027709166440797406e-02,-1.571608243590281728e-01,1.098535300749450411e-01,1.256955969408752316e-01
6.862056878639782864e-02,-2.004011117055766455e-01,-3.937471273060078047e-02,-3.094942592761001920e-01,4.377127415719873210e-02,2.196703670081265047e-01,-1.496437293739047159e-01,3.571890834844559243e-02,2.467622030966749036e-01,8.437049168933832832e-02
-3.951228463285048204e-02,-7.534235540248883367e-02,-8.407348597436312132e-02,-2.521520201230538216e-01,-1.571642170640040817e-02,1.027282370491765656e-01,-9.154826132891956403e-02,-1.305604472324541354e-01,3.494611132792950214e-01,2.367159260720587965e-01
1.304371962542554553e-01,-2.644855522927328385e-03,-9.845585547054366837e-02,-1.669519166679639954e-01,-2.072869607015196975e-03,1.566164991354816044e-02,-1.750420503346052092e-01,-2.555431420424387756e-01,3.436668686394827033e-01,2.109449748382065393e-01
2.463508964390800221e-02,-6.976250932898309109e-02,-1.232056188040861755e-01,-1.715181163806265563e-01,9.352476940366528935e-02,1.860025788335571417e-01,-1.926518443487577059e-01,-2.131904218249315308e-01,3.761660973815821873e-01,8.999997542467245981e-02
-4.336542676295417065e-02,6.536922567584162180e-02,-2.382736143680772023e-01,1.180877950509186119e-01,-2.238814704199992844e-01,1.159134684225114342e-01,-3.388186097339319913e-02,1.339886725976481285e-01,2.459645199514552405e-01,-1.399213091739514025e-01
-4.360402758703708914e-02,1.656986252364787970e-01,-1.885434756428813405e-02,1.490901789498980390e-01,-3.737183383316655672e-01,-1.521303003936832089e-03,-1.737467333145112092e-01,7.396820539587660448e-02,1.904381083858877055e-01,3.224963183329707800e-02
-2.541068903651928501e-01,3.672284672464068978e-01,8.912757782760119193e-03,9.247834369997540160e-02,-8.583269108757689281e-02,-6.100340243137721691e-02,-1.896729087322661378e-01,1.336486462739210346e-01,3.744756488973080555e-02,-4.909988727638261302e-02
-1.077846335912321929e-01,-1.801600129219712437e-02,5.379569215851360067e-03,1.497271636187066657e-01,-1.904776233589765000e-01,-2.249698945557544183e-01,-1.417667680965726540e-01,3.715807830052432204e-01,3.650145969800547285e-02,1.198259453569248539e-01
8.447556510984879918e-02,-8.212490083270669594e-02,2.317128057884525194e-01,9.868483006642923827e-02,1.002408763923526291e-02,-4.127739449851034470e-01,-2.971385156377141512e-01,2.171085256687015630e-01,1.818120554498391384e-01,-3.178050826698194942e-02
3.843674330306143944e-02,-2.871880706495849034e-01,3.683636960772029151e-02,2.661794674028868449e-02,4.621124948675632733e-03,-2.645139273288762971e-01,-2.451745058396350430e-01,1.962738368219745511e-01,3.865489524571200652e-01,1.075415299392547402e-01
-7.859875593192712506e-02,-1.812035345819303367e-01,-9.882154505317419790e-02,-5.748312660792711561e-03,1.790350223718216796e-02,-2.798956660435686361e-01,-2.290213534185752409e-01,1.620115379734345662e-01,4.460218668493659000e-01,2.473522606299871918e-01
2.762245775715489390e-02,-3.164849390098177229e-01,1.016343243409888880e-02,1.975273908439431278e-02,-3.452318852493412721e-02,-1.932869287557687776e-01,-1.876234019143084852e-01,2.074467556324319228e-01,3.676963515868523769e-01,9.923672170989679409e-02
1.212669705048313867e-01,-1.421404298353924345e-01,-1.066498921716539650e-01,-1.966010840129233869e-02,-5.105978972203967237e-03,-1.332380127355341226e-02,-2.314281451789574340e-01,1.655268052836753601e-01,2.634826194278793166e-01,-3.196803938333320910e-02
1.656646239725229897e-01,-1.904962049325502060e-01,-8.828894890382875393e-02,6.047764970167035514e-02,-6.067812851048411116e-02,4.082853130635653166e-02,-2.285607117813021338e-01,1.336041469015828709e-01,2.388387681518214511e-01,-7.138972590578941679e-02
2.810363773397555609e-01,-2.406917588021953713e-01,-4.606660316338908462e-02,-6.352840295927119837e-03,-2.937123018205830549e-01,3.633230427697151654e-01,-7.645760875519584665e-02,-1.704783885047512493e-01,2.179522764739294516e-01,-2.855219524135751280e-02
1.392756232305196740e-01,-1.810130634086684898e-01,-2.011298615808863877e-01,-1.763891037338394807e-01,-1.672508209819540403e-01,1.001392814157574529e+00,-1.358182314614694575e-01,-1.497560729976689098e-01,2.172411332592694144e-02,-1.510353965495337680e-01
-1.937281996089048886e-01,-4.998554143251410925e-02,-8.574073149893907120e-02,-3.382396759005837361e-02,-7.554886016023115713e-02,9.348394730802808139e-01,-2.936541173540088145e-01,-4.060105289912913779e-02,-7.775039196866891100e-02,-8.400661056782536551e-02
-9.799310434730605646e-02,-2.005982718390359604e-02,-1.657767414510093879e-02,-4.047046440904365425e-03,-3.150848570108816249e-02,2.343348641174651803e-01,-7.825043540111416285e-02,2.093316671863815464e-03,5.067643872923444787e-02,-3.866804629914575436e-02
-6.454793796331608630e-04,7.441076870668782541e-04,-7.629717356599936265e-04,-1.399979932963638291e-04,-2.184513693778632106e-03,5.404590940271666866e-03,-5.178823371581997743e-03,4.938187919121293963e-03,4.026289234025821027e-03,-6.201389606535500504e-03
-2.148046399595768461e-05,-1.430003100267076783e-05,-2.285638205789678666e-05,-1.233231731629845734e-04,-1.583442421336745884e-04,-7.786252067125419335e-05,-8.414631248474879424e-06,1.074207826676614082e-03,-4.185297927390535907e-05,-6.057734031297996044e-04
8.953563461292161907e-03,-2.023439897277117168e-04,-5.371587758745932336e-04,-1.047175687394536056e-03,-1.572392705342349692e-02,-7.337193529761959661e-03,-4.476468010640736388e-04,6.659687523505788964e-02,-2.132203957857966604e-03,-4.812278890124573744e-02
-1.385720840027194079e-03,-6.036128209815598685e-04,-7.809853629311734949e-03,3.464252705286142552e-03,-8.244034960439849957e-02,-1.500328359518049784e-02,-1.090533117217110885e-03,2.523458822807374546e-01,-6.452930991786932913e-03,-1.410238503871205917e-01
-2.101155433311247510e-03,-3.216631259194712572e-02,9.756445104023951653e-03,2.005045704007813734e-01,-9.385030494203339124e-02,-1.162615508727986441e-01,-4.583139185458882242e-02,2.726481485350368272e-01,-5.500781531658049950e-02,-1.376906330285833646e-01
-8.893128921893703187e-02,-1.077966054215132030e-02,-4.523003817599777210e-02,1.100125837838910325e-01,-1.850622100943109249e-01,8.607857078105227155e-03,-6.685521541192596638e-03,2.919230007110170111e-01,2.828473695752727404e-02,-1.021394589579495416e-01
-8.134307325569607727e-02,-7.271488728882249952e-02,4.666821213394138634e-02,-1.858791690471629510e-01,-1.110499001940610034e-02,-5.224012138779002279e-02,5.044662014380267567e-02,5.409222531837597908e-02,6.062806451781360684e-02,1.914471188849443672e-01
-1.817558718235001139e-03,-1.608073215891587526e-01,2.991222724617882689e-02,-4.633167491894345236e-02,4.712603963397331980e-02,-3.781757444630607506e-02,-1.125425380523762710e-02,6.608549691163183304e-02,5.595697707389107184e-02,5.894764261220676593e-02
-4.978683949621474231e-02,-2.142308803347204305e-01,-5.116891494815677122e-02,-3.203313667089756622e-01,-4.926714531686375576e-02,4.038134661619481591e-02,1.567665772177972705e-01,2.835592002764049380e-02,3.258384161918294053e-01,1.334428867514667882e-01
6.534186899095284495e-02,-1.892452721888408240e-01,-1.945215610781661497e-01,-1.181703647735459772e-01,1.347737959758403548e-01,-6.032426039837119475e-02,-1.191122361717165089e-02,-6.660663456860178855e-02,9.586423930299806107e-02,3.447994123549059098e-01
-1.197687784998291149e-01,-1.458904584737982235e-01,-3.581022208240959293e-01,-2.299775400931225733e-01,2.171099709364560371e-01,-4.716317219856134418e-02,1.355560176268648109e-01,-5.890555770919848888e-02,2.828389991789454494e-01,3.243027400563393003e-01
-1.075443074429045659e-01,-1.020970502666166679e-01,-4.901654617949615655e-01,-2.173627759413903626e-01,2.338384329620141755e-01,6.656777150424306178e-02,-4.255926799772125416e-03,-3.347754244811188690e-02,2.758357550283107029e-01,3.786611051991877752e-01
-2.218644062450201779e-02,-8.319408537900689626e-02,-3.108188003348990036e-01,-1.455275895036159672e-01,1.443979001791029781e-01,2.326250426698025231e-01,-2.671536501625541016e-01,-7.508269622605331928e-02,2.244906689098154495e-01,3.024496504719101364e-01
-3.701104779786079657e-01,-1.979150916088756318e-01,-3.927893655553968411e-01,-1.774493664357828793e-01,3.599083360050570057e-01,3.083260592621352436e-01,9.372324638675365305e-02,-1.715498926215333064e-01,3.412861939426570235e-01,2.065703586035961825e-01
-1.764669482835885539e-01,6.703170577045965139e-02,-5.789233308399309719e-01,2.191788546398493881e-02,-3.315971074859343504e-01,3.554488240588852266e-01,1.266244165630159568e-01,-2.023132270157134566e-02,3.007847280304347670e-01,2.354111494242446256e-01
-2.595304035268273246e-01,3.500963613502293126e-01,-3.201023327481944958e-01,9.472574337801280275e-02,-4.693478473990467803e-01,4.627393455849185960e-02,-9.069572471929646107e-02,1.842774951211372525e-01,3.593395465440358261e-01,1.049632274414606797e-01
-4.032977355642203277e-01,3.223179914253921363e-01,-1.623151957404199985e-01,1.675712493971658890e-01,-1.508146303085901134e-03,-4.881749103043809407e-02,-3.371332063083153918e-01,6.961484459290097349e-02,1.438780352290977560e-01,2.496896543019231918e-01
-3.664571359682160523e-01,-1.151540575449004483e-01,-1.125278475786059690e-01,1.599417085293340299e-02,2.511455678751788323e-01,-5.820950132887879602e-02,-1.421191519813399806e-01,2.710884663518390858e-01,1.669563962102047494e-01,8.928309311178488084e-02
3.244550098009411909e-02,-1.974261261567529235e-01,-2.526409354063338109e-01,5.673065128347503511e-02,1.349675628993790288e-01,-1.640832404097860853e-01,-3.582597509396222013e-01,2.424828356861429557e-01,2.914262186327528648e-01,2.143572834306526897e-01
-2.008382177619886244e-01,-8.697084105457288106e-02,8.338550043749179755e-03,-1.135033344762072759e-02,-5.904216025147702301e-02,-2.037536545422000411e-01,-2.683385690267287016e-01,4.014596133263994560e-01,2.327885459516202959e-01,1.877070667628188416e-01
-7.117129311961784000e-02,-1.596116583238432474e-01,1.892867423320436504e-01,2.251548058130165529e-03,-7.980697713217443923e-02,-2.638319121439334780e-01,-5.196874952744444387e-02,2.220659082552731492e-02,2.062233947614755258e-01,2.064223142698348723e-01
7.599358533138640681e-02,-1.688816588099247840e-01,-1.239783757216375432e-01,1.123296280560149157e-01,-1.220955714970171635e-01,-4.165704882767406469e-01,-1.442895833798386873e-01,2.478394004495365344e-01,1.366032555683744376e-01,4.030498082798481541e-01
3.081387420695300139e-01,-1.518895024566174479e-01,-3.722158369100279224e-02,-6.832458575538376266e-02,-1.256599772861572151e-01,-3.068311156621514324e-01,-2.598297228539888856e-02,2.389501603119770223e-01,9.599396910177354636e-02,7.282686565343417240e-02
2.425480074818695542e-01,-1.669976114280826984e-01,-9.338769119584783285e-03,6.305433124686458946e-02,-1.268019550676773577e-01,-3.488282194961969118e-01,-8.450927913221401022e-02,1.589405770313501165e-01,1.566288346514591590e-01,1.153040838322113293e-01
2.166169007106149291e-01,-1.272499482308538932e-01,-8.833088170978621589e-02,-9.354609203633530712e-02,-3.194750089500584811e-01,1.460807262355676983e-01,1.662389886633132974e-01,-1.505855286626727740e-01,2.741516622700390093e-01,-2.390081828982753773e-02
1.341858268720341751e-01,-1.208011498103388204e-01,-2.385935944922388738e-02,-1.407086849847373200e-01,-2.297583137063832492e-01,5.730555779350799961e-01,-2.489066407710699425e-02,-1.766205313969736457e-01,1.412913514872888576e-01,-1.318940528696398995e-01
-1.244440683802224834e-01,-4.444114361800762664e-02,5.638487990221182494e-02,-1.973867396960936674e-02,-9.001894126338964852e-02,6.710670565438535684e-01,-2.522704360828994519e-01,-5.477175136526703236e-02,-6.150306934744757120e-02,-8.026385241922301406e-02
-8.541141363617733850e-02,-2.287360340689950991e-02,-8.772157647176502537e-03,-2.639092321380668606e-03,-1.574207819418553533e-02,1.869747724222714791e-01,-1.636665251789635178e-01,-4.371523915196787700e-03,1.456456919178188425e-01,-2.914407004011127997e-02
-4.901646519430603735e-04,2.441500858229303690e-03,-8.824882341605999928e-05,-1.132905687964434792e-04,-5.833039325701922613e-04,3.942678486685557114e-03,-1.437128564357359429e-03,3.211852801764255531e-03,-5.355406476445414427e-03,-1.528489129150597831e-03
-5.731443491781666766e-06,-2.311680572862966135e-06,-1.363262137446228301e-05,-6.511950330255776359e-05,-9.328172392922707418e-06,-1.573280226205788740e-05,-3.162310458971286135e-06,9.139543505178203062e-04,-2.004315451652716830e-05,-7.788926621456754166e-04
-1.404326534098383479e-04,-3.492549290327948814e-04,-2.770608992297870208e-04,-3.811917299537766288e-03,-2.559205595898037672e-02,-1.100351453406005729e-02,-4.210755624425928010e-04,7.692254078924741501e-02,-1.144941698398939172e-03,-3.418228725415533437e-02
-1.203039891494412294e-03,-1.419982489172906363e-03,-1.174647067724404661e-03,-7.814070263831627769e-03,-9.616218159226623541e-02,-1.447852139072420760e-02,-9.755104725000430686e-04,2.607966918019269387e-01,-4.473497456554582224e-03,-1.330952411776584465e-01
-6.992080895902116726e-03,-4.569078453159002365e-03,-5.527699359611652069e-02,5.137627464096298363e-02,-1.967734269417057980e-01,-1.736357990254623618e-02,-3.267162173595702240e-02,4.237984230723116919e-01,-3.047016065722772324e-02,-1.310577555306609021e-01
-4.095156469355485523e-02,3.532884404435877174e-02,-5.770759357265922013e-02,-2.840502331002578776e-02,-2.360435419010174507e-01,2.403114788574061897e-02,-5.340943230859356017e-02,3.102242440606055029e-01,-5.803173711799076290e-02,1.049646569131369445e-01
-4.782854243884393508e-02,-4.556380958574918205e-02,-2.163371686453500198e-01,-1.456483228169631605e-01,-7.757222001951637191e-02,1.529588916459473195e-02,5.017589136924011789e-02,6.238067401990626815e-02,1.719973758716608903e-01,2.331002330810205969e-01
1.646414240807992091e-01,-4.721015292993647333e-02,-3.839970720354451417e-01,-2.263985572241923316e-01,5.577239189657891977e-02,4.142239918308425473e-02,1.325968138843018895e-01,-2.618952374817871270e-02,3.310800516174618874e-02,2.562542717312422114e-01
1.869223364910622617e-02,-7.128584794385897649e-02,-5.158147849178498223e-01,-1.279459175547213723e-01,1.259099222645484462e-01,-7.226495871091732914e-02,2.173741848481773320e-01,5.595626671280428538e-02,1.600155588536228968e-01,2.093633427990886919e-01
-5.344996720576917874e-03,-1.147798395932412285e-01,-3.381563368419095994e-01,-1.217080195292247619e-01,2.505158841572386885e-01,-1.619482504687844993e-01,1.432227172739209964e-01,1.798810321911158416e-01,-1.129740366322594218e-02,1.796152131946852915e-01
1.290346045706295894e-02,-8.413853645950400417e-02,-3.152200841485546245e-01,-7.170367525067937453e-02,1.449818916374999989e-01,-2.588367896457380649e-02,3.103053100103081788e-02,-2.254680442120128858e-01,1.325123180948743762e-01,4.009858178448568733e-01
6.847103206767590766e-02,-2.255101167827256725e-01,-2.792485238004503434e-01,8.600982555459314727e-02,2.398285572216052874e-01,1.771433188460677932e-01,-3.004746903704707747e-02,-2.758592344109421779e-01,-4.290219274018081813e-02,2.821148030814039087e-01
-6.570010236580393903e-02,-2.382579534785114750e-01,-3.928891229483683634e-01,-1.584225717967171487e-01,2.415703886052349980e-01,1.498681661627196404e-01,1.956412149249018295e-01,-1.585297444085927154e-01,1.229065191444943667e-01,3.038132061606410028e-01
2.256976937503951328e-02,-1.676733860652435404e-01,-3.011175942114102666e-01,3.701185549142725628e-02,3.218974505064341463e-01,2.323929338781467457e-01,1.029024214643526614e-01,-4.526062466229170411e-01,2.339498068843328671e-01,-2.932701070016219269e-02
1.731232459402229709e-02,3.327043137659187882e-02,-1.388485810808600396e-01,-3.425544141775820062e-02,4.531023810299100729e-02,2.716260798964850731e-01,8.761176529227879262e-02,-6.289846676409002191e-01,3.198562676248464243e-01,2.710158325230004051e-02
-3.199113087394527266e-01,4.422040445669969122e-01,-1.264831415236742918e-01,3.999143366410237155e-01,-3.651236290574511600e-01,1.015806850281001372e-01,-1.280521427404913426e-01,-2.019782827993001906e-01,-3.695441790830579498e-02,2.348038565325547278e-01
-3.993317817312478923e-01,2.473781172697347153e-01,-2.960575098804530958e-01,2.250884047957869005e-01,1.839541445474145165e-02,2.387544617351407550e-01,-2.152831927209805651e-01,1.594096701794108784e-01,-7.911441181847959914e-02,1.007608277163486860e-01
-3.873922679581857098e-01,-1.556974877456549465e-02,-1.095717467489167596e-01,3.700956152857382692e-02,1.645789887326328804e-01,-8.078587524824890065e-02,-4.913969650354839402e-02,3.288791556320144194e-01,1.355909187880824929e-01,-2.359928944784082591e-02
-1.180997357355849514e-01,-4.257120506234471358e-02,-6.245266097837859354e-02,-7.754202831436025900e-02,4.936652599085090271e-03,-2.569091077851990979e-01,-7.259115021537568269e-02,3.124815851232571884e-01,3.183886140409148968e-01,-5.640963672012546878e-03
-1.208304842676750646e-01,-2.112153975349092064e-02,-1.909040699833012278e-01,5.725943638729293766e-02,-9.051857368585072838e-02,-1.260631253853175815e-01,-1.714458505586360648e-01,2.548841655550482255e-01,1.681481940253371221e-01,2.405918476665942773e-01
2.612202824843909768e-02,-1.134586006692149124e-01,1.067895550467968940e-01,-1.338949380414825308e-01,1.166571401490335280e-01,-3.397023027403441309e-01,-2.102441371934687386e-01,-1.881574895846818349e-02,2.937586079347814239e-01,2.727883962239264770e-01
6.510973716294828073e-02,-1.019701317445993044e-01,-1.677168341385850137e-01,-6.219904980477196366e-02,9.532420587805236212e-02,-1.368327600806905076e-01,-1.391934947848697257e-01,4.902035690492166642e-02,1.980728844750809514e-01,2.003850861325122967e-01
6.574986033416925502e-02,-2.811219310136295335e-02,1.490355558134775354e-02,-3.964374239949858825e-01,1.787638371814826432e-01,-4.233030666725511870e-01,5.501435733021171198e-02,2.197361572247947398e-02,2.904963806298311857e-01,2.209510769893765769e-01
1.967146428575378692e-01,-4.440013795253386353e-02,-5.893297443986090373e-02,-2.136799083521910836e-01,4.811362691813472758e-02,-5.704402702270862102e-01,2.364672793665066330e-01,1.004933206981927923e-01,1.779558247289614870e-01,1.277085964023388920e-01
3.045460063729475975e-01,-4.311235351854395687e-02,-2.018542943664673739e-01,-1.552602094951325562e-01,-1.098343436529641143e-01,-6.542937968867947873e-01,4.164261208249739887e-01,-5.812972561926709608e-02,3.850877553235735329e-01,1.164248410176727672e-01
3.968615087566715882e-01,-4.478062438200593187e-02,1.323554876618799614e-01,-7.008751775947272278e-02,-7.788471541579208846e-02,-5.825989987648213519e-01,1.714544547295031307e-01,-1.366121236739014921e-01,3.854741178072275676e-01,-1.741815889592898958e-01
2.395579867662676540e-02,-3.527481794001340043e-02,1.773293238545489148e-01,-4.072974136984387414e-03,-8.901612148349012654e-02,1.804469853064851956e-02,-1.063916528341834061e-01,4.889467304566005867e-02,6.465461264774709227e-02,-9.812354036056039619e-02
-3.659589884764315876e-02,-2.149348004005007667e-02,1.879352187798881690e-01,-3.186881075395689065e-04,-5.275667658907174512e-02,9.922049438037444657e-02,-2.342403901637385155e-01,4.082031810399191357e-02,4.473370955480328315e-02,-2.730460707101447365e-02
-1.145527713233371138e-05,-1.161452122407636862e-03,6.759827340718234379e-03,-1.427426532420792544e-04,-4.733005678867451167e-03,-3.218540322335838562e-04,-9.363024476556888742e-03,1.863320669481435474e-02,-7.787523506111032612e-03,-1.871976288981514955e-03
-4.486181186086395000e-07,6.504455405110720818e-05,-9.134302073535529960e-06,-1.936537337782149448e-05,-7.313103673912597746e-07,-2.536674079756022105e-06,-2.034612040215253115e-06,-1.254974607300339495e-05,-9.099275823078351743e-06,-9.144642097697415804e-06
3.085739064696997862e-05,-6.802026646011225116e-05,-4.071402854220423462e-04,-4.438168469072823266e-03,-2.223947478622595800e-02,-1.956624362833658207e-03,-1.500916740241705260e-04,4.969341158981156747e-02,-1.992563952102446617e-04,-2.026549274120933303e-02
-9.413734835237906823e-04,-5.273968325518041530e-04,-7.745465031548647581e-04,-7.720532000449031006e-03,-7.521534513114097598e-02,-4.376575676412840406e-03,-4.445938916796859973e-04,1.856587166582358839e-01,-1.383183851638817045e-03,-9.427516928768404914e-02
-3.018127789902158922e-02,2.294890450734566971e-04,-3.875340837673058730e-02,5.009482315664185587e-02,-1.943075433131395691e-01,-3.235984081093894963e-03,-3.277530423383727409e-02,3.453248160001211597e-01,-4.408223414309257737e-02,-5.231337615492143850e-02
6.300279462355891369e-02,2.556388007824657305e-02,-2.945925777320493322e-01,-6.913833228802862552e-02,-1.056398951285024701e-01,3.171606856796758273e-02,-8.306530216724145044e-02,2.469110734172940136e-01,-1.144155052899757247e-01,2.996577959187314288e-01
-1.039268789003705779e-03,-1.683960033430031977e-02,-4.087480353011757050e-01,-1.263736380909024348e-01,8.538817760267066945e-03,1.802788040939873326e-01,6.542421763342975982e-02,6.778260343717588954e-02,4.126063924221280016e-02,1.897154603483082458e-01
2.163895650291803585e-01,-3.253063688425079231e-02,-4.569169732173443133e-01,-7.982431485912522273e-02,1.729628980253477000e-01,-1.193196410257830881e-01,2.523884370616170658e-01,7.783879306885688187e-02,-8.121059826387982961e-02,5.022247106537762462e-02
1.935361173092028098e-01,-1.112401968799026780e-01,-3.405636882731978843e-01,-7.578120521310971469e-02,1.132504567367821069e-01,6.149707343063166853e-02,8.549290062043876648e-02,-1.537132451012275802e-01,-3.368095600097359421e-02,2.612027433713559055e-01
9.593654813972610218e-02,-5.544244189982028975e-02,-1.235432552227702652e-01,-6.859563192666272638e-03,2.280376199933492609e-01,-8.654057661971477355e-02,3.538321141833678657e-02,-2.614567046672625628e-01,-1.081997168066624743e-01,2.826848788574863325e-01
1.002200378224238353e-01,-1.408640944804372686e-01,-1.156011809592114442e-01,4.663779568706345746e-02,2.656664669571799919e-01,6.816612757272649814e-02,-8.651938342301207507e-02,-2.079379734820450409e-01,3.105601938079056859e-04,6.992164411150350589e-02
9.955959991304254297e-02,-3.683711563020047874e-01,-1.427756594399408607e-01,-6.430493930143400816e-02,2.942105652386261538e-01,3.217344828494034942e-02,6.763357910951203755e-02,-8.261785926428354132e-02,-8.212792056335556368e-02,2.466203423248991000e-01
-1.039913836338450109e-01,-4.248876117869683222e-01,-7.511739184650401135e-02,-8.829494651001842942e-02,1.436360601937922976e-01,2.500437225657812790e-01,3.106558868265290110e-02,-1.037700946958647341e-01,1.929209276691539188e-01,1.783951293618211420e-01
3.697065805408717570e-02,-1.169842701177811750e-01,-5.599165300785851479e-02,4.843046973545874628e-02,1.426162563106422310e-01,2.790975215931882358e-01,-6.613107742798850219e-02,-5.466648052611638997e-01,3.295994747764786625e-01,-5.094257465506343840e-02
-3.477302799680391798e-01,5.767687923583819307e-03,6.854485815985852937e-02,3.084217541110986782e-01,-1.234225700812843357e-01,2.789097877771126166e-01,1.213010431265671221e-02,-6.030890403970612379e-01,2.788714150022534866e-01,1.215962831598200455e-01
-4.811887205331685236e-01,2.801027164866530250e-01,7.765445746190802016e-03,1.965589281461856408e-01,-6.259595359498484890e-02,5.673344897770399992e-02,-6.832978025117877885e-02,-2.020012153740915195e-01,-6.404659720414891677e-02,3.370017276008376861e-01
-5.192298560394033036e-01,2.102707889347299186e-01,-2.285421861531158061e-01,6.397241437417518564e-03,9.984046669947661823e-02,-1.257742597606710810e-01,1.241267829366053954e-01,-6.635800683173452563e-02,2.873731773430547309e-01,2.118958514336411747e-01
-3.488035575210380879e-01,-1.635085854892740984e-02,-6.021637672404014929e-02,7.979430492419962995e-02,6.952681323619792908e-02,-3.049827538672985061e-01,-6.632560672128874624e-02,2.153023774047017336e-01,3.274696519365556391e-01,1.045860058809366666e-01
-1.498754960197431485e-01,4.203065874846224903e-02,-6.521823106337493181e-02,1.334712518273784565e-01,1.452462559313316692e-01,-1.363320200428266848e-01,-1.535616644152004717e-01,7.024936463224198437e-03,1.103065199395913271e-01,6.690778863115685871e-02
-5.845383101113938579e-02,-6.793773018192436619e-02,-1.427652207075224278e-01,2.049781833637170092e-01,1.846885561735472914e-01,-2.814107446489513276e-01,-1.082558069973032222e-01,1.184011331041334714e-01,1.499444329611007432e-01,8.110279443412776734e-04
-6.563110241891903507e-02,-1.851700378383551449e-01,-7.805154000920586088e-02,-1.031473117564373626e-01,1.933076251863702355e-01,-5.874019329629261849e-02,9.170151503331312043e-03,-1.267367554419200626e-01,1.787859141169087507e-01,2.362132499545186448e-01
-1.972962619619506308e-01,-1.174339310300300809e-01,-1.705285422705854481e-01,-1.489821844707208687e-01,3.416023234141463139e-01,-6.713151483130043451e-02,-6.718312272019237585e-02,1.598846904929165924e-01,1.995611538483745562e-01,6.750738952934491610e-02
-2.432056155336930620e-02,-5.917680610899265364e-02,-1.410009507290599547e-02,-2.259757827276404618e-01,2.415829153957647080e-01,-2.202941095369994884e-01,1.533641429352348429e-01,1.724129865625960434e-01,-1.413336821115140918e-01,1.178409922178276364e-01
1.407410768914292010e-01,-8.764368384887377683e-02,4.396888796709774727e-02,-3.823592211199221547e-01,1.355881841680924849e-01,-2.356908096738241642e-01,2.642141888826803342e-01,2.154217377501389807e-02,7.236708176773559709e-02,2.727212119056959122e-02
2.820487341314221741e-01,-7.802938077183535492e-02,3.661539657851055340e-02,-1.692760070131921479e-01,-6.036527646728276353e-02,-4.368131503226181933e-01,4.860491289030242079e-01,-7.809872530807222824e-02,2.269219972063103163e-01,-2.090527169362659254e-01
3.070165727264909106e-01,-6.257250637940110771e-02,3.397611612733782427e-01,-8.816442306255783956e-02,-1.871082585624050665e-01,-4.595874949034082779e-01,2.786846713860873237e-01,-5.322251651399929895e-02,1.893498152752713937e-01,-2.641570212394569461e-01
6.802876767138676950e-02,-4.194754797977309768e-02,3.389540414903162713e-01,-1.088075418771830387e-02,-4.556311119921300362e-02,-1.375542691278495711e-01,-1.268513873435846429e-01,2.637414012051247925e-02,4.175217571229770941e-02,-1.123120551563748792e-01
